<GAP_2023_3_22_60_12_47_41_321>
<Potential label="GAP_2023_3_22_60_12_47_41_321" init_args="IP GAP label=GAP_2023_3_22_60_12_47_41_321"/>
<GAP_params label="GAP_2023_3_22_60_12_47_41_321" gap_version="1662319253">
  <GAP_data do_core="F">
    <e0 Z="1" value=".00000000000000000E+000"/>
    <e0 Z="2" value=".00000000000000000E+000"/>
    <e0 Z="3" value=".00000000000000000E+000"/>
    <e0 Z="4" value=".00000000000000000E+000"/>
    <e0 Z="5" value=".00000000000000000E+000"/>
    <e0 Z="6" value="-73.759027139025093"/>
    <e0 Z="7" value=".00000000000000000E+000"/>
    <e0 Z="8" value="-73.759027139025093"/>
    <e0 Z="9" value=".00000000000000000E+000"/>
    <e0 Z="10" value=".00000000000000000E+000"/>
    <e0 Z="11" value=".00000000000000000E+000"/>
    <e0 Z="12" value=".00000000000000000E+000"/>
    <e0 Z="13" value=".00000000000000000E+000"/>
    <e0 Z="14" value=".00000000000000000E+000"/>
    <e0 Z="15" value=".00000000000000000E+000"/>
    <e0 Z="16" value=".00000000000000000E+000"/>
    <e0 Z="17" value=".00000000000000000E+000"/>
    <e0 Z="18" value=".00000000000000000E+000"/>
    <e0 Z="19" value=".00000000000000000E+000"/>
    <e0 Z="20" value=".00000000000000000E+000"/>
    <e0 Z="21" value=".00000000000000000E+000"/>
    <e0 Z="22" value=".00000000000000000E+000"/>
    <e0 Z="23" value=".00000000000000000E+000"/>
    <e0 Z="24" value=".00000000000000000E+000"/>
    <e0 Z="25" value=".00000000000000000E+000"/>
    <e0 Z="26" value=".00000000000000000E+000"/>
    <e0 Z="27" value=".00000000000000000E+000"/>
    <e0 Z="28" value=".00000000000000000E+000"/>
    <e0 Z="29" value=".00000000000000000E+000"/>
    <e0 Z="30" value=".00000000000000000E+000"/>
    <e0 Z="31" value=".00000000000000000E+000"/>
    <e0 Z="32" value=".00000000000000000E+000"/>
    <e0 Z="33" value=".00000000000000000E+000"/>
    <e0 Z="34" value=".00000000000000000E+000"/>
    <e0 Z="35" value=".00000000000000000E+000"/>
    <e0 Z="36" value=".00000000000000000E+000"/>
    <e0 Z="37" value=".00000000000000000E+000"/>
    <e0 Z="38" value=".00000000000000000E+000"/>
    <e0 Z="39" value=".00000000000000000E+000"/>
    <e0 Z="40" value=".00000000000000000E+000"/>
    <e0 Z="41" value=".00000000000000000E+000"/>
    <e0 Z="42" value=".00000000000000000E+000"/>
    <e0 Z="43" value=".00000000000000000E+000"/>
    <e0 Z="44" value=".00000000000000000E+000"/>
    <e0 Z="45" value=".00000000000000000E+000"/>
    <e0 Z="46" value=".00000000000000000E+000"/>
    <e0 Z="47" value=".00000000000000000E+000"/>
    <e0 Z="48" value=".00000000000000000E+000"/>
    <e0 Z="49" value=".00000000000000000E+000"/>
    <e0 Z="50" value=".00000000000000000E+000"/>
    <e0 Z="51" value=".00000000000000000E+000"/>
    <e0 Z="52" value=".00000000000000000E+000"/>
    <e0 Z="53" value=".00000000000000000E+000"/>
    <e0 Z="54" value=".00000000000000000E+000"/>
    <e0 Z="55" value=".00000000000000000E+000"/>
    <e0 Z="56" value=".00000000000000000E+000"/>
    <e0 Z="57" value=".00000000000000000E+000"/>
    <e0 Z="58" value=".00000000000000000E+000"/>
    <e0 Z="59" value=".00000000000000000E+000"/>
    <e0 Z="60" value=".00000000000000000E+000"/>
    <e0 Z="61" value=".00000000000000000E+000"/>
    <e0 Z="62" value=".00000000000000000E+000"/>
    <e0 Z="63" value=".00000000000000000E+000"/>
    <e0 Z="64" value=".00000000000000000E+000"/>
    <e0 Z="65" value=".00000000000000000E+000"/>
    <e0 Z="66" value=".00000000000000000E+000"/>
    <e0 Z="67" value=".00000000000000000E+000"/>
    <e0 Z="68" value=".00000000000000000E+000"/>
    <e0 Z="69" value=".00000000000000000E+000"/>
    <e0 Z="70" value=".00000000000000000E+000"/>
    <e0 Z="71" value=".00000000000000000E+000"/>
    <e0 Z="72" value=".00000000000000000E+000"/>
    <e0 Z="73" value=".00000000000000000E+000"/>
    <e0 Z="74" value=".00000000000000000E+000"/>
    <e0 Z="75" value=".00000000000000000E+000"/>
    <e0 Z="76" value=".00000000000000000E+000"/>
    <e0 Z="77" value=".00000000000000000E+000"/>
    <e0 Z="78" value=".00000000000000000E+000"/>
    <e0 Z="79" value=".00000000000000000E+000"/>
    <e0 Z="80" value=".00000000000000000E+000"/>
    <e0 Z="81" value=".00000000000000000E+000"/>
    <e0 Z="82" value=".00000000000000000E+000"/>
    <e0 Z="83" value=".00000000000000000E+000"/>
    <e0 Z="84" value=".00000000000000000E+000"/>
    <e0 Z="85" value=".00000000000000000E+000"/>
    <e0 Z="86" value=".00000000000000000E+000"/>
    <e0 Z="87" value=".00000000000000000E+000"/>
    <e0 Z="88" value=".00000000000000000E+000"/>
    <e0 Z="89" value=".00000000000000000E+000"/>
    <e0 Z="90" value=".00000000000000000E+000"/>
    <e0 Z="91" value=".00000000000000000E+000"/>
    <e0 Z="92" value=".00000000000000000E+000"/>
    <e0 Z="93" value=".00000000000000000E+000"/>
    <e0 Z="94" value=".00000000000000000E+000"/>
    <e0 Z="95" value=".00000000000000000E+000"/>
    <e0 Z="96" value=".00000000000000000E+000"/>
    <e0 Z="97" value=".00000000000000000E+000"/>
    <e0 Z="98" value=".00000000000000000E+000"/>
    <e0 Z="99" value=".00000000000000000E+000"/>
    <e0 Z="100" value=".00000000000000000E+000"/>
    <e0 Z="101" value=".00000000000000000E+000"/>
    <e0 Z="102" value=".00000000000000000E+000"/>
    <e0 Z="103" value=".00000000000000000E+000"/>
    <e0 Z="104" value=".00000000000000000E+000"/>
    <e0 Z="105" value=".00000000000000000E+000"/>
    <e0 Z="106" value=".00000000000000000E+000"/>
    <e0 Z="107" value=".00000000000000000E+000"/>
    <e0 Z="108" value=".00000000000000000E+000"/>
    <e0 Z="109" value=".00000000000000000E+000"/>
    <e0 Z="110" value=".00000000000000000E+000"/>
    <e0 Z="111" value=".00000000000000000E+000"/>
    <e0 Z="112" value=".00000000000000000E+000"/>
    <e0 Z="113" value=".00000000000000000E+000"/>
    <e0 Z="114" value=".00000000000000000E+000"/>
    <e0 Z="115" value=".00000000000000000E+000"/>
    <e0 Z="116" value=".00000000000000000E+000"/>
    <e0 Z="117" value=".00000000000000000E+000"/>
    <e0 Z="118" value=".00000000000000000E+000"/>
  </GAP_data>
  <gpSparse label="GAP_2023_3_22_60_12_47_41_321" n_coordinate="2" fitted="T">
    <gpCoordinates label="GAP_2023_3_22_60_12_47_41_3211" dimensions="681" signal_variance=".72770126504682189E-001" signal_mean=".00000000000000000E+000" sparsified="T" n_permutations="1" covariance_type="2" zeta="4.0000000000000000" n_sparseX="16">
      <descriptor> soap=T l_max=4 n_max=8 cutoff=4 delta=0.07277012650468219 covariance_type=dot_product zeta=4 n_sparse=1000 sparse_method=cur_points atom_gaussian_width=0.3 cutoff_transition_width=0.5               n_species=2 Z=8 species_Z={8 6 }</descriptor>
      <permutation i="1">1  </permutation>
      <sparseX i="1" alpha="-1215.5202366939297" sparseCutoff="1.0000000000000000" sliced="T">
        <sparseX_slice start="1" end="50">  0.95850063885482495E+000  0.17930267466563869E-010  0.21818466271471748E-010  0.23622559979231475E-010  0.23791857312155479E-010 -0.25343840963369413E-003 -0.14222296157054676E-008 -0.17325140502721882E-008 -0.18787392437611720E-008 -0.18960621901486896E-008  0.33505990958126314E-007  0.56405658297113958E-007  0.68785882954459158E-007  0.74709539295307403E-007  0.75552147563416569E-007  0.15282021077382494E-001  0.85650368440101552E-007  0.10407687503541002E-006  0.11244993914365383E-006  0.11295398591897664E-006 -0.28572340990603054E-005 -0.48039357195718560E-005 -0.58437522133281423E-005 -0.63238822337154218E-005 -0.63651815377728785E-005  0.12182577597892185E-003  0.20456988797309329E-003  0.24823000348332198E-003  0.26764645374016812E-003  0.26812961190015802E-003  0.88533799705390173E-001  0.49652649007271628E-006  0.60414148177097043E-006  0.65403985476088212E-006  0.65872046647080173E-006 -0.16552901619276093E-004 -0.27849049394832175E-004 
-0.33921590363481682E-004 -0.36781442917282162E-004 -0.37120207114609389E-004  0.99811939241266964E-003  0.16771422244577525E-002  0.20377630534700697E-002  0.22015141438062914E-002  0.22113596133702131E-002  0.40887994084380192E-002  0.68749268744505076E-002  0.83641747649708612E-002  0.90542289233622765E-002  0.91189318945230167E-002  </sparseX_slice>
        <sparseX_slice start="51" end="100">  0.56154959117891021E-001  0.31608813652529848E-006  0.38741218096883530E-006  0.42401420874588362E-006  0.43328903733203510E-006 -0.10499125947446812E-004 -0.17728669674651856E-004 -0.21752582302616740E-004 -0.23845419054478194E-004 -0.24416698167017995E-004  0.63308424423463719E-003  0.10676666220549645E-002  0.13067373333285441E-002  0.14272421946980210E-002  0.14545743252909723E-002  0.36676662983184303E-002  0.61894043198130622E-002  0.75852991221532877E-002  0.83012341744035274E-002  0.84827274600067677E-002  0.16449542680010791E-002  0.27861187859676319E-002  0.34394763613442912E-002  0.38054311085772281E-002  0.39454546866377650E-002 -0.28908029465000038E-002 -0.16270929524348461E-007 -0.19939985146897278E-007 -0.21819890067587949E-007 -0.22291692051856730E-007  0.54048484232417626E-006  0.91259968820002449E-006  0.11195986841098586E-005  0.12270919503457138E-005  0.12561811390700005E-005 -0.32590564170371537E-004 -0.54959128026512101E-004 
-0.67257366436713516E-004 -0.73446283510743569E-004 -0.74834394900870720E-004 -0.18880791133155176E-003 -0.31860531873304274E-003 -0.39041300005658987E-003 -0.42718383812308421E-003 -0.43641618413113505E-003 -0.11975652888771444E-003 -0.20282374354413130E-003 -0.25035650819264316E-003 -0.27694339388080772E-003 -0.28706311390536008E-003  </sparseX_slice>
        <sparseX_slice start="101" end="150">  0.43592780936887928E-005  0.73825766425404418E-005  0.91116167999938904E-005  0.10077392183154755E-004  0.10443058900679677E-004  0.14681747172415427E-003  0.82636434464278303E-009  0.10127073090789254E-008  0.11081831255449527E-008  0.11321443981612889E-008 -0.27450026696333179E-007 -0.46348909700094080E-007 -0.56861916509984346E-007 -0.62321239412893476E-007 -0.63798586323800918E-007  0.16552024894505384E-005  0.27912519531109020E-005  0.34158514200527284E-005  0.37301714980452180E-005  0.38006689119749297E-005  0.95891351628718456E-005  0.16181255964543834E-004  0.19828204274177259E-004  0.21695706048342145E-004  0.22164586563532605E-004  0.60821685597914735E-005  0.10300967111991315E-004  0.12715047872621858E-004  0.14065331900353919E-004  0.14579283419610115E-004 -0.31310415090575900E-006 -0.53025182075578289E-006 -0.65443958186374897E-006 -0.72380592324393379E-006 -0.75006951093858415E-006  0.11244316972613735E-007  0.19042605788517056E-007  
0.23502479072116254E-007  0.25993580730079141E-007  0.26936756585899843E-007 -0.73129032649205011E-005 -0.41160785850884395E-010 -0.50442433695241270E-010 -0.55198035305194139E-010 -0.56391534008655378E-010  0.13672718069067825E-008  0.23086155143978624E-008  0.28322630118547832E-008  0.31041890948165400E-008  0.31777749872063724E-008  </sparseX_slice>
        <sparseX_slice start="151" end="200"> -0.82444790439856005E-007 -0.13903083384790134E-006 -0.17014181414916301E-006 -0.18579793654796699E-006 -0.18930937657189209E-006 -0.47762992385594057E-006 -0.80598009325153595E-006 -0.98763272510155893E-006 -0.10806520337860218E-005 -0.11040067318402005E-005 -0.30294970888930216E-006 -0.51308590950515979E-006 -0.63333003869587023E-006 -0.70058699588411622E-006 -0.72618665791573676E-006  0.15595557807458056E-007  0.26411572307860138E-007  0.32597301233787013E-007  0.36052403239474012E-007  0.37360579095426336E-007 -0.79206380019471969E-009 -0.13413850516966259E-008 -0.16555441226514793E-008 -0.18310204488460929E-008 -0.18974589383593075E-008  0.27896984099029283E-010  0.47244423292115037E-010  0.58309302895999999E-010  0.64489689183394365E-010  0.66829694422903321E-010  0.44557473853715175E-001  0.22441887195236417E-006  0.22691037898727337E-006  0.18669005077393740E-006  0.13112141156485923E-006 -0.83307785677147406E-005 -0.12587147665009001E-004 
-0.12740659526747504E-004 -0.10498946502696801E-004 -0.73889520702530916E-005  0.50233559248904483E-003  0.75803078716176115E-003  0.76536639297423450E-003  0.62840327587834895E-003  0.44018154701661472E-003  0.29101961386596292E-002  0.43944045188749606E-002  0.44427696987619815E-002  0.36549667382361839E-002  0.25670328640780612E-002  </sparseX_slice>
        <sparseX_slice start="201" end="250">  0.18458706814266125E-002  0.27974723670958932E-002  0.28489735442336897E-002  0.23695158914625054E-002  0.16885268563693278E-002 -0.95023636176523409E-004 -0.14400248054765734E-003 -0.14663578727405302E-003 -0.12193595214187845E-003 -0.86870697064580130E-004  0.48260397805267799E-005  0.73135659082430359E-005  0.74473041203886208E-005  0.61928526744325658E-005  0.44119653553997005E-005 -0.24038257608712275E-006 -0.36428498168764670E-006 -0.37094641357202155E-006 -0.30846282774347161E-006 -0.21975774007988956E-006  0.10356636165608315E-002  0.14044361073332959E-002  0.11799252855703801E-002  0.73770952616095792E-003  0.36131741093574094E-003  0.16938911385923686E+000  0.87838531159132620E-006  0.91480797044553395E-006  0.78974922972260137E-006  0.59566356952788761E-006 -0.31670179597155547E-004 -0.49266648243922305E-004 -0.51365023212336825E-004 -0.44413373283848957E-004 -0.33566825682473040E-004  0.19096724637269638E-002  0.29669657608752077E-002  
0.30856379497883092E-002  0.26583152183135409E-002  0.19996742592000485E-002  0.11063363841103954E-001  0.17199892099046137E-001  0.17911393693936389E-001  0.15461494355042096E-001  0.11661619110588753E-001  0.70172380070763207E-002  0.10949429588796954E-001  0.11485872605235117E-001  0.10023690830551855E-001  0.76707070378901543E-002  </sparseX_slice>
        <sparseX_slice start="251" end="300"> -0.36124062105647733E-003 -0.56363202722374875E-003 -0.59117431097492092E-003 -0.51582194059258425E-003 -0.39463966169451734E-003  0.18346610145734199E-004  0.28625617860334691E-004  0.30024422849540460E-004  0.26197435852331145E-004  0.20042851894793686E-004 -0.91383527899895170E-006 -0.14258274019649498E-005 -0.14955011633156866E-005 -0.13048808953587297E-005 -0.99832421208048294E-006  0.55679926392463970E-002  0.77739666659175036E-002  0.67273664429851696E-002  0.44133505705689245E-002  0.23213002126751337E-002  0.14967476666629172E-001  0.21515595265329632E-001  0.19178103822194693E-001  0.13201444856014568E-001  0.74566496303217645E-002  0.16691347432045167E+000  0.90477813029446060E-006  0.10280412544325915E-005  0.10032845799607703E-005  0.87865134093361468E-006 -0.31207316624294730E-004 -0.50746961835297455E-004 -0.57722893331867682E-004 -0.56422027249559586E-004 -0.49513748877014381E-004  0.18817624018013755E-002  0.30561140974785625E-002  
0.34675726612660163E-002  0.33770804286138048E-002  0.29496792470775656E-002  0.10901671626456895E-001  0.17716696772226738E-001  0.20128433766031215E-001  0.19642031021686344E-001  0.17201819606152958E-001  0.69146803428463723E-002  0.11278426791079757E-001  0.12907573242489442E-001  0.12733933843935780E-001  0.11314905543229720E-001  </sparseX_slice>
        <sparseX_slice start="301" end="350"> -0.35596105176109808E-003 -0.58056746286172262E-003 -0.66434880311218812E-003 -0.65529180596194758E-003 -0.58212502102202436E-003  0.18078472527887040E-004  0.29485730993470195E-004  0.33740791867853386E-004  0.33280796531308224E-004  0.29564807375163507E-004 -0.90047948123200317E-006 -0.14686691977297799E-005 -0.16806116055063321E-005 -0.16576994718420443E-005 -0.14726079493601514E-005  0.54866158469878464E-002  0.80075508232459788E-002  0.75600677524769802E-002  0.56066488028967713E-002  0.34241032168427768E-002  0.20857847539977336E-001  0.31341905267455838E-001  0.30479038763855274E-001  0.23717635487573677E-001  0.15555152436469892E-001  0.14533171278325971E-001  0.22827976955327026E-001  0.24219594715445724E-001  0.21305479788643274E-001  0.16224630317743263E-001 -0.10188369861139662E-001 -0.55192527793816952E-007 -0.62629442655297378E-007 -0.60993228436618461E-007 -0.53254757065901812E-007  0.19048892573620645E-005  0.30956242284889039E-005  
0.35165443237211059E-005  0.34300951750141136E-005  0.30010113739377906E-005 -0.11486245444469664E-003 -0.18642654659575613E-003 -0.21124847101753813E-003 -0.20530469833327772E-003 -0.17877904967235036E-003 -0.66543616737492798E-003 -0.10807392953867225E-002 -0.12262470818706459E-002 -0.11941087394283544E-002 -0.10425963992085406E-002  </sparseX_slice>
        <sparseX_slice start="351" end="400"> -0.42207090285124323E-003 -0.68799727059562228E-003 -0.78634404477835997E-003 -0.77414100779893511E-003 -0.68579255258184482E-003  0.21727801582630994E-004  0.35415296587410886E-004  0.40472884807132471E-004  0.39837513315757465E-004  0.35282398298704835E-004 -0.11035068641908744E-005 -0.17986641949982564E-005 -0.20555274219986162E-005 -0.20232576737759422E-005 -0.17919128568011498E-005  0.54965113179210191E-007  0.89590544688831980E-007  0.10238477076581919E-006  0.10077743103484855E-006  0.89254263827972549E-007 -0.33490209081492306E-003 -0.48846999786408450E-003 -0.46056792733989075E-003 -0.34084806846363324E-003 -0.20753372411379741E-003 -0.12731594385038385E-002 -0.19118930041139009E-002 -0.18568177125372596E-002 -0.14418791917708874E-002 -0.94279246560651669E-003 -0.12545520807266625E-002 -0.19693395993284233E-002 -0.20866512668443254E-002 -0.18317398799846283E-002 -0.13906941879689547E-002  0.54148571330843445E-004  0.84946170768277702E-004  
0.89888240504830736E-004  0.78741972046895677E-004  0.59601676173033452E-004  0.57496208707853323E-003  0.31146863014156433E-008  0.35343665113334098E-008  0.34420175024056113E-008  0.30052981891837667E-008 -0.10749895400281995E-006 -0.17469571995006384E-006 -0.19844909944010513E-006 -0.19356980979592459E-006 -0.16935452426633666E-006  </sparseX_slice>
        <sparseX_slice start="401" end="450">  0.64820533053457848E-005  0.10520630855524547E-004  0.11921382178731897E-004  0.11585915077828333E-004  0.10088945736423684E-004  0.37552677496597217E-004  0.60989485593369018E-004  0.69200785397973642E-004  0.67386876973711608E-004  0.58836303895134165E-004  0.23818802272194531E-004  0.38825829506138293E-004  0.44375743107719023E-004  0.43686929950638652E-004  0.38700976776205504E-004 -0.12261688882366852E-005 -0.19985955264353426E-005 -0.22840057745154552E-005 -0.22481416642446537E-005 -0.19910733530516856E-005  0.62274398985128812E-007  0.10150422444748889E-006  0.11599955189486130E-006  0.11417805719613670E-006  0.10112209238050746E-006 -0.31018560005919741E-008 -0.50558735653693269E-008 -0.57778784182530453E-008 -0.56871506946034753E-008 -0.50368397536242481E-008  0.18899589210670204E-004  0.27565883858108665E-004  0.25991223769044099E-004  0.19235004399416491E-004  0.11711643421862585E-004  0.71848432862449844E-004  0.10789407892191309E-003  
0.10478576948165303E-003  0.81369252647237061E-004  0.53204120078082712E-004  0.70798360534060176E-004  0.11113596927065859E-003  0.11775596342054023E-003  0.10337017548289319E-003  0.78480326548846944E-004 -0.43215197911372942E-005 -0.67794245544676661E-005 -0.71738272433789732E-005 -0.62842396391739317E-005 -0.47566657331571304E-005  </sparseX_slice>
        <sparseX_slice start="451" end="500">  0.17244714723021317E-006  0.27052777584933021E-006  0.28626546158215546E-006  0.25076631189173927E-006  0.18980899825119556E-006 -0.30418725063558187E-004 -0.16478440614541752E-009 -0.18698784658573202E-009 -0.18210206395427775E-009 -0.15899715719048793E-009  0.56872986931140506E-008  0.92423851657335498E-008  0.10499072363376225E-007  0.10240930459661854E-007  0.89598057233077160E-008 -0.34293704189179005E-006 -0.55660048558174896E-006 -0.63070809854567313E-006 -0.61296000005722910E-006 -0.53376190652686409E-006 -0.19867476444815285E-005 -0.32266864756331886E-005 -0.36611103579992602E-005 -0.35651443874906296E-005 -0.31127710030872885E-005 -0.12601484757762419E-005 -0.20541045354597508E-005 -0.23477261392519068E-005 -0.23112840380030617E-005 -0.20474990834713159E-005  0.64871223913701283E-007  0.10573693305770482E-006  0.12083673835085573E-006  0.11893932463575060E-006  0.10533896570806901E-006 -0.32946656202189201E-008 -0.53701438052456269E-008 
-0.61370280484993633E-008 -0.60406607052911811E-008 -0.53499267645123013E-008  0.16410561146420024E-009  0.26748411955227633E-009  0.30568223182256006E-009  0.30088222351643822E-009  0.26647711862089815E-009 -0.99989446423280889E-006 -0.14583901432922560E-005 -0.13750817712642658E-005 -0.10176397995812955E-005 -0.61961172997963865E-006  </sparseX_slice>
        <sparseX_slice start="501" end="550"> -0.38011858079119944E-005 -0.57082030102593263E-005 -0.55437559532588244E-005 -0.43048906169486514E-005 -0.28147968390231661E-005 -0.37456310814839673E-005 -0.58797172252426401E-005 -0.62299520867540030E-005 -0.54688630413978949E-005 -0.41520501564727855E-005  0.22863267915850515E-006  0.35866965116450664E-006  0.37953576792787554E-006  0.33247158327261897E-006  0.25165433899349619E-006 -0.12902468616174315E-007 -0.20240845887489252E-007 -0.21418336985696160E-007 -0.18762296045142817E-007 -0.14201479284592146E-007  0.48268034312311470E-009  0.75720846215300904E-009  0.80125830880436916E-009  0.70189602070145141E-009  0.53127621906468141E-009  0.15449741161863419E-005  0.83694382888488409E-011  0.94971561894729515E-011  0.92490061539161365E-011  0.80755025690119171E-011 -0.28885922251909797E-009 -0.46942289076866034E-009 -0.53325032562395060E-009 -0.52013923832857626E-009 -0.45507061519177791E-009  0.17417852066359774E-007  0.28269868032954596E-007  
0.32033810919938218E-007  0.31132380872175008E-007  0.27109891293429121E-007  0.10090737464192390E-006  0.16388415607386717E-006  0.18594864603071646E-006  0.18107451208120050E-006  0.15809836274029336E-006  0.64003233980320866E-007  0.10432844679006648E-006  0.11924155629206022E-006  0.11739065349806152E-006  0.10399295434454063E-006  </sparseX_slice>
        <sparseX_slice start="551" end="600"> -0.32948245405612445E-008 -0.53704034063614646E-008 -0.61373260267928022E-008 -0.60409559431182090E-008 -0.53501905519821517E-008  0.16733683262831121E-009  0.27275085204715546E-009  0.31170108100609670E-009  0.30680656124241083E-009  0.27172402383952419E-009 -0.83349621492474436E-011 -0.13585580603205021E-010 -0.15525671603659456E-010 -0.15281878065952228E-010 -0.13534434791358003E-010  0.50784872243327281E-007  0.74071974350404204E-007  0.69840722771285908E-007  0.51686161949051785E-007  0.31470223780452834E-007  0.19306311069146252E-006  0.28992095764466340E-006  0.28156865339523614E-006  0.21864639501335317E-006  0.14296418569009542E-006  0.19024147322362722E-006  0.29863220448859377E-006  0.31642071450728392E-006  0.27776482499129541E-006  0.21088359249776738E-006 -0.11612306915433495E-007 -0.18216914947978879E-007 -0.19276709868146221E-007 -0.16886308990230741E-007 -0.12781582368861079E-007  0.65531937992946827E-009  0.10280372671910867E-008  
0.10878423137444857E-008  0.95294137702191484E-009  0.72129643367834035E-009 -0.34670077375333398E-010 -0.54388947770581527E-010 -0.57552970530829290E-010 -0.50415952696882310E-010 -0.38160633397127684E-010  0.12451452419153244E-011  0.19533310755534649E-011  0.20669641615730362E-011  0.18106444625473991E-011  0.13705054819070340E-011  </sparseX_slice>
        <sparseX_slice start="601" end="650"> -0.76954378123832111E-007 -0.41687748164608491E-012 -0.47304853903301968E-012 -0.46068831146180731E-012 -0.40223669233350659E-012  0.14387931552640813E-010  0.23381716404002594E-010  0.26560928602490508E-010  0.25907871985701250E-010  0.22666836827631820E-010 -0.86757438844881927E-009 -0.14081078066788913E-008 -0.15955878952621208E-008 -0.15506881212005100E-008 -0.13503299528668339E-008 -0.50261452164944990E-008 -0.81629867988625298E-008 -0.92620078668917929E-008 -0.90192297238485815E-008 -0.78747993636982341E-008 -0.31879686638553750E-008 -0.51965470872565032E-008 -0.59393615173462782E-008 -0.58471689867480226E-008 -0.51798363784875252E-008  0.16411354137887068E-009  0.26749707330424144E-009  0.30569710054487167E-009  0.30089695549309844E-009  0.26649028126636992E-009 -0.83349628690933455E-011 -0.13585581779094673E-010 -0.15525672953382243E-010 -0.15281879403261493E-010 -0.13534435986209368E-010  0.41516024259635836E-012  0.67669088809817702E-012  
0.77332583808176042E-012  0.76118260546165455E-012  0.67414334111783779E-012 -0.25295687614692360E-008 -0.36894875213898127E-008 -0.34787310235655302E-008 -0.25744615451648533E-008 -0.15675159053281612E-008 -0.96163757478265264E-008 -0.14440816041425431E-007 -0.14024791997603537E-007 -0.10890666180740257E-007 -0.71209736710136818E-008  </sparseX_slice>
        <sparseX_slice start="651" end="681"> -0.94758314148482121E-008 -0.14874718834057718E-007 -0.15760755507355887E-007 -0.13835325231624293E-007 -0.10504004919670017E-007  0.57840312526794381E-009  0.90737530581862839E-009  0.96016315395524919E-009  0.84109849707883261E-009  0.63664414330908995E-009 -0.32641126363624513E-010 -0.51206015528658591E-010 -0.54184874603361349E-010 -0.47465527278996771E-010 -0.35927409990314616E-010  0.17268989920101220E-011  0.27090859378448279E-011  0.28666843088036139E-011  0.25111930657361374E-011  0.19007618193217039E-011 -0.87709601186415924E-013 -0.13759510445406911E-012 -0.14559956234447935E-012 -0.12754407948114561E-012 -0.96540134592610726E-013  0.30891874623584232E-014  0.48461863446169250E-014  0.51281083990277131E-014  0.44921829070203042E-014  0.34002044173478168E-014  0.00000000000000000E+000  </sparseX_slice>
      </sparseX>
      <sparseX i="2" alpha="-1215.5215090722697" sparseCutoff="1.0000000000000000" sliced="T">
        <sparseX_slice start="1" end="50">  0.94342861144475509E+000  0.17648321402293309E-010  0.21475379883879767E-010  0.23251104961811374E-010  0.23417740163966920E-010 -0.24945319512061114E-003 -0.13998656413038057E-008 -0.17052709810497913E-008 -0.18491968436515865E-008 -0.18662473938484375E-008  0.32979123062945993E-007  0.55518702573273381E-007  0.67704253301552385E-007  0.73534762588431247E-007  0.74364121188884409E-007  0.15041717595858721E-001  0.84303551705212220E-007  0.10244030908052212E-006  0.11068171020740735E-006  0.11117783105497834E-006 -0.28123052707295550E-005 -0.47283958107741874E-005 -0.57518616188240329E-005 -0.62244417925713348E-005 -0.62650916820978692E-005  0.11991011587357115E-003  0.20135311081737937E-003  0.24432668900982061E-003  0.26343782359068859E-003  0.26391338428779159E-003  0.87141642202530761E-001  0.48871881570627771E-006  0.59464160602368731E-006  0.64375534766862631E-006  0.64836235868896045E-006 -0.16292614065143636E-004 -0.27411134573695709E-004 
-0.33388187338980415E-004 -0.36203069890328800E-004 -0.36536507160306485E-004  0.98242437643548714E-003  0.16507698543695971E-002  0.20057200695093877E-002  0.21668962414554400E-002  0.21765868950692027E-002  0.40245047233224366E-002  0.67668214834955848E-002  0.82326515648706786E-002  0.89118549060919205E-002  0.89755404497045554E-002  </sparseX_slice>
        <sparseX_slice start="51" end="100">  0.55271945535294548E-001  0.31111778088380497E-006  0.38132028413136052E-006  0.41734676011057291E-006  0.42647574584069747E-006 -0.10334031520122531E-004 -0.17449893652551680E-004 -0.21410531913274748E-004 -0.23470459669972103E-004 -0.24032755653973476E-004  0.62312925547908661E-003  0.10508780045620696E-002  0.12861894274562849E-002  0.14047993995581055E-002  0.14317017436649834E-002  0.36099937577499753E-002  0.60920784884274078E-002  0.74660234204497761E-002  0.81707006891431500E-002  0.83493400676497558E-002  0.16190880402589202E-002  0.27423082166184182E-002  0.33853920134648734E-002  0.37455922731601393E-002  0.38834140381795224E-002 -0.28453462618818126E-002 -0.16015075865167501E-007 -0.19626437100597077E-007 -0.21476781291388993E-007 -0.21941164383952578E-007  0.53198594099014062E-006  0.89824943431662017E-006  0.11019934563498197E-005  0.12077964352875461E-005  0.12364282085109802E-005 -0.32078090984049661E-004 -0.54094918394853636E-004 
-0.66199772075926867E-004 -0.72291370980310344E-004 -0.73657654891068027E-004 -0.18583898476074934E-003 -0.31359538143902518E-003 -0.38427391657602918E-003 -0.42046654837247702E-003 -0.42955371954552841E-003 -0.11787340683983874E-003 -0.19963442378972564E-003 -0.24641975530922603E-003 -0.27258857318022235E-003 -0.28254916477918020E-003  </sparseX_slice>
        <sparseX_slice start="101" end="150">  0.42907302427507969E-005  0.72664886682577621E-005  0.89683403820212964E-005  0.99189293454168478E-005  0.10278846104552519E-004  0.14450882750588083E-003  0.81337010598683268E-009  0.99678290412594406E-009  0.10907574027373539E-008  0.11143418942196839E-008 -0.27018386342635986E-007 -0.45620092202109629E-007 -0.55967786313835990E-007 -0.61341263614668762E-007 -0.62795379854429251E-007  0.16291751126508522E-005  0.27473606668244764E-005  0.33621385646358855E-005  0.36715160889784385E-005  0.37409049601362260E-005  0.94383499654969710E-005  0.15926812385123436E-004  0.19516413936019614E-004  0.21354550014651739E-004  0.21816057577033902E-004  0.59865289665248831E-005  0.10138988650664826E-004  0.12515108986524220E-004  0.13844160354566380E-004  0.14350030198055589E-004 -0.30818071720800324E-006 -0.52191382946741079E-006 -0.64414878922758564E-006 -0.71242437348540944E-006 -0.73827497709056196E-006  0.11067504723619067E-007  0.18743168662688331E-007  
0.23132912277457935E-007  0.25584842388790508E-007  0.26513187193096805E-007 -0.71979108757784791E-005 -0.40513549461657000E-010 -0.49649247219962915E-010 -0.54330068955066440E-010 -0.55504800383428161E-010  0.13457720213924652E-008  0.22723134871463320E-008  0.27877268435761642E-008  0.30553770009831825E-008  0.31278057855505109E-008  </sparseX_slice>
        <sparseX_slice start="151" end="200"> -0.81148380097540961E-007 -0.13684463130023894E-006 -0.16746640426157125E-006 -0.18287634058979308E-006 -0.18633256466691124E-006 -0.47011939020326900E-006 -0.79330638854543223E-006 -0.97210260764478034E-006 -0.10636592260468113E-005 -0.10866466811019166E-005 -0.29818594960614966E-006 -0.50501784509466363E-006 -0.62337118492374407E-006 -0.68957055418646673E-006 -0.71476767208594141E-006  0.15350324090107410E-007  0.25996261221325322E-007  0.32084722109920243E-007  0.35485494060912113E-007  0.36773099390816942E-007 -0.77960892346002920E-009 -0.13202923247363349E-008 -0.16295113738105444E-008 -0.18022284071147709E-008 -0.18676221787692442E-008  0.27458315524430099E-010  0.46501524212065963E-010  0.57392413145607574E-010  0.63475615406458451E-010  0.65778825028228719E-010  0.60782732488929752E-002  0.31536910345816213E-007  0.32974837070889537E-007  0.28441749343945511E-007  0.21149857847252754E-007 -0.11364366991906875E-005 -0.17688340733893300E-005 
-0.18514850397995187E-005 -0.15994875118802131E-005 -0.11918365129002237E-005  0.68525720372237392E-004  0.10652379082969148E-003  0.11122378897121894E-003  0.95735623753664771E-004  0.71001196793706934E-004  0.39699214988534549E-003  0.61753247456134590E-003  0.64562761568688761E-003  0.55682478738649512E-003  0.41406189512855707E-003  </sparseX_slice>
        <sparseX_slice start="201" end="250">  0.25180301784311624E-003  0.39312039343432776E-003  0.41401560765825374E-003  0.36098965516420819E-003  0.27235904919933592E-003 -0.12962575654098549E-004 -0.20236236280389925E-004 -0.21309255291467787E-004 -0.18576628869388031E-004 -0.14012226318192171E-004  0.65834047487464101E-006  0.10277534609720185E-005  0.10822494814172978E-005  0.94346518606648126E-006  0.71164914242515343E-006 -0.32791602740479682E-007 -0.51191874853774263E-007 -0.53906293771843133E-007 -0.46993518895272786E-007 -0.35446880170475645E-007  0.19580392856450586E-004  0.28177657565518073E-004  0.25315963809047902E-004  0.17395584146913704E-004  0.95508038740494832E-005  0.79461028544246221E-001  0.42906234910156688E-006  0.48450613766070053E-006  0.47034070235977091E-006  0.41163875128793537E-006 -0.14856592537949292E-004 -0.24065138099363712E-004 -0.27204254675810408E-004 -0.26450696497456033E-004 -0.23196661530911538E-004  0.89583406331808144E-003  0.14492652396005813E-002  
0.16342342585221568E-002  0.15831783049847735E-002  0.13818931644454001E-002  0.51898628544918435E-002  0.84015818695107256E-002  0.94863408049919613E-002  0.92082015920882578E-002  0.80588684187669381E-002  0.32918110076744765E-002  0.53484364079134225E-002  0.60832174110978018E-002  0.59696794983072499E-002  0.53009121727476249E-002  </sparseX_slice>
        <sparseX_slice start="251" end="300"> -0.16945924473613813E-003 -0.27531571673413216E-003 -0.31310131890869690E-003 -0.30720138076755502E-003 -0.27271934336588449E-003  0.86064592893012885E-005  0.13982673300157967E-004  0.15901716666545636E-004  0.15602066979082044E-004  0.13850795899371580E-004 -0.42868334059305445E-006 -0.69646981390450943E-006 -0.79205638332193358E-006 -0.77713098502729383E-006 -0.68990106674986493E-006  0.36200149270270430E-003  0.54215210396367638E-003  0.52604886586270986E-003  0.40682747341697599E-003  0.26288373959784819E-003  0.33463343069701080E-002  0.52156376581127071E-002  0.54654725248212991E-002  0.47572013600993271E-002  0.36179080555052757E-002  0.26218083568713579E+000  0.14311471549653807E-005  0.16496696263298048E-005  0.16469487269540227E-005  0.14892097011837962E-005 -0.49019172271271290E-004 -0.80269811594679469E-004 -0.92626344967074631E-004 -0.92619968259116279E-004 -0.83919925611539191E-004  0.29557951572065830E-002  0.48340569355192070E-002  
0.55643188166990412E-002  0.55436696863658827E-002  0.49993561103098706E-002  0.17123898409326876E-001  0.28023666059108630E-001  0.32299546021370501E-001  0.32243511593911520E-001  0.29155041871645065E-001  0.10861296118708499E-001  0.17839830422609792E-001  0.20712429035267224E-001  0.20903476991749249E-001  0.19177421484444207E-001  </sparseX_slice>
        <sparseX_slice start="301" end="350"> -0.55912901221876583E-003 -0.91832179063569325E-003 -0.10660623171077212E-002 -0.10756987869330467E-002 -0.98663279530955355E-003  0.28396922744586267E-004  0.46639522564107415E-004  0.54142924004965719E-004  0.54632321251660346E-004  0.50108838290671005E-004 -0.14144362153487179E-005 -0.23230907926921308E-005 -0.26968313842535141E-005 -0.27212080095254353E-005 -0.24958956323873689E-005  0.11944201530683311E-002  0.18083605862196993E-002  0.17911162904332054E-002  0.14245503016694023E-002  0.95104995355199087E-003  0.15614607963548095E-001  0.24602899670196899E-001  0.26317244088676976E-001  0.23557762967791579E-001  0.18510243336857347E-001  0.36430308434434233E-001  0.58027676753987283E-001  0.63361158003959472E-001  0.58329273246809234E-001  0.47351826405359031E-001 -0.10255015438056793E-001 -0.55484632012568075E-007 -0.62795451029410515E-007 -0.60894144005856315E-007 -0.52792152910238893E-007  0.19173497829662988E-005  0.31120076943846463E-005  
0.35258654318282111E-005  0.34245229330359816E-005  0.29749427106058494E-005 -0.11561380865021899E-003 -0.18741320154570253E-003 -0.21180841556950431E-003 -0.20497117771650481E-003 -0.17722606293688270E-003 -0.66978901065414375E-003 -0.10864590643513163E-002 -0.12294974266875835E-002 -0.11921688915510229E-002 -0.10335397542527440E-002  </sparseX_slice>
        <sparseX_slice start="351" end="400"> -0.42483181153475560E-003 -0.69163846829508246E-003 -0.78842836312501506E-003 -0.77288340391316749E-003 -0.67983532918573677E-003  0.21869930489546569E-004  0.35602730610729233E-004  0.40580164027857460E-004  0.39772796667187634E-004  0.34975913301420232E-004 -0.11107252762232571E-005 -0.18081835524271883E-005 -0.20609758940080043E-005 -0.20199708607963739E-005 -0.17763471800463724E-005  0.55324658595019626E-007  0.90064699019316374E-007  0.10265615637310184E-006  0.10061371655959109E-006  0.88478945422025067E-007 -0.46718888042063315E-004 -0.70108948142973463E-004 -0.68179684894914707E-004 -0.52671203294760669E-004 -0.33714509469875978E-004 -0.61075419683410189E-003 -0.95383820588039307E-003 -0.10017782870114908E-002 -0.87102275082336349E-003 -0.65618401214302810E-003 -0.20151771083132442E-002 -0.31815488762913279E-002 -0.34109025334099594E-002 -0.30499801599548479E-002 -0.23739154624963115E-002  0.55735717763389761E-004  0.87219184176067090E-004  
0.91809055097252554E-004  0.79740226976229809E-004  0.59506412433135674E-004  0.57839476107366295E-003  0.31293621902837735E-008  0.35416130282359842E-008  0.34342518114288724E-008  0.29771593068158234E-008 -0.10814075086595596E-006 -0.17551885741034668E-006 -0.19885597992315127E-006 -0.19313308821497663E-006 -0.16776884233501933E-006  </sparseX_slice>
        <sparseX_slice start="401" end="450">  0.65207528584404328E-005  0.10570202335383730E-004  0.11945824606302215E-004  0.11559775572112786E-004  0.99944820128851936E-005  0.37776876800146186E-004  0.61276858004608606E-004  0.69342667870957053E-004  0.67234842400354673E-004  0.58285414189670580E-004  0.23961006749659029E-004  0.39008770420215603E-004  0.44466726759658677E-004  0.43588365897003854E-004  0.38338615983872306E-004 -0.12334894371056968E-005 -0.20080125793902341E-005 -0.22886886749440131E-005 -0.22430695304091194E-005 -0.19724307507737785E-005  0.62646193429949983E-007  0.10198249563549262E-006  0.11623738594823457E-006  0.11392045493005587E-006  0.10017527696214522E-006 -0.31203748919574407E-008 -0.50796960089145889E-008 -0.57897248109473582E-008 -0.56743196573407178E-008 -0.49896793614064276E-008  0.26349994546509204E-005  0.39541812491338230E-005  0.38452794959902816E-005  0.29705019797597295E-005  0.19012951756984393E-005  0.34447244851689411E-004  0.53796972402269625E-004  
0.56499491197573280E-004  0.49123138335325248E-004  0.37004824221830049E-004  0.11365832544322483E-003  0.17944101634756590E-003  0.19237216474024644E-003  0.17200997009071537E-003  0.13387452723857677E-003 -0.44456639213509981E-005 -0.69568099447095245E-005 -0.73227370241662927E-005 -0.63598821977409789E-005 -0.47458222352075737E-005  </sparseX_slice>
        <sparseX_slice start="451" end="500">  0.17730037841715888E-006  0.27744586849787070E-006  0.29203261850529880E-006  0.25362419385387510E-006  0.18924707243524687E-006 -0.30600301741482778E-004 -0.16556067203361752E-009 -0.18737102730659421E-009 -0.18169100959429639E-009 -0.15750825991207257E-009  0.57212475453720849E-008  0.92859241661619836E-008  0.10520587355874619E-007  0.10217813867656799E-007  0.88759034033399404E-008 -0.34498411548458163E-006 -0.55922251748646322E-006 -0.63200056320723897E-006 -0.61157638103036865E-006 -0.52876359923639166E-006 -0.19986070184824345E-005 -0.32418867406433372E-005 -0.36686128076597564E-005 -0.35570968776897027E-005 -0.30836220776805642E-005 -0.12676706047755701E-005 -0.20637810049690512E-005 -0.23525371652669754E-005 -0.23060668352962603E-005 -0.20283256852369948E-005  0.65258455834386319E-007  0.10623503828607909E-006  0.12108436037203710E-006  0.11867084592165413E-006  0.10435253989942436E-006 -0.33143322708409214E-008 -0.53954414626408424E-008 
-0.61496042178842388E-008 -0.60270252754330044E-008 -0.52998284386041190E-008  0.16508519728497983E-009  0.26874418294359273E-009  0.30630864439473128E-009  0.30020304972163506E-009  0.26398174660491130E-009 -0.13940613544162383E-006 -0.20919818964450394E-006 -0.20343667241464473E-006 -0.15715606581564141E-006 -0.10058907295215344E-006  </sparseX_slice>
        <sparseX_slice start="501" end="550"> -0.18224509583519342E-005 -0.28461591732486787E-005 -0.29891373291175374E-005 -0.25988870614796449E-005 -0.19577606942929845E-005 -0.60131579468981082E-005 -0.94934281973300076E-005 -0.10177557470339081E-004 -0.91002835092234144E-005 -0.70827059148716427E-005  0.23520036243419320E-006  0.36805395464684731E-006  0.38741351694131157E-006  0.33647311870458739E-006  0.25108035045630522E-006 -0.13265573148697458E-007 -0.20758435045498169E-007 -0.21849811354511280E-007 -0.18976100843083060E-007 -0.14159418794504044E-007  0.49626355153456458E-009  0.77657062956313878E-009  0.81739885542797255E-009  0.70989363777795568E-009  0.52970209266184048E-009  0.15541964350373416E-005  0.84088649981805248E-011  0.95166180090954154E-011  0.92281285887304822E-011  0.79998811126932423E-011 -0.29058349208789747E-009 -0.47163424584760674E-009 -0.53434307606880688E-009 -0.51896514019596496E-009 -0.45080919587396460E-009  0.17521823378094126E-007  0.28403041590284651E-007  
0.32099455438940141E-007  0.31062106477258714E-007  0.26856026045696194E-007  0.10150971481941648E-006  0.16465618076209524E-006  0.18632969683538819E-006  0.18066577682180883E-006  0.15661788170151610E-006  0.64385284543548853E-007  0.10481991673161541E-006  0.11948590919241902E-006  0.11712567032259297E-006  0.10301913276660040E-006  </sparseX_slice>
        <sparseX_slice start="551" end="600"> -0.33144921337932658E-008 -0.53957022767024525E-008 -0.61499027950079138E-008 -0.60273198346123522E-008 -0.53000897443029085E-008  0.16833570607858236E-009  0.27403572543919191E-009  0.31233982697316757E-009  0.30611401397028973E-009  0.26917951763400762E-009 -0.83847155255312601E-011 -0.13649579490473045E-010 -0.15557487213957942E-010 -0.15247382640154931E-010 -0.13407694237364484E-010  0.70804700083067161E-008  0.10625224656174424E-007  0.10332595856688875E-007  0.79819930941220076E-008  0.51089423837357542E-008  0.92562707597788317E-007  0.14455708567262625E-006  0.15181897941666567E-006  0.13199807764002276E-006  0.99435120483146258E-007  0.30540968920304001E-006  0.48217342380114786E-006  0.51692050848580594E-006  0.46220551366044782E-006  0.35973227884539316E-006 -0.11945881053818677E-007 -0.18693545868449757E-007 -0.19676822533816169E-007 -0.17089547870257304E-007 -0.12752429329770288E-007  0.67376154230803470E-009  0.10543257388786730E-008  
0.11097569950952691E-008  0.96380057045037459E-009  0.71916017003870457E-009 -0.35645735203688865E-010 -0.55779697988638604E-010 -0.58712317402799099E-010 -0.50990407316645952E-010 -0.38047566591932486E-010  0.12801851297384725E-011  0.20032786389655519E-011  0.21086010776233459E-011  0.18312754897028030E-011  0.13664447843626791E-011  </sparseX_slice>
        <sparseX_slice start="601" end="650"> -0.77413737154002190E-007 -0.41884130606499140E-012 -0.47401792240844268E-012 -0.45964841051372878E-012 -0.39847002589860469E-012  0.14473816546390477E-010  0.23491862880249806E-010  0.26615357948526935E-010  0.25849390752359034E-010  0.22454577689936724E-010 -0.87275314681701705E-009 -0.14147411141060274E-008 -0.15988576154960212E-008 -0.15471877891814630E-008 -0.13376850534669328E-008 -0.50561474756047949E-008 -0.82014409574885100E-008 -0.92809878144201287E-008 -0.89988708275896202E-008 -0.78010573530607890E-008 -0.32069984088724126E-008 -0.52210269560746874E-008 -0.59515326115162591E-008 -0.58339703089834411E-008 -0.51313308189575256E-008  0.16509317423464227E-009  0.26875719721994589E-009  0.30632354299787861E-009  0.30021774783467461E-009  0.26399478541329314E-009 -0.83847162496468097E-011 -0.13649580671856853E-010 -0.15557488566393180E-010 -0.15247383974390189E-010 -0.13407695420974424E-010  0.41763843306522759E-012  0.67987864025224240E-012  
0.77491055751193551E-012  0.75946440577352124E-012  0.66783045832096991E-012 -0.35267462451532547E-009 -0.52923705793694854E-009 -0.51466136566505915E-009 -0.39757903275483896E-009 -0.25447383220877707E-009 -0.46105015779847566E-008 -0.72003152122399920E-008 -0.75620264611312780E-008 -0.65747573838750567E-008 -0.49528129825933188E-008  </sparseX_slice>
        <sparseX_slice start="651" end="681"> -0.15212301914514164E-007 -0.24016813995515377E-007 -0.25747548682585850E-007 -0.23022222506105492E-007 -0.17918082587583624E-007  0.59501828412769130E-009  0.93111605052780189E-009  0.98009256315266832E-009  0.85122172273963624E-009  0.63519204519690245E-009 -0.33559721129752913E-010 -0.52515430986872904E-010 -0.55276433780417951E-010 -0.48006418202792398E-010 -0.35821003780404049E-010  0.17754960142172970E-011  0.27783585017154307E-011  0.29244307892216508E-011  0.25398063593485588E-011  0.18951300190212676E-011 -0.90177855075811365E-013 -0.14111347381296132E-012 -0.14853251922198554E-012 -0.12899735505283728E-012 -0.96254093935959907E-013  0.31761209207824978E-014  0.49701055320601700E-014  0.52314089897212826E-014  0.45433681890561183E-014  0.33901298850336616E-014  0.00000000000000000E+000  </sparseX_slice>
      </sparseX>
      <sparseX i="3" alpha="845.33690741792032" sparseCutoff="1.0000000000000000" sliced="T">
        <sparseX_slice start="1" end="50">  0.96615066222137524E+000  0.00000000000000000E+000  0.00000000000000000E+000  0.00000000000000000E+000  0.00000000000000000E+000  0.00000000000000000E+000  0.00000000000000000E+000  0.00000000000000000E+000  0.00000000000000000E+000  0.00000000000000000E+000  0.00000000000000000E+000  0.00000000000000000E+000  0.00000000000000000E+000  0.00000000000000000E+000  0.00000000000000000E+000  0.00000000000000000E+000  0.00000000000000000E+000  0.00000000000000000E+000  0.00000000000000000E+000  0.00000000000000000E+000  0.00000000000000000E+000  0.00000000000000000E+000  0.00000000000000000E+000  0.00000000000000000E+000  0.00000000000000000E+000  0.00000000000000000E+000  0.00000000000000000E+000  0.00000000000000000E+000  0.00000000000000000E+000  0.00000000000000000E+000  0.00000000000000000E+000  0.00000000000000000E+000  0.00000000000000000E+000  0.00000000000000000E+000  0.00000000000000000E+000  0.00000000000000000E+000  0.00000000000000000E+000  
0.00000000000000000E+000  0.00000000000000000E+000  0.00000000000000000E+000  0.00000000000000000E+000  0.00000000000000000E+000  0.00000000000000000E+000  0.00000000000000000E+000  0.00000000000000000E+000  0.00000000000000000E+000  0.00000000000000000E+000  0.00000000000000000E+000  0.00000000000000000E+000  0.00000000000000000E+000  </sparseX_slice>
        <sparseX_slice start="51" end="100">  0.00000000000000000E+000  0.00000000000000000E+000  0.00000000000000000E+000  0.00000000000000000E+000  0.00000000000000000E+000  0.00000000000000000E+000  0.00000000000000000E+000  0.00000000000000000E+000  0.00000000000000000E+000  0.00000000000000000E+000  0.00000000000000000E+000  0.00000000000000000E+000  0.00000000000000000E+000  0.00000000000000000E+000  0.00000000000000000E+000  0.00000000000000000E+000  0.00000000000000000E+000  0.00000000000000000E+000  0.00000000000000000E+000  0.00000000000000000E+000  0.00000000000000000E+000  0.00000000000000000E+000  0.00000000000000000E+000  0.00000000000000000E+000  0.00000000000000000E+000  0.00000000000000000E+000  0.00000000000000000E+000  0.00000000000000000E+000  0.00000000000000000E+000  0.00000000000000000E+000  0.00000000000000000E+000  0.00000000000000000E+000  0.00000000000000000E+000  0.00000000000000000E+000  0.00000000000000000E+000  0.00000000000000000E+000  0.00000000000000000E+000  
0.00000000000000000E+000  0.00000000000000000E+000  0.00000000000000000E+000  0.00000000000000000E+000  0.00000000000000000E+000  0.00000000000000000E+000  0.00000000000000000E+000  0.00000000000000000E+000  0.00000000000000000E+000  0.00000000000000000E+000  0.00000000000000000E+000  0.00000000000000000E+000  0.00000000000000000E+000  </sparseX_slice>
        <sparseX_slice start="101" end="150">  0.00000000000000000E+000  0.00000000000000000E+000  0.00000000000000000E+000  0.00000000000000000E+000  0.00000000000000000E+000  0.00000000000000000E+000  0.00000000000000000E+000  0.00000000000000000E+000  0.00000000000000000E+000  0.00000000000000000E+000  0.00000000000000000E+000  0.00000000000000000E+000  0.00000000000000000E+000  0.00000000000000000E+000  0.00000000000000000E+000  0.00000000000000000E+000  0.00000000000000000E+000  0.00000000000000000E+000  0.00000000000000000E+000  0.00000000000000000E+000  0.00000000000000000E+000  0.00000000000000000E+000  0.00000000000000000E+000  0.00000000000000000E+000  0.00000000000000000E+000  0.00000000000000000E+000  0.00000000000000000E+000  0.00000000000000000E+000  0.00000000000000000E+000  0.00000000000000000E+000  0.00000000000000000E+000  0.00000000000000000E+000  0.00000000000000000E+000  0.00000000000000000E+000  0.00000000000000000E+000  0.00000000000000000E+000  0.00000000000000000E+000  
0.00000000000000000E+000  0.00000000000000000E+000  0.00000000000000000E+000  0.00000000000000000E+000  0.00000000000000000E+000  0.00000000000000000E+000  0.00000000000000000E+000  0.00000000000000000E+000  0.00000000000000000E+000  0.00000000000000000E+000  0.00000000000000000E+000  0.00000000000000000E+000  0.00000000000000000E+000  </sparseX_slice>
        <sparseX_slice start="151" end="200">  0.00000000000000000E+000  0.00000000000000000E+000  0.00000000000000000E+000  0.00000000000000000E+000  0.00000000000000000E+000  0.00000000000000000E+000  0.00000000000000000E+000  0.00000000000000000E+000  0.00000000000000000E+000  0.00000000000000000E+000  0.00000000000000000E+000  0.00000000000000000E+000  0.00000000000000000E+000  0.00000000000000000E+000  0.00000000000000000E+000  0.00000000000000000E+000  0.00000000000000000E+000  0.00000000000000000E+000  0.00000000000000000E+000  0.00000000000000000E+000  0.00000000000000000E+000  0.00000000000000000E+000  0.00000000000000000E+000  0.00000000000000000E+000  0.00000000000000000E+000  0.00000000000000000E+000  0.00000000000000000E+000  0.00000000000000000E+000  0.00000000000000000E+000  0.00000000000000000E+000  0.44913247533016919E-001  0.00000000000000000E+000  0.00000000000000000E+000  0.00000000000000000E+000  0.00000000000000000E+000  0.00000000000000000E+000  0.00000000000000000E+000  
0.00000000000000000E+000  0.00000000000000000E+000  0.00000000000000000E+000  0.00000000000000000E+000  0.00000000000000000E+000  0.00000000000000000E+000  0.00000000000000000E+000  0.00000000000000000E+000  0.00000000000000000E+000  0.00000000000000000E+000  0.00000000000000000E+000  0.00000000000000000E+000  0.00000000000000000E+000  </sparseX_slice>
        <sparseX_slice start="201" end="250">  0.00000000000000000E+000  0.00000000000000000E+000  0.00000000000000000E+000  0.00000000000000000E+000  0.00000000000000000E+000  0.00000000000000000E+000  0.00000000000000000E+000  0.00000000000000000E+000  0.00000000000000000E+000  0.00000000000000000E+000  0.00000000000000000E+000  0.00000000000000000E+000  0.00000000000000000E+000  0.00000000000000000E+000  0.00000000000000000E+000  0.00000000000000000E+000  0.00000000000000000E+000  0.00000000000000000E+000  0.00000000000000000E+000  0.00000000000000000E+000  0.10439364598292056E-002  0.14156546918337311E-002  0.11893504857993216E-002  0.74360232300148277E-003  0.36420360126144944E-003  0.17074161845743765E+000  0.00000000000000000E+000  0.00000000000000000E+000  0.00000000000000000E+000  0.00000000000000000E+000  0.00000000000000000E+000  0.00000000000000000E+000  0.00000000000000000E+000  0.00000000000000000E+000  0.00000000000000000E+000  0.00000000000000000E+000  0.00000000000000000E+000  
0.00000000000000000E+000  0.00000000000000000E+000  0.00000000000000000E+000  0.00000000000000000E+000  0.00000000000000000E+000  0.00000000000000000E+000  0.00000000000000000E+000  0.00000000000000000E+000  0.00000000000000000E+000  0.00000000000000000E+000  0.00000000000000000E+000  0.00000000000000000E+000  0.00000000000000000E+000  </sparseX_slice>
        <sparseX_slice start="251" end="300">  0.00000000000000000E+000  0.00000000000000000E+000  0.00000000000000000E+000  0.00000000000000000E+000  0.00000000000000000E+000  0.00000000000000000E+000  0.00000000000000000E+000  0.00000000000000000E+000  0.00000000000000000E+000  0.00000000000000000E+000  0.00000000000000000E+000  0.00000000000000000E+000  0.00000000000000000E+000  0.00000000000000000E+000  0.00000000000000000E+000  0.56124695617600119E-002  0.78360648286532643E-002  0.67811044012389800E-002  0.44486042542697677E-002  0.23398426742729213E-002  0.15087036325389085E-001  0.21687461057088270E-001  0.19331297817396034E-001  0.13306897516959211E-001  0.75162130761283101E-002  0.16824621192310354E+000  0.00000000000000000E+000  0.00000000000000000E+000  0.00000000000000000E+000  0.00000000000000000E+000  0.00000000000000000E+000  0.00000000000000000E+000  0.00000000000000000E+000  0.00000000000000000E+000  0.00000000000000000E+000  0.00000000000000000E+000  0.00000000000000000E+000  
0.00000000000000000E+000  0.00000000000000000E+000  0.00000000000000000E+000  0.00000000000000000E+000  0.00000000000000000E+000  0.00000000000000000E+000  0.00000000000000000E+000  0.00000000000000000E+000  0.00000000000000000E+000  0.00000000000000000E+000  0.00000000000000000E+000  0.00000000000000000E+000  0.00000000000000000E+000  </sparseX_slice>
        <sparseX_slice start="301" end="350">  0.00000000000000000E+000  0.00000000000000000E+000  0.00000000000000000E+000  0.00000000000000000E+000  0.00000000000000000E+000  0.00000000000000000E+000  0.00000000000000000E+000  0.00000000000000000E+000  0.00000000000000000E+000  0.00000000000000000E+000  0.00000000000000000E+000  0.00000000000000000E+000  0.00000000000000000E+000  0.00000000000000000E+000  0.00000000000000000E+000  0.55304427346472163E-002  0.80715148477274387E-002  0.76204572984786270E-002  0.56514345094384457E-002  0.34514548286931021E-002  0.21024459266849503E-001  0.31592263265809509E-001  0.30722504215988655E-001  0.23907091096467901E-001  0.15679406427886445E-001  0.14649261721453907E-001  0.23010326004251434E-001  0.24413059956379636E-001  0.21475667185622868E-001  0.16354232074104778E-001 -0.10269719935955058E-001  0.00000000000000000E+000  0.00000000000000000E+000  0.00000000000000000E+000  0.00000000000000000E+000  0.00000000000000000E+000  0.00000000000000000E+000  
0.00000000000000000E+000  0.00000000000000000E+000  0.00000000000000000E+000  0.00000000000000000E+000  0.00000000000000000E+000  0.00000000000000000E+000  0.00000000000000000E+000  0.00000000000000000E+000  0.00000000000000000E+000  0.00000000000000000E+000  0.00000000000000000E+000  0.00000000000000000E+000  0.00000000000000000E+000  </sparseX_slice>
        <sparseX_slice start="351" end="400">  0.00000000000000000E+000  0.00000000000000000E+000  0.00000000000000000E+000  0.00000000000000000E+000  0.00000000000000000E+000  0.00000000000000000E+000  0.00000000000000000E+000  0.00000000000000000E+000  0.00000000000000000E+000  0.00000000000000000E+000  0.00000000000000000E+000  0.00000000000000000E+000  0.00000000000000000E+000  0.00000000000000000E+000  0.00000000000000000E+000  0.00000000000000000E+000  0.00000000000000000E+000  0.00000000000000000E+000  0.00000000000000000E+000  0.00000000000000000E+000 -0.33757727652508938E-003 -0.49237187842550835E-003 -0.46424692717767163E-003 -0.34357075042680915E-003 -0.20919149594727826E-003 -0.12833293897524590E-002 -0.19271651358331349E-002 -0.18716499048322562E-002 -0.14533968702667892E-002 -0.95032345750180704E-003 -0.12645733970787125E-002 -0.19850706123590331E-002 -0.21033193612046176E-002 -0.18463717514660895E-002 -0.14018030025177472E-002  0.54581108147492478E-004  0.85624717688124267E-004  
0.90606264497829352E-004  0.79370960053204003E-004  0.60077772192655414E-004  0.57955293030834717E-003  0.00000000000000000E+000  0.00000000000000000E+000  0.00000000000000000E+000  0.00000000000000000E+000  0.00000000000000000E+000  0.00000000000000000E+000  0.00000000000000000E+000  0.00000000000000000E+000  0.00000000000000000E+000  </sparseX_slice>
        <sparseX_slice start="401" end="450">  0.00000000000000000E+000  0.00000000000000000E+000  0.00000000000000000E+000  0.00000000000000000E+000  0.00000000000000000E+000  0.00000000000000000E+000  0.00000000000000000E+000  0.00000000000000000E+000  0.00000000000000000E+000  0.00000000000000000E+000  0.00000000000000000E+000  0.00000000000000000E+000  0.00000000000000000E+000  0.00000000000000000E+000  0.00000000000000000E+000  0.00000000000000000E+000  0.00000000000000000E+000  0.00000000000000000E+000  0.00000000000000000E+000  0.00000000000000000E+000  0.00000000000000000E+000  0.00000000000000000E+000  0.00000000000000000E+000  0.00000000000000000E+000  0.00000000000000000E+000  0.00000000000000000E+000  0.00000000000000000E+000  0.00000000000000000E+000  0.00000000000000000E+000  0.00000000000000000E+000  0.19050558441293309E-004  0.27786079134900979E-004  0.26198840718366478E-004  0.19388652914357360E-004  0.11805195603183674E-004  0.72422355528694679E-004  0.10875593289673036E-003  
0.10562279439381164E-003  0.82019227275341412E-004  0.53629112652505052E-004  0.71363895260771049E-004  0.11202371934756882E-003  0.11869659376973557E-003  0.10419589268172082E-003  0.79107224540441403E-004 -0.43560399339149042E-005 -0.68335783510209548E-005 -0.72311315142540530E-005 -0.63344379166498079E-005 -0.47946618058792078E-005  </sparseX_slice>
        <sparseX_slice start="451" end="500">  0.17382464876478600E-006  0.27268874187493540E-006  0.28855213966850382E-006  0.25276942406261732E-006  0.19132518561970972E-006 -0.30661606465925388E-004  0.00000000000000000E+000  0.00000000000000000E+000  0.00000000000000000E+000  0.00000000000000000E+000  0.00000000000000000E+000  0.00000000000000000E+000  0.00000000000000000E+000  0.00000000000000000E+000  0.00000000000000000E+000  0.00000000000000000E+000  0.00000000000000000E+000  0.00000000000000000E+000  0.00000000000000000E+000  0.00000000000000000E+000  0.00000000000000000E+000  0.00000000000000000E+000  0.00000000000000000E+000  0.00000000000000000E+000  0.00000000000000000E+000  0.00000000000000000E+000  0.00000000000000000E+000  0.00000000000000000E+000  0.00000000000000000E+000  0.00000000000000000E+000  0.00000000000000000E+000  0.00000000000000000E+000  0.00000000000000000E+000  0.00000000000000000E+000  0.00000000000000000E+000  0.00000000000000000E+000  0.00000000000000000E+000  
0.00000000000000000E+000  0.00000000000000000E+000  0.00000000000000000E+000  0.00000000000000000E+000  0.00000000000000000E+000  0.00000000000000000E+000  0.00000000000000000E+000  0.00000000000000000E+000 -0.10078815848144724E-005 -0.14700397106678710E-005 -0.13860658743967518E-005 -0.10257686692557484E-005 -0.62456116592331850E-006  </sparseX_slice>
        <sparseX_slice start="501" end="550"> -0.38315495417730435E-005 -0.57537999281125889E-005 -0.55880392740070461E-005 -0.43392779264881856E-005 -0.28372813337077255E-005 -0.37755510462126379E-005 -0.59266841924016484E-005 -0.62797167172373502E-005 -0.55125481202924587E-005 -0.41852165819778081E-005  0.23045898867682903E-006  0.36153469128154746E-006  0.38256748582604400E-006  0.33512735417701384E-006  0.25366454469253665E-006 -0.13005533065798587E-007 -0.20402529027621731E-007 -0.21589425881857528E-007 -0.18912168582957497E-007 -0.14314920184148545E-007  0.48653597613322546E-009  0.76325701578442887E-009  0.80765873100731688E-009  0.70750274056406572E-009  0.53552003416280345E-009  0.15573101190653684E-005  0.00000000000000000E+000  0.00000000000000000E+000  0.00000000000000000E+000  0.00000000000000000E+000  0.00000000000000000E+000  0.00000000000000000E+000  0.00000000000000000E+000  0.00000000000000000E+000  0.00000000000000000E+000  0.00000000000000000E+000  0.00000000000000000E+000  
0.00000000000000000E+000  0.00000000000000000E+000  0.00000000000000000E+000  0.00000000000000000E+000  0.00000000000000000E+000  0.00000000000000000E+000  0.00000000000000000E+000  0.00000000000000000E+000  0.00000000000000000E+000  0.00000000000000000E+000  0.00000000000000000E+000  0.00000000000000000E+000  0.00000000000000000E+000  </sparseX_slice>
        <sparseX_slice start="551" end="600">  0.00000000000000000E+000  0.00000000000000000E+000  0.00000000000000000E+000  0.00000000000000000E+000  0.00000000000000000E+000  0.00000000000000000E+000  0.00000000000000000E+000  0.00000000000000000E+000  0.00000000000000000E+000  0.00000000000000000E+000  0.00000000000000000E+000  0.00000000000000000E+000  0.00000000000000000E+000  0.00000000000000000E+000  0.00000000000000000E+000  0.51190539954112186E-007  0.74663658585112403E-007  0.70398607922408131E-007  0.52099029129196852E-007  0.31721606782417215E-007  0.19460529179169185E-006  0.29223683570049004E-006  0.28381781354876281E-006  0.22039293445745100E-006  0.14410617840113841E-006  0.19176111518647802E-006  0.30101766766709878E-006  0.31894827165627251E-006  0.27998360030200015E-006  0.21256812295795590E-006 -0.11705065600357323E-007 -0.18362431001442634E-007 -0.19430691524853121E-007 -0.17021196211741346E-007 -0.12883681183542372E-007  0.66055404728110076E-009  0.10362491914583133E-008  
0.10965319585465295E-008  0.96055343805214597E-009  0.72705812333359109E-009 -0.34947020691331110E-010 -0.54823404705480888E-010 -0.58012701564359266E-010 -0.50818673491759800E-010 -0.38465459147562630E-010  0.12550914167813817E-011  0.19689342130789103E-011  0.20834749960530809E-011  0.18251078246022970E-011  0.13814530298067228E-011  </sparseX_slice>
        <sparseX_slice start="601" end="650"> -0.77568828178459938E-007  0.00000000000000000E+000  0.00000000000000000E+000  0.00000000000000000E+000  0.00000000000000000E+000  0.00000000000000000E+000  0.00000000000000000E+000  0.00000000000000000E+000  0.00000000000000000E+000  0.00000000000000000E+000  0.00000000000000000E+000  0.00000000000000000E+000  0.00000000000000000E+000  0.00000000000000000E+000  0.00000000000000000E+000  0.00000000000000000E+000  0.00000000000000000E+000  0.00000000000000000E+000  0.00000000000000000E+000  0.00000000000000000E+000  0.00000000000000000E+000  0.00000000000000000E+000  0.00000000000000000E+000  0.00000000000000000E+000  0.00000000000000000E+000  0.00000000000000000E+000  0.00000000000000000E+000  0.00000000000000000E+000  0.00000000000000000E+000  0.00000000000000000E+000  0.00000000000000000E+000  0.00000000000000000E+000  0.00000000000000000E+000  0.00000000000000000E+000  0.00000000000000000E+000  0.00000000000000000E+000  0.00000000000000000E+000  
0.00000000000000000E+000  0.00000000000000000E+000  0.00000000000000000E+000 -0.25497748646533013E-008 -0.37189590134042156E-008 -0.35065190003473696E-008 -0.25950262502708710E-008 -0.15800371653184719E-008 -0.96931910072403359E-008 -0.14556168754282966E-007 -0.14136821525543325E-007 -0.10977660425744860E-007 -0.71778557494767083E-008  </sparseX_slice>
        <sparseX_slice start="651" end="681"> -0.95515240112463498E-008 -0.14993537546627663E-007 -0.15886651848618216E-007 -0.13945841305934495E-007 -0.10587910528596616E-007  0.58302338837728177E-009  0.91462338673080520E-009  0.96783290227673321E-009  0.84781716125543553E-009  0.64172963355042361E-009 -0.32901862492799519E-010 -0.51615047316676070E-010 -0.54617701409229726E-010 -0.47844680183038959E-010 -0.36214396833470786E-010  0.17406933982949100E-011  0.27307260176989127E-011  0.28895832787079475E-011  0.25312523845316073E-011  0.19159450355420204E-011 -0.88410222287846885E-013 -0.13869420913964654E-012 -0.14676260634830334E-012 -0.12856289694512147E-012 -0.97311293673437142E-013  0.31138637793536884E-014  0.48848975047245714E-014  0.51690715422433342E-014  0.45280663005550292E-014  0.34273651264577519E-014  0.00000000000000000E+000  </sparseX_slice>
      </sparseX>
      <sparseX i="4" alpha="-149.44986918955388" sparseCutoff="1.0000000000000000" sliced="T">
        <sparseX_slice start="1" end="50">  0.99628291162238924E+000  0.00000000000000000E+000  0.00000000000000000E+000  0.00000000000000000E+000  0.00000000000000000E+000  0.00000000000000000E+000  0.00000000000000000E+000  0.00000000000000000E+000  0.00000000000000000E+000  0.00000000000000000E+000  0.00000000000000000E+000  0.00000000000000000E+000  0.00000000000000000E+000  0.00000000000000000E+000  0.00000000000000000E+000  0.00000000000000000E+000  0.00000000000000000E+000  0.00000000000000000E+000  0.00000000000000000E+000  0.00000000000000000E+000  0.00000000000000000E+000  0.00000000000000000E+000  0.00000000000000000E+000  0.00000000000000000E+000  0.00000000000000000E+000  0.00000000000000000E+000  0.00000000000000000E+000  0.00000000000000000E+000  0.00000000000000000E+000  0.00000000000000000E+000  0.00000000000000000E+000  0.00000000000000000E+000  0.00000000000000000E+000  0.00000000000000000E+000  0.00000000000000000E+000  0.00000000000000000E+000  0.00000000000000000E+000  
0.00000000000000000E+000  0.00000000000000000E+000  0.00000000000000000E+000  0.00000000000000000E+000  0.00000000000000000E+000  0.00000000000000000E+000  0.00000000000000000E+000  0.00000000000000000E+000  0.00000000000000000E+000  0.00000000000000000E+000  0.00000000000000000E+000  0.00000000000000000E+000  0.00000000000000000E+000  </sparseX_slice>
        <sparseX_slice start="51" end="100">  0.00000000000000000E+000  0.00000000000000000E+000  0.00000000000000000E+000  0.00000000000000000E+000  0.00000000000000000E+000  0.00000000000000000E+000  0.00000000000000000E+000  0.00000000000000000E+000  0.00000000000000000E+000  0.00000000000000000E+000  0.00000000000000000E+000  0.00000000000000000E+000  0.00000000000000000E+000  0.00000000000000000E+000  0.00000000000000000E+000  0.00000000000000000E+000  0.00000000000000000E+000  0.00000000000000000E+000  0.00000000000000000E+000  0.00000000000000000E+000  0.00000000000000000E+000  0.00000000000000000E+000  0.00000000000000000E+000  0.00000000000000000E+000  0.00000000000000000E+000  0.00000000000000000E+000  0.00000000000000000E+000  0.00000000000000000E+000  0.00000000000000000E+000  0.00000000000000000E+000  0.00000000000000000E+000  0.00000000000000000E+000  0.00000000000000000E+000  0.00000000000000000E+000  0.00000000000000000E+000  0.00000000000000000E+000  0.00000000000000000E+000  
0.00000000000000000E+000  0.00000000000000000E+000  0.00000000000000000E+000  0.00000000000000000E+000  0.00000000000000000E+000  0.00000000000000000E+000  0.00000000000000000E+000  0.00000000000000000E+000  0.00000000000000000E+000  0.00000000000000000E+000  0.00000000000000000E+000  0.00000000000000000E+000  0.00000000000000000E+000  </sparseX_slice>
        <sparseX_slice start="101" end="150">  0.00000000000000000E+000  0.00000000000000000E+000  0.00000000000000000E+000  0.00000000000000000E+000  0.00000000000000000E+000  0.00000000000000000E+000  0.00000000000000000E+000  0.00000000000000000E+000  0.00000000000000000E+000  0.00000000000000000E+000  0.00000000000000000E+000  0.00000000000000000E+000  0.00000000000000000E+000  0.00000000000000000E+000  0.00000000000000000E+000  0.00000000000000000E+000  0.00000000000000000E+000  0.00000000000000000E+000  0.00000000000000000E+000  0.00000000000000000E+000  0.00000000000000000E+000  0.00000000000000000E+000  0.00000000000000000E+000  0.00000000000000000E+000  0.00000000000000000E+000  0.00000000000000000E+000  0.00000000000000000E+000  0.00000000000000000E+000  0.00000000000000000E+000  0.00000000000000000E+000  0.00000000000000000E+000  0.00000000000000000E+000  0.00000000000000000E+000  0.00000000000000000E+000  0.00000000000000000E+000  0.00000000000000000E+000  0.00000000000000000E+000  
0.00000000000000000E+000  0.00000000000000000E+000  0.00000000000000000E+000  0.00000000000000000E+000  0.00000000000000000E+000  0.00000000000000000E+000  0.00000000000000000E+000  0.00000000000000000E+000  0.00000000000000000E+000  0.00000000000000000E+000  0.00000000000000000E+000  0.00000000000000000E+000  0.00000000000000000E+000  </sparseX_slice>
        <sparseX_slice start="151" end="200">  0.00000000000000000E+000  0.00000000000000000E+000  0.00000000000000000E+000  0.00000000000000000E+000  0.00000000000000000E+000  0.00000000000000000E+000  0.00000000000000000E+000  0.00000000000000000E+000  0.00000000000000000E+000  0.00000000000000000E+000  0.00000000000000000E+000  0.00000000000000000E+000  0.00000000000000000E+000  0.00000000000000000E+000  0.00000000000000000E+000  0.00000000000000000E+000  0.00000000000000000E+000  0.00000000000000000E+000  0.00000000000000000E+000  0.00000000000000000E+000  0.00000000000000000E+000  0.00000000000000000E+000  0.00000000000000000E+000  0.00000000000000000E+000  0.00000000000000000E+000  0.00000000000000000E+000  0.00000000000000000E+000  0.00000000000000000E+000  0.00000000000000000E+000  0.00000000000000000E+000 -0.83002325393465947E-007  0.00000000000000000E+000  0.00000000000000000E+000  0.00000000000000000E+000  0.00000000000000000E+000  0.00000000000000000E+000  0.00000000000000000E+000  
0.00000000000000000E+000  0.00000000000000000E+000  0.00000000000000000E+000  0.00000000000000000E+000  0.00000000000000000E+000  0.00000000000000000E+000  0.00000000000000000E+000  0.00000000000000000E+000  0.00000000000000000E+000  0.00000000000000000E+000  0.00000000000000000E+000  0.00000000000000000E+000  0.00000000000000000E+000  </sparseX_slice>
        <sparseX_slice start="201" end="250">  0.00000000000000000E+000  0.00000000000000000E+000  0.00000000000000000E+000  0.00000000000000000E+000  0.00000000000000000E+000  0.00000000000000000E+000  0.00000000000000000E+000  0.00000000000000000E+000  0.00000000000000000E+000  0.00000000000000000E+000  0.00000000000000000E+000  0.00000000000000000E+000  0.00000000000000000E+000  0.00000000000000000E+000  0.00000000000000000E+000  0.00000000000000000E+000  0.00000000000000000E+000  0.00000000000000000E+000  0.00000000000000000E+000  0.00000000000000000E+000  0.34575450107358728E-014  0.58856244151429088E-014  0.73391247536995809E-014  0.82432283095215534E-014  0.87200292743490714E-014  0.50012499606489793E-005  0.00000000000000000E+000  0.00000000000000000E+000  0.00000000000000000E+000  0.00000000000000000E+000  0.00000000000000000E+000  0.00000000000000000E+000  0.00000000000000000E+000  0.00000000000000000E+000  0.00000000000000000E+000  0.00000000000000000E+000  0.00000000000000000E+000  
0.00000000000000000E+000  0.00000000000000000E+000  0.00000000000000000E+000  0.00000000000000000E+000  0.00000000000000000E+000  0.00000000000000000E+000  0.00000000000000000E+000  0.00000000000000000E+000  0.00000000000000000E+000  0.00000000000000000E+000  0.00000000000000000E+000  0.00000000000000000E+000  0.00000000000000000E+000  </sparseX_slice>
        <sparseX_slice start="251" end="300">  0.00000000000000000E+000  0.00000000000000000E+000  0.00000000000000000E+000  0.00000000000000000E+000  0.00000000000000000E+000  0.00000000000000000E+000  0.00000000000000000E+000  0.00000000000000000E+000  0.00000000000000000E+000  0.00000000000000000E+000  0.00000000000000000E+000  0.00000000000000000E+000  0.00000000000000000E+000  0.00000000000000000E+000  0.00000000000000000E+000 -0.29462604883608490E-012 -0.50152828604356093E-012 -0.62538338468129335E-012 -0.70242211881128322E-012 -0.74304854417686187E-012  0.12552910863521687E-010  0.21368218897440841E-010  0.26645164850091864E-010  0.29927403104037634E-010  0.31658215909175848E-010 -0.16443504527811236E-003  0.00000000000000000E+000  0.00000000000000000E+000  0.00000000000000000E+000  0.00000000000000000E+000  0.00000000000000000E+000  0.00000000000000000E+000  0.00000000000000000E+000  0.00000000000000000E+000  0.00000000000000000E+000  0.00000000000000000E+000  0.00000000000000000E+000  
0.00000000000000000E+000  0.00000000000000000E+000  0.00000000000000000E+000  0.00000000000000000E+000  0.00000000000000000E+000  0.00000000000000000E+000  0.00000000000000000E+000  0.00000000000000000E+000  0.00000000000000000E+000  0.00000000000000000E+000  0.00000000000000000E+000  0.00000000000000000E+000  0.00000000000000000E+000  </sparseX_slice>
        <sparseX_slice start="301" end="350">  0.00000000000000000E+000  0.00000000000000000E+000  0.00000000000000000E+000  0.00000000000000000E+000  0.00000000000000000E+000  0.00000000000000000E+000  0.00000000000000000E+000  0.00000000000000000E+000  0.00000000000000000E+000  0.00000000000000000E+000  0.00000000000000000E+000  0.00000000000000000E+000  0.00000000000000000E+000  0.00000000000000000E+000  0.00000000000000000E+000  0.96869478753640072E-011  0.16490695250821528E-010  0.20565772213073785E-010  0.23103559661209513E-010  0.24445899615682409E-010 -0.58368060714943244E-009 -0.99363494251361524E-009 -0.12391734274718798E-008 -0.13920817854645535E-008 -0.14729576859108813E-008  0.13569882510372275E-007  0.23102309175199441E-007  0.28814811092210438E-007  0.32376542840777409E-007  0.34266055148343003E-007  0.81025057650158331E-002  0.00000000000000000E+000  0.00000000000000000E+000  0.00000000000000000E+000  0.00000000000000000E+000  0.00000000000000000E+000  0.00000000000000000E+000  
0.00000000000000000E+000  0.00000000000000000E+000  0.00000000000000000E+000  0.00000000000000000E+000  0.00000000000000000E+000  0.00000000000000000E+000  0.00000000000000000E+000  0.00000000000000000E+000  0.00000000000000000E+000  0.00000000000000000E+000  0.00000000000000000E+000  0.00000000000000000E+000  0.00000000000000000E+000  </sparseX_slice>
        <sparseX_slice start="351" end="400">  0.00000000000000000E+000  0.00000000000000000E+000  0.00000000000000000E+000  0.00000000000000000E+000  0.00000000000000000E+000  0.00000000000000000E+000  0.00000000000000000E+000  0.00000000000000000E+000  0.00000000000000000E+000  0.00000000000000000E+000  0.00000000000000000E+000  0.00000000000000000E+000  0.00000000000000000E+000  0.00000000000000000E+000  0.00000000000000000E+000  0.00000000000000000E+000  0.00000000000000000E+000  0.00000000000000000E+000  0.00000000000000000E+000  0.00000000000000000E+000 -0.47732252496902637E-009 -0.81243842003084642E-009 -0.10128623786751853E-008 -0.11372800737129763E-008 -0.12025675164773662E-008  0.28760751556077956E-007  0.48952890736549523E-007  0.61029176650238672E-007  0.68525668719602691E-007  0.72459230139592076E-007 -0.94561869963854623E-006 -0.16096145028061015E-005 -0.20069483393452768E-005 -0.22538966715155039E-005 -0.23838699101205451E-005  0.32947769607533763E-004  0.56073590479540585E-004  
0.69891862624246365E-004  0.78452635150879591E-004  0.82922234902387611E-004  0.55950389628385722E-001  0.00000000000000000E+000  0.00000000000000000E+000  0.00000000000000000E+000  0.00000000000000000E+000  0.00000000000000000E+000  0.00000000000000000E+000  0.00000000000000000E+000  0.00000000000000000E+000  0.00000000000000000E+000  </sparseX_slice>
        <sparseX_slice start="401" end="450">  0.00000000000000000E+000  0.00000000000000000E+000  0.00000000000000000E+000  0.00000000000000000E+000  0.00000000000000000E+000  0.00000000000000000E+000  0.00000000000000000E+000  0.00000000000000000E+000  0.00000000000000000E+000  0.00000000000000000E+000  0.00000000000000000E+000  0.00000000000000000E+000  0.00000000000000000E+000  0.00000000000000000E+000  0.00000000000000000E+000  0.00000000000000000E+000  0.00000000000000000E+000  0.00000000000000000E+000  0.00000000000000000E+000  0.00000000000000000E+000  0.00000000000000000E+000  0.00000000000000000E+000  0.00000000000000000E+000  0.00000000000000000E+000  0.00000000000000000E+000  0.00000000000000000E+000  0.00000000000000000E+000  0.00000000000000000E+000  0.00000000000000000E+000  0.00000000000000000E+000 -0.32960644552370410E-008 -0.56127231830187354E-008 -0.70037902601025085E-008 -0.78750113926481078E-008 -0.83425343869793445E-008  0.19860217348017129E-006  0.33819058520445479E-006  
0.42200753232052976E-006  0.47450090292524914E-006  0.50266917309085186E-006 -0.65297990793297172E-005 -0.11120006652664171E-004 -0.13877744427649484E-004 -0.15606940081248448E-004 -0.16537546895929579E-004  0.32175461499207896E-003  0.54784352619535010E-003  0.68347762904325633E-003  0.76825659016680826E-003  0.81353179927597628E-003  </sparseX_slice>
        <sparseX_slice start="451" end="500">  0.15710628291668786E-002  0.26762378387706759E-002  0.33418888255564508E-002  0.37616211820012632E-002  0.39906907309739600E-002  0.62808547727458308E-001  0.00000000000000000E+000  0.00000000000000000E+000  0.00000000000000000E+000  0.00000000000000000E+000  0.00000000000000000E+000  0.00000000000000000E+000  0.00000000000000000E+000  0.00000000000000000E+000  0.00000000000000000E+000  0.00000000000000000E+000  0.00000000000000000E+000  0.00000000000000000E+000  0.00000000000000000E+000  0.00000000000000000E+000  0.00000000000000000E+000  0.00000000000000000E+000  0.00000000000000000E+000  0.00000000000000000E+000  0.00000000000000000E+000  0.00000000000000000E+000  0.00000000000000000E+000  0.00000000000000000E+000  0.00000000000000000E+000  0.00000000000000000E+000  0.00000000000000000E+000  0.00000000000000000E+000  0.00000000000000000E+000  0.00000000000000000E+000  0.00000000000000000E+000  0.00000000000000000E+000  0.00000000000000000E+000  
0.00000000000000000E+000  0.00000000000000000E+000  0.00000000000000000E+000  0.00000000000000000E+000  0.00000000000000000E+000  0.00000000000000000E+000  0.00000000000000000E+000  0.00000000000000000E+000 -0.37000818586704725E-008 -0.63097453188442544E-008 -0.78961526859391893E-008 -0.89165642030620156E-008 -0.95000352832583776E-008  </sparseX_slice>
        <sparseX_slice start="501" end="550">  0.22294597365016047E-006  0.38018915102157537E-006  0.47577608495811102E-006  0.53725862152958264E-006  0.57241296932771382E-006 -0.73301937635966170E-005 -0.12500956778778393E-004 -0.15645926686496497E-004 -0.17671121514530115E-004 -0.18832080483249438E-004  0.36119391172223790E-003  0.61587807061795380E-003  0.77056044169293374E-003  0.86986657784940012E-003  0.92640682539311665E-003  0.24941592981662605E-002  0.42547878579388132E-002  0.53283089884415278E-002  0.60233265041595074E-002  0.64267333777761389E-002  0.19798159848031238E-002  0.33822142886185389E-002  0.42477290775194271E-002  0.48224502708175947E-002  0.51749063875643391E-002 -0.30213463699871033E-002  0.00000000000000000E+000  0.00000000000000000E+000  0.00000000000000000E+000  0.00000000000000000E+000  0.00000000000000000E+000  0.00000000000000000E+000  0.00000000000000000E+000  0.00000000000000000E+000  0.00000000000000000E+000  0.00000000000000000E+000  0.00000000000000000E+000  
0.00000000000000000E+000  0.00000000000000000E+000  0.00000000000000000E+000  0.00000000000000000E+000  0.00000000000000000E+000  0.00000000000000000E+000  0.00000000000000000E+000  0.00000000000000000E+000  0.00000000000000000E+000  0.00000000000000000E+000  0.00000000000000000E+000  0.00000000000000000E+000  0.00000000000000000E+000  </sparseX_slice>
        <sparseX_slice start="551" end="600">  0.00000000000000000E+000  0.00000000000000000E+000  0.00000000000000000E+000  0.00000000000000000E+000  0.00000000000000000E+000  0.00000000000000000E+000  0.00000000000000000E+000  0.00000000000000000E+000  0.00000000000000000E+000  0.00000000000000000E+000  0.00000000000000000E+000  0.00000000000000000E+000  0.00000000000000000E+000  0.00000000000000000E+000  0.00000000000000000E+000  0.17798897278852207E-009  0.30350508061775200E-009  0.37976445519988776E-009  0.42875877787527102E-009  0.45669806250618890E-009 -0.10724607279793432E-007 -0.18287479620799282E-007 -0.22882390055982265E-007 -0.25834429576682820E-007 -0.27517781381935886E-007  0.35261210647707129E-006  0.60130856369288937E-006  0.75248884621688382E-006  0.84972734920177658E-006  0.90532028705379235E-006 -0.17374894875436526E-004 -0.29624353128066650E-004 -0.37060006053225854E-004 -0.41828099068156185E-004 -0.44535434830978055E-004 -0.11997919732810166E-003 -0.20465956493972832E-003 
-0.25626434044714538E-003 -0.28963556498368392E-003 -0.30895429273264006E-003 -0.13468573126541839E-003 -0.23007543570688186E-003 -0.28891532798449991E-003 -0.32794290470210106E-003 -0.35182074723661349E-003  0.45812960259294992E-005  0.78254512574560446E-005  0.98254932483990765E-005  0.11150612521113459E-004  0.11959427757338363E-004  </sparseX_slice>
        <sparseX_slice start="601" end="650">  0.15047749611918831E-003  0.00000000000000000E+000  0.00000000000000000E+000  0.00000000000000000E+000  0.00000000000000000E+000  0.00000000000000000E+000  0.00000000000000000E+000  0.00000000000000000E+000  0.00000000000000000E+000  0.00000000000000000E+000  0.00000000000000000E+000  0.00000000000000000E+000  0.00000000000000000E+000  0.00000000000000000E+000  0.00000000000000000E+000  0.00000000000000000E+000  0.00000000000000000E+000  0.00000000000000000E+000  0.00000000000000000E+000  0.00000000000000000E+000  0.00000000000000000E+000  0.00000000000000000E+000  0.00000000000000000E+000  0.00000000000000000E+000  0.00000000000000000E+000  0.00000000000000000E+000  0.00000000000000000E+000  0.00000000000000000E+000  0.00000000000000000E+000  0.00000000000000000E+000  0.00000000000000000E+000  0.00000000000000000E+000  0.00000000000000000E+000  0.00000000000000000E+000  0.00000000000000000E+000  0.00000000000000000E+000  0.00000000000000000E+000  
0.00000000000000000E+000  0.00000000000000000E+000  0.00000000000000000E+000 -0.88647019183561773E-011 -0.15116002603451438E-010 -0.18914079538862918E-010 -0.21354223235894951E-010 -0.22745722245554996E-010  0.53413672340117151E-009  0.91080382903612748E-009  0.11396520649367565E-008  0.12866772759413401E-008  0.13705155846132720E-008  </sparseX_slice>
        <sparseX_slice start="651" end="681"> -0.17561768955410698E-007 -0.29948038417541149E-007 -0.37477530333801320E-007 -0.42320457191382761E-007 -0.45089229587683289E-007  0.86535284473225241E-006  0.14754342764146412E-005  0.18457649013847522E-005  0.20832379676536367E-005  0.22180751658798966E-005  0.59755377204235650E-005  0.10193023820732791E-004  0.12763185316120091E-004  0.14425226562977540E-004  0.15387384151587656E-004  0.67079934313815693E-005  0.11458855575190764E-004  0.14389360085369868E-004  0.16333113995566300E-004  0.17522336208201408E-004 -0.32268174216901600E-006 -0.55118245022486542E-006 -0.69205443598201252E-006 -0.78538838908731422E-006 -0.84235655534564559E-006  0.11363979334658433E-007  0.19411154925182447E-007  0.24372279856811150E-007  0.27659239371164679E-007  0.29665489885098785E-007  0.00000000000000000E+000  </sparseX_slice>
      </sparseX>
      <sparseX i="5" alpha="413.95153387886927" sparseCutoff="1.0000000000000000" sliced="T">
        <sparseX_slice start="1" end="50">  0.96054098752969286E+000  0.10864433893286501E-014  0.13549628060764340E-014  0.15222370737488477E-014  0.16107824032480086E-014  0.21093523817456220E-005 -0.92560178209292313E-013 -0.11543677405702684E-012 -0.12968767266555578E-012 -0.13723116255256490E-012  0.23160737168638442E-011  0.39428591835926334E-011  0.49173485592863434E-011  0.55243998229487569E-011  0.58457281186939140E-011 -0.70250566583134549E-004  0.30827148854844156E-011  0.38447688994537592E-011  0.43196629662787564E-011  0.45712712181659587E-011 -0.10908576197852755E-009 -0.18571006502415872E-009 -0.23161786301266955E-009 -0.26022634806254217E-009 -0.27538346318248475E-009  0.25689388424452115E-008  0.43735049421486632E-008  0.54548537509349899E-008  0.61289691546820068E-008  0.64864504690069865E-008  0.34348196114125525E-002 -0.15073036833112801E-009 -0.18800299254116401E-009 -0.21124496982699316E-009 -0.22357947655556769E-009  0.53336212474004758E-008  0.90803553178712189E-008  
0.11325739598694173E-007  0.12725878725676707E-007  0.13468920921979758E-007 -0.17763267902143916E-006 -0.30242105239463539E-006 -0.37721819349230682E-006 -0.42387611647888289E-006 -0.44865968782284150E-006  0.61413234396619486E-005  0.10455972285531022E-004  0.13042839643245206E-004  0.14657518873623814E-004  0.15516615477070468E-004  </sparseX_slice>
        <sparseX_slice start="51" end="100">  0.35566573654994132E-001 -0.15622193876093779E-008 -0.19521519658498963E-008 -0.21996308001996413E-008 -0.23367952964860546E-008  0.55228120950869401E-007  0.94111805610381560E-007  0.11760219623873205E-006  0.13251077565316282E-006  0.14077370402735710E-006 -0.18393355333591413E-005 -0.31343918050690745E-005 -0.39168910453333246E-005 -0.44136954458113763E-005 -0.46892758869428054E-005  0.89932168083989441E-004  0.15325712848007696E-003  0.19152964904730021E-003  0.21584345087903180E-003  0.22935104879818460E-003  0.65847328639737968E-003  0.11231737608209406E-002  0.14062737665865637E-002  0.15892319733322932E-002  0.16950185967603310E-002  0.82974852785785772E-001 -0.36481056208639712E-008 -0.45675132008740382E-008 -0.51614844200990244E-008 -0.55045127657763084E-008  0.12884415715682791E-006  0.21977054552003657E-006  0.27515766864918854E-006  0.31093959221109316E-006  0.33160399289978087E-006 -0.42910682537087559E-005 -0.73194536265232945E-005 
-0.91644768793173449E-005 -0.10356838191459124E-004 -0.11045973526538096E-004  0.20980678318524961E-003  0.35788711641916926E-003  0.44812812510805380E-003  0.50648163718721199E-003  0.54025518531820892E-003  0.21724891702265582E-002  0.37092604366055853E-002  0.46531929548449683E-002  0.52738420697304288E-002  0.56466085143554003E-002  </sparseX_slice>
        <sparseX_slice start="101" end="150">  0.35838273869650940E-002  0.61248817709697598E-002  0.76984315534716439E-002  0.87505822444974880E-002  0.94052619172824356E-002 -0.35847283846169422E-002  0.15757679238307499E-009  0.19721253290695026E-009  0.22272720587356750E-009  0.23734199348982191E-009 -0.55664010461643052E-008 -0.94928001605184975E-008 -0.11880543831311487E-007 -0.13417594810315170E-007 -0.14298005304547439E-007  0.18538525412163839E-006  0.31615751963646701E-006  0.39569665563123121E-006  0.44691593431644759E-006  0.47627709996864934E-006 -0.90641960270904797E-005 -0.15458626942715821E-004 -0.19348927683994501E-004 -0.21855580816577081E-004 -0.23294567227432543E-004 -0.93857154695888267E-004 -0.16021832218095932E-003 -0.20091194669216239E-003 -0.22757563770520791E-003 -0.24346883698519420E-003 -0.21896356026104071E-003 -0.37414294455030862E-003 -0.47008019087808742E-003 -0.53401148424677444E-003 -0.57351079201032218E-003  0.66890834218988256E-005  0.11427399596532264E-004  
0.14351974445777150E-004  0.16294245190756397E-004  0.17485670864089225E-004  0.17850591343530604E-003 -0.78467257495296517E-011 -0.98204289682575872E-011 -0.11090951590521742E-010 -0.11818696541543677E-010  0.27718571581511348E-009  0.47270539226105121E-009  0.59160558956318462E-009  0.66814421668323933E-009  0.71198435371309290E-009  </sparseX_slice>
        <sparseX_slice start="151" end="200"> -0.92314843898432732E-008 -0.15743443642436711E-007 -0.19704178240218927E-007 -0.22254681340321891E-007 -0.23716723835713961E-007  0.45136267459364457E-006  0.76978090649857397E-006  0.96350250732936099E-006  0.10883232152474067E-005  0.11599777059234148E-005  0.46737312660352835E-005  0.79782639003559481E-005  0.10004645608885640E-004  0.11332384703839716E-004  0.12123789218000196E-004  0.10903557017366726E-004  0.18630897561810499E-004  0.23408193464465819E-004  0.26591702155711036E-004  0.28558578759729852E-004 -0.47106188225909730E-006 -0.80474563571228890E-006 -0.10107007732391082E-005 -0.11474791045576793E-005 -0.12313805603672601E-005  0.16586674355938382E-007  0.28336085245260005E-007  0.35587997208519861E-007  0.40404089909714002E-007  0.43358304529351739E-007  0.44652472887969454E-001 -0.17487702199845246E-008 -0.17900664211207985E-008 -0.15002445169342572E-008 -0.10800431032718125E-008  0.69336793511058848E-007  0.10535007074279113E-006  
0.10783778426049019E-006  0.90378151001668002E-007  0.65064179299490369E-007 -0.23092154119733535E-005 -0.35086820007119933E-005 -0.35916748583593896E-005 -0.30103335484278697E-005 -0.21673357904508320E-005  0.11290639734037975E-003  0.17155817192643569E-003  0.17562710250344598E-003  0.14721468424066714E-003  0.10600373034605450E-003  </sparseX_slice>
        <sparseX_slice start="201" end="250">  0.11691134182954125E-002  0.17780856323360585E-002  0.18236454046525602E-002  0.15329025536685622E-002  0.11079237785990230E-002  0.27274770607352912E-002  0.41521979826591327E-002  0.42668422362484842E-002  0.35969912076027405E-002  0.26098052285436217E-002 -0.11783406791032362E-003 -0.17935062946229809E-003 -0.18423039582324480E-003 -0.15521654935185829E-003 -0.11252882896627205E-003  0.58676908455305089E-005  0.89309801342759301E-005  0.91739682529699520E-005  0.77291825583557565E-005  0.56034925053609284E-005  0.10378751978812419E-002  0.14074351744155233E-002  0.11824449267736820E-002  0.73928484905717406E-003  0.36208897693843406E-003  0.16975026095394527E+000 -0.68447633713656427E-008 -0.72168009104601757E-008 -0.63464386384418428E-008 -0.49064628153475584E-008  0.26358985361778670E-006  0.41234479930554701E-006  0.43475695116711856E-006  0.38232393660736321E-006  0.29557614448625815E-006 -0.87786833164834944E-005 -0.13733135300334598E-004 
-0.14480134414037918E-004 -0.12734522226670848E-004 -0.98458593291370569E-005  0.42922349362342003E-003  0.67148621233435019E-003  0.70805519744611737E-003  0.62275779025688460E-003  0.48155796713619911E-003  0.44444863857444920E-002  0.69595051815744408E-002  0.73521773613365714E-002  0.64845909355152453E-002  0.50331202573934688E-002  </sparseX_slice>
        <sparseX_slice start="251" end="300">  0.10368741367747561E-001  0.16251885089062786E-001  0.17202127570254001E-001  0.15216242235442195E-001  0.11855927111018572E-001 -0.44795646205815184E-003 -0.70198623303739302E-003 -0.74274008641487697E-003 -0.65660783626474389E-003 -0.51120044496841559E-003  0.22306537304773535E-004  0.34956248107900119E-004  0.36985612187011973E-004  0.32696525318525320E-004  0.25455768876580594E-004  0.55798826663905690E-002  0.77905673837460670E-002  0.67417322251976100E-002  0.44227749469071655E-002  0.23262571737070032E-002  0.14999438580980781E-001  0.21561540191679680E-001  0.19219057212364856E-001  0.13229635543009001E-001  0.74725727416211909E-002  0.16726934321276204E+000 -0.70504277834890996E-008 -0.81100835373859164E-008 -0.80624124519278483E-008 -0.72374245337228328E-008  0.25973746045761550E-006  0.42473451186976961E-006  0.48857038404842350E-006  0.48569811240309609E-006  0.43599842089835835E-006 -0.86503819456243237E-005 -0.14145774429682860E-004 
-0.16272459388509857E-004 -0.16177729970910183E-004 -0.14523428903074774E-004  0.42295034756591909E-003  0.69166233963284551E-003  0.79569699533281577E-003  0.79114137057738907E-003  0.71033646374722139E-003  0.43795297543798278E-002  0.71686172376356381E-002  0.82622166416830081E-002  0.82379188837462015E-002  0.74242543769194981E-002  </sparseX_slice>
        <sparseX_slice start="301" end="350">  0.10217201132884744E-001  0.16740205022330718E-001  0.19331375958192190E-001  0.19330466716794652E-001  0.17488439426242185E-001 -0.44140953171617573E-003 -0.72307879359841522E-003 -0.83467511742759022E-003 -0.83414391861732411E-003 -0.75406148610592471E-003  0.21980524939120726E-004  0.36006577509677314E-004  0.41563624691830269E-004  0.41537134112679951E-004  0.37549292255074771E-004  0.54983321001471101E-002  0.80246503423753029E-002  0.75762117053542058E-002  0.56186213773546474E-002  0.34314151302791813E-002  0.20902387895808859E-001  0.31408833535599263E-001  0.30544124445843451E-001  0.23768282704266296E-001  0.15588369287978947E-001  0.14564205766369688E-001  0.22876724373513648E-001  0.24271313828103616E-001  0.21350976029285013E-001  0.16259276788631601E-001 -0.10210092037325220E-001  0.43008436916117605E-009  0.49407551462000935E-009  0.49014265169898311E-009  0.43865782406553855E-009 -0.15854330063579997E-007 -0.25909303691653410E-007 
-0.29764263563261239E-007 -0.29527311106679998E-007 -0.26425715075319231E-007  0.52801783116048093E-006  0.86290884166402621E-006  0.99133673647739582E-006  0.98350159008746678E-006  0.88026005534268021E-006 -0.25816816715624249E-004 -0.42192214451180784E-004 -0.48474766090679897E-004 -0.48096290230208568E-004 -0.43053249963421085E-004  </sparseX_slice>
        <sparseX_slice start="351" end="400"> -0.26732574549267872E-003 -0.43729406457102845E-003 -0.50334363639086758E-003 -0.50081231024034242E-003 -0.44998151692137253E-003 -0.62365620577541428E-003 -0.10211721526342456E-002 -0.11776894135341128E-002 -0.11751676401624829E-002 -0.10599683284118870E-002  0.26943562151985094E-004  0.44108655013369856E-004  0.50849357627760983E-004  0.50710567662897680E-004  0.45703408604207597E-004 -0.13416874745044266E-005 -0.21964434853396860E-005 -0.25321032963993476E-005 -0.25251897219791894E-005 -0.22758497527765547E-005 -0.33561724889942952E-003 -0.48951308859893571E-003 -0.46155143531351975E-003 -0.34157592373368253E-003 -0.20797689668476156E-003 -0.12758781741889344E-002 -0.19159757070175353E-002 -0.18607828063213700E-002 -0.14449582157279115E-002 -0.94480572760840382E-003 -0.12572310818065985E-002 -0.19735449750911465E-002 -0.20911071528001224E-002 -0.18356514219540923E-002 -0.13936639102217539E-002  0.54264201509375613E-004  0.85127566891022026E-004  
0.90080190043702432E-004  0.78910119572527093E-004  0.59728951044508752E-004  0.57618793850773694E-003 -0.24271000923957900E-010 -0.27882157000084362E-010 -0.27660112918543695E-010 -0.24754550334425236E-010  0.89471022615272630E-009  0.14621427304268370E-008  0.16796862930983440E-008  0.16663082809886233E-008  0.14912687248852859E-008  </sparseX_slice>
        <sparseX_slice start="401" end="450"> -0.29797724106646373E-007 -0.48696634416560935E-007 -0.55944092974678672E-007 -0.55501729839445914E-007 -0.49675260879670712E-007  0.14569250059477991E-005  0.23810381156741658E-005  0.27355758354513794E-005  0.27142074131260075E-005  0.24296018099083680E-005  0.15086041305247860E-004  0.24677866498485229E-004  0.28405184793739982E-004  0.28262231422275848E-004  0.25393574442495025E-004  0.35194901498403307E-004  0.57627926140272304E-004  0.66460531141175445E-004  0.66317978067078373E-004  0.59816644999926744E-004 -0.15205108314062180E-005 -0.24891888274666462E-005 -0.28695811283444855E-005 -0.28617383589392910E-005 -0.25791568431676402E-005  0.75715687697060209E-007  0.12395214912384485E-006  0.14289415192925764E-006  0.14250347854564245E-006  0.12843185318468004E-006  0.18939947853952996E-004  0.27624748718133043E-004  0.26046726061548206E-004  0.19276079296465617E-004  0.11736652750576004E-004  0.72001859756547969E-004  0.10812447856684701E-003  
0.10500953156687526E-003  0.81543010531875273E-004  0.53317733452398484E-004  0.70949545078123575E-004  0.11137329172723081E-003  0.11800742237391411E-003  0.10359091467419998E-003  0.78647915350306925E-004 -0.43307480697917095E-005 -0.67939015028397451E-005 -0.71891464088624465E-005 -0.62976591576128739E-005 -0.47668232330583239E-005  </sparseX_slice>
        <sparseX_slice start="451" end="500">  0.17281539507002708E-006  0.27110546745319991E-006  0.28687675982358261E-006  0.25130180438399229E-006  0.19021432101069550E-006 -0.30483579492105278E-004  0.12840723227862447E-011  0.14751227635540620E-011  0.14633753745165086E-011  0.13096547773089492E-011 -0.47335198254865748E-010 -0.77355565927688379E-010 -0.88864842363939431E-010 -0.88157069782492791E-010 -0.78896493105811320E-010  0.15764670358100172E-008  0.25763255773033508E-008  0.29597568449630238E-008  0.29363533304906507E-008  0.26281003632150860E-008 -0.77079519137225626E-007 -0.12597029489699893E-006 -0.14472733175882127E-006 -0.14359682122034797E-006 -0.12853958461446815E-006 -0.79813635207417931E-006 -0.13055977977751793E-005 -0.15027938725141946E-005 -0.14952308262096086E-005 -0.13434627424968827E-005 -0.18620080460587183E-005 -0.30488410926328864E-005 -0.35161355114650874E-005 -0.35085936300001916E-005 -0.31646365548318668E-005  0.80443566586661798E-007  0.13169207522808008E-006  
0.15181696467290152E-006  0.15140203711798626E-006  0.13645188603511734E-006 -0.40057853183987813E-008 -0.65577651510322423E-008 -0.75599034998964637E-008 -0.75392346336673685E-008 -0.67947665301779424E-008 -0.10020296632338343E-005 -0.14615044251374425E-005 -0.13780181543820425E-005 -0.10198128924037833E-005 -0.62093486396447491E-006  </sparseX_slice>
        <sparseX_slice start="501" end="550"> -0.38093029527008628E-005 -0.57203924460459391E-005 -0.55555942247932201E-005 -0.43140833852593396E-005 -0.28208076247748233E-005 -0.37536295933564480E-005 -0.58922729166628167E-005 -0.62432556782308092E-005 -0.54805413847835610E-005 -0.41609165455402652E-005  0.22912090695214090E-006  0.35943556307647240E-006  0.38034623785397395E-006  0.33318155119210107E-006  0.25219172780045879E-006 -0.12930020862021735E-007 -0.20284068682959006E-007 -0.21464074224346212E-007 -0.18802361509254840E-007 -0.14231805469470877E-007  0.48371107048816900E-009  0.75882542355222790E-009  0.80296933531938736E-009  0.70339486656552497E-009  0.53241071924724406E-009  0.15482680876863292E-005 -0.65218331730336037E-013 -0.74921828022104649E-013 -0.74325175401585965E-013 -0.66517670539268426E-013  0.24041657214597932E-011  0.39289071731668228E-011  0.45134659984240051E-011  0.44775180644531966E-011  0.40071712225564678E-011 -0.80069127166192354E-010 -0.13085217488477070E-009 
-0.15032673808876504E-009 -0.14913806814731713E-009 -0.13348182829041345E-009  0.39148866925316651E-008  0.63980605570052072E-008  0.73507348188482481E-008  0.72933159257506297E-008  0.65285553786993273E-008  0.40537530832258891E-007  0.66311615608174975E-007  0.76327250077755824E-007  0.75943121197187903E-007  0.68234784949063412E-007  </sparseX_slice>
        <sparseX_slice start="551" end="600">  0.94571821444870287E-007  0.15485134773480519E-006  0.17858533987889856E-006  0.17820228596426307E-006  0.16073262616837952E-006 -0.40857474443923026E-008 -0.66886711099301814E-008 -0.77108189223901171E-008 -0.76897446553449650E-008 -0.69304230068903035E-008  0.20345476738404274E-009  0.33307041623764796E-009  0.38396925589996285E-009  0.38291947937567077E-009  0.34510777135813384E-009  0.50893319496872535E-007  0.74230149449171561E-007  0.69989862352338160E-007  0.51796533838594273E-007  0.31537426063075357E-007  0.19347538236195283E-006  0.29054006192144745E-006  0.28216992195802478E-006  0.21911329785251280E-006  0.14326947489549383E-006  0.19064771950072042E-006  0.29926991097413500E-006  0.31709640701053030E-006  0.27835797076623120E-006  0.21133391845929708E-006 -0.11637104118550783E-007 -0.18255815792007988E-007 -0.19317873824069411E-007 -0.16922368425877891E-007 -0.12808876471270632E-007  0.65671876490001264E-009  0.10302325630192393E-008  
0.10901653187261791E-008  0.95497631125651346E-009  0.72283670765696954E-009 -0.34744112703285820E-010 -0.54505091254819803E-010 -0.57675870546360183E-010 -0.50523612150639485E-010 -0.38242122543455303E-010  0.12478041554024682E-011  0.19575022663244766E-011  0.20713780072045671E-011  0.18145109568484848E-011  0.13734320927050176E-011  </sparseX_slice>
        <sparseX_slice start="601" end="650"> -0.77118449175692094E-007  0.32484920672783850E-014  0.37318183022855614E-014  0.37020993374905870E-014  0.33132114751737373E-014 -0.11975027676079078E-012 -0.19569687611572102E-012 -0.22481345509472684E-012 -0.22302290671298714E-012 -0.19959516877131574E-012  0.39882026652990183E-011  0.65176805481146777E-011  0.74876986765062427E-011  0.74284916288408432E-011  0.66486622522038799E-011 -0.19499852307733017E-009 -0.31868415542022412E-009 -0.36613637782746455E-009 -0.36327637184768494E-009 -0.32518403638690813E-009 -0.20191538765532946E-008 -0.33029479834328783E-008 -0.38018216629639403E-008 -0.37826883980024554E-008 -0.33987400741249019E-008 -0.47105745210104893E-008 -0.77130671910440403E-008 -0.88952453173370919E-008 -0.88761655958840711E-008 -0.80060106906705632E-008  0.20350901057835177E-009  0.33315931985324868E-009  0.38407198462503469E-009  0.38302228605863354E-009  0.34520085938189204E-009 -0.10133978903811968E-010 -0.16590068716673908E-010 
-0.19125314137552697E-010 -0.19073025300639414E-010 -0.17189643277727127E-010 -0.25349704642345956E-008 -0.36973661429361489E-008 -0.34861595905513989E-008 -0.25799591130743146E-008 -0.15708632169844130E-008 -0.96369107908982954E-008 -0.14471653311846066E-007 -0.14054740880144705E-007 -0.10913922374650140E-007 -0.71361799716909658E-008  </sparseX_slice>
