<GAP_2023_3_22_60_12_47_42_89>
<Potential label="GAP_2023_3_22_60_12_47_42_89" init_args="IP GAP label=GAP_2023_3_22_60_12_47_42_89"/>
<GAP_params label="GAP_2023_3_22_60_12_47_42_89" gap_version="1662319253">
  <GAP_data do_core="F">
    <e0 Z="1" value=".00000000000000000E+000"/>
    <e0 Z="2" value=".00000000000000000E+000"/>
    <e0 Z="3" value=".00000000000000000E+000"/>
    <e0 Z="4" value=".00000000000000000E+000"/>
    <e0 Z="5" value=".00000000000000000E+000"/>
    <e0 Z="6" value="-73.287094681898779"/>
    <e0 Z="7" value=".00000000000000000E+000"/>
    <e0 Z="8" value="-73.287094681898779"/>
    <e0 Z="9" value=".00000000000000000E+000"/>
    <e0 Z="10" value=".00000000000000000E+000"/>
    <e0 Z="11" value=".00000000000000000E+000"/>
    <e0 Z="12" value=".00000000000000000E+000"/>
    <e0 Z="13" value=".00000000000000000E+000"/>
    <e0 Z="14" value=".00000000000000000E+000"/>
    <e0 Z="15" value=".00000000000000000E+000"/>
    <e0 Z="16" value=".00000000000000000E+000"/>
    <e0 Z="17" value=".00000000000000000E+000"/>
    <e0 Z="18" value=".00000000000000000E+000"/>
    <e0 Z="19" value=".00000000000000000E+000"/>
    <e0 Z="20" value=".00000000000000000E+000"/>
    <e0 Z="21" value=".00000000000000000E+000"/>
    <e0 Z="22" value=".00000000000000000E+000"/>
    <e0 Z="23" value=".00000000000000000E+000"/>
    <e0 Z="24" value=".00000000000000000E+000"/>
    <e0 Z="25" value=".00000000000000000E+000"/>
    <e0 Z="26" value=".00000000000000000E+000"/>
    <e0 Z="27" value=".00000000000000000E+000"/>
    <e0 Z="28" value=".00000000000000000E+000"/>
    <e0 Z="29" value=".00000000000000000E+000"/>
    <e0 Z="30" value=".00000000000000000E+000"/>
    <e0 Z="31" value=".00000000000000000E+000"/>
    <e0 Z="32" value=".00000000000000000E+000"/>
    <e0 Z="33" value=".00000000000000000E+000"/>
    <e0 Z="34" value=".00000000000000000E+000"/>
    <e0 Z="35" value=".00000000000000000E+000"/>
    <e0 Z="36" value=".00000000000000000E+000"/>
    <e0 Z="37" value=".00000000000000000E+000"/>
    <e0 Z="38" value=".00000000000000000E+000"/>
    <e0 Z="39" value=".00000000000000000E+000"/>
    <e0 Z="40" value=".00000000000000000E+000"/>
    <e0 Z="41" value=".00000000000000000E+000"/>
    <e0 Z="42" value=".00000000000000000E+000"/>
    <e0 Z="43" value=".00000000000000000E+000"/>
    <e0 Z="44" value=".00000000000000000E+000"/>
    <e0 Z="45" value=".00000000000000000E+000"/>
    <e0 Z="46" value=".00000000000000000E+000"/>
    <e0 Z="47" value=".00000000000000000E+000"/>
    <e0 Z="48" value=".00000000000000000E+000"/>
    <e0 Z="49" value=".00000000000000000E+000"/>
    <e0 Z="50" value=".00000000000000000E+000"/>
    <e0 Z="51" value=".00000000000000000E+000"/>
    <e0 Z="52" value=".00000000000000000E+000"/>
    <e0 Z="53" value=".00000000000000000E+000"/>
    <e0 Z="54" value=".00000000000000000E+000"/>
    <e0 Z="55" value=".00000000000000000E+000"/>
    <e0 Z="56" value=".00000000000000000E+000"/>
    <e0 Z="57" value=".00000000000000000E+000"/>
    <e0 Z="58" value=".00000000000000000E+000"/>
    <e0 Z="59" value=".00000000000000000E+000"/>
    <e0 Z="60" value=".00000000000000000E+000"/>
    <e0 Z="61" value=".00000000000000000E+000"/>
    <e0 Z="62" value=".00000000000000000E+000"/>
    <e0 Z="63" value=".00000000000000000E+000"/>
    <e0 Z="64" value=".00000000000000000E+000"/>
    <e0 Z="65" value=".00000000000000000E+000"/>
    <e0 Z="66" value=".00000000000000000E+000"/>
    <e0 Z="67" value=".00000000000000000E+000"/>
    <e0 Z="68" value=".00000000000000000E+000"/>
    <e0 Z="69" value=".00000000000000000E+000"/>
    <e0 Z="70" value=".00000000000000000E+000"/>
    <e0 Z="71" value=".00000000000000000E+000"/>
    <e0 Z="72" value=".00000000000000000E+000"/>
    <e0 Z="73" value=".00000000000000000E+000"/>
    <e0 Z="74" value=".00000000000000000E+000"/>
    <e0 Z="75" value=".00000000000000000E+000"/>
    <e0 Z="76" value=".00000000000000000E+000"/>
    <e0 Z="77" value=".00000000000000000E+000"/>
    <e0 Z="78" value=".00000000000000000E+000"/>
    <e0 Z="79" value=".00000000000000000E+000"/>
    <e0 Z="80" value=".00000000000000000E+000"/>
    <e0 Z="81" value=".00000000000000000E+000"/>
    <e0 Z="82" value=".00000000000000000E+000"/>
    <e0 Z="83" value=".00000000000000000E+000"/>
    <e0 Z="84" value=".00000000000000000E+000"/>
    <e0 Z="85" value=".00000000000000000E+000"/>
    <e0 Z="86" value=".00000000000000000E+000"/>
    <e0 Z="87" value=".00000000000000000E+000"/>
    <e0 Z="88" value=".00000000000000000E+000"/>
    <e0 Z="89" value=".00000000000000000E+000"/>
    <e0 Z="90" value=".00000000000000000E+000"/>
    <e0 Z="91" value=".00000000000000000E+000"/>
    <e0 Z="92" value=".00000000000000000E+000"/>
    <e0 Z="93" value=".00000000000000000E+000"/>
    <e0 Z="94" value=".00000000000000000E+000"/>
    <e0 Z="95" value=".00000000000000000E+000"/>
    <e0 Z="96" value=".00000000000000000E+000"/>
    <e0 Z="97" value=".00000000000000000E+000"/>
    <e0 Z="98" value=".00000000000000000E+000"/>
    <e0 Z="99" value=".00000000000000000E+000"/>
    <e0 Z="100" value=".00000000000000000E+000"/>
    <e0 Z="101" value=".00000000000000000E+000"/>
    <e0 Z="102" value=".00000000000000000E+000"/>
    <e0 Z="103" value=".00000000000000000E+000"/>
    <e0 Z="104" value=".00000000000000000E+000"/>
    <e0 Z="105" value=".00000000000000000E+000"/>
    <e0 Z="106" value=".00000000000000000E+000"/>
    <e0 Z="107" value=".00000000000000000E+000"/>
    <e0 Z="108" value=".00000000000000000E+000"/>
    <e0 Z="109" value=".00000000000000000E+000"/>
    <e0 Z="110" value=".00000000000000000E+000"/>
    <e0 Z="111" value=".00000000000000000E+000"/>
    <e0 Z="112" value=".00000000000000000E+000"/>
    <e0 Z="113" value=".00000000000000000E+000"/>
    <e0 Z="114" value=".00000000000000000E+000"/>
    <e0 Z="115" value=".00000000000000000E+000"/>
    <e0 Z="116" value=".00000000000000000E+000"/>
    <e0 Z="117" value=".00000000000000000E+000"/>
    <e0 Z="118" value=".00000000000000000E+000"/>
  </GAP_data>
  <gpSparse label="GAP_2023_3_22_60_12_47_42_89" n_coordinate="2" fitted="T">
    <gpCoordinates label="GAP_2023_3_22_60_12_47_42_891" dimensions="681" signal_variance=".72770126504682189E-001" signal_mean=".00000000000000000E+000" sparsified="T" n_permutations="1" covariance_type="2" zeta="4.0000000000000000" n_sparseX="24">
      <descriptor> soap=T l_max=4 n_max=8 cutoff=4 delta=0.07277012650468219 covariance_type=dot_product zeta=4 n_sparse=1000 sparse_method=cur_points atom_gaussian_width=0.3 cutoff_transition_width=0.5               n_species=2 Z=8 species_Z={8 6 }</descriptor>
      <permutation i="1">1  </permutation>
      <sparseX i="1" alpha="51408.117068729807" sparseCutoff="1.0000000000000000" sliced="T">
        <sparseX_slice start="1" end="50">  0.95046005354605134E+000  0.19774754971838571E-007  0.24354054087743807E-007  0.26405879724349287E-007  0.25995458262607781E-007  0.26594322870792265E-001 -0.48822034501547369E-005 -0.57577978868410642E-005 -0.59000103149997854E-005 -0.54559688884588214E-005  0.37206088057948900E-003  0.60268535723066524E-003  0.68063075630589367E-003  0.65913580763993424E-003  0.57255379403425865E-003  0.13165774624841789E+000 -0.24214480985024350E-004 -0.28662802833497786E-004 -0.29533954886676477E-004 -0.27514643758763410E-004  0.26048725958838521E-002  0.42273181021838802E-002  0.47916910450210362E-002  0.46661504701744532E-002  0.40834129687799979E-002  0.91186168648238440E-002  0.14825495694108981E-001  0.16866930312957978E-001  0.16516292968719405E-001  0.14561305546604217E-001  0.70938676095481448E-001 -0.13190437044320965E-004 -0.15956998262805905E-004 -0.16982921774222206E-004 -0.16511548809346368E-004  0.14035346845504813E-002  0.23027614478980662E-002  
0.26676039369026559E-002  0.26831783527058984E-002  0.24504577683748690E-002  0.69483330802283987E-002  0.11421108084180226E-001  0.13279557077897458E-001  0.13431310148773150E-001  0.12357745053376647E-001  0.26472947218585071E-002  0.43992360377656343E-002  0.52275853671387550E-002  0.54612767118566051E-002  0.52438245429122501E-002  </sparseX_slice>
        <sparseX_slice start="51" end="100"> -0.39160641018093963E-002  0.72807916177759008E-006  0.88059259775134546E-006  0.93689384053868932E-006  0.91047210001329780E-006 -0.77480044685562051E-004 -0.12710667729400339E-003 -0.14721266756318870E-003 -0.14802242541872833E-003 -0.13512199589073474E-003 -0.38357239295350095E-003 -0.63041662475326059E-003 -0.73283705817466926E-003 -0.74096271042422982E-003 -0.68142499653381567E-003 -0.20667312420460119E-003 -0.34340900412624864E-003 -0.40798102447073064E-003 -0.42607608080376619E-003 -0.40892341506668491E-003  0.80674395479668606E-005  0.13403434494376234E-004  0.15920210253715104E-004  0.16620731397748684E-004  0.15944312974374659E-004  0.20717372563445650E-003 -0.38517971013885082E-007 -0.46586454858343527E-007 -0.49564959885599281E-007 -0.48167118516304210E-007  0.40989700634408404E-005  0.67243942262108582E-005  0.77880694313369232E-005  0.78309038448048234E-005  0.71484202427878156E-005  0.20292344464428879E-004  0.33351276281046780E-004  
0.38769665582421522E-004  0.39199518056160458E-004  0.36049735700343928E-004  0.10933743681620666E-004  0.18167554795205952E-004  0.21583635415628727E-004  0.22540914391228663E-004  0.21633460923537569E-004 -0.60358105742415040E-006 -0.10028036237462609E-005 -0.11911005608033653E-005 -0.12435106358027867E-005 -0.11929021816814399E-005  </sparseX_slice>
        <sparseX_slice start="101" end="150">  0.22579040767220139E-007  0.37513336907065323E-007  0.44557217628926152E-007  0.46517769415493420E-007  0.44624551002836492E-007 -0.10522400944567449E-004  0.19563365634271783E-008  0.23661367028837142E-008  0.25174156521386863E-008  0.24464189656535047E-008 -0.20818762772749109E-006 -0.34153352176553364E-006 -0.39555782860332070E-006 -0.39773339784407499E-006 -0.36306989903284284E-006 -0.10306528200238235E-005 -0.16939189554416877E-005 -0.19691201868018015E-005 -0.19909524901994829E-005 -0.18309743210872171E-005 -0.55532734419296012E-006 -0.92273426606806309E-006 -0.10962377818588924E-005 -0.11448581988761777E-005 -0.10987684280543321E-005  0.30656020059073553E-007  0.50932625562360963E-007  0.60496270049135655E-007  0.63158189684733030E-007  0.60587774633998126E-007 -0.16218125453636979E-008 -0.26945166103673885E-008 -0.32004660962844344E-008 -0.33412890582896206E-008 -0.32053025253517317E-008  0.58245962692039296E-010  0.96771180094329650E-010  
0.11494190816367846E-009  0.11999944012069867E-009  0.11511560394605584E-009  0.52411546088326251E-006 -0.97444133233884507E-010 -0.11785607059410297E-009 -0.12539119842526495E-009 -0.12185488943480038E-009  0.10369720278803963E-007  0.17011611713915227E-007  0.19702535071243589E-007  0.19810899073044203E-007  0.18084327756154809E-007  </sparseX_slice>
        <sparseX_slice start="151" end="200">  0.51336294883945424E-007  0.84373245108858013E-007  0.98080879038454979E-007  0.99168335011259956E-007  0.91199903445173771E-007  0.27660573710892364E-007  0.45960926377969792E-007  0.54603048610515558E-007  0.57024806953160902E-007  0.54729098815355342E-007 -0.15269608302089235E-008 -0.25369282791278758E-008 -0.30132885665064847E-008 -0.31458774351429957E-008 -0.30178463635129114E-008  0.80781661348724974E-010  0.13421250744380326E-009  0.15941359504631675E-009  0.16642791544901352E-009  0.15965449512752889E-009 -0.41029190698599828E-011 -0.68166839703707264E-011 -0.80966529718707894E-011 -0.84529119012943758E-011 -0.81088883218042770E-011  0.14450739687165878E-012  0.24008790792162710E-012  0.28516922328082439E-012  0.29771688742537481E-012  0.28560016001960387E-012  0.44188731475458910E-001 -0.74223561415567568E-005 -0.75500204410878929E-005 -0.62162469120040986E-005 -0.43164669899155728E-005  0.87428213642747467E-003  0.12957808386421224E-002  
0.12621712380132865E-002  0.98212188521537092E-003  0.64060132635074219E-003  0.43282175758537775E-002  0.64267416953023805E-002  0.62831947297015724E-002  0.49162530067830001E-002  0.32305751088897612E-002  0.23320923639762719E-002  0.35008609841535032E-002  0.34979456813464802E-002  0.28269949133749761E-002  0.19386694249204446E-002  </sparseX_slice>
        <sparseX_slice start="201" end="250"> -0.12873969026964976E-003 -0.19323877762941608E-003 -0.19303537066302576E-003 -0.15595632817407373E-003 -0.10690120248076009E-003  0.68107877135785191E-005  0.10223016982543628E-004  0.10212252072548066E-004  0.82506350403678549E-005  0.56554428074742775E-005 -0.34592146688068121E-006 -0.51922937229163881E-006 -0.51868261968915665E-006 -0.41905164129348120E-006 -0.28724123363722765E-006  0.17230173037379480E-007  0.25862552016048347E-007  0.25835318545846406E-007  0.20872749980410895E-007  0.14307340344146708E-007  0.10272099190939878E-002  0.13929722712256480E-002  0.11702940392485149E-002  0.73168790576911408E-003  0.35836812505496711E-003  0.16798730762353689E+000 -0.29051427606885996E-004 -0.30438532196543073E-004 -0.26296399782253892E-004 -0.19609018117461173E-004  0.33236596140663478E-002  0.50717430570915954E-002  0.50885477947503737E-002  0.41546402667261423E-002  0.29101492131941584E-002  0.16454095718505722E-001  0.25154548979924505E-001  
0.25331219507216781E-001  0.20797075201022565E-001  0.14675985241642606E-001  0.88656520400762374E-002  0.13702523498363912E-001  0.14102257480521718E-001  0.11958950388690347E-001  0.88070646586310593E-002 -0.48941513436965916E-003 -0.75634505433023818E-003 -0.77823807112123477E-003 -0.65973730006095447E-003 -0.48563503928582356E-003  </sparseX_slice>
        <sparseX_slice start="251" end="300">  0.25891802108755555E-004  0.40013337022392095E-004  0.41171539326942226E-004  0.34902409854411286E-004  0.25691770777609420E-004 -0.13150505554282065E-005 -0.20322865452445975E-005 -0.20911119039196659E-005 -0.17727013815335024E-005 -0.13048909137109984E-005  0.65502002021590678E-007  0.10122716335543097E-006  0.10415722467267655E-006  0.88297357844648508E-007  0.64995955413652647E-007  0.55225433982794220E-002  0.77105109634479797E-002  0.66724537090161540E-002  0.43773261993907556E-002  0.23023523908014248E-002  0.14845303291453648E-001  0.21339972282844111E-001  0.19021560823958516E-001  0.13093686874413779E-001  0.73957840567098233E-002  0.16553215562886686E+000 -0.29924335033476158E-004 -0.34206158924458158E-004 -0.33406518698708976E-004 -0.28924867903126238E-004  0.32750839826896833E-002  0.52241335777985006E-002  0.57183990817303758E-002  0.52779874395756576E-002  0.42927025242060525E-002  0.16213617396093935E-001  0.25910367004230384E-001  
0.28466672263276847E-001  0.26420266170819100E-001  0.21648250408047645E-001  0.87360796122650658E-002  0.14114242835761050E-001  0.15847809528316860E-001  0.15192456118891376E-001  0.12991123795145800E-001 -0.48226228121445440E-003 -0.77907093286273105E-003 -0.87456697878684315E-003 -0.83811953853832907E-003 -0.71635047080524899E-003  </sparseX_slice>
        <sparseX_slice start="301" end="350">  0.25513390724632592E-004  0.41215616632266493E-004  0.46267678358745217E-004  0.44339453958950214E-004  0.37897413908655519E-004 -0.12958309546147513E-005 -0.20933506017965985E-005 -0.23499459715217796E-005 -0.22520110106247560E-005 -0.19248183198663447E-005  0.64544683440840628E-007  0.10426873308003431E-006  0.11704961846644828E-006  0.11217152767332265E-006  0.95874225487267453E-007  0.54418308514105670E-002  0.79421884690726325E-002  0.74983580191366203E-002  0.55608840275154330E-002  0.33961536662091849E-002  0.20687593482489004E-001  0.31086074145333969E-001  0.30230250867216150E-001  0.23524038153618237E-001  0.15428182104939635E-001  0.14414542959964480E-001  0.22641641539199099E-001  0.24021900094122778E-001  0.21131571892643950E-001  0.16092195312762545E-001 -0.10104054404983305E-001  0.18254195561834690E-005  0.20838781124593598E-005  0.20309007702901147E-005  0.17531263444127268E-005 -0.19991056490667225E-003 -0.31867827927871986E-003 
-0.34837137695121649E-003 -0.32086757836966717E-003 -0.26017923086519125E-003 -0.98967642660933238E-003 -0.15805627956144007E-002 -0.17342220561800841E-002 -0.16061816976954252E-002 -0.13120930483727455E-002 -0.53324880204241388E-003 -0.86098537742937853E-003 -0.96546658393938676E-003 -0.92360329768955112E-003 -0.78738756716450152E-003  </sparseX_slice>
        <sparseX_slice start="351" end="400">  0.29437206978608602E-004  0.47524241220758924E-004  0.53279615200246590E-004  0.50952259700094664E-004  0.43417756872984982E-004 -0.15573329964678404E-005 -0.25142009851358133E-005 -0.28186795968242735E-005 -0.26955526857384008E-005 -0.22969492870595432E-005  0.79097299345539411E-007  0.12769684346178939E-006  0.14316138173628193E-006  0.13690773760141570E-006  0.11666257962067361E-006 -0.39397964133377659E-008 -0.63605150874645410E-008 -0.71307959052819673E-008 -0.68193050587211813E-008 -0.58109039949575152E-008 -0.33216842236168115E-003 -0.48448281755037858E-003 -0.45680850018767308E-003 -0.33806586543277072E-003 -0.20583971141530035E-003 -0.12627671600187558E-002 -0.18962870054215592E-002 -0.18416612708684942E-002 -0.14301097231171121E-002 -0.93509683726656994E-003 -0.12443116864738635E-002 -0.19532646876331741E-002 -0.20696187881064070E-002 -0.18167881383807623E-002 -0.13793425215147175E-002  0.53706578744666818E-004  0.84252790005297419E-004  
0.89154519652901880E-004  0.78099233614278325E-004  0.59115172127871776E-004  0.57020389795648893E-003 -0.10301411283825662E-006 -0.11759946603570920E-006 -0.11460937838782757E-006 -0.98933273167579090E-007  0.11281588438028263E-004  0.17984008174732185E-004  0.19659637320744115E-004  0.18107449777815518E-004  0.14682560102842591E-004  </sparseX_slice>
        <sparseX_slice start="401" end="450">  0.55850585670834274E-004  0.89196082962862428E-004  0.97867330423388618E-004  0.90641299980639587E-004  0.74044669050607882E-004  0.30092924416088886E-004  0.48588087337048634E-004  0.54484162997708127E-004  0.52121502622713528E-004  0.44434235740799489E-004 -0.16612351330844127E-005 -0.26819409987605788E-005 -0.30067278218793845E-005 -0.28753777127421238E-005 -0.24501718399979195E-005  0.87885249763130971E-007  0.14188419484359094E-006  0.15906650851142192E-006  0.15211753436874501E-006  0.12962255230090767E-006 -0.44637119513542778E-008 -0.72063307292298039E-008 -0.80790243673378076E-008 -0.77260843722761579E-008 -0.65835590770914427E-008  0.22233523118523833E-009  0.35894368322613220E-009  0.40241211127319955E-009  0.38483234890169308E-009  0.32792374269881231E-009  0.18745319613013397E-004  0.27340874850534907E-004  0.25779068066146881E-004  0.19077996945098409E-004  0.11616046078531406E-004  0.71261963563757139E-004  0.10701338379360639E-003  
0.10393044620886111E-003  0.80705068800297295E-004  0.52769836660245448E-004  0.70220462545241206E-004  0.11022881192065101E-003  0.11679476977256823E-003  0.10252640712350175E-003  0.77839723821152210E-004 -0.42862449969598483E-005 -0.67240868914791010E-005 -0.71152702329509003E-005 -0.62329439676168501E-005 -0.47178390210703003E-005  </sparseX_slice>
        <sparseX_slice start="451" end="500">  0.17103953187287782E-006  0.26831956853487153E-006  0.28392879399170929E-006  0.24871940930511698E-006  0.18825966522255377E-006 -0.30166990123191402E-004  0.54500253848786808E-008  0.62216724958026921E-008  0.60634800195971778E-008  0.52341259319320043E-008 -0.59685941854062695E-006 -0.95145508099504498E-006 -0.10401052735969778E-005 -0.95798582522723767E-006 -0.77678991223978725E-006 -0.29548098010986933E-005 -0.47189739637190096E-005 -0.51777316552435564E-005 -0.47954340134637212E-005 -0.39173789564471312E-005 -0.15920847908818965E-005 -0.25705828268927801E-005 -0.28825183464416322E-005 -0.27575203198010805E-005 -0.23508206906542977E-005  0.87888672861861346E-007  0.14188974812549973E-006  0.15907279533115688E-006  0.15212363556330578E-006  0.12962785476327817E-006 -0.46496235313019415E-008 -0.75064711261918609E-008 -0.84155120288417587E-008 -0.80478722007730079E-008 -0.68577612024639693E-008  0.23615544339816367E-009  0.38125538650999474E-009  
0.42742578171164789E-009  0.40875327028205918E-009  0.34830725989871624E-009 -0.11762783010147667E-010 -0.18990137675561035E-010 -0.21289861672723195E-010 -0.20359793337016243E-010 -0.17349008178964431E-010 -0.99173273569061542E-006 -0.14464859025109101E-005 -0.13638575425663014E-005 -0.10093332231424633E-005 -0.61455409347643732E-006  </sparseX_slice>
        <sparseX_slice start="501" end="550"> -0.37701582866961222E-005 -0.56616092895217929E-005 -0.54985045464222190E-005 -0.42697515599019363E-005 -0.27918208065284177E-005 -0.37150570307217885E-005 -0.58317235042911889E-005 -0.61790995422287439E-005 -0.54242229546937722E-005 -0.41181586734384185E-005  0.22676644434081573E-006  0.35574197786113049E-006  0.37643777306873098E-006  0.32975775405590615E-006  0.24960018780574454E-006 -0.12797151055035313E-007 -0.20075628161511724E-007 -0.21243507882670164E-007 -0.18609147115304281E-007 -0.14085558431977604E-007  0.47874042138722785E-009  0.75102767994147175E-009  0.79471796575560938E-009  0.69616673127068466E-009  0.52693962911840553E-009  0.15321884400544934E-005 -0.27680805604353748E-009 -0.31600019215845038E-009 -0.30796555951986740E-009 -0.26584247263747627E-009  0.30314628595398270E-007  0.48324624709770514E-007  0.52827188596538068E-007  0.48656322726335642E-007  0.39453340189973091E-007  0.15007547658268612E-006  0.23967778444507250E-006  
0.26297819422440762E-006  0.24356120813853529E-006  0.19896458770443103E-006  0.80862356576319676E-007  0.13056049925663440E-006  0.14640377679640261E-006  0.14005509796853601E-006  0.11939872927363812E-006 -0.44638861225718121E-008 -0.72066132866280294E-008 -0.80793442479878059E-008 -0.77263948081026635E-008 -0.65838288725012653E-008  </sparseX_slice>
        <sparseX_slice start="551" end="600">  0.23615545986437043E-009  0.38125541322306444E-009  0.42742581195326236E-009  0.40875329963074588E-009  0.34830728540523347E-009 -0.11994389859677876E-010 -0.19364049695762728E-010 -0.21709054799248305E-010 -0.20760673603465230E-010 -0.17690606686431117E-010  0.59743448310285052E-012  0.96451350640602644E-012  0.10813170227372105E-011  0.10340786357797923E-011  0.88116015779568739E-012  0.50370336153643004E-007  0.73467355194225366E-007  0.69270641586880919E-007  0.51264269001039824E-007  0.31213345246921583E-007  0.19148721567719798E-006  0.28755445173865847E-006  0.27927032392426922E-006  0.21686167413863821E-006  0.14179722765942607E-006  0.18868861007910567E-006  0.29619459224632294E-006  0.31383790195124391E-006  0.27549754461197224E-006  0.20916223619714023E-006 -0.11517520415275075E-007 -0.18068217740423369E-007 -0.19119361989186665E-007 -0.16748472973543105E-007 -0.12677251552594010E-007  0.64997027652031316E-009  0.10196458204872488E-008  
0.10789627029664556E-008  0.94516290727926587E-009  0.71540878663085728E-009 -0.34387079748887461E-010 -0.53944993090084690E-010 -0.57083189229829778E-010 -0.50004427946194000E-010 -0.37849143793047819E-010  0.12349816318308197E-011  0.19373868348740940E-011  0.20500923806034858E-011  0.17958649141866863E-011  0.13593186075827563E-011  </sparseX_slice>
        <sparseX_slice start="601" end="650"> -0.76317530072262245E-007  0.13787669054986248E-010  0.15739809502175206E-010  0.15339608520373448E-010  0.13241478900122854E-010 -0.15099562945250295E-008 -0.24070250780560049E-008 -0.26312955044915345E-008 -0.24235467882400946E-008 -0.19651508898554043E-008 -0.74751834681645890E-008 -0.11938229034928197E-007 -0.13098810643262826E-007 -0.12131660401959010E-007 -0.99103253284609425E-008 -0.40277130204087601E-008 -0.65031523328248893E-008 -0.72922979617015194E-008 -0.69760734851953350E-008 -0.59471902239427235E-008  0.22234390659311603E-009  0.35895775731204131E-009  0.40242804441732178E-009  0.38484781160243624E-009  0.32793718111450966E-009 -0.11762783831789659E-010 -0.18990139008507969E-010 -0.21289863181739859E-010 -0.20359794801476995E-010 -0.17349009451705994E-010  0.59743448317743975E-012  0.96451350652703250E-012  0.10813170228742001E-011  0.10340786359127371E-011  0.88116015791122802E-012 -0.29757908974164195E-013 -0.48041929181783021E-013 
-0.53859853163661480E-013 -0.51506933037817622E-013 -0.43890141109963780E-013 -0.25089209288244521E-008 -0.36593717474891148E-008 -0.34503355685437504E-008 -0.25534472711333695E-008 -0.15547209156942548E-008 -0.95378812154323358E-008 -0.14322941580995949E-007 -0.13910313370868668E-007 -0.10801770138017338E-007 -0.70628480826261959E-008  </sparseX_slice>
        <sparseX_slice start="651" end="681"> -0.93984840882191742E-008 -0.14753302603037593E-007 -0.15632106922257839E-007 -0.13722393144416350E-007 -0.10418265034285221E-007  0.57368185770895656E-009  0.89996877323254806E-009  0.95232573580851289E-009  0.83423295490816791E-009  0.63144747819938453E-009 -0.32374690232391650E-010 -0.50788041819010214E-010 -0.53742585688455961E-010 -0.47078085641283034E-010 -0.35634149273254806E-010  0.17128030235887059E-011  0.26869727800935963E-011  0.28432847401675649E-011  0.24906952263613559E-011  0.18852466799268949E-011 -0.86993663673973696E-013 -0.13647197203213839E-012 -0.14441109281471789E-012 -0.12650298945502191E-012 -0.95752117056603774E-013  0.30639716917090049E-014  0.48066289124833270E-014  0.50862497527555576E-014  0.44555150598019347E-014  0.33724499428156937E-014  0.00000000000000000E+000  </sparseX_slice>
      </sparseX>
      <sparseX i="2" alpha="51456.416063159071" sparseCutoff="1.0000000000000000" sliced="T">
        <sparseX_slice start="1" end="50">  0.79332323923544534E+000  0.16505451871245956E-007  0.20327668696144776E-007  0.22040271928974194E-007  0.21697704261594848E-007  0.22197560314519811E-001 -0.40750428608050506E-005 -0.48058777992929485E-005 -0.49245786576251792E-005 -0.45539493170822128E-005  0.31054913025843563E-003  0.50304512857134718E-003  0.56810404003970131E-003  0.55016278912730580E-003  0.47789512965343609E-003  0.10989115148454004E+000 -0.20211170811203232E-004 -0.23924064461837615E-004 -0.24651191463246982E-004 -0.22965727209338121E-004  0.21742165363524087E-002  0.35284278151313832E-002  0.39994946100776682E-002  0.38947092957225863E-002  0.34083141016211229E-002  0.76110622866892670E-002  0.12374439329082046E-001  0.14078369461095945E-001  0.13785701975818217E-001  0.12153926975290191E-001  0.59210589753012348E-001 -0.11009700201382435E-004 -0.13318873847558501E-004 -0.14175184389225201E-004 -0.13781742154606134E-004  0.11714923506492615E-002  0.19220525515168164E-002  
0.22265766860219811E-002  0.22395762286625482E-002  0.20453306660958175E-002  0.57995852491937623E-002  0.95328892857683752E-002  0.11084086277318923E-001  0.11210750451475293E-001  0.10314674771248087E-001  0.22096251348178641E-002  0.36719230551780810E-002  0.43633237834307306E-002  0.45583796133745287E-002  0.43768781831964847E-002  </sparseX_slice>
        <sparseX_slice start="51" end="100"> -0.32686325392743613E-002  0.60770793773632258E-006  0.73500676802615864E-006  0.78199988902519151E-006  0.75994637851558188E-006 -0.64670492775295750E-004 -0.10609249761010340E-003 -0.12287442260408590E-003 -0.12355030553315411E-003 -0.11278266674339768E-003 -0.32015747755401988E-003 -0.52619166576357444E-003 -0.61167922486995345E-003 -0.61846148651206224E-003 -0.56876697082568792E-003 -0.17250445375920228E-003 -0.28663418574997911E-003 -0.34053070055093445E-003 -0.35563415350586293E-003 -0.34131728843268512E-003  0.67336730782648422E-005  0.11187483398473471E-004  0.13288167893712200E-004  0.13872873901149588E-004  0.13308285781209614E-004  0.17292229220114105E-003 -0.32149906163343829E-007 -0.38884450887578784E-007 -0.41370528285030506E-007 -0.40203787990276240E-007  0.34212991867737142E-005  0.56126695588424882E-005  0.65004904157809554E-005  0.65362431394396974E-005  0.59665925793165269E-005  0.16937469788594522E-004  0.27837406141587366E-004  
0.32359988796132375E-004  0.32718775002441272E-004  0.30089737062256080E-004  0.91260994316507813E-005  0.15163965455831660E-004  0.18015275338001178E-004  0.18814290146610530E-004  0.18056863338657622E-004 -0.50379274523995765E-006 -0.83701299822053056E-006 -0.99417934675557391E-006 -0.10379246154935821E-005 -0.99568311085963699E-006  </sparseX_slice>
        <sparseX_slice start="101" end="150">  0.18846113199025007E-007  0.31311365310527184E-007  0.37190701585845976E-007  0.38827121010529377E-007  0.37246902927606637E-007 -0.87827628007449966E-005  0.16329010922052297E-008  0.19749501587176756E-008  0.21012185964109112E-008  0.20419595869583075E-008 -0.17376856879079133E-006 -0.28506877146877883E-006 -0.33016139575961789E-006 -0.33197728442407772E-006 -0.30304460171157036E-006 -0.86025796734742003E-006 -0.14138682290956599E-005 -0.16435712360654427E-005 -0.16617940678265467E-005 -0.15282646271587390E-005 -0.46351667898879305E-006 -0.77018127608788475E-006 -0.91499995694920489E-006 -0.95558210090909535E-006 -0.91711221872142244E-006  0.25587748842884610E-007  0.42512081747305650E-007  0.50494596525110261E-007  0.52716428678937046E-007  0.50570972921358739E-007 -0.13536829634453148E-008 -0.22490399649466147E-008 -0.26713422842915609E-008 -0.27888833928945767E-008 -0.26753791205159619E-008  0.48616325981128315E-010  0.80772280508420716E-010  
0.95938894610150342E-010  0.10016027942239027E-009  0.96083873770719008E-010  0.43746496616035034E-006 -0.81333976249902468E-010 -0.98371266986387832E-010 -0.10466063390587924E-009 -0.10170897266268860E-009  0.86553243882833584E-008  0.14199131104087990E-007  0.16445171878137861E-007  0.16535620372637178E-007  0.15094498102663377E-007  </sparseX_slice>
        <sparseX_slice start="151" end="200">  0.42849013586349892E-007  0.70424060290422625E-007  0.81865450710472155E-007  0.82773120729483404E-007  0.76122086929537205E-007  0.23087530984144322E-007  0.38362339223408694E-007  0.45575684358549281E-007  0.47597060392044811E-007  0.45680895047243355E-007 -0.12745128082842621E-008 -0.21175052571614640E-008 -0.25151102746647223E-008 -0.26257786087633983E-008 -0.25189145442617726E-008  0.67426262695517054E-010  0.11202354139344214E-009  0.13305820600085222E-009  0.13891286907916021E-009  0.13325927876771527E-009 -0.34245953153721834E-011 -0.56897013062704408E-011 -0.67580567312065491E-011 -0.70554164012341516E-011 -0.67682692460894210E-011  0.12061640649914158E-012  0.20039486783588225E-012  0.23802301958862736E-012  0.24849621467647419E-012  0.23838271080157060E-012  0.24672815317773325E+000 -0.25011545192212398E-004 -0.21516327854803021E-004 -0.14009998231821218E-004 -0.72859540220699256E-005  0.48815616487391748E-002  0.43664680576891305E-002  
0.35969823363926354E-002  0.22134780149626076E-002  0.10812990858433066E-002  0.24166639172135629E-001  0.21656565285348487E-001  0.17906081027821638E-001  0.11080109414445698E-001  0.54530294713720784E-002  0.13021257293238107E-001  0.11797054876760920E-001  0.99685751429963616E-002  0.63713997044210205E-002  0.32723651836010863E-002  </sparseX_slice>
        <sparseX_slice start="201" end="250"> -0.71881914144887105E-003 -0.65116794820792735E-003 -0.55011934804253529E-003 -0.35148988013020913E-003 -0.18044323007646579E-003  0.38028090378427699E-004  0.34449094921227516E-004  0.29103254149226457E-004  0.18595043595153712E-004  0.95460700535809219E-005 -0.19314554144964065E-005 -0.17496774154349017E-005 -0.14781609380930259E-005 -0.94444651840103451E-006 -0.48484708128497016E-006  0.96204815809351414E-007  0.87150545756440181E-007  0.73626447557750755E-007  0.47042402668095676E-007  0.24149987517360336E-007  0.38366947140715472E-001  0.18950629094617439E-001  0.11387246891798590E-001  0.44527592737547738E-002  0.12232890026452736E-002  0.44903936965242147E+000 -0.73073972224065086E-004 -0.62936419463448942E-004 -0.41066369823231151E-004 -0.21432978495440998E-004  0.88843260788736746E-002  0.12757115288670384E-001  0.10521367338027856E-001  0.64881883105155531E-002  0.31808408320747957E-002  0.43982708421021213E-001  0.63272030495058931E-001  
0.52376252775025611E-001  0.32478224719685929E-001  0.16041092633977388E-001  0.23698378526043781E-001  0.34466389571908965E-001  0.29158619950684566E-001  0.18675966422257443E-001  0.96262661549744825E-002 -0.13082337382786602E-002 -0.19024585724261105E-002 -0.16091287638394759E-002 -0.10302937350673714E-002 -0.53080706495840237E-003  </sparseX_slice>
        <sparseX_slice start="251" end="300">  0.69210219882420685E-004  0.10064680874661670E-003  0.85128588077272807E-004  0.54506140866116328E-004  0.28081526942747104E-004 -0.35152029092215276E-005 -0.51118744513383057E-005 -0.43237004688762931E-005 -0.27683793645902644E-005 -0.14262671758949467E-005  0.17509047626777747E-006  0.25461987697989580E-006  0.21536133016600432E-006  0.13789157381572644E-006  0.71041645549349999E-007  0.98750193021682670E-001  0.78299830569587586E-001  0.47105065625915259E-001  0.18458331783836556E-001  0.50890904663973037E-002  0.12708335362277320E+000  0.16175883757250772E+000  0.97428607138565076E-001  0.38258301347030628E-001  0.10585741275843880E-001 -0.28366990747329054E-001  0.45147682194532884E-005  0.35694915989770475E-005  0.19578380599682461E-005  0.69471603130229496E-006 -0.56124610158512567E-003 -0.78817966129700952E-003 -0.59672813679292620E-003 -0.30932420053799027E-003 -0.10310191462812008E-003 -0.27785026595492689E-002 -0.39091696231246739E-002 
-0.29705629246183835E-002 -0.15483984766637828E-002 -0.51994659607388120E-003 -0.14970885178627912E-002 -0.21294553387821076E-002 -0.16537554859182865E-002 -0.89037618921700157E-003 -0.31202016186718864E-003  0.82644544904425472E-004  0.11754061316496011E-003  0.91263081903365881E-004  0.49119225686236445E-004  0.17205269796428883E-004  </sparseX_slice>
        <sparseX_slice start="301" end="350"> -0.43721905020152609E-005 -0.62183154916679624E-005 -0.48281389784348406E-005 -0.25985787774527162E-005 -0.91021819271285225E-006  0.22206455633958364E-006  0.31582966701154554E-006  0.24522228356365563E-006  0.13198241061374329E-006  0.46230190182164029E-007 -0.11060923063556812E-007 -0.15731315729013621E-007 -0.12214397725922810E-007 -0.65739770164108588E-008 -0.23027023548652744E-008 -0.62383078212303140E-002 -0.48376402142229907E-002 -0.26716031425749747E-002 -0.88000046377299617E-003 -0.16495480236243919E-003 -0.11353571838739957E-001 -0.14133696416094228E-001 -0.78145832855690284E-002 -0.25794738794352435E-002 -0.48524499620016258E-003  0.50716159836346024E-003  0.61746664782000738E-003  0.31339723373158257E-003  0.86957408724644273E-004  0.11121691915643622E-004  0.18026429675367006E-002 -0.28689252563042264E-006 -0.22679612489234213E-006 -0.12436164914754478E-006 -0.44094837610956927E-007  0.35665620900414903E-004  0.50085152257807889E-004  
0.37914539167888189E-004  0.19648237761183496E-004  0.65440582598668485E-005  0.17656607724561360E-003  0.24840955100719956E-003  0.18874176934479572E-003  0.98354093748988242E-004  0.33001916880008323E-004  0.95135790487731035E-004  0.13531698432004235E-003  0.10507528182254491E-003  0.56556593477669229E-004  0.19804463621037972E-004  </sparseX_slice>
        <sparseX_slice start="351" end="400"> -0.52518298117773011E-005 -0.74691593756118442E-005 -0.57986166229800139E-005 -0.31200475851868367E-005 -0.10920484680684053E-005  0.27784048478708166E-006  0.39514503289106513E-006  0.30676727494316044E-006  0.16506142607579704E-006  0.57773135482384447E-007 -0.14111581816707121E-007 -0.20069506657626363E-007 -0.15580780093564743E-007 -0.83835075934011313E-008 -0.29343107643346593E-008  0.70289074201014994E-009  0.99965196032429616E-009  0.77607076395053350E-009  0.41757826652535832E-009  0.14615653278334958E-009  0.39642702405184990E-003  0.30740953946862800E-003  0.16974664967970521E-003  0.55897528586807134E-004  0.10469968873014581E-004  0.72148775362978394E-003  0.89813068228737202E-003  0.49651810563819160E-003  0.16384788514366952E-003  0.30799345840437486E-004 -0.45578267329587011E-004 -0.55489687201807297E-004 -0.28160439089561129E-004 -0.78114434502100347E-005 -0.99831198512735331E-006  0.20480439168410120E-005  0.24933374107130564E-005  
0.12651839971186164E-005  0.35085365163679366E-006  0.44805539804922790E-007 -0.10173601429364223E-003  0.16191392911120808E-007  0.12799721209386079E-007  0.70186104621268207E-008  0.24885812556143392E-008 -0.20128656550745188E-005 -0.28266626237037188E-005 -0.21397875795350671E-005 -0.11088895013718166E-005 -0.36932715037612802E-006  </sparseX_slice>
        <sparseX_slice start="401" end="450"> -0.99648844956683677E-005 -0.14019523981652878E-004 -0.10652042795380271E-004 -0.55508195340884923E-005 -0.18625298605595407E-005 -0.53691919671274035E-005 -0.76369032475115970E-005 -0.59301467957826633E-005 -0.31918899548660387E-005 -0.11177049200100597E-005  0.29639825657149933E-006  0.42153797454487889E-006  0.32725725013814844E-006  0.17608642836301741E-006  0.61631961814552433E-007 -0.15680522455468177E-007 -0.22300854545994273E-007 -0.17313062986854063E-007 -0.93155877225035476E-008 -0.32605436334298711E-008  0.79641732459768861E-009  0.11326655064014837E-008  0.87933443094342264E-009  0.47314083166069449E-009  0.16560375685465981E-009 -0.39669143509726943E-010 -0.56417495117434501E-010 -0.43799202574724009E-010 -0.23566905153488978E-010 -0.82486392416115100E-011 -0.22373207624378865E-004 -0.17349314441796117E-004 -0.95800128558586046E-005 -0.31546942456587945E-005 -0.59089384825799411E-006 -0.40718705665975481E-004 -0.50687924791672546E-004 
-0.28022054303609248E-004 -0.92470989951440064E-005 -0.17382233135756151E-005  0.25723070735735727E-005  0.31316791053561680E-005  0.15892942159015294E-005  0.44085519209310498E-006  0.56341754002190497E-007 -0.16346292413688293E-006 -0.19900364411363982E-006 -0.10097958196163777E-006 -0.28003071267725478E-007 -0.35761093475645335E-008  </sparseX_slice>
        <sparseX_slice start="451" end="500">  0.65233287596182457E-008  0.79416548679591905E-008  0.40297996166446600E-008  0.11175200781964396E-008  0.14271179547683250E-009  0.53824074774017183E-005 -0.85661577044577741E-009 -0.67717725714241661E-009 -0.37132397649594470E-009 -0.13165994756545019E-009  0.10649191663443465E-006  0.14954635431835934E-006  0.11320680038830844E-006  0.58666492657752538E-007  0.19539483849810751E-007  0.52719844779963710E-006  0.74171168612542289E-006  0.56355298722051055E-006  0.29366957937490707E-006  0.98538307008110321E-007  0.28406045973119837E-006  0.40403514355419113E-006  0.31373812569255211E-006  0.16886893452399475E-006  0.59132877751199859E-007 -0.15681135176522917E-007 -0.22301730235259791E-007 -0.17313749526514130E-007 -0.93159626310006880E-008 -0.32606774814176754E-008  0.82958784949325268E-009  0.11798406599962948E-008  0.91595842709249607E-009  0.49284699516841693E-009  0.17250109991134892E-009 -0.42134956758520827E-010 -0.59924377152076663E-010 
-0.46521738115709746E-010 -0.25031811638910827E-010 -0.87613703168971351E-011  0.20987208525056143E-011  0.29848028710024469E-011  0.23172242097606804E-011  0.12468218577619327E-011  0.43639941737357046E-012  0.11836685449789971E-005  0.91787633336089993E-006  0.50683657268739663E-006  0.16690107226323112E-006  0.31261608558242298E-007  </sparseX_slice>
        <sparseX_slice start="501" end="550">  0.21542485949379526E-005  0.26816763688004753E-005  0.14825243114591336E-005  0.48922355620916390E-006  0.91961791404682427E-007 -0.13608951483998675E-006 -0.16568344208243402E-006 -0.84082604637302526E-007 -0.23323719683581056E-007 -0.29807957288670786E-008  0.86481082560680908E-008  0.10528412278034367E-007  0.53423879490457706E-008  0.14815200007666805E-008  0.18919630135702848E-009 -0.48807450005176686E-009 -0.59419345118639771E-009 -0.30150901552056733E-009 -0.83612688063460337E-010 -0.10677675544306081E-010  0.18258831217846132E-010  0.22228733387625242E-010  0.11279430131550107E-010  0.31279445182230614E-011  0.39945105675578422E-012 -0.27337372686885874E-006  0.43507714093472377E-010  0.34393990293922391E-010  0.18859631077061009E-010  0.66870393399601011E-011 -0.54087491989396290E-008 -0.75954940965170368E-008 -0.57497997056073946E-008 -0.29796847985721296E-008 -0.99241492650029946E-009 -0.26776531706224008E-007 -0.37671708942434037E-007 
-0.28622987213666596E-007 -0.14915546197235447E-007 -0.50047835172403941E-008 -0.14427496777015808E-007 -0.20521038855405379E-007 -0.15934832329482167E-007 -0.85768924364993016E-008 -0.30033726058621849E-008  0.79644850055273513E-009  0.11327100624828502E-008  0.87936936287435531E-009  0.47315990743807633E-009  0.16561056719487738E-009  </sparseX_slice>
        <sparseX_slice start="551" end="600"> -0.42134959705906707E-010 -0.59924381364423880E-010 -0.46521741418185651E-010 -0.25031813442340225E-010 -0.87613709607482916E-011  0.21400442476524435E-011  0.30435730444294797E-011  0.23628498924493723E-011  0.12713715315539177E-011  0.44499203489295801E-012 -0.10659451992731896E-012 -0.15159883160844753E-012 -0.11769235623131606E-012 -0.63326371967964463E-013 -0.22164827845325103E-013 -0.60118800532462367E-007 -0.46619152323391162E-007 -0.25742347336317987E-007 -0.84769442548636913E-008 -0.15877843651386754E-008 -0.10941478687237572E-006 -0.13620296610261569E-006 -0.75297754378224442E-007 -0.24847778135364806E-007 -0.46707607610933762E-008  0.69120180914919164E-008  0.84151005349734182E-008  0.42705750337609118E-008  0.11846171441125051E-008  0.15139530792696346E-009 -0.43923942849974425E-009 -0.53474050683487668E-009 -0.27134112572124474E-009 -0.75246745204593276E-010 -0.96093241228161960E-011  0.24789417306104146E-010  0.30179223500611261E-010  
0.15313712981302268E-010  0.42467078617409622E-011  0.54232162282010331E-012 -0.13114996296561692E-011 -0.15966506978331298E-011 -0.81018156440314203E-012 -0.22467473565421404E-012 -0.28691864596753182E-013  0.47101352163963135E-013  0.57342301210698166E-013  0.29096956124702529E-013  0.80689949177818494E-014  0.10304430043625090E-014  </sparseX_slice>
        <sparseX_slice start="601" end="650">  0.13616606858453336E-007 -0.21670972002550874E-011 -0.17131472343370601E-011 -0.93938867064207724E-012 -0.33307804221774072E-012  0.26940705780868879E-009  0.37832771346600574E-009  0.28639461078739518E-009  0.14841659046382969E-009  0.49431684783292322E-010  0.13337254806913812E-008  0.18764087398979635E-008  0.14256964941989533E-008  0.74293580064584042E-009  0.24928573183121061E-009  0.71862630624510742E-009  0.10221425504988097E-008  0.79370592657581193E-009  0.42721066765526210E-009  0.14959646814593736E-009 -0.39670696373224311E-010 -0.56419714440378667E-010 -0.43800942522076292E-010 -0.23567855311337750E-010 -0.82489784622933730E-011  0.20987209995762799E-011  0.29848030811930149E-011  0.23172243745498698E-011  0.12468219477506799E-011  0.43639944950089371E-012 -0.10659451994067011E-012 -0.15159883162752877E-012 -0.11769235624627569E-012 -0.63326371976133679E-013 -0.22164827848241645E-013  0.53094190423506071E-014  0.75510610103484981E-014  
0.58621966470671298E-014  0.31542545098841955E-014  0.11040188474288534E-014  0.29944870014703933E-008  0.23220763623948722E-008  0.12822132810902706E-008  0.42223229935653290E-009  0.79086734938736591E-010  0.54498951102836132E-008  0.67842007482462009E-008  0.37505430036607530E-008  0.12376552423329307E-008  0.23264822754605021E-009  </sparseX_slice>
        <sparseX_slice start="651" end="681"> -0.34428411986903267E-009 -0.41915189499560603E-009 -0.21271517918085834E-009 -0.59005179882928851E-010 -0.75409235988681768E-011  0.21878293437766563E-010  0.26635153773769785E-010  0.13515364024900479E-010  0.37480022625607645E-011  0.47863556697461043E-012 -0.12347483189900177E-011 -0.15032118353434616E-011 -0.76276828646966628E-012 -0.21152636743240966E-012 -0.27012765320795295E-013  0.65325132215803696E-013  0.79528362479026187E-013  0.40354733327158502E-013  0.11190934774423077E-013  0.14291272417607885E-014 -0.33178786494730406E-014 -0.40392640159530270E-014 -0.20496262857750030E-014 -0.56839017842247296E-015 -0.72585704796155368E-016  0.11685777824709052E-015  0.14226542575107718E-015  0.72189130253616542E-016  0.20019060503754867E-016  0.25565142945553410E-017  0.00000000000000000E+000  </sparseX_slice>
      </sparseX>
      <sparseX i="3" alpha="637.38318742256786" sparseCutoff="1.0000000000000000" sliced="T">
        <sparseX_slice start="1" end="50">  0.95934339884666553E+000  0.19949589173596946E-013  0.24893705508746549E-013  0.27988719689467391E-013  0.29645764326753751E-013  0.90480598948941968E-005 -0.17026365570431250E-011 -0.21245695966673728E-011 -0.23886619952115415E-011 -0.25300060105797214E-011  0.42668448003089800E-010  0.72657417156650572E-010  0.90661391681873473E-010  0.10192867324179771E-009  0.10795691322070270E-009 -0.26617155247830008E-003  0.50114545070200436E-010  0.62600881814309443E-010  0.70494718094126527E-010  0.74822119491982557E-010 -0.17751212177843163E-008 -0.30243830239592397E-008 -0.37778687679896575E-008 -0.42541543935304525E-008 -0.45151679531300870E-008  0.36924888123419588E-007  0.62945347037949260E-007  0.78712074475055981E-007  0.88776931104863555E-007  0.94420732479147086E-007  0.17674217619887949E-001 -0.33231285797651826E-008 -0.41398179029871767E-008 -0.46430452582046888E-008 -0.49019929737918395E-008  0.11787089346205887E-006  0.20054883565234368E-006  
0.24983176446701003E-006  0.28019448716964132E-006  0.29581254489998015E-006 -0.34674702719977283E-005 -0.59028532081618141E-005 -0.73613445214467457E-005 -0.82691613230121100E-005 -0.87483276676730797E-005  0.16280821281029417E-003  0.27677721735412187E-003  0.34422541601674306E-003  0.38511710269208252E-003  0.40527771269872719E-003  </sparseX_slice>
        <sparseX_slice start="51" end="100">  0.95536619749805304E-001 -0.17966613823786588E-007 -0.22391283994848243E-007 -0.25128600451234960E-007 -0.26551814534338706E-007  0.63714202067892843E-006  0.10842744710258277E-005  0.13512802060878922E-005  0.15164390879633761E-005  0.16022788835291676E-005 -0.18743143034339371E-004 -0.31913987528293905E-004 -0.39815750263966355E-004 -0.44753483844592792E-004 -0.47385619473460973E-004  0.12445747330440511E-002  0.21162375893262583E-002  0.26330292958582110E-002  0.29476314902816751E-002  0.31044826756420540E-002  0.47570274232312309E-002  0.80903724253204266E-002  0.10070208285419541E-001  0.11280375945088862E-001  0.11890380819591409E-001  0.21641623294210752E-001 -0.40787462780300720E-008 -0.51052713425388992E-008 -0.57666443471268870E-008 -0.61460343269206322E-008  0.14432986673127198E-006  0.24614991486067084E-006  0.30809542290954856E-006  0.34800047504979471E-006  0.37088467180782046E-006 -0.42458278507337449E-005 -0.72450523579346841E-005 
-0.90780952468416385E-005 -0.10270266548568251E-004 -0.10968502491972661E-004  0.28192977315472957E-003  0.48042420656162557E-003  0.60033756935524995E-003  0.67643808909423960E-003  0.71860463875832376E-003  0.15239496374495256E-002  0.25974306993266361E-002  0.32470821961784113E-002  0.36609469702689398E-002  0.38923468870391553E-002  </sparseX_slice>
        <sparseX_slice start="101" end="150">  0.24410438398366703E-003  0.41695523290679958E-003  0.52350172359416863E-003  0.59406409787948549E-003  0.63708490581229377E-003 -0.10876710872557303E-002  0.20498848461596060E-009  0.25657339905679844E-009  0.28980170958770706E-009  0.30885356488355710E-009 -0.72537730158657348E-008 -0.12370933271192949E-007 -0.15483817526226295E-007 -0.17488703401140348E-007 -0.18637880453542206E-007  0.21338806853474756E-006  0.36411980608257226E-006  0.45623388027113005E-006  0.51613046072095991E-006  0.55119462662963464E-006 -0.14169309701412083E-004 -0.24145024809794451E-004 -0.30170903839632540E-004 -0.33994278621920180E-004 -0.36111676670958368E-004 -0.76591110405803395E-004 -0.13054094240132487E-003 -0.16318719617280770E-003 -0.18398025382343396E-003 -0.19560014602583323E-003 -0.17349954011650910E-004 -0.29635154858453216E-004 -0.37207107742547975E-004 -0.42220763259488821E-004 -0.45276197989057710E-004  0.61658233927200297E-006  0.10531615077257147E-005  
0.13222199700327732E-005  0.15003371324548769E-005  0.16088390147390581E-005  0.54175330106120704E-004 -0.10210180932556240E-010 -0.12779550640962901E-010 -0.14434603936271559E-010 -0.15383548021671834E-010  0.36129998512776644E-009  0.61617835382361398E-009  0.77122659994863062E-009  0.87108701778719384E-009  0.92832578794207007E-009  </sparseX_slice>
        <sparseX_slice start="151" end="200"> -0.10628552316072930E-007 -0.18136282670684660E-007 -0.22724350998511755E-007 -0.25707711629967710E-007 -0.27454204749883037E-007  0.70575290585928362E-006  0.12026288812804172E-005  0.15027691682755125E-005  0.16932058430737961E-005  0.17986702287869555E-005  0.38148928826432528E-005  0.65020561692573867E-005  0.81281186791522337E-005  0.91637903027354313E-005  0.97425595219173855E-005  0.86417621735145466E-006  0.14760843451084827E-005  0.18532323278548222E-005  0.21029551426899462E-005  0.22551417409282164E-005 -0.43432023241927511E-007 -0.74184632346209286E-007 -0.93137090214521077E-007 -0.10568364526268176E-006 -0.11332650111512881E-006  0.15296745647260410E-008  0.26127804880690416E-008  0.32802853421631604E-008  0.37221743814783126E-008  0.39913551751727983E-008  0.44596804605963915E-001 -0.74890254814811466E-008 -0.76679516288983693E-008 -0.64289722162163278E-008 -0.46305556451433960E-008  0.29741996604945921E-006  0.45195823887979205E-006  
0.46274931173012448E-006  0.38797006554425294E-006  0.27943256080011757E-006 -0.87493600861440336E-005 -0.13302710692130450E-004 -0.13635004011499999E-004 -0.11449857892966468E-004 -0.82639078194704830E-005  0.58097153041881998E-003  0.88211153124191698E-003  0.90168751746252560E-003  0.75413037791103481E-003  0.54141233023275272E-003  </sparseX_slice>
        <sparseX_slice start="201" end="250">  0.31403967847849282E-002  0.47691676234966696E-002  0.48770119244966317E-002  0.40814249917504883E-002  0.29325786176768675E-002  0.71138464380099170E-003  0.10826873045985510E-002  0.11119714805583167E-002  0.93662702793874289E-003  0.67881345085948484E-003 -0.35752979268751903E-004 -0.54413394399660075E-004 -0.55883866552562976E-004 -0.47070028530186414E-004 -0.34112070163770926E-004  0.17808043965284870E-005  0.27102527393961453E-005  0.27834947241089221E-005  0.23444900310245234E-005  0.16990727294368579E-005  0.10365813656786369E-002  0.14056806426997110E-002  0.11809708715816995E-002  0.73836324446872187E-003  0.36163759089555763E-003  0.16953863313613085E+000 -0.29312374328583732E-007 -0.30913981539383320E-007 -0.27196285150797414E-007 -0.21035872567000675E-007  0.11306678798390089E-005  0.17689843774322167E-005  0.18656121442230100E-005  0.16412179392999299E-005  0.12694173638161538E-005 -0.33261453660792355E-004 -0.52067393328652615E-004 
-0.54970647012478090E-004 -0.48435984745395341E-004 -0.37541609499530828E-004  0.22086138239832726E-002  0.34526232374641904E-002  0.36352278441711527E-002  0.31901747446993465E-002  0.24595494920623901E-002  0.11938491627409930E-001  0.18666731333920942E-001  0.19662077161916258E-001  0.17265527702430231E-001  0.13322234915557570E-001  </sparseX_slice>
        <sparseX_slice start="251" end="300">  0.27043906219219285E-002  0.42376856149942558E-002  0.44830050430611753E-002  0.39621847590994193E-002  0.30837407739657775E-002 -0.13591806160385798E-003 -0.21297641316293781E-003 -0.22530043257504106E-003 -0.19911890655463437E-003 -0.15496567063485740E-003  0.67698828635331653E-005  0.10608048139066720E-004  0.11221889323320689E-004  0.99178246961643591E-005  0.77186152499832314E-005  0.55729266933648419E-002  0.77808555349821390E-002  0.67333278715025740E-002  0.44172614432962639E-002  0.23233572234538057E-002  0.14980740035436303E-001  0.21534661222903175E-001  0.19195098421196294E-001  0.13213143262887831E-001  0.74632573101809227E-002  0.16706080835754333E+000 -0.30193122413966856E-007 -0.34740458531177371E-007 -0.34549718438592427E-007 -0.31029592179614458E-007  0.11141430510304115E-005  0.18221370011682194E-005  0.20965342574547341E-005  0.20849765835580255E-005  0.18724920004852815E-005 -0.32775334051780429E-004 -0.53631860828659347E-004 
-0.61774814756102709E-004 -0.61532287441849409E-004 -0.55376872474697408E-004  0.21763347029465792E-002  0.35563641105800397E-002  0.40851898035495970E-002  0.40527461227931423E-002  0.36280319459624628E-002  0.11764009329032522E-001  0.19227610084254044E-001  0.22095813682561562E-001  0.21933845652268861E-001  0.19651360552509413E-001  </sparseX_slice>
        <sparseX_slice start="301" end="350">  0.26648656713544831E-002  0.43650152352434851E-002  0.50379033381745533E-002  0.50334950920513238E-002  0.45487639411693767E-002 -0.13393160497937164E-003 -0.21937570944724149E-003 -0.25318771459309318E-003 -0.25295742117416726E-003 -0.22858674135454164E-003  0.66709403204850073E-005  0.10926787862550131E-004  0.12610914585092338E-004  0.12599443228214211E-004  0.11385573982514464E-004  0.54914777893915303E-002  0.80146466819652606E-002  0.75667670758860859E-002  0.56116171120180192E-002  0.34271374720355654E-002  0.20876330637068938E-001  0.31369678769826291E-001  0.30506047640569484E-001  0.23738652774168558E-001  0.15568936571779487E-001  0.14546049789172852E-001  0.22848205874618024E-001  0.24241056811176689E-001  0.21324359553238442E-001  0.16239007708164947E-001 -0.10197363105508556E-001  0.18418159018417490E-008  0.21164282522864217E-008  0.21003999376012685E-008  0.18806929624935554E-008 -0.68007100854682621E-007 -0.11115249552770380E-006 
-0.12772325185004274E-006 -0.12675312228054723E-006 -0.11349109931105459E-006  0.20006007723549528E-005  0.32716064527958305E-005  0.37633919860972243E-005  0.37407660190642410E-005  0.33563732886082838E-005 -0.13284309721265210E-003 -0.21694238448738914E-003 -0.24887440988798505E-003 -0.24638081258341205E-003 -0.21989377459353323E-003  </sparseX_slice>
        <sparseX_slice start="351" end="400"> -0.71807311292300510E-003 -0.11729067806253138E-002 -0.13461021043536955E-002 -0.13334362802772026E-002 -0.11910622376406341E-002 -0.16266294378300530E-003 -0.26627105212324723E-003 -0.30691480216451085E-003 -0.30600402130778162E-003 -0.27569902571333073E-003  0.81751622101289964E-005  0.13382175735187878E-004  0.15424483583478281E-004  0.15378178916112886E-004  0.13854564162375741E-004 -0.40719305366686654E-006 -0.66654688327255214E-006 -0.76827126190944313E-006 -0.76596484620816493E-006 -0.69007574250145119E-006 -0.33519886294583679E-003 -0.48890285357364659E-003 -0.46097605774270367E-003 -0.34115010959855015E-003 -0.20771762928259422E-003 -0.12742876435820401E-002 -0.19135872203534271E-002 -0.18584631240302939E-002 -0.14431569071748755E-002 -0.94362791733017303E-003 -0.12556637969701578E-002 -0.19710847216355531E-002 -0.20885003444103341E-002 -0.18333630688579493E-002 -0.13919265459892004E-002  0.54196554867944351E-004  0.85021445473343053E-004  
0.89967894604970250E-004  0.78811748926400498E-004  0.59654491956896907E-004  0.57546960443630678E-003 -0.10393940970825868E-009 -0.11943636764725906E-009 -0.11853140967587773E-009 -0.10613217421306107E-009  0.38378568089394782E-008  0.62726816296876846E-008  0.72078045870844363E-008  0.71530311898077704E-008  0.64045845674577709E-008  </sparseX_slice>
        <sparseX_slice start="401" end="450"> -0.11290025893852473E-006 -0.18462694515846678E-006 -0.21237945031525062E-006 -0.21110182949904401E-006 -0.18940847958421592E-006  0.74967581142386171E-005  0.12242734662988455E-004  0.14044726290751348E-004  0.13903954437340118E-004  0.12409151764244146E-004  0.40523147599493166E-004  0.66190783942685224E-004  0.75964562300966294E-004  0.75249517572695704E-004  0.67214599844235505E-004  0.91795868154077027E-005  0.15026505066229604E-004  0.17320118982585503E-004  0.17268657917368610E-004  0.15558380666551092E-004 -0.46135038191630170E-006 -0.75519787028482361E-006 -0.87044967862964857E-006 -0.86783340284061372E-006 -0.78184746083045617E-006  0.22979197965040721E-007  0.37615317318604265E-007  0.43355841990443196E-007  0.43225526414225244E-007  0.38942687819847924E-007  0.18916337005077209E-004  0.27590311254405850E-004  0.26014255786683120E-004  0.19252049420634063E-004  0.11722021647230933E-004  0.71912101060135668E-004  0.10798968882281492E-003  
0.10487862496673774E-003  0.81441357680801395E-004  0.53251266693532440E-004  0.70861098214406576E-004  0.11123445195955839E-003  0.11786031239043490E-003  0.10346177654509120E-003  0.78549871572253737E-004 -0.43253492883914944E-005 -0.67854321140696453E-005 -0.71801843013258019E-005 -0.62898083926694748E-005 -0.47608808332248498E-005  </sparseX_slice>
        <sparseX_slice start="451" end="500">  0.17259996057105845E-006  0.27076750294185090E-006  0.28651913456112675E-006  0.25098852744303783E-006  0.18997719672598122E-006 -0.30445575583476017E-004  0.54989787883601816E-011  0.63188549118402369E-011  0.62709775096442290E-011  0.56149882387895284E-011 -0.20304418974409532E-009 -0.33186010315631448E-009 -0.38133336031446444E-009 -0.37843553737973431E-009 -0.33883850290690378E-009  0.59730580736298686E-008  0.97678027808299025E-008  0.11236066193522157E-007  0.11168472801033979E-007  0.10020772617522585E-007 -0.39662062781171788E-006 -0.64770945315409313E-006 -0.74304493225939554E-006 -0.73559730547456933E-006 -0.65651383971186417E-006 -0.21439022037127871E-005 -0.35018643833690836E-005 -0.40189521590182940E-005 -0.39811222493710602E-005 -0.35560299258797368E-005 -0.48565172175745694E-006 -0.79498654893571012E-006 -0.91633160872738045E-006 -0.91360902327644068E-006 -0.82312574019183580E-006  0.24408027487145792E-007  0.39954210644137040E-007  
0.46051678694407580E-007  0.45913262705750492E-007  0.41364122893378062E-007 -0.12157286902713192E-008 -0.19900616391128781E-008 -0.22937676397476093E-008 -0.22868731986514427E-008 -0.20602869555497032E-008 -0.10007805166611982E-005 -0.14596824898090402E-005 -0.13763002944047029E-005 -0.10185415769667082E-005 -0.62016079640379182E-006  </sparseX_slice>
        <sparseX_slice start="501" end="550"> -0.38045542133151024E-005 -0.57132613112299796E-005 -0.55486685301361765E-005 -0.43087053783275177E-005 -0.28172911598378658E-005 -0.37489502572913318E-005 -0.58849275128400077E-005 -0.62354727335549158E-005 -0.54737092522248321E-005 -0.41557294788968371E-005  0.22883528108083199E-006  0.35898748482272945E-006  0.37987209201092873E-006  0.33276620161912133E-006  0.25187734146641313E-006 -0.12913902086463951E-007 -0.20258782231066296E-007 -0.21437316758239251E-007 -0.18778922177767434E-007 -0.14214063867922635E-007  0.48310806835358507E-009  0.75787945936390209E-009  0.80196834060840346E-009  0.70251800301645147E-009  0.53174700733373029E-009  0.15463378603338204E-005 -0.27929441078456785E-012 -0.32093610965700151E-012 -0.31850440526765201E-012 -0.28518655772563256E-012  0.10312661590556523E-010  0.16855251773318497E-010  0.19368010003273537E-010  0.19220828902656161E-010  0.17209686318017723E-010 -0.30337300787439840E-009 -0.49610897356184915E-009 
-0.57068241355574383E-009 -0.56724932943398243E-009 -0.50895737034680244E-009  0.20144453872880466E-007  0.32897313672346911E-007  0.37739424814587351E-007  0.37361158118705656E-007  0.33344490510816581E-007  0.10888929123263081E-006  0.17786050596717998E-006  0.20412351427725738E-006  0.20220212437114673E-006  0.18061158645447191E-006  </sparseX_slice>
        <sparseX_slice start="551" end="600">  0.24666363827834754E-007  0.40377551598606553E-007  0.46540695389231722E-007  0.46402414640828752E-007  0.41806747661376905E-007 -0.12396893892170889E-008 -0.20292836451446688E-008 -0.23389754646309994E-008 -0.23319452843679815E-008 -0.21008934159131187E-008  0.61747142750058530E-010  0.10107569319916370E-009  0.11650099156072105E-009  0.11615082129362215E-009  0.10464245333965469E-009  0.50829875052109866E-007  0.74137612930370859E-007  0.69902611844808724E-007  0.51731963432055513E-007  0.31498110991753698E-007  0.19323419278480308E-006  0.29017786992666021E-006  0.28181816431666181E-006  0.21884014763044440E-006  0.14309087282402269E-006  0.19041005493435755E-006  0.29889683620668755E-006  0.31670110944146025E-006  0.27801096516559218E-006  0.21107046613886056E-006 -0.11622597114159133E-007 -0.18233057793353869E-007 -0.19293791846495938E-007 -0.16901272724527245E-007 -0.12792908716292432E-007  0.65590008854295440E-009  0.10289482582502964E-008  
0.10888063008033975E-008  0.95378582216230354E-009  0.72193560759069882E-009 -0.34700800123933101E-010 -0.54437144316290615E-010 -0.57603970862488278E-010 -0.50460628589103505E-010 -0.38194449287804048E-010  0.12462486223267192E-011  0.19550620119721104E-011  0.20687957934904713E-011  0.18122489578020266E-011  0.13717199497871980E-011  </sparseX_slice>
        <sparseX_slice start="601" end="650"> -0.77022305529016275E-007  0.13911513125179175E-013  0.15985665052499344E-013  0.15864543088640287E-013  0.14204997979657973E-013 -0.51366844996844504E-012 -0.83955155283643047E-012 -0.96471076743804780E-012 -0.95737975137055544E-012 -0.85720575796976606E-012  0.15110855849260689E-010  0.24710936670151855E-010  0.28425401941227180E-010  0.28254401760143243E-010  0.25350908805680207E-010 -0.10033850432771682E-008 -0.16385985299541034E-008 -0.18797816331877939E-008 -0.18609403606760931E-008 -0.16608721817616781E-008 -0.54237204386544433E-008 -0.88591417073576084E-008 -0.10167288847810449E-007 -0.10071585389862912E-007 -0.89961716328749684E-008 -0.12286190875694045E-008 -0.20111853919622063E-008 -0.23181684622456070E-008 -0.23112807682134307E-008 -0.20823729238923847E-008  0.61748300514834028E-010  0.10107759043526605E-009  0.11650318309013461E-009  0.11615301337235439E-009  0.10464443684345608E-009 -0.30755939024943054E-011 -0.50345290785691687E-011 
-0.58028553763056132E-011 -0.57854135726793154E-011 -0.52121875944317942E-011 -0.25318103285786181E-008 -0.36927569458088663E-008 -0.34818136869679208E-008 -0.25767428938326237E-008 -0.15689049531968487E-008 -0.96248972602345416E-008 -0.14453612712053312E-007 -0.14037220010210513E-007 -0.10900316900452587E-007 -0.71272838929814960E-008  </sparseX_slice>
        <sparseX_slice start="651" end="681"> -0.94842283844649765E-008 -0.14887900005887323E-007 -0.15774721836993742E-007 -0.13847585349024225E-007 -0.10513313001072415E-007  0.57891567485398925E-009  0.90817937276963194E-009  0.96101399864400800E-009  0.84184383310429310E-009  0.63720830293730790E-009 -0.32670051165505521E-010 -0.51251391531857210E-010 -0.54232890310460113E-010 -0.47507588663687605E-010 -0.35959246919116977E-010  0.17284292765553291E-011  0.27114865833727381E-011  0.28692246094894366E-011  0.25134183492971948E-011  0.19024461717069246E-011 -0.87787324694150214E-013 -0.13771703379841199E-012 -0.14572858480675162E-012 -0.12765710215043066E-012 -0.96625683241745846E-013  0.30919249333122927E-014  0.48504807730117950E-014  0.51326526515088872E-014  0.44961636367031998E-014  0.34032174947162595E-014  0.00000000000000000E+000  </sparseX_slice>
      </sparseX>
      <sparseX i="4" alpha="635.04328891243574" sparseCutoff="1.0000000000000000" sliced="T">
        <sparseX_slice start="1" end="50">  0.97646233155122675E+000  0.20305578149970812E-013  0.25337919405338450E-013  0.28488162338915796E-013  0.30174775987328165E-013  0.92095173340486714E-005 -0.17330191298271647E-011 -0.21624813225365772E-011 -0.24312862984580426E-011 -0.25751525167101835E-011  0.43429841984484888E-010  0.73953947091903434E-010  0.92279192216040618E-010  0.10374753195285915E-009  0.10988334241658728E-009 -0.27092123116501701E-003  0.51008810382921459E-010  0.63717958644476537E-010  0.71752655905061786E-010  0.76157277298807271E-010 -0.18067972377644624E-008 -0.30783514043350458E-008 -0.38452826692930165E-008 -0.43300673386397989E-008 -0.45957385355016857E-008  0.37583791573079229E-007  0.64068570652458261E-007  0.80116646297403262E-007  0.90361104520898625E-007  0.96105616293607186E-007  0.17989603895964251E-001 -0.33824279032337092E-008 -0.42136905790024333E-008 -0.47258977377391237E-008 -0.49894662267870238E-008  0.11997423194901707E-006  0.20412751459633599E-006  
0.25428986900863114E-006  0.28519439708283060E-006  0.30109115009536246E-006 -0.35293452901744922E-005 -0.60081862379787799E-005 -0.74927034922065784E-005 -0.84167197639019817E-005 -0.89044365571493524E-005  0.16571343198645150E-003  0.28171614804748687E-003  0.35036792112917161E-003  0.39198929649910433E-003  0.41250966102785401E-003  </sparseX_slice>
        <sparseX_slice start="51" end="100">  0.97241415932574030E-001 -0.18287217742412606E-007 -0.22790843614831403E-007 -0.25577005913347547E-007 -0.27025616435455433E-007  0.64851145459421199E-006  0.11036227270570672E-005  0.13753930263155961E-005  0.15434990737084393E-005  0.16308706311912156E-005 -0.19077603671336054E-004 -0.32483474330921492E-004 -0.40526239490420501E-004 -0.45552084094671446E-004 -0.48231188674130253E-004  0.12667834553080418E-002  0.21540006353034259E-002  0.26800141934236960E-002  0.30002302835611633E-002  0.31598803883596109E-002  0.48419138491241380E-002  0.82347404808784282E-002  0.10249905376332203E-001  0.11481667783775910E-001  0.12102557845385199E-001  0.22027805648971784E-001 -0.41515291659266474E-008 -0.51963719814305804E-008 -0.58695468079436124E-008 -0.62557067843211479E-008  0.14690535042022144E-006  0.25054231890785474E-006  0.31359320901795629E-006  0.35421034392541819E-006  0.37750289604896746E-006 -0.43215922134627153E-005 -0.73743361617380080E-005 
-0.92400886496243248E-005 -0.10453533564439955E-004 -0.11164229127769216E-004  0.28696064825101971E-003  0.48899710097217563E-003  0.61105024894648672E-003  0.68850873881146058E-003  0.73142772636895260E-003  0.15511436446423647E-002  0.26437803603552006E-002  0.33050245155495390E-002  0.37262744691544747E-002  0.39618035847160645E-002  </sparseX_slice>
        <sparseX_slice start="101" end="150">  0.24846028670560017E-003  0.42439555988619745E-003  0.53284331158831588E-003  0.60466483097049433E-003  0.64845332054554151E-003 -0.11070799539554051E-002  0.20864638654927183E-009  0.26115180420089416E-009  0.29497305487455954E-009  0.31436487960064569E-009 -0.73832124348079551E-008 -0.12591685479856468E-007 -0.15760117368972738E-007 -0.17800779282387957E-007 -0.18970462740159725E-007  0.21719585622536417E-006  0.37061731517495695E-006  0.46437511218380269E-006  0.52534051275704890E-006  0.56103037859471029E-006 -0.14422152905983221E-004 -0.24575878928732205E-004 -0.30709286313611505E-004 -0.34600887025926893E-004 -0.36756068828680208E-004 -0.77957834840850163E-004 -0.13287037064448043E-003 -0.16609917808969670E-003 -0.18726327592788361E-003 -0.19909051844184625E-003 -0.17659553989625171E-004 -0.30163977199151051E-004 -0.37871047239439056E-004 -0.42974168563411614E-004 -0.46084125773232677E-004  0.62758489746493786E-006  0.10719545707722372E-005  
0.13458142270160705E-005  0.15271097880394435E-005  0.16375478241798707E-005  0.55142057798674824E-004 -0.10392375755073345E-010 -0.13007594392220465E-010 -0.14692181164299707E-010 -0.15658058612620797E-010  0.36774717613256926E-009  0.62717370312793516E-009  0.78498869627447230E-009  0.88663106599270954E-009  0.94489122917072138E-009  </sparseX_slice>
        <sparseX_slice start="151" end="200"> -0.10818212735964808E-007 -0.18459914232567094E-007 -0.23129854008138996E-007 -0.26166450998905632E-007 -0.27944109286814770E-007  0.71834666166766084E-006  0.12240891038784484E-005  0.15295852221443627E-005  0.17234201301762011E-005  0.18307664673615047E-005  0.38829674580367894E-005  0.66180816322319689E-005  0.82731602949598535E-005  0.93273128846386732E-005  0.99164099085739194E-005  0.87959694628700277E-006  0.15024242236134550E-005  0.18863021957922101E-005  0.21404811710252641E-005  0.22953834518198630E-005 -0.44207042785497989E-007 -0.75508414560559373E-007 -0.94799068169023965E-007 -0.10756950929572727E-006 -0.11534874752717020E-006  0.15569707299624993E-008  0.26594040572735796E-008  0.33388201526301526E-008  0.37885944483988478E-008  0.40625786189635509E-008 -0.56864940430160500E-004  0.10484609899827831E-010  0.12557214417343075E-010  0.13269471330885903E-010  0.12928824652990464E-010 -0.37923723014633026E-009 -0.63273997897128784E-009 
-0.75780894430445561E-009 -0.80077460110898681E-009 -0.78019461545827931E-009  0.11156221718048152E-007  0.18623749186345665E-007  0.22328997004684651E-007  0.23632636126533825E-007  0.23073389747182704E-007 -0.74079099973156735E-006 -0.12349531078617913E-005 -0.14766242723215262E-005 -0.15565336251103040E-005 -0.15116598566065740E-005  </sparseX_slice>
        <sparseX_slice start="201" end="250"> -0.40042885958242234E-005 -0.66768182593180630E-005 -0.79867071958357675E-005 -0.84241073216316377E-005 -0.81879579114482842E-005 -0.90707945894546462E-006 -0.15157585002590775E-005 -0.18209901396244565E-005 -0.19332087738093611E-005 -0.18952930816106979E-005  0.45588267013337904E-007  0.76178564890272050E-007  0.91516708598687107E-007  0.97153070991631277E-007  0.95243207834131204E-007 -0.22706859117170507E-008 -0.37943445075431027E-008 -0.45583151500918532E-008 -0.48390539274312035E-008 -0.47439260155757801E-008  0.16557840203567859E-008  0.27068188834536031E-008  0.31116136925178318E-008  0.30903865841966431E-008  0.27697721265266424E-008  0.66838120111347528E-002 -0.12308877535142849E-008 -0.14710494431916412E-008 -0.15502809684455559E-008 -0.15063458921960034E-008  0.44574923225930520E-007  0.74283344703881992E-007  0.88775614440816807E-007  0.93555017615834697E-007  0.90900989506202587E-007 -0.13112840381773026E-005 -0.21864184759388078E-005 
-0.26157918085242930E-005 -0.27610162535931487E-005 -0.26882958658323821E-005  0.87071361445061063E-004  0.14498285307271624E-003  0.17298321438246543E-003  0.18185083607192754E-003  0.17612448745448939E-003  0.47065752659479785E-003  0.78385499378189755E-003  0.93562479566664620E-003  0.98419393894545542E-003  0.95398437958790251E-003  </sparseX_slice>
        <sparseX_slice start="251" end="300">  0.10661663472943158E-003  0.17794926020897687E-003  0.21332490167981171E-003  0.22585803875191265E-003  0.22082184766357850E-003 -0.53583702774610653E-005 -0.89433239290351564E-005 -0.10720976703312131E-004 -0.11350456489837460E-004 -0.11096848996813412E-004  0.26689270498557089E-006  0.44545407331041361E-006  0.53399637376371483E-006  0.56534981853549655E-006  0.55271795064460427E-006 -0.27523161768209562E-006 -0.44940755579098406E-006 -0.51550707696152091E-006 -0.51060445859509592E-006 -0.45637799954870986E-006  0.22875097971890146E-004  0.37307104741403790E-004  0.42702528761270465E-004  0.42181925470169834E-004  0.37598919506290074E-004  0.63767225396918009E-001 -0.11812695880360451E-007 -0.14285975667971087E-007 -0.15329063279014577E-007 -0.15262941641158555E-007  0.42526916850189089E-006  0.71288917893418523E-006  0.86213707749962450E-006  0.92506507806801950E-006  0.92104775214284496E-006 -0.12510367539142791E-004 -0.20982820285380795E-004 
-0.25403046989351169E-004 -0.27300724015308386E-004 -0.27238964919637822E-004  0.83070845224760860E-003  0.13913846703935901E-002  0.16799122579276807E-002  0.17981275847586339E-002  0.17845687285527204E-002  0.44903304481226716E-002  0.75225711113063986E-002  0.90862432443087025E-002  0.97316367006974099E-002  0.96661782580361108E-002  </sparseX_slice>
        <sparseX_slice start="301" end="350">  0.10171810587321251E-002  0.17077596937512922E-002  0.20716872358539024E-002  0.22332675421886166E-002  0.22374615229099424E-002 -0.51121785692622332E-004 -0.85828106934704830E-004 -0.10411588341184609E-003 -0.11223247225493530E-003 -0.11243802603145668E-003  0.25463025063026305E-005  0.42749742871843747E-005  0.51858618605108302E-005  0.55901370909555757E-005  0.56003749659455136E-005 -0.26258602982630655E-005 -0.43129154285093873E-005 -0.50063045754334801E-005 -0.50488190306556565E-005 -0.46242173258532626E-005  0.30863932096522237E-003  0.50633402993679273E-003  0.58647732796278959E-003  0.58985681201427693E-003  0.53877061220792991E-003  0.20821381959310239E-002  0.34359963289714401E-002  0.40273452906883569E-002  0.41241723179006552E-002  0.38601344984175189E-002  0.15834591998774949E+000 -0.29480637631366273E-007 -0.36009568854892133E-007 -0.39211393662131679E-007 -0.39800028826407743E-007  0.10560227030375361E-005  0.17791389677967101E-005  
0.21731231507121344E-005  0.23662953357935054E-005  0.24017471826617501E-005 -0.31065577105479434E-004 -0.52366278416245604E-004 -0.64031522308830569E-004 -0.69834628322722027E-004 -0.71029007021794713E-004  0.20628041018561330E-002  0.34724425050092623E-002  0.42344266522620650E-002  0.45995692820469166E-002  0.46534861043806448E-002  </sparseX_slice>
        <sparseX_slice start="351" end="400">  0.11150328423907764E-001  0.18773884914562042E-001  0.22903000071027069E-001  0.24893304352803541E-001  0.25205768478705294E-001  0.25258503806069007E-002  0.42620114157547115E-002  0.52219439469251986E-002  0.57126473520075710E-002  0.58344606959418524E-002 -0.12694493349096065E-003 -0.21419897242381053E-003 -0.26243696333687344E-003 -0.28708809998111276E-003 -0.29319621226676424E-003  0.63229442776898614E-005  0.10668942053559857E-004  0.13071606313644589E-004  0.14299442967191778E-004  0.14603678001510358E-004 -0.65205011210644192E-005 -0.10763630772379985E-004 -0.12619009965263111E-004 -0.12914763735819577E-004 -0.12058224895012031E-004  0.76640902781061732E-003  0.12636446589481204E-002  0.14782886527279486E-002  0.15088402493481433E-002  0.14049117398754122E-002  0.73119616681641504E-002  0.12127060338668581E-001  0.14356278655929569E-001  0.14919300520971387E-001  0.14235167372771520E-001  0.12838913272227631E-001  0.21400720253640718E-001  
0.25587914863325716E-001  0.26985478646096055E-001  0.26247788802940944E-001 -0.74980935213826479E-002  0.13947005533681305E-008  0.17004172697019530E-008  0.18463880111309882E-008  0.18669198813183169E-008 -0.50005437391069699E-007 -0.84169349860492750E-007 -0.10261761671045428E-006 -0.11142422981572708E-006 -0.11265995772938689E-006  </sparseX_slice>
        <sparseX_slice start="401" end="450">  0.14710363389889011E-005  0.24773981620825113E-005  0.30236492632832311E-005  0.32883763736606945E-005  0.33317931988858704E-005 -0.97679170219261969E-004 -0.16427790822687801E-003 -0.19995496851983095E-003 -0.21658474197359365E-003 -0.21828340284875319E-003 -0.52799721851412281E-003 -0.88817440133488008E-003 -0.10815085569531500E-002 -0.11721771256204972E-002 -0.11823396033718082E-002 -0.11960562278002315E-003 -0.20163165242022960E-003 -0.24658678099004371E-003 -0.26899741624721816E-003 -0.27367996936717993E-003  0.60111746703329195E-005  0.10133546943792077E-004  0.12392604489779432E-004  0.13518418409479300E-004  0.13753101541596351E-004 -0.29940795145386586E-006 -0.50473736599647765E-006 -0.61725774079760002E-006 -0.67333286564543135E-006 -0.68502203654939944E-006  0.30876278476770292E-006  0.50921699802436984E-006  0.59588557024778927E-006  0.60813102267863097E-006  0.56562119309241949E-006 -0.36291472281701684E-004 -0.59781810934119472E-004 
-0.69806655137486689E-004 -0.71048343017677144E-004 -0.65900898466953386E-004 -0.34624051201888556E-003 -0.57371953675365323E-003 -0.67792158949661217E-003 -0.70252074827386647E-003 -0.66773612396199035E-003 -0.85977980179312763E-003 -0.14318169143074288E-002 -0.17087852256340262E-002 -0.17970320243959961E-002 -0.17412054377811072E-002  </sparseX_slice>
        <sparseX_slice start="451" end="500">  0.28788312994156173E-004  0.47897913056175797E-004  0.57057149106162428E-004  0.59834478740512392E-004  0.57753367327818459E-004  0.39657829400025700E-003 -0.73766372227518981E-010 -0.89935608883991648E-010 -0.97655609713038264E-010 -0.98740939627277740E-010  0.26448151112991499E-008  0.44517567423080774E-008  0.54274783051905979E-008  0.58932364345213368E-008  0.59585578341550389E-008 -0.77803921765572575E-007 -0.13103076107528689E-006 -0.15992176884481671E-006 -0.17392248963915260E-006 -0.17621773403015745E-006  0.51663050846787040E-005  0.86887363009624449E-005  0.10575681724499559E-004  0.11455184340704576E-004  0.11544956223352000E-004  0.27926063546430647E-004  0.46975964362817090E-004  0.57201330706243277E-004  0.61996542007456489E-004  0.62533654798852990E-004  0.63260072309945287E-005  0.10664393506807832E-004  0.13042053080871277E-004  0.14227294878698400E-004  0.14474867187871751E-004 -0.31793433742856214E-006 -0.53596809296131211E-006 
-0.65544878325198165E-006 -0.71499023183378288E-006 -0.72739820417341333E-006  0.15835851374629228E-007  0.26695798124779343E-007  0.32646957747447235E-007  0.35612629164632851E-007  0.36230649333765530E-007 -0.16330633658376222E-007 -0.26932727982456535E-007 -0.31516576866343479E-007 -0.32164098470677357E-007 -0.29915567688747946E-007  </sparseX_slice>
        <sparseX_slice start="501" end="550">  0.19194759472112997E-005  0.31618882685260057E-005  0.36920961376998403E-005  0.37577525496617432E-005  0.34854825330339478E-005  0.18312851283949427E-004  0.30344297777875105E-004  0.35855487951888355E-004  0.37156378613355953E-004  0.35316401610402864E-004  0.45474227020327001E-004  0.75729474120729852E-004  0.90378192728130880E-004  0.95045167623652137E-004  0.92091933205631568E-004 -0.21533236033955084E-005 -0.35826884337835299E-005 -0.42677722784922113E-005 -0.44754914739418156E-005 -0.43198024242775380E-005  0.80532724197514731E-007  0.13398972517354070E-006  0.15961085075576822E-006  0.16737861142060945E-006  0.16155502136241381E-006 -0.20142293458594815E-004  0.37466092707905852E-011  0.45678481137951620E-011  0.49599485074215428E-011  0.50150725822861306E-011 -0.13433070574326255E-009 -0.22610564378295047E-009 -0.27566274189579587E-009 -0.29931869088912932E-009 -0.30263637491031060E-009  0.39516772555148960E-008  0.66550793997196871E-008  
0.81224596045694788E-008  0.88335590287915597E-008  0.89501348658737381E-008 -0.26239770226093506E-006 -0.44130271007818913E-006 -0.53714105477026473E-006 -0.58181116926998693E-006 -0.58637069525548050E-006 -0.14183705351640063E-005 -0.23859189258110301E-005 -0.29052673775759046E-005 -0.31488171227313082E-005 -0.31760971572245041E-005  </sparseX_slice>
        <sparseX_slice start="551" end="600"> -0.32129921378854400E-006 -0.54164674733807201E-006 -0.66240856435763017E-006 -0.72260723378418210E-006 -0.73518147427143477E-006  0.16147950661782448E-007  0.27221930065142648E-007  0.33290378810120248E-007  0.36314500965441996E-007  0.36944704029801295E-007 -0.80430616193600169E-009 -0.13558850967614701E-008 -0.16581457135647566E-008 -0.18087727616419186E-008 -0.18401621130815661E-008  0.82943625631615266E-009  0.13679188131351393E-008  0.16007334356061985E-008  0.16336211782506138E-008  0.15194178206697809E-008 -0.97490579793101821E-007 -0.16059295777113153E-006 -0.18752232389171654E-006 -0.19085702505696213E-006 -0.17702837296706089E-006 -0.93011349891145377E-006 -0.15411931471913291E-005 -0.18211076240280088E-005 -0.18871801137287773E-005 -0.17937272836363446E-005 -0.23096453822699502E-005 -0.38463156211303488E-005 -0.45903270384695400E-005 -0.48273636166712015E-005 -0.46773681819582416E-005  0.10936775054784783E-006  0.18196548501757650E-006  
0.21676103374764520E-006  0.22731113267722300E-006  0.21940365142021194E-006 -0.57845205327491330E-008 -0.96242406070262736E-008 -0.11464559846439874E-007 -0.12022504003672685E-007 -0.11604205898535624E-007  0.20774584572434537E-009  0.34564593345484572E-009  0.41173933930632667E-009  0.43177739763626789E-009  0.41675459357445066E-009  </sparseX_slice>
        <sparseX_slice start="601" end="650">  0.10032774332199888E-005 -0.18661670976973321E-012 -0.22752220050328481E-012 -0.24705252247052216E-012 -0.24979822470907364E-012  0.66909444020250156E-011  0.11262207573152620E-010  0.13730621524714093E-010  0.14908912359893808E-010  0.15074164519972647E-010 -0.19683104220364083E-009 -0.33148613347928625E-009 -0.40457559811358500E-009 -0.43999510018899740E-009 -0.44580168356863179E-009  0.13069896620677046E-007  0.21981064427858057E-007  0.26754723825623784E-007  0.28979719598822441E-007  0.29206827277756687E-007  0.70648317819388965E-007  0.11884141300334646E-006  0.14470989628577645E-006  0.15684098570885148E-006  0.15819979040394089E-006  0.16003751070751156E-007  0.26979150090123943E-007  0.32994235018390604E-007  0.35992700245719719E-007  0.36619016793628933E-007 -0.80432124201840187E-009 -0.13559105460887138E-008 -0.16581769038229763E-008 -0.18088068963511451E-008 -0.18401969916933065E-008  0.40062082469851327E-010  0.67535949786952029E-010  
0.82591397985843956E-010  0.90094054942500224E-010  0.91657542634234763E-010 -0.41313799740187081E-010 -0.68135343103320575E-010 -0.79731721505448801E-010 -0.81369843304661482E-010 -0.75681431916908186E-010  0.48559563914116078E-008  0.79990538712125546E-008  0.93403919553456295E-008  0.95064917309099714E-008  0.88176935756629004E-008  </sparseX_slice>
        <sparseX_slice start="651" end="681">  0.46328482191433937E-007  0.76766049902987580E-007  0.90708448190478047E-007  0.93999485429189456E-007  0.89344647303256801E-007  0.11504226643979453E-006  0.19158303256955608E-006  0.22864186435362519E-006  0.24044853622906449E-006  0.23297733960836500E-006 -0.54475522498093727E-008 -0.90636086261720743E-008 -0.10796757281111863E-007 -0.11322252364013640E-007 -0.10928384728277183E-007  0.28812403733639865E-009  0.47937854905710872E-009  0.57104391807292313E-009  0.59883483388486998E-009  0.57799961716433949E-009 -0.14633879363304516E-010 -0.24347735450184964E-010 -0.29003438309160076E-010 -0.30414944407671137E-010 -0.29356719143595978E-010  0.51541445864554734E-012  0.85754259514474605E-012  0.10215193855054702E-011  0.10712335203115583E-011  0.10339621592221470E-011  0.00000000000000000E+000  </sparseX_slice>
      </sparseX>
      <sparseX i="5" alpha="-74649.784207983219" sparseCutoff="1.0000000000000000" sliced="T">
        <sparseX_slice start="1" end="50">  0.95093293059094497E+000  0.98636999743644637E-008  0.11442685920492011E-007  0.11504700344075786E-007  0.10457319146082650E-007  0.13106917401701597E-001 -0.17029103559631485E-005 -0.19581360643622412E-005 -0.19453466504978820E-005 -0.17439816718210778E-005  0.90327760375419236E-004  0.14699877773975901E-003  0.16754356770771095E-003  0.16447075879521051E-003  0.14542312561949435E-003  0.84063876142288885E-001 -0.10961151143075996E-004 -0.12695349490903312E-004 -0.12751822133044995E-004 -0.11604095164520455E-004  0.81930402567023598E-003  0.13381139590301070E-002  0.15361886494671712E-002  0.15246808260193385E-002  0.13684150374126231E-002  0.37156854309770052E-002  0.60903532494710469E-002  0.70425728634020256E-002  0.70670666271003667E-002  0.64383147681635637E-002  0.12144607968368169E+000 -0.15955775580799683E-004 -0.18760376397304109E-004 -0.19269542204029716E-004 -0.18057576341283878E-004  0.11836387584399516E-002  0.19478470603251077E-002  
0.22700814421785409E-002  0.23039767350988716E-002  0.21294429814907884E-002  0.75915075175335273E-002  0.12537739263288506E-001  0.14717811395122229E-001  0.15102656134388798E-001  0.14168875398120815E-001  0.77550949157736563E-002  0.12905237134468242E-001  0.15378894649998047E-001  0.16137545770328859E-001  0.15590805768008168E-001  </sparseX_slice>
        <sparseX_slice start="51" end="100"> -0.63881329545522883E-002  0.83897969110635341E-006  0.98573148703825298E-006  0.10113633596444889E-005  0.94632673923907373E-006 -0.62260072772786160E-004 -0.10242085172973291E-003 -0.11927749786609578E-003 -0.12092439076549750E-003 -0.11159575321648248E-003 -0.39931761876380717E-003 -0.65925398367621031E-003 -0.77332191024414459E-003 -0.79266403352523304E-003 -0.74253517752178460E-003 -0.57688940330805603E-003 -0.95965364193800350E-003 -0.11427657129768475E-002 -0.11978110177720599E-002 -0.11554873916567461E-002  0.21456951027911708E-004  0.35680673779529922E-004  0.42457975832341368E-004  0.44453823856355183E-004  0.42818541008874529E-004  0.33792721789876594E-003 -0.44381339628911413E-007 -0.52144324859942045E-007 -0.53500127200342516E-007 -0.50059625372612271E-007  0.32935089685773269E-005  0.54179793073482560E-005  0.63096742662633226E-005  0.63967813604125089E-005  0.59032904466839581E-005  0.21123588523725509E-004  0.34873996666908282E-004  
0.40908045892133276E-004  0.41931147906765688E-004  0.39279279842198399E-004  0.30516996512454921E-004  0.50764892953258940E-004  0.60451296686595120E-004  0.63363024971858955E-004  0.61123989791966017E-004 -0.16052113958962551E-005 -0.26692976466918749E-005 -0.31763086898848674E-005 -0.33256130910767379E-005 -0.32032685259577312E-005  </sparseX_slice>
        <sparseX_slice start="101" end="150">  0.60043564021825999E-007  0.99846067519085002E-007  0.11881085585989137E-006  0.12439540035159273E-006  0.11981876317626923E-006 -0.17163398222025547E-004  0.22541380643279126E-008  0.26484217967934269E-008  0.27172832884496955E-008  0.25425394282956815E-008 -0.16727804977354476E-006 -0.27518036838344622E-006 -0.32046975202618302E-006 -0.32489393951205660E-006 -0.29982942552316491E-006 -0.10728717383739145E-005 -0.17712580106733218E-005 -0.20777287019431935E-005 -0.21296922724295389E-005 -0.19950032979768919E-005 -0.15499650100405283E-005 -0.25783601507812242E-005 -0.30703347338225128E-005 -0.32182220467795592E-005 -0.31045009407090281E-005  0.81529042228715792E-007  0.13557421837058365E-006  0.16132542113126146E-006  0.16890862413079460E-006  0.16269471587220384E-006 -0.43128223245052727E-008 -0.71717652932630185E-008 -0.85339722614633360E-008 -0.89351001201080484E-008 -0.86063683809832247E-008  0.15489117531389168E-009  0.25756756725456733E-009  
0.30649001739920744E-009  0.32089616629998115E-009  0.30909005712328071E-009  0.85490017102388119E-006 -0.11227747511146104E-009 -0.13191654809378340E-009 -0.13534650410936656E-009 -0.12664260095367159E-009  0.83320349216408160E-008  0.13706594751793561E-007  0.15962436008852339E-007  0.16182802546275969E-007  0.14934351801242924E-007  </sparseX_slice>
        <sparseX_slice start="151" end="200">  0.53439197806732740E-007  0.88225464250187844E-007  0.10349061413388671E-006  0.10607889325611148E-006  0.99370103666909378E-007  0.77202971988626449E-007  0.12842681299738219E-006  0.15293181775980632E-006  0.16029800990231474E-006  0.15463361921512321E-006 -0.40609202934706930E-008 -0.67528831395682583E-008 -0.80355375043274663E-008 -0.84132530042788235E-008 -0.81037413816177650E-008  0.21481949524911993E-009  0.35722199627539812E-009  0.42507283531020966E-009  0.44505281074825785E-009  0.42867884934384690E-009 -0.10910729729736383E-010 -0.18143384268081617E-010 -0.21589543354605308E-010 -0.22604330651312237E-010 -0.21772693431490592E-010  0.38428278110133452E-012  0.63902143466285780E-012  0.76039733074449475E-012  0.79613877922773402E-012  0.76684799193103494E-012  0.44209336617384729E-001 -0.52432505963857399E-005 -0.51763178672831525E-005 -0.41040254596267342E-005 -0.27383207718045980E-005  0.43087339205636190E-003  0.64008485259768036E-003  
0.62635540356350574E-003  0.49070076907463118E-003  0.32291697614249997E-003  0.27634939896799479E-002  0.41200447158878644E-002  0.40609030692381268E-002  0.32165624189326963E-002  0.21486231087990402E-002  0.39923868215162254E-002  0.59974092147331128E-002  0.60009431127881494E-002  0.48606140076954589E-002  0.33435546042756667E-002  </sparseX_slice>
        <sparseX_slice start="201" end="250"> -0.21000182046448506E-003 -0.31535317759608409E-003 -0.31530916293612661E-003 -0.25510968868424516E-003 -0.17522258061277663E-003  0.11108931427713713E-004  0.16681925231696754E-004  0.16679576172268243E-004  0.13495051669109841E-004  0.92690784045170695E-005 -0.56422508698942393E-006 -0.84727867534994029E-006 -0.84715936421773394E-006 -0.68541665779446143E-006 -0.47077853923258136E-006  0.28103765764999960E-007  0.42202521615479842E-007  0.42196578788255745E-007  0.34140256514709651E-007  0.23449240557716427E-007  0.10276568311366906E-002  0.13935783168562341E-002  0.11708032034319221E-002  0.73200624394956758E-003  0.35852404160895552E-003  0.16806563986344836E+000 -0.20522312891026803E-004 -0.20868753838782512E-004 -0.17361133772612560E-004 -0.12439752638253554E-004  0.16380026907621742E-002  0.25053201979076188E-002  0.25252036423757478E-002  0.20757965022476649E-002  0.14669600973220721E-002  0.10505662857010980E-001  0.16126035792139341E-001  
0.16371866776328153E-001  0.13606925929774274E-001  0.97608506138165112E-002  0.15177405884816380E-001  0.23474122813264321E-001  0.24193298756407838E-001  0.20561707239581870E-001  0.15189232991967037E-001 -0.79834019303003404E-003 -0.12343061737822496E-002 -0.12711949832169471E-002 -0.10791827379013255E-002 -0.79600811632557912E-003  </sparseX_slice>
        <sparseX_slice start="251" end="300">  0.42231569425171867E-004  0.65293787305452128E-004  0.67245091626682272E-004  0.57087705619897213E-004  0.42107938457765981E-004 -0.21449507621563802E-005 -0.33162859111506352E-005 -0.34153930819859965E-005 -0.28994971895298464E-005 -0.21386714937681375E-005  0.10683891090122866E-006  0.16518252131229656E-006  0.17011899928647317E-006  0.14442248621846749E-006  0.10652614372152547E-006  0.55249461117902266E-002  0.77138656041508226E-002  0.66753567182857359E-002  0.43792306589924227E-002  0.23033540838252832E-002  0.14851762092809829E-001  0.21349256744011072E-001  0.19029836605223099E-001  0.13099383593496005E-001  0.73990017680059597E-002  0.16560934303493466E+000 -0.21138946248113122E-004 -0.23451850626550984E-004 -0.22055302049254865E-004 -0.18349628709284744E-004  0.16140631108594349E-002  0.25805974832903691E-002  0.28377688040271344E-002  0.26370581235933607E-002  0.21638833102211380E-002  0.10352121500323937E-001  0.16610574335129236E-001  
0.18398346977609486E-001  0.17286017449875849E-001  0.14398034258297956E-001  0.14955586517275051E-001  0.24179449119897566E-001  0.27187901730115926E-001  0.26121258539734481E-001  0.22405331833072771E-001 -0.78667236797187279E-003 -0.12713933366012367E-002 -0.14285412101714677E-002 -0.13709762025048795E-002 -0.11741755490567495E-002  </sparseX_slice>
        <sparseX_slice start="301" end="350">  0.41614350640139501E-004  0.67255667892539620E-004  0.75568568031453219E-004  0.72523292962122372E-004  0.62112572402556537E-004 -0.21136020833979895E-005 -0.34159302604649362E-005 -0.38381442901893992E-005 -0.36834740831804003E-005 -0.31547112698284513E-005  0.10527744909248678E-006  0.17014575587506940E-006  0.19117602281504778E-006  0.18347197815372382E-006  0.15713457027360338E-006  0.54441984490131989E-002  0.79456439065701354E-002  0.75016203576683633E-002  0.55633034220265000E-002  0.33976312434249858E-002  0.20696594110783187E-001  0.31099598879312546E-001  0.30243403254975803E-001  0.23534272844452534E-001  0.15434894501550632E-001  0.14420814348819979E-001  0.22651492322454142E-001  0.24032351391604537E-001  0.21140765684277495E-001  0.16099196604071279E-001 -0.10108765911018648E-001  0.12895005297611235E-005  0.14287134175241233E-005  0.13408200454764498E-005  0.11121647161251957E-005 -0.98522135613126200E-004 -0.15741947506490233E-003 
-0.17288010360917166E-003 -0.16031611742628338E-003 -0.13115222686889714E-003 -0.63189172187660264E-003 -0.10132645285806329E-002 -0.11208482266817552E-002 -0.10508783172177092E-002 -0.87265992883759941E-003 -0.91288643741089365E-003 -0.14749747732682346E-002 -0.16563179006507521E-002 -0.15880039631709412E-002 -0.13579794944413074E-002  </sparseX_slice>
        <sparseX_slice start="351" end="400">  0.48018346493995090E-004  0.77556485637423736E-004  0.87028355542544537E-004  0.83346506435708864E-004  0.71166378180561454E-004 -0.25401328297732606E-005 -0.41026746725660130E-005 -0.46037231265403154E-005 -0.44089482316049293E-005 -0.37646217560217675E-005  0.12901390886868338E-006  0.20837575481747435E-006  0.23382411619059757E-006  0.22393145542471183E-006  0.19120597040148377E-006 -0.64261174465297955E-008 -0.10379090791107571E-007 -0.11646660779747864E-007 -0.11153912358232313E-007 -0.95238725268250261E-008 -0.33231294011350535E-003 -0.48469360329302092E-003 -0.45700724556205859E-003 -0.33821294900710170E-003 -0.20592926686466661E-003 -0.12633165568269951E-002 -0.18971120300668538E-002 -0.18424625292921438E-002 -0.14307319262771157E-002 -0.93550367332792365E-003 -0.12448530537905375E-002 -0.19541145017707355E-002 -0.20705192248555225E-002 -0.18175785751580844E-002 -0.13799426371993678E-002  0.53729945065773340E-004  0.84289446180227929E-004  
0.89193308441594068E-004  0.78133212538526701E-004  0.59140891585831924E-004  0.57046978321392318E-003 -0.72770532466264936E-007 -0.80626565447534948E-007 -0.75666203977086855E-007 -0.62762216778286766E-007  0.55599171886778051E-005  0.88836714345165568E-005  0.97561406068240756E-005  0.90470843443284643E-005  0.74012458535630852E-005  </sparseX_slice>
        <sparseX_slice start="401" end="450">  0.35659657842180013E-004  0.57181674277908932E-004  0.63252813193226797E-004  0.59303985925596445E-004  0.49246366867535377E-004  0.51517082563072767E-004  0.83237421891498776E-004  0.93470966241896225E-004  0.89615479869274662E-004  0.76634155152427390E-004 -0.27098278816469363E-005 -0.43767541197467039E-005 -0.49112700404969996E-005 -0.47034751441987567E-005 -0.40160954487528793E-005  0.14334776742191870E-006  0.23152671407881790E-006  0.25980184648057008E-006  0.24880920996261642E-006  0.21244695440697237E-006 -0.72806648478896479E-008 -0.11759293060497228E-007 -0.13195393265028196E-007 -0.12637074781374738E-007 -0.10790227733038172E-007  0.36264622792710931E-009  0.58572443046961815E-009  0.65725585417323515E-009  0.62944629332466175E-009  0.53745577739590426E-009  0.18753475208986183E-004  0.27352770146716926E-004  0.25790283861238282E-004  0.19086297280236265E-004  0.11621099914932892E-004  0.71292967771476802E-004  0.10705994250478971E-003  
0.10397566361491495E-003  0.80740181454958782E-004  0.52792795429486809E-004  0.70251013623236344E-004  0.11027676958011715E-003  0.11684558410775504E-003  0.10257101366904500E-003  0.77873589839509014E-004 -0.42881098295237760E-005 -0.67270123649895510E-005 -0.71183659000536823E-005 -0.62356557577474166E-005 -0.47198916288526598E-005  </sparseX_slice>
        <sparseX_slice start="451" end="500">  0.17111394667860677E-006  0.26843630732822038E-006  0.28405232394887412E-006  0.24882762058423937E-006  0.18834157205579127E-006 -0.30181056947293562E-004  0.38499700505598616E-008  0.42655983193294665E-008  0.40031673012071666E-008  0.33204738493623569E-008 -0.29415085992520569E-006 -0.46999613446223234E-006 -0.51615465379944565E-006 -0.47864159049720755E-006 -0.39156748392545600E-006 -0.18865962680660545E-005 -0.30252318617137372E-005 -0.33464292091848995E-005 -0.31375140394315008E-005 -0.26054094605582477E-005 -0.27255431371576554E-005 -0.44037273125168644E-005 -0.49451392886998386E-005 -0.47411623662699440E-005 -0.40543773182920169E-005  0.14336512120341518E-006  0.23155488504225002E-006  0.25983377952703884E-006  0.24884026037567360E-006  0.21247401061749317E-006 -0.75839023540462414E-008 -0.12249064077155247E-007 -0.13744977397398167E-007 -0.13163405076633015E-007 -0.11239637359798885E-007  0.38518807981441367E-009  0.62213267602045418E-009  
0.69811044314943608E-009  0.66857225404129086E-009  0.57086366376741809E-009 -0.19186023131894710E-010 -0.30988113440487025E-010 -0.34772527533188142E-010 -0.33301245296597369E-010 -0.28434429910850739E-010 -0.99216421254309126E-006 -0.14471152305162334E-005 -0.13644509211435267E-005 -0.10097723575045225E-005 -0.61482146981321281E-006  </sparseX_slice>
        <sparseX_slice start="501" end="550"> -0.37717985834941769E-005 -0.56640725069474933E-005 -0.55008968012602753E-005 -0.42716092166048149E-005 -0.27930354543976733E-005 -0.37166733544113235E-005 -0.58342607339414627E-005 -0.61817879060647521E-005 -0.54265828915632444E-005 -0.41199503760599656E-005  0.22686510446176371E-006  0.35589675184748497E-006  0.37660155125173474E-006  0.32990122298929821E-006  0.24970878228844739E-006 -0.12802718759174916E-007 -0.20084362539776017E-007 -0.21252750374711509E-007 -0.18617243466201665E-007 -0.14091686688310054E-007  0.47894870876419871E-009  0.75135443234945565E-009  0.79506372665885456E-009  0.69646961512154180E-009  0.52716888670407803E-009  0.15329028973201867E-005 -0.19554087371375387E-009 -0.21665073008716293E-009 -0.20332179767779709E-009 -0.16864763857845120E-009  0.14939990544930415E-007  0.23871212910206220E-007  0.26215614835743643E-007  0.24310317631218067E-007  0.19887803519613664E-007  0.95820662955650377E-007  0.15365222940894472E-006  
0.16996591734143490E-006  0.15935506730987021E-006  0.13232935207048354E-006  0.13843096943279098E-006  0.22366633375795915E-006  0.25116477386645910E-006  0.24080473856329514E-006  0.20592276634471547E-006 -0.72815478282009554E-008 -0.11760726431434194E-007 -0.13197018055063593E-007 -0.12638654662006282E-007 -0.10791604384059275E-007  </sparseX_slice>
        <sparseX_slice start="551" end="600">  0.38518816328443246E-009  0.62213281152002328E-009  0.69811059674413312E-009  0.66857240339043222E-009  0.57086379390466437E-009 -0.19563792102836286E-010 -0.31598263216937155E-010 -0.35457191668617650E-010 -0.33956940177888748E-010 -0.28994298167144436E-010  0.97446257426616876E-012  0.15738934841876470E-011  0.17661047555517178E-011  0.16913779887669669E-011  0.14441913041147236E-011  0.50392250963268187E-007  0.73499318909890009E-007  0.69300779422736540E-007  0.51286572737356081E-007  0.31226925353212016E-007  0.19157052673282452E-006  0.28767955912423372E-006  0.27939182710352333E-006  0.21695602495434949E-006  0.14185891990702307E-006  0.18877070353497841E-006  0.29632345872998680E-006  0.31397444457532826E-006  0.27561740635408893E-006  0.20925323718972952E-006 -0.11522531385749544E-007 -0.18076078747164319E-007 -0.19127680321168210E-007 -0.16755759794016332E-007 -0.12682767091610829E-007  0.65025306150766218E-009  0.10200894415894175E-008  
0.10794321312854579E-008  0.94557412282316518E-009  0.71572004219435751E-009 -0.34402040663660079E-010 -0.53968463139007831E-010 -0.57108024625427584E-010 -0.50026183558773488E-010 -0.37865610960909694E-010  0.12355189398858946E-011  0.19382297409751592E-011  0.20509843219258134E-011  0.17966462478189833E-011  0.13599100113886449E-011  </sparseX_slice>
        <sparseX_slice start="601" end="650"> -0.76353116826759590E-007  0.97397918688611182E-011  0.10791263121666850E-010  0.10127355750098994E-010  0.84002534494832115E-011 -0.74415336122199768E-009 -0.11890130231443553E-008 -0.13057864955034609E-008 -0.12108846068703354E-008 -0.99060141918657932E-009 -0.47727786840643884E-008 -0.76533397146438132E-008 -0.84659162468965061E-008 -0.79373951817280208E-008 -0.65912579954735953E-008 -0.68951764655290718E-008 -0.11140706786769969E-007 -0.12510390159296816E-007 -0.11994362048700208E-007 -0.10256908681882636E-007  0.36269020886985557E-009  0.58579582617833946E-009  0.65733678440079075E-009  0.62952498663040317E-009  0.53752434790530826E-009 -0.19186027296938506E-010 -0.30988120201736732E-010 -0.34772535197360864E-010 -0.33301252748922454E-010 -0.28434436404527632E-010  0.97446257464427371E-012  0.15738934848014372E-011  0.17661047562474757E-011  0.16913779894434932E-011  0.14441913047042239E-011 -0.48537487212217479E-013 -0.78394837194931204E-013 
-0.87968783257356556E-013 -0.84246680856493963E-013 -0.71934437305862557E-013 -0.25100124943909818E-008 -0.36609638439752173E-008 -0.34518367188814610E-008 -0.25545582089413714E-008 -0.15553973339096068E-008 -0.95420308969120523E-008 -0.14329173116498565E-007 -0.13916365382680133E-007 -0.10806469704354707E-007 -0.70659209422289242E-008  </sparseX_slice>
