<GAP_2023_3_22_60_12_47_48_51>
<Potential label="GAP_2023_3_22_60_12_47_48_51" init_args="IP GAP label=GAP_2023_3_22_60_12_47_48_51"/>
<GAP_params label="GAP_2023_3_22_60_12_47_48_51" gap_version="1662319253">
  <GAP_data do_core="F">
    <e0 Z="1" value=".00000000000000000E+000"/>
    <e0 Z="2" value=".00000000000000000E+000"/>
    <e0 Z="3" value=".00000000000000000E+000"/>
    <e0 Z="4" value=".00000000000000000E+000"/>
    <e0 Z="5" value=".00000000000000000E+000"/>
    <e0 Z="6" value="-74.143103440073659"/>
    <e0 Z="7" value=".00000000000000000E+000"/>
    <e0 Z="8" value="-74.143103440073659"/>
    <e0 Z="9" value=".00000000000000000E+000"/>
    <e0 Z="10" value=".00000000000000000E+000"/>
    <e0 Z="11" value=".00000000000000000E+000"/>
    <e0 Z="12" value=".00000000000000000E+000"/>
    <e0 Z="13" value=".00000000000000000E+000"/>
    <e0 Z="14" value=".00000000000000000E+000"/>
    <e0 Z="15" value=".00000000000000000E+000"/>
    <e0 Z="16" value=".00000000000000000E+000"/>
    <e0 Z="17" value=".00000000000000000E+000"/>
    <e0 Z="18" value=".00000000000000000E+000"/>
    <e0 Z="19" value=".00000000000000000E+000"/>
    <e0 Z="20" value=".00000000000000000E+000"/>
    <e0 Z="21" value=".00000000000000000E+000"/>
    <e0 Z="22" value=".00000000000000000E+000"/>
    <e0 Z="23" value=".00000000000000000E+000"/>
    <e0 Z="24" value=".00000000000000000E+000"/>
    <e0 Z="25" value=".00000000000000000E+000"/>
    <e0 Z="26" value=".00000000000000000E+000"/>
    <e0 Z="27" value=".00000000000000000E+000"/>
    <e0 Z="28" value=".00000000000000000E+000"/>
    <e0 Z="29" value=".00000000000000000E+000"/>
    <e0 Z="30" value=".00000000000000000E+000"/>
    <e0 Z="31" value=".00000000000000000E+000"/>
    <e0 Z="32" value=".00000000000000000E+000"/>
    <e0 Z="33" value=".00000000000000000E+000"/>
    <e0 Z="34" value=".00000000000000000E+000"/>
    <e0 Z="35" value=".00000000000000000E+000"/>
    <e0 Z="36" value=".00000000000000000E+000"/>
    <e0 Z="37" value=".00000000000000000E+000"/>
    <e0 Z="38" value=".00000000000000000E+000"/>
    <e0 Z="39" value=".00000000000000000E+000"/>
    <e0 Z="40" value=".00000000000000000E+000"/>
    <e0 Z="41" value=".00000000000000000E+000"/>
    <e0 Z="42" value=".00000000000000000E+000"/>
    <e0 Z="43" value=".00000000000000000E+000"/>
    <e0 Z="44" value=".00000000000000000E+000"/>
    <e0 Z="45" value=".00000000000000000E+000"/>
    <e0 Z="46" value=".00000000000000000E+000"/>
    <e0 Z="47" value=".00000000000000000E+000"/>
    <e0 Z="48" value=".00000000000000000E+000"/>
    <e0 Z="49" value=".00000000000000000E+000"/>
    <e0 Z="50" value=".00000000000000000E+000"/>
    <e0 Z="51" value=".00000000000000000E+000"/>
    <e0 Z="52" value=".00000000000000000E+000"/>
    <e0 Z="53" value=".00000000000000000E+000"/>
    <e0 Z="54" value=".00000000000000000E+000"/>
    <e0 Z="55" value=".00000000000000000E+000"/>
    <e0 Z="56" value=".00000000000000000E+000"/>
    <e0 Z="57" value=".00000000000000000E+000"/>
    <e0 Z="58" value=".00000000000000000E+000"/>
    <e0 Z="59" value=".00000000000000000E+000"/>
    <e0 Z="60" value=".00000000000000000E+000"/>
    <e0 Z="61" value=".00000000000000000E+000"/>
    <e0 Z="62" value=".00000000000000000E+000"/>
    <e0 Z="63" value=".00000000000000000E+000"/>
    <e0 Z="64" value=".00000000000000000E+000"/>
    <e0 Z="65" value=".00000000000000000E+000"/>
    <e0 Z="66" value=".00000000000000000E+000"/>
    <e0 Z="67" value=".00000000000000000E+000"/>
    <e0 Z="68" value=".00000000000000000E+000"/>
    <e0 Z="69" value=".00000000000000000E+000"/>
    <e0 Z="70" value=".00000000000000000E+000"/>
    <e0 Z="71" value=".00000000000000000E+000"/>
    <e0 Z="72" value=".00000000000000000E+000"/>
    <e0 Z="73" value=".00000000000000000E+000"/>
    <e0 Z="74" value=".00000000000000000E+000"/>
    <e0 Z="75" value=".00000000000000000E+000"/>
    <e0 Z="76" value=".00000000000000000E+000"/>
    <e0 Z="77" value=".00000000000000000E+000"/>
    <e0 Z="78" value=".00000000000000000E+000"/>
    <e0 Z="79" value=".00000000000000000E+000"/>
    <e0 Z="80" value=".00000000000000000E+000"/>
    <e0 Z="81" value=".00000000000000000E+000"/>
    <e0 Z="82" value=".00000000000000000E+000"/>
    <e0 Z="83" value=".00000000000000000E+000"/>
    <e0 Z="84" value=".00000000000000000E+000"/>
    <e0 Z="85" value=".00000000000000000E+000"/>
    <e0 Z="86" value=".00000000000000000E+000"/>
    <e0 Z="87" value=".00000000000000000E+000"/>
    <e0 Z="88" value=".00000000000000000E+000"/>
    <e0 Z="89" value=".00000000000000000E+000"/>
    <e0 Z="90" value=".00000000000000000E+000"/>
    <e0 Z="91" value=".00000000000000000E+000"/>
    <e0 Z="92" value=".00000000000000000E+000"/>
    <e0 Z="93" value=".00000000000000000E+000"/>
    <e0 Z="94" value=".00000000000000000E+000"/>
    <e0 Z="95" value=".00000000000000000E+000"/>
    <e0 Z="96" value=".00000000000000000E+000"/>
    <e0 Z="97" value=".00000000000000000E+000"/>
    <e0 Z="98" value=".00000000000000000E+000"/>
    <e0 Z="99" value=".00000000000000000E+000"/>
    <e0 Z="100" value=".00000000000000000E+000"/>
    <e0 Z="101" value=".00000000000000000E+000"/>
    <e0 Z="102" value=".00000000000000000E+000"/>
    <e0 Z="103" value=".00000000000000000E+000"/>
    <e0 Z="104" value=".00000000000000000E+000"/>
    <e0 Z="105" value=".00000000000000000E+000"/>
    <e0 Z="106" value=".00000000000000000E+000"/>
    <e0 Z="107" value=".00000000000000000E+000"/>
    <e0 Z="108" value=".00000000000000000E+000"/>
    <e0 Z="109" value=".00000000000000000E+000"/>
    <e0 Z="110" value=".00000000000000000E+000"/>
    <e0 Z="111" value=".00000000000000000E+000"/>
    <e0 Z="112" value=".00000000000000000E+000"/>
    <e0 Z="113" value=".00000000000000000E+000"/>
    <e0 Z="114" value=".00000000000000000E+000"/>
    <e0 Z="115" value=".00000000000000000E+000"/>
    <e0 Z="116" value=".00000000000000000E+000"/>
    <e0 Z="117" value=".00000000000000000E+000"/>
    <e0 Z="118" value=".00000000000000000E+000"/>
  </GAP_data>
  <gpSparse label="GAP_2023_3_22_60_12_47_48_51" n_coordinate="2" fitted="T">
    <gpCoordinates label="GAP_2023_3_22_60_12_47_48_511" dimensions="681" signal_variance=".72770126504682189E-001" signal_mean=".00000000000000000E+000" sparsified="T" n_permutations="1" covariance_type="2" zeta="4.0000000000000000" n_sparseX="24">
      <descriptor> soap=T l_max=4 n_max=8 cutoff=4 delta=0.07277012650468219 covariance_type=dot_product zeta=4 n_sparse=1000 sparse_method=cur_points atom_gaussian_width=0.3 cutoff_transition_width=0.5               n_species=2 Z=8 species_Z={8 6 }</descriptor>
      <permutation i="1">1  </permutation>
      <sparseX i="1" alpha="1939.5016752430683" sparseCutoff="1.0000000000000000" sliced="T">
        <sparseX_slice start="1" end="50">  0.99232428822676777E+000  0.00000000000000000E+000  0.00000000000000000E+000  0.00000000000000000E+000  0.00000000000000000E+000  0.00000000000000000E+000  0.00000000000000000E+000  0.00000000000000000E+000  0.00000000000000000E+000  0.00000000000000000E+000  0.00000000000000000E+000  0.00000000000000000E+000  0.00000000000000000E+000  0.00000000000000000E+000  0.00000000000000000E+000  0.00000000000000000E+000  0.00000000000000000E+000  0.00000000000000000E+000  0.00000000000000000E+000  0.00000000000000000E+000  0.00000000000000000E+000  0.00000000000000000E+000  0.00000000000000000E+000  0.00000000000000000E+000  0.00000000000000000E+000  0.00000000000000000E+000  0.00000000000000000E+000  0.00000000000000000E+000  0.00000000000000000E+000  0.00000000000000000E+000  0.00000000000000000E+000  0.00000000000000000E+000  0.00000000000000000E+000  0.00000000000000000E+000  0.00000000000000000E+000  0.00000000000000000E+000  0.00000000000000000E+000  
0.00000000000000000E+000  0.00000000000000000E+000  0.00000000000000000E+000  0.00000000000000000E+000  0.00000000000000000E+000  0.00000000000000000E+000  0.00000000000000000E+000  0.00000000000000000E+000  0.00000000000000000E+000  0.00000000000000000E+000  0.00000000000000000E+000  0.00000000000000000E+000  0.00000000000000000E+000  </sparseX_slice>
        <sparseX_slice start="51" end="100">  0.00000000000000000E+000  0.00000000000000000E+000  0.00000000000000000E+000  0.00000000000000000E+000  0.00000000000000000E+000  0.00000000000000000E+000  0.00000000000000000E+000  0.00000000000000000E+000  0.00000000000000000E+000  0.00000000000000000E+000  0.00000000000000000E+000  0.00000000000000000E+000  0.00000000000000000E+000  0.00000000000000000E+000  0.00000000000000000E+000  0.00000000000000000E+000  0.00000000000000000E+000  0.00000000000000000E+000  0.00000000000000000E+000  0.00000000000000000E+000  0.00000000000000000E+000  0.00000000000000000E+000  0.00000000000000000E+000  0.00000000000000000E+000  0.00000000000000000E+000  0.00000000000000000E+000  0.00000000000000000E+000  0.00000000000000000E+000  0.00000000000000000E+000  0.00000000000000000E+000  0.00000000000000000E+000  0.00000000000000000E+000  0.00000000000000000E+000  0.00000000000000000E+000  0.00000000000000000E+000  0.00000000000000000E+000  0.00000000000000000E+000  
0.00000000000000000E+000  0.00000000000000000E+000  0.00000000000000000E+000  0.00000000000000000E+000  0.00000000000000000E+000  0.00000000000000000E+000  0.00000000000000000E+000  0.00000000000000000E+000  0.00000000000000000E+000  0.00000000000000000E+000  0.00000000000000000E+000  0.00000000000000000E+000  0.00000000000000000E+000  </sparseX_slice>
        <sparseX_slice start="101" end="150">  0.00000000000000000E+000  0.00000000000000000E+000  0.00000000000000000E+000  0.00000000000000000E+000  0.00000000000000000E+000  0.00000000000000000E+000  0.00000000000000000E+000  0.00000000000000000E+000  0.00000000000000000E+000  0.00000000000000000E+000  0.00000000000000000E+000  0.00000000000000000E+000  0.00000000000000000E+000  0.00000000000000000E+000  0.00000000000000000E+000  0.00000000000000000E+000  0.00000000000000000E+000  0.00000000000000000E+000  0.00000000000000000E+000  0.00000000000000000E+000  0.00000000000000000E+000  0.00000000000000000E+000  0.00000000000000000E+000  0.00000000000000000E+000  0.00000000000000000E+000  0.00000000000000000E+000  0.00000000000000000E+000  0.00000000000000000E+000  0.00000000000000000E+000  0.00000000000000000E+000  0.00000000000000000E+000  0.00000000000000000E+000  0.00000000000000000E+000  0.00000000000000000E+000  0.00000000000000000E+000  0.00000000000000000E+000  0.00000000000000000E+000  
0.00000000000000000E+000  0.00000000000000000E+000  0.00000000000000000E+000  0.00000000000000000E+000  0.00000000000000000E+000  0.00000000000000000E+000  0.00000000000000000E+000  0.00000000000000000E+000  0.00000000000000000E+000  0.00000000000000000E+000  0.00000000000000000E+000  0.00000000000000000E+000  0.00000000000000000E+000  </sparseX_slice>
        <sparseX_slice start="151" end="200">  0.00000000000000000E+000  0.00000000000000000E+000  0.00000000000000000E+000  0.00000000000000000E+000  0.00000000000000000E+000  0.00000000000000000E+000  0.00000000000000000E+000  0.00000000000000000E+000  0.00000000000000000E+000  0.00000000000000000E+000  0.00000000000000000E+000  0.00000000000000000E+000  0.00000000000000000E+000  0.00000000000000000E+000  0.00000000000000000E+000  0.00000000000000000E+000  0.00000000000000000E+000  0.00000000000000000E+000  0.00000000000000000E+000  0.00000000000000000E+000  0.00000000000000000E+000  0.00000000000000000E+000  0.00000000000000000E+000  0.00000000000000000E+000  0.00000000000000000E+000  0.00000000000000000E+000  0.00000000000000000E+000  0.00000000000000000E+000  0.00000000000000000E+000  0.00000000000000000E+000 -0.14639760890185797E-006  0.00000000000000000E+000  0.00000000000000000E+000  0.00000000000000000E+000  0.00000000000000000E+000  0.00000000000000000E+000  0.00000000000000000E+000  
0.00000000000000000E+000  0.00000000000000000E+000  0.00000000000000000E+000  0.00000000000000000E+000  0.00000000000000000E+000  0.00000000000000000E+000  0.00000000000000000E+000  0.00000000000000000E+000  0.00000000000000000E+000  0.00000000000000000E+000  0.00000000000000000E+000  0.00000000000000000E+000  0.00000000000000000E+000  </sparseX_slice>
        <sparseX_slice start="201" end="250">  0.00000000000000000E+000  0.00000000000000000E+000  0.00000000000000000E+000  0.00000000000000000E+000  0.00000000000000000E+000  0.00000000000000000E+000  0.00000000000000000E+000  0.00000000000000000E+000  0.00000000000000000E+000  0.00000000000000000E+000  0.00000000000000000E+000  0.00000000000000000E+000  0.00000000000000000E+000  0.00000000000000000E+000  0.00000000000000000E+000  0.00000000000000000E+000  0.00000000000000000E+000  0.00000000000000000E+000  0.00000000000000000E+000  0.00000000000000000E+000  0.10799020111902985E-013  0.18423454448439232E-013  0.23074001768775291E-013  0.26083587384331514E-013  0.27822891863809269E-013  0.88612224649900538E-005  0.00000000000000000E+000  0.00000000000000000E+000  0.00000000000000000E+000  0.00000000000000000E+000  0.00000000000000000E+000  0.00000000000000000E+000  0.00000000000000000E+000  0.00000000000000000E+000  0.00000000000000000E+000  0.00000000000000000E+000  0.00000000000000000E+000  
0.00000000000000000E+000  0.00000000000000000E+000  0.00000000000000000E+000  0.00000000000000000E+000  0.00000000000000000E+000  0.00000000000000000E+000  0.00000000000000000E+000  0.00000000000000000E+000  0.00000000000000000E+000  0.00000000000000000E+000  0.00000000000000000E+000  0.00000000000000000E+000  0.00000000000000000E+000  </sparseX_slice>
        <sparseX_slice start="251" end="300">  0.00000000000000000E+000  0.00000000000000000E+000  0.00000000000000000E+000  0.00000000000000000E+000  0.00000000000000000E+000  0.00000000000000000E+000  0.00000000000000000E+000  0.00000000000000000E+000  0.00000000000000000E+000  0.00000000000000000E+000  0.00000000000000000E+000  0.00000000000000000E+000  0.00000000000000000E+000  0.00000000000000000E+000  0.00000000000000000E+000 -0.92439801491962390E-012 -0.15770093556392089E-011 -0.19749835926417965E-011 -0.22324132260466198E-011 -0.23810378314066403E-011  0.39564316073709050E-010  0.67494359288962732E-010  0.84522837223725510E-010  0.95532656961549344E-010  0.10188267241127536E-009 -0.20591601465537153E-003  0.00000000000000000E+000  0.00000000000000000E+000  0.00000000000000000E+000  0.00000000000000000E+000  0.00000000000000000E+000  0.00000000000000000E+000  0.00000000000000000E+000  0.00000000000000000E+000  0.00000000000000000E+000  0.00000000000000000E+000  0.00000000000000000E+000  
0.00000000000000000E+000  0.00000000000000000E+000  0.00000000000000000E+000  0.00000000000000000E+000  0.00000000000000000E+000  0.00000000000000000E+000  0.00000000000000000E+000  0.00000000000000000E+000  0.00000000000000000E+000  0.00000000000000000E+000  0.00000000000000000E+000  0.00000000000000000E+000  0.00000000000000000E+000  </sparseX_slice>
        <sparseX_slice start="301" end="350">  0.00000000000000000E+000  0.00000000000000000E+000  0.00000000000000000E+000  0.00000000000000000E+000  0.00000000000000000E+000  0.00000000000000000E+000  0.00000000000000000E+000  0.00000000000000000E+000  0.00000000000000000E+000  0.00000000000000000E+000  0.00000000000000000E+000  0.00000000000000000E+000  0.00000000000000000E+000  0.00000000000000000E+000  0.00000000000000000E+000  0.21481049137366318E-010  0.36728666569341996E-010  0.46201526635130841E-010  0.52563580715328787E-010  0.56534827274322468E-010 -0.13002149189143612E-008 -0.22230711808944425E-008 -0.27962879988454120E-008 -0.31810991815434133E-008 -0.34210947287060687E-008  0.21364691761863603E-007  0.36610803683350000E-007  0.46255111809545511E-007  0.52962998856449189E-007  0.57438074923745226E-007  0.22858398031869637E-001  0.00000000000000000E+000  0.00000000000000000E+000  0.00000000000000000E+000  0.00000000000000000E+000  0.00000000000000000E+000  0.00000000000000000E+000  
0.00000000000000000E+000  0.00000000000000000E+000  0.00000000000000000E+000  0.00000000000000000E+000  0.00000000000000000E+000  0.00000000000000000E+000  0.00000000000000000E+000  0.00000000000000000E+000  0.00000000000000000E+000  0.00000000000000000E+000  0.00000000000000000E+000  0.00000000000000000E+000  0.00000000000000000E+000  </sparseX_slice>
        <sparseX_slice start="351" end="400">  0.00000000000000000E+000  0.00000000000000000E+000  0.00000000000000000E+000  0.00000000000000000E+000  0.00000000000000000E+000  0.00000000000000000E+000  0.00000000000000000E+000  0.00000000000000000E+000  0.00000000000000000E+000  0.00000000000000000E+000  0.00000000000000000E+000  0.00000000000000000E+000  0.00000000000000000E+000  0.00000000000000000E+000  0.00000000000000000E+000  0.00000000000000000E+000  0.00000000000000000E+000  0.00000000000000000E+000  0.00000000000000000E+000  0.00000000000000000E+000 -0.23845759259951777E-008 -0.40597139394702922E-008 -0.50635589502769838E-008 -0.56891360764210885E-008 -0.60200951195286407E-008  0.14433471914878225E-006  0.24572177278674181E-006  0.30646539530880819E-006  0.34430124185041518E-006  0.36429430622993593E-006 -0.33540327264036179E-005 -0.57228785797873334E-005 -0.71692591152952724E-005 -0.81067904029763611E-005 -0.86497221539573418E-005  0.26327399559929827E-003  0.44729063478444558E-003  
0.55559563312564998E-003  0.62043362400906652E-003  0.65129004967513619E-003  0.11665189485846181E+000  0.00000000000000000E+000  0.00000000000000000E+000  0.00000000000000000E+000  0.00000000000000000E+000  0.00000000000000000E+000  0.00000000000000000E+000  0.00000000000000000E+000  0.00000000000000000E+000  0.00000000000000000E+000  </sparseX_slice>
        <sparseX_slice start="401" end="450">  0.00000000000000000E+000  0.00000000000000000E+000  0.00000000000000000E+000  0.00000000000000000E+000  0.00000000000000000E+000  0.00000000000000000E+000  0.00000000000000000E+000  0.00000000000000000E+000  0.00000000000000000E+000  0.00000000000000000E+000  0.00000000000000000E+000  0.00000000000000000E+000  0.00000000000000000E+000  0.00000000000000000E+000  0.00000000000000000E+000  0.00000000000000000E+000  0.00000000000000000E+000  0.00000000000000000E+000  0.00000000000000000E+000  0.00000000000000000E+000  0.00000000000000000E+000  0.00000000000000000E+000  0.00000000000000000E+000  0.00000000000000000E+000  0.00000000000000000E+000  0.00000000000000000E+000  0.00000000000000000E+000  0.00000000000000000E+000  0.00000000000000000E+000  0.00000000000000000E+000 -0.12169063633128843E-007 -0.20722811451025330E-007 -0.25859668827283151E-007 -0.29075863868245105E-007 -0.30797284157802773E-007  0.73657473542524676E-006  0.12542868888776289E-005  
0.15651232083068139E-005  0.17596443296902144E-005  0.18636375411475891E-005 -0.17116434511586518E-004 -0.29212436032258603E-004 -0.36613510038897716E-004 -0.41431938171114678E-004 -0.44249791036910335E-004  0.19000672366697277E-002  0.32289256551730349E-002  0.40127389712171510E-002  0.44843203403872618E-002  0.47119265045045379E-002  </sparseX_slice>
        <sparseX_slice start="451" end="500">  0.68564605016298765E-002  0.11654570961069862E-001  0.14490821283582096E-001  0.16205705281792611E-001  0.17044826183761630E-001  0.11117841542160353E-001  0.00000000000000000E+000  0.00000000000000000E+000  0.00000000000000000E+000  0.00000000000000000E+000  0.00000000000000000E+000  0.00000000000000000E+000  0.00000000000000000E+000  0.00000000000000000E+000  0.00000000000000000E+000  0.00000000000000000E+000  0.00000000000000000E+000  0.00000000000000000E+000  0.00000000000000000E+000  0.00000000000000000E+000  0.00000000000000000E+000  0.00000000000000000E+000  0.00000000000000000E+000  0.00000000000000000E+000  0.00000000000000000E+000  0.00000000000000000E+000  0.00000000000000000E+000  0.00000000000000000E+000  0.00000000000000000E+000  0.00000000000000000E+000  0.00000000000000000E+000  0.00000000000000000E+000  0.00000000000000000E+000  0.00000000000000000E+000  0.00000000000000000E+000  0.00000000000000000E+000  0.00000000000000000E+000  
0.00000000000000000E+000  0.00000000000000000E+000  0.00000000000000000E+000  0.00000000000000000E+000  0.00000000000000000E+000  0.00000000000000000E+000  0.00000000000000000E+000  0.00000000000000000E+000 -0.11598073169214238E-008 -0.19807192248744579E-008 -0.24859022611356929E-008 -0.28191189309097540E-008 -0.30201826571596318E-008  </sparseX_slice>
        <sparseX_slice start="501" end="550">  0.70201355943276800E-007  0.11988673255939747E-006  0.15045603826066572E-006  0.17061046454118963E-006  0.18276045875231926E-006 -0.16313306088810585E-005 -0.27921710232829943E-005 -0.35196741304661425E-005 -0.40171312457558801E-005 -0.43394232682285003E-005  0.18109132716940312E-003  0.30862584143114138E-003  0.38574650543751938E-003  0.43478785088329038E-003  0.46208226146817198E-003  0.92415253366802484E-003  0.15753807327927331E-002  0.19700129849086422E-002  0.22221005428652183E-002  0.23638959897081583E-002  0.62281253226938911E-004  0.10647429500170736E-003  0.13391066954589114E-003  0.15234544676526738E-003  0.16392083409691577E-003 -0.56157991161487385E-003  0.00000000000000000E+000  0.00000000000000000E+000  0.00000000000000000E+000  0.00000000000000000E+000  0.00000000000000000E+000  0.00000000000000000E+000  0.00000000000000000E+000  0.00000000000000000E+000  0.00000000000000000E+000  0.00000000000000000E+000  0.00000000000000000E+000  
0.00000000000000000E+000  0.00000000000000000E+000  0.00000000000000000E+000  0.00000000000000000E+000  0.00000000000000000E+000  0.00000000000000000E+000  0.00000000000000000E+000  0.00000000000000000E+000  0.00000000000000000E+000  0.00000000000000000E+000  0.00000000000000000E+000  0.00000000000000000E+000  0.00000000000000000E+000  </sparseX_slice>
        <sparseX_slice start="551" end="600">  0.00000000000000000E+000  0.00000000000000000E+000  0.00000000000000000E+000  0.00000000000000000E+000  0.00000000000000000E+000  0.00000000000000000E+000  0.00000000000000000E+000  0.00000000000000000E+000  0.00000000000000000E+000  0.00000000000000000E+000  0.00000000000000000E+000  0.00000000000000000E+000  0.00000000000000000E+000  0.00000000000000000E+000  0.00000000000000000E+000  0.58583717716888395E-010  0.10004880175902086E-009  0.12556505380643334E-009  0.14239401468902487E-009  0.15254673879919696E-009 -0.35459824747789233E-008 -0.60556406929064599E-008 -0.75996634441582599E-008 -0.86175537781017481E-008 -0.92310681600731684E-008  0.82401111373642410E-007  0.14103632744990837E-006  0.17778175694292463E-006  0.20290575163187927E-006  0.21918040826714890E-006 -0.91472118144843082E-005 -0.15589107855007748E-004 -0.19484386602061127E-004 -0.21961183313860946E-004 -0.23339363888083462E-004 -0.46680418695291552E-004 -0.79574607370285489E-004 
-0.99507044310107552E-004 -0.11223854867276939E-003 -0.11939828315867978E-003 -0.44490104408990186E-005 -0.76058673314022099E-005 -0.95656594870404753E-005 -0.10882353101357312E-004 -0.11708974799296293E-004  0.15890571301692263E-006  0.27165813993867599E-006  0.34165254244602897E-006  0.38867459296335347E-006  0.41818995006302035E-006  </sparseX_slice>
        <sparseX_slice start="601" end="650">  0.27971736176459721E-004  0.00000000000000000E+000  0.00000000000000000E+000  0.00000000000000000E+000  0.00000000000000000E+000  0.00000000000000000E+000  0.00000000000000000E+000  0.00000000000000000E+000  0.00000000000000000E+000  0.00000000000000000E+000  0.00000000000000000E+000  0.00000000000000000E+000  0.00000000000000000E+000  0.00000000000000000E+000  0.00000000000000000E+000  0.00000000000000000E+000  0.00000000000000000E+000  0.00000000000000000E+000  0.00000000000000000E+000  0.00000000000000000E+000  0.00000000000000000E+000  0.00000000000000000E+000  0.00000000000000000E+000  0.00000000000000000E+000  0.00000000000000000E+000  0.00000000000000000E+000  0.00000000000000000E+000  0.00000000000000000E+000  0.00000000000000000E+000  0.00000000000000000E+000  0.00000000000000000E+000  0.00000000000000000E+000  0.00000000000000000E+000  0.00000000000000000E+000  0.00000000000000000E+000  0.00000000000000000E+000  0.00000000000000000E+000  
0.00000000000000000E+000  0.00000000000000000E+000  0.00000000000000000E+000 -0.29179966418328520E-011 -0.49833311439083639E-011 -0.62542701295418660E-011 -0.70925037046550518E-011 -0.75982004872497766E-011  0.17662185598064534E-009  0.30162543009725409E-009  0.37853165855080489E-009  0.42923174987186917E-009  0.45979027243598506E-009  </sparseX_slice>
        <sparseX_slice start="651" end="681"> -0.41043173025235975E-008 -0.70248789655315976E-008 -0.88551320476449147E-008 -0.10106532906511568E-007 -0.10917156918596951E-007  0.45561351168917726E-006  0.77647793190688682E-006  0.97049786882242448E-006  0.10938646146913703E-005  0.11625103719848847E-005  0.23251051708680638E-005  0.39635319184306885E-005  0.49563466588967351E-005  0.55904900497765063E-005  0.59471090658140168E-005  0.22160077973815834E-006  0.37884067457703816E-006  0.47645596115772794E-006  0.54203914297452598E-006  0.58321232381322321E-006 -0.11193408884919258E-007 -0.19135753858002849E-007 -0.24066198954996007E-007 -0.27378458156014531E-007 -0.29457535561401667E-007  0.39423504695405877E-009  0.67396669173383068E-009  0.84761835517870392E-009  0.96427703864774266E-009  0.10375026961079242E-008  0.00000000000000000E+000  </sparseX_slice>
      </sparseX>
      <sparseX i="2" alpha="-2373.0997848735869" sparseCutoff="1.0000000000000000" sliced="T">
        <sparseX_slice start="1" end="50">  0.99083287367523798E+000  0.00000000000000000E+000  0.00000000000000000E+000  0.00000000000000000E+000  0.00000000000000000E+000  0.00000000000000000E+000  0.00000000000000000E+000  0.00000000000000000E+000  0.00000000000000000E+000  0.00000000000000000E+000  0.00000000000000000E+000  0.00000000000000000E+000  0.00000000000000000E+000  0.00000000000000000E+000  0.00000000000000000E+000  0.00000000000000000E+000  0.00000000000000000E+000  0.00000000000000000E+000  0.00000000000000000E+000  0.00000000000000000E+000  0.00000000000000000E+000  0.00000000000000000E+000  0.00000000000000000E+000  0.00000000000000000E+000  0.00000000000000000E+000  0.00000000000000000E+000  0.00000000000000000E+000  0.00000000000000000E+000  0.00000000000000000E+000  0.00000000000000000E+000  0.00000000000000000E+000  0.00000000000000000E+000  0.00000000000000000E+000  0.00000000000000000E+000  0.00000000000000000E+000  0.00000000000000000E+000  0.00000000000000000E+000  
0.00000000000000000E+000  0.00000000000000000E+000  0.00000000000000000E+000  0.00000000000000000E+000  0.00000000000000000E+000  0.00000000000000000E+000  0.00000000000000000E+000  0.00000000000000000E+000  0.00000000000000000E+000  0.00000000000000000E+000  0.00000000000000000E+000  0.00000000000000000E+000  0.00000000000000000E+000  </sparseX_slice>
        <sparseX_slice start="51" end="100">  0.00000000000000000E+000  0.00000000000000000E+000  0.00000000000000000E+000  0.00000000000000000E+000  0.00000000000000000E+000  0.00000000000000000E+000  0.00000000000000000E+000  0.00000000000000000E+000  0.00000000000000000E+000  0.00000000000000000E+000  0.00000000000000000E+000  0.00000000000000000E+000  0.00000000000000000E+000  0.00000000000000000E+000  0.00000000000000000E+000  0.00000000000000000E+000  0.00000000000000000E+000  0.00000000000000000E+000  0.00000000000000000E+000  0.00000000000000000E+000  0.00000000000000000E+000  0.00000000000000000E+000  0.00000000000000000E+000  0.00000000000000000E+000  0.00000000000000000E+000  0.00000000000000000E+000  0.00000000000000000E+000  0.00000000000000000E+000  0.00000000000000000E+000  0.00000000000000000E+000  0.00000000000000000E+000  0.00000000000000000E+000  0.00000000000000000E+000  0.00000000000000000E+000  0.00000000000000000E+000  0.00000000000000000E+000  0.00000000000000000E+000  
0.00000000000000000E+000  0.00000000000000000E+000  0.00000000000000000E+000  0.00000000000000000E+000  0.00000000000000000E+000  0.00000000000000000E+000  0.00000000000000000E+000  0.00000000000000000E+000  0.00000000000000000E+000  0.00000000000000000E+000  0.00000000000000000E+000  0.00000000000000000E+000  0.00000000000000000E+000  </sparseX_slice>
        <sparseX_slice start="101" end="150">  0.00000000000000000E+000  0.00000000000000000E+000  0.00000000000000000E+000  0.00000000000000000E+000  0.00000000000000000E+000  0.00000000000000000E+000  0.00000000000000000E+000  0.00000000000000000E+000  0.00000000000000000E+000  0.00000000000000000E+000  0.00000000000000000E+000  0.00000000000000000E+000  0.00000000000000000E+000  0.00000000000000000E+000  0.00000000000000000E+000  0.00000000000000000E+000  0.00000000000000000E+000  0.00000000000000000E+000  0.00000000000000000E+000  0.00000000000000000E+000  0.00000000000000000E+000  0.00000000000000000E+000  0.00000000000000000E+000  0.00000000000000000E+000  0.00000000000000000E+000  0.00000000000000000E+000  0.00000000000000000E+000  0.00000000000000000E+000  0.00000000000000000E+000  0.00000000000000000E+000  0.00000000000000000E+000  0.00000000000000000E+000  0.00000000000000000E+000  0.00000000000000000E+000  0.00000000000000000E+000  0.00000000000000000E+000  0.00000000000000000E+000  
0.00000000000000000E+000  0.00000000000000000E+000  0.00000000000000000E+000  0.00000000000000000E+000  0.00000000000000000E+000  0.00000000000000000E+000  0.00000000000000000E+000  0.00000000000000000E+000  0.00000000000000000E+000  0.00000000000000000E+000  0.00000000000000000E+000  0.00000000000000000E+000  0.00000000000000000E+000  </sparseX_slice>
        <sparseX_slice start="151" end="200">  0.00000000000000000E+000  0.00000000000000000E+000  0.00000000000000000E+000  0.00000000000000000E+000  0.00000000000000000E+000  0.00000000000000000E+000  0.00000000000000000E+000  0.00000000000000000E+000  0.00000000000000000E+000  0.00000000000000000E+000  0.00000000000000000E+000  0.00000000000000000E+000  0.00000000000000000E+000  0.00000000000000000E+000  0.00000000000000000E+000  0.00000000000000000E+000  0.00000000000000000E+000  0.00000000000000000E+000  0.00000000000000000E+000  0.00000000000000000E+000  0.00000000000000000E+000  0.00000000000000000E+000  0.00000000000000000E+000  0.00000000000000000E+000  0.00000000000000000E+000  0.00000000000000000E+000  0.00000000000000000E+000  0.00000000000000000E+000  0.00000000000000000E+000  0.00000000000000000E+000  0.11033771305715689E-005  0.00000000000000000E+000  0.00000000000000000E+000  0.00000000000000000E+000  0.00000000000000000E+000  0.00000000000000000E+000  0.00000000000000000E+000  
0.00000000000000000E+000  0.00000000000000000E+000  0.00000000000000000E+000  0.00000000000000000E+000  0.00000000000000000E+000  0.00000000000000000E+000  0.00000000000000000E+000  0.00000000000000000E+000  0.00000000000000000E+000  0.00000000000000000E+000  0.00000000000000000E+000  0.00000000000000000E+000  0.00000000000000000E+000  </sparseX_slice>
        <sparseX_slice start="201" end="250">  0.00000000000000000E+000  0.00000000000000000E+000  0.00000000000000000E+000  0.00000000000000000E+000  0.00000000000000000E+000  0.00000000000000000E+000  0.00000000000000000E+000  0.00000000000000000E+000  0.00000000000000000E+000  0.00000000000000000E+000  0.00000000000000000E+000  0.00000000000000000E+000  0.00000000000000000E+000  0.00000000000000000E+000  0.00000000000000000E+000  0.00000000000000000E+000  0.00000000000000000E+000  0.00000000000000000E+000  0.00000000000000000E+000  0.00000000000000000E+000  0.61435239212066419E-012  0.10331212528924059E-011  0.12572279124083915E-011  0.13613370739206548E-011  0.13713569880434371E-011 -0.65229739459684181E-004  0.00000000000000000E+000  0.00000000000000000E+000  0.00000000000000000E+000  0.00000000000000000E+000  0.00000000000000000E+000  0.00000000000000000E+000  0.00000000000000000E+000  0.00000000000000000E+000  0.00000000000000000E+000  0.00000000000000000E+000  0.00000000000000000E+000  
0.00000000000000000E+000  0.00000000000000000E+000  0.00000000000000000E+000  0.00000000000000000E+000  0.00000000000000000E+000  0.00000000000000000E+000  0.00000000000000000E+000  0.00000000000000000E+000  0.00000000000000000E+000  0.00000000000000000E+000  0.00000000000000000E+000  0.00000000000000000E+000  0.00000000000000000E+000  </sparseX_slice>
        <sparseX_slice start="251" end="300">  0.00000000000000000E+000  0.00000000000000000E+000  0.00000000000000000E+000  0.00000000000000000E+000  0.00000000000000000E+000  0.00000000000000000E+000  0.00000000000000000E+000  0.00000000000000000E+000  0.00000000000000000E+000  0.00000000000000000E+000  0.00000000000000000E+000  0.00000000000000000E+000  0.00000000000000000E+000  0.00000000000000000E+000  0.00000000000000000E+000 -0.51363453576384970E-010 -0.86379478829940590E-010 -0.10512788219997228E-009 -0.11385050561048693E-009 -0.11471076968966505E-009  0.21471425822781588E-008  0.36111029281619196E-008  0.43953333786074941E-008  0.47607377614542946E-008  0.47976423343892228E-008  0.36745555252323649E-002  0.00000000000000000E+000  0.00000000000000000E+000  0.00000000000000000E+000  0.00000000000000000E+000  0.00000000000000000E+000  0.00000000000000000E+000  0.00000000000000000E+000  0.00000000000000000E+000  0.00000000000000000E+000  0.00000000000000000E+000  0.00000000000000000E+000  
0.00000000000000000E+000  0.00000000000000000E+000  0.00000000000000000E+000  0.00000000000000000E+000  0.00000000000000000E+000  0.00000000000000000E+000  0.00000000000000000E+000  0.00000000000000000E+000  0.00000000000000000E+000  0.00000000000000000E+000  0.00000000000000000E+000  0.00000000000000000E+000  0.00000000000000000E+000  </sparseX_slice>
        <sparseX_slice start="301" end="350">  0.00000000000000000E+000  0.00000000000000000E+000  0.00000000000000000E+000  0.00000000000000000E+000  0.00000000000000000E+000  0.00000000000000000E+000  0.00000000000000000E+000  0.00000000000000000E+000  0.00000000000000000E+000  0.00000000000000000E+000  0.00000000000000000E+000  0.00000000000000000E+000  0.00000000000000000E+000  0.00000000000000000E+000  0.00000000000000000E+000  0.28934327148550484E-008  0.48667703847386545E-008  0.59250742038489150E-008  0.64200396599115643E-008  0.64732927248160877E-008 -0.17105471638364657E-006 -0.28772999784156888E-006 -0.35033433016418963E-006 -0.37965751845591326E-006 -0.38288109076614224E-006  0.68136406586572952E-005  0.11463056205386155E-004  0.13961869592071239E-004  0.15138392255832922E-004  0.15278121986654290E-004  0.44313133208524376E-001  0.00000000000000000E+000  0.00000000000000000E+000  0.00000000000000000E+000  0.00000000000000000E+000  0.00000000000000000E+000  0.00000000000000000E+000  
0.00000000000000000E+000  0.00000000000000000E+000  0.00000000000000000E+000  0.00000000000000000E+000  0.00000000000000000E+000  0.00000000000000000E+000  0.00000000000000000E+000  0.00000000000000000E+000  0.00000000000000000E+000  0.00000000000000000E+000  0.00000000000000000E+000  0.00000000000000000E+000  0.00000000000000000E+000  </sparseX_slice>
        <sparseX_slice start="351" end="400">  0.00000000000000000E+000  0.00000000000000000E+000  0.00000000000000000E+000  0.00000000000000000E+000  0.00000000000000000E+000  0.00000000000000000E+000  0.00000000000000000E+000  0.00000000000000000E+000  0.00000000000000000E+000  0.00000000000000000E+000  0.00000000000000000E+000  0.00000000000000000E+000  0.00000000000000000E+000  0.00000000000000000E+000  0.00000000000000000E+000  0.00000000000000000E+000  0.00000000000000000E+000  0.00000000000000000E+000  0.00000000000000000E+000  0.00000000000000000E+000  0.34893218633610420E-007  0.58829729991302584E-007  0.71963548669488803E-007  0.78535475459960633E-007  0.79951718595674394E-007 -0.20628264781971305E-005 -0.34780926045941971E-005 -0.42550187140249178E-005 -0.46442989924293799E-005 -0.47289690928366272E-005  0.11620421138949597E-003  0.19596179917619918E-003  0.23981555693671221E-003  0.26189241377543325E-003  0.26686248647233586E-003  0.99091069085786398E-003  0.16749907724577628E-002  
0.20595916961409473E-002  0.22653540492946159E-002  0.23306394185229604E-002  0.12179479350838208E+000  0.00000000000000000E+000  0.00000000000000000E+000  0.00000000000000000E+000  0.00000000000000000E+000  0.00000000000000000E+000  0.00000000000000000E+000  0.00000000000000000E+000  0.00000000000000000E+000  0.00000000000000000E+000  </sparseX_slice>
        <sparseX_slice start="401" end="450">  0.00000000000000000E+000  0.00000000000000000E+000  0.00000000000000000E+000  0.00000000000000000E+000  0.00000000000000000E+000  0.00000000000000000E+000  0.00000000000000000E+000  0.00000000000000000E+000  0.00000000000000000E+000  0.00000000000000000E+000  0.00000000000000000E+000  0.00000000000000000E+000  0.00000000000000000E+000  0.00000000000000000E+000  0.00000000000000000E+000  0.00000000000000000E+000  0.00000000000000000E+000  0.00000000000000000E+000  0.00000000000000000E+000  0.00000000000000000E+000  0.00000000000000000E+000  0.00000000000000000E+000  0.00000000000000000E+000  0.00000000000000000E+000  0.00000000000000000E+000  0.00000000000000000E+000  0.00000000000000000E+000  0.00000000000000000E+000  0.00000000000000000E+000  0.00000000000000000E+000  0.95904127075038074E-007  0.16197017983230032E-006  0.19880629628808570E-006  0.21806760519706607E-006  0.22349901930043769E-006 -0.56696854129762158E-005 -0.95758944452541524E-005 
-0.11754902680757368E-004 -0.12895715638909680E-004 -0.13219477618686846E-004  0.31938766018615593E-003  0.53952258250246203E-003  0.66251378021698899E-003  0.72719049775669974E-003  0.74599402066974786E-003  0.38516407858860853E-002  0.65217722110665266E-002  0.80466237259748611E-002  0.88956228491701480E-002  0.92137813860932605E-002  </sparseX_slice>
        <sparseX_slice start="451" end="500">  0.74856073712646666E-002  0.12696640922573233E-001  0.15718686744741694E-001  0.17465725920263568E-001  0.18212548615632689E-001 -0.51568961411976432E-002  0.00000000000000000E+000  0.00000000000000000E+000  0.00000000000000000E+000  0.00000000000000000E+000  0.00000000000000000E+000  0.00000000000000000E+000  0.00000000000000000E+000  0.00000000000000000E+000  0.00000000000000000E+000  0.00000000000000000E+000  0.00000000000000000E+000  0.00000000000000000E+000  0.00000000000000000E+000  0.00000000000000000E+000  0.00000000000000000E+000  0.00000000000000000E+000  0.00000000000000000E+000  0.00000000000000000E+000  0.00000000000000000E+000  0.00000000000000000E+000  0.00000000000000000E+000  0.00000000000000000E+000  0.00000000000000000E+000  0.00000000000000000E+000  0.00000000000000000E+000  0.00000000000000000E+000  0.00000000000000000E+000  0.00000000000000000E+000  0.00000000000000000E+000  0.00000000000000000E+000  0.00000000000000000E+000  
0.00000000000000000E+000  0.00000000000000000E+000  0.00000000000000000E+000  0.00000000000000000E+000  0.00000000000000000E+000  0.00000000000000000E+000  0.00000000000000000E+000  0.00000000000000000E+000 -0.40606630923361717E-008 -0.68543721633982167E-008 -0.84044038711543873E-008 -0.92040672401176120E-008 -0.94132249542992806E-008  </sparseX_slice>
        <sparseX_slice start="501" end="550">  0.24005934889137450E-006  0.40523968296601408E-006  0.49693068801021109E-006  0.54429466377043453E-006  0.55677164487128536E-006 -0.13523147787485507E-004 -0.22831910014908279E-004 -0.28007329159637269E-004 -0.30692822217581316E-004 -0.31419419884285691E-004 -0.16308177824242090E-003 -0.27599311148411636E-003 -0.34016566303468073E-003 -0.37546113634117278E-003 -0.38806164402199430E-003 -0.44823080806650172E-003 -0.75986501903318798E-003 -0.93974069987710982E-003 -0.10425340951584494E-002 -0.10847971549635168E-002  0.13419809999065303E-004  0.22738094692579764E-004  0.28091169362508731E-004  0.31114576758211408E-004  0.32306979441824261E-004  0.26182709727302065E-003  0.00000000000000000E+000  0.00000000000000000E+000  0.00000000000000000E+000  0.00000000000000000E+000  0.00000000000000000E+000  0.00000000000000000E+000  0.00000000000000000E+000  0.00000000000000000E+000  0.00000000000000000E+000  0.00000000000000000E+000  0.00000000000000000E+000  
0.00000000000000000E+000  0.00000000000000000E+000  0.00000000000000000E+000  0.00000000000000000E+000  0.00000000000000000E+000  0.00000000000000000E+000  0.00000000000000000E+000  0.00000000000000000E+000  0.00000000000000000E+000  0.00000000000000000E+000  0.00000000000000000E+000  0.00000000000000000E+000  0.00000000000000000E+000  </sparseX_slice>
        <sparseX_slice start="551" end="600">  0.00000000000000000E+000  0.00000000000000000E+000  0.00000000000000000E+000  0.00000000000000000E+000  0.00000000000000000E+000  0.00000000000000000E+000  0.00000000000000000E+000  0.00000000000000000E+000  0.00000000000000000E+000  0.00000000000000000E+000  0.00000000000000000E+000  0.00000000000000000E+000  0.00000000000000000E+000  0.00000000000000000E+000  0.00000000000000000E+000  0.20616890496909460E-009  0.34801145562581827E-009  0.42670926840877708E-009  0.46730872825038142E-009  0.47792652244574832E-009 -0.12188347558786133E-007 -0.20574904394515644E-007 -0.25230216631840896E-007 -0.27634918399051210E-007 -0.28268307335861472E-007  0.68660031814584881E-006  0.11592259727937836E-005  0.14219910322028707E-005  0.15583353905104344E-005  0.15952209955102743E-005  0.82800249309304487E-005  0.14012773479557849E-004  0.17270926461483569E-004  0.19062905730010125E-004  0.19702594267366858E-004  0.22757675968462885E-004  0.38580007774450436E-004  
0.47712612659514538E-004  0.52931521408564984E-004  0.55077121214867287E-004 -0.96357954230872581E-006 -0.16326568978726570E-005 -0.20170189477170250E-005 -0.22341020424647267E-005 -0.23197118871194071E-005  0.34593840539492100E-007  0.58614597709478171E-007  0.72413600568711997E-007  0.80206971396900646E-007  0.83280197223836029E-007  </sparseX_slice>
        <sparseX_slice start="601" end="650"> -0.13041466808661302E-004  0.00000000000000000E+000  0.00000000000000000E+000  0.00000000000000000E+000  0.00000000000000000E+000  0.00000000000000000E+000  0.00000000000000000E+000  0.00000000000000000E+000  0.00000000000000000E+000  0.00000000000000000E+000  0.00000000000000000E+000  0.00000000000000000E+000  0.00000000000000000E+000  0.00000000000000000E+000  0.00000000000000000E+000  0.00000000000000000E+000  0.00000000000000000E+000  0.00000000000000000E+000  0.00000000000000000E+000  0.00000000000000000E+000  0.00000000000000000E+000  0.00000000000000000E+000  0.00000000000000000E+000  0.00000000000000000E+000  0.00000000000000000E+000  0.00000000000000000E+000  0.00000000000000000E+000  0.00000000000000000E+000  0.00000000000000000E+000  0.00000000000000000E+000  0.00000000000000000E+000  0.00000000000000000E+000  0.00000000000000000E+000  0.00000000000000000E+000  0.00000000000000000E+000  0.00000000000000000E+000  0.00000000000000000E+000  
0.00000000000000000E+000  0.00000000000000000E+000  0.00000000000000000E+000 -0.10269162203363542E-010 -0.17334263291896992E-010 -0.21254158927443783E-010 -0.23276396063259419E-010 -0.23805262534565728E-010  0.60709503254580197E-009  0.10248249137051779E-008  0.12567035069725046E-008  0.13764804013836564E-008  0.14080291549719559E-008  </sparseX_slice>
        <sparseX_slice start="651" end="681"> -0.34199192341724255E-007 -0.57740421765938276E-007 -0.70828607741621718E-007 -0.77619846487182117E-007 -0.79457098142286202E-007 -0.41242358577965441E-006 -0.69796870481624140E-006 -0.86025554871452486E-006 -0.94951306719559636E-006 -0.98137560298286024E-006 -0.11335475925759348E-005 -0.19216494220374252E-005 -0.23765395490247781E-005 -0.26364905726231708E-005 -0.27433617273601881E-005  0.47995378436405941E-007  0.81321761325826945E-007  0.10046662786188797E-006  0.11127941945540446E-006  0.11554359903451231E-006 -0.24368322096178267E-008 -0.41288835590487655E-008 -0.51009020903411988E-008 -0.56498765849391285E-008 -0.58663583145550215E-008  0.85826712576939017E-010  0.14542179005202427E-009  0.17965687336978949E-009  0.19899208802613456E-009  0.20661670494278659E-009  0.00000000000000000E+000  </sparseX_slice>
      </sparseX>
      <sparseX i="3" alpha="58.693750460730080" sparseCutoff="1.0000000000000000" sliced="T">
        <sparseX_slice start="1" end="50">  0.96054098752969286E+000  0.10864433893286501E-014  0.13549628060764340E-014  0.15222370737488477E-014  0.16107824032480086E-014  0.21093523817456220E-005 -0.92560178209292313E-013 -0.11543677405702684E-012 -0.12968767266555578E-012 -0.13723116255256490E-012  0.23160737168638442E-011  0.39428591835926334E-011  0.49173485592863434E-011  0.55243998229487569E-011  0.58457281186939140E-011 -0.70250566583134549E-004  0.30827148854844156E-011  0.38447688994537592E-011  0.43196629662787564E-011  0.45712712181659587E-011 -0.10908576197852755E-009 -0.18571006502415872E-009 -0.23161786301266955E-009 -0.26022634806254217E-009 -0.27538346318248475E-009  0.25689388424452115E-008  0.43735049421486632E-008  0.54548537509349899E-008  0.61289691546820068E-008  0.64864504690069865E-008  0.34348196114125525E-002 -0.15073036833112801E-009 -0.18800299254116401E-009 -0.21124496982699316E-009 -0.22357947655556769E-009  0.53336212474004758E-008  0.90803553178712189E-008  
0.11325739598694173E-007  0.12725878725676707E-007  0.13468920921979758E-007 -0.17763267902143916E-006 -0.30242105239463539E-006 -0.37721819349230682E-006 -0.42387611647888289E-006 -0.44865968782284150E-006  0.61413234396619486E-005  0.10455972285531022E-004  0.13042839643245206E-004  0.14657518873623814E-004  0.15516615477070468E-004  </sparseX_slice>
        <sparseX_slice start="51" end="100">  0.35566573654994132E-001 -0.15622193876093779E-008 -0.19521519658498963E-008 -0.21996308001996413E-008 -0.23367952964860546E-008  0.55228120950869401E-007  0.94111805610381560E-007  0.11760219623873205E-006  0.13251077565316282E-006  0.14077370402735710E-006 -0.18393355333591413E-005 -0.31343918050690745E-005 -0.39168910453333246E-005 -0.44136954458113763E-005 -0.46892758869428054E-005  0.89932168083989441E-004  0.15325712848007696E-003  0.19152964904730021E-003  0.21584345087903180E-003  0.22935104879818460E-003  0.65847328639737968E-003  0.11231737608209406E-002  0.14062737665865637E-002  0.15892319733322932E-002  0.16950185967603310E-002  0.82974852785785772E-001 -0.36481056208639712E-008 -0.45675132008740382E-008 -0.51614844200990244E-008 -0.55045127657763084E-008  0.12884415715682791E-006  0.21977054552003657E-006  0.27515766864918854E-006  0.31093959221109316E-006  0.33160399289978087E-006 -0.42910682537087559E-005 -0.73194536265232945E-005 
-0.91644768793173449E-005 -0.10356838191459124E-004 -0.11045973526538096E-004  0.20980678318524961E-003  0.35788711641916926E-003  0.44812812510805380E-003  0.50648163718721199E-003  0.54025518531820892E-003  0.21724891702265582E-002  0.37092604366055853E-002  0.46531929548449683E-002  0.52738420697304288E-002  0.56466085143554003E-002  </sparseX_slice>
        <sparseX_slice start="101" end="150">  0.35838273869650940E-002  0.61248817709697598E-002  0.76984315534716439E-002  0.87505822444974880E-002  0.94052619172824356E-002 -0.35847283846169422E-002  0.15757679238307499E-009  0.19721253290695026E-009  0.22272720587356750E-009  0.23734199348982191E-009 -0.55664010461643052E-008 -0.94928001605184975E-008 -0.11880543831311487E-007 -0.13417594810315170E-007 -0.14298005304547439E-007  0.18538525412163839E-006  0.31615751963646701E-006  0.39569665563123121E-006  0.44691593431644759E-006  0.47627709996864934E-006 -0.90641960270904797E-005 -0.15458626942715821E-004 -0.19348927683994501E-004 -0.21855580816577081E-004 -0.23294567227432543E-004 -0.93857154695888267E-004 -0.16021832218095932E-003 -0.20091194669216239E-003 -0.22757563770520791E-003 -0.24346883698519420E-003 -0.21896356026104071E-003 -0.37414294455030862E-003 -0.47008019087808742E-003 -0.53401148424677444E-003 -0.57351079201032218E-003  0.66890834218988256E-005  0.11427399596532264E-004  
0.14351974445777150E-004  0.16294245190756397E-004  0.17485670864089225E-004  0.17850591343530604E-003 -0.78467257495296517E-011 -0.98204289682575872E-011 -0.11090951590521742E-010 -0.11818696541543677E-010  0.27718571581511348E-009  0.47270539226105121E-009  0.59160558956318462E-009  0.66814421668323933E-009  0.71198435371309290E-009  </sparseX_slice>
        <sparseX_slice start="151" end="200"> -0.92314843898432732E-008 -0.15743443642436711E-007 -0.19704178240218927E-007 -0.22254681340321891E-007 -0.23716723835713961E-007  0.45136267459364457E-006  0.76978090649857397E-006  0.96350250732936099E-006  0.10883232152474067E-005  0.11599777059234148E-005  0.46737312660352835E-005  0.79782639003559481E-005  0.10004645608885640E-004  0.11332384703839716E-004  0.12123789218000196E-004  0.10903557017366726E-004  0.18630897561810499E-004  0.23408193464465819E-004  0.26591702155711036E-004  0.28558578759729852E-004 -0.47106188225909730E-006 -0.80474563571228890E-006 -0.10107007732391082E-005 -0.11474791045576793E-005 -0.12313805603672601E-005  0.16586674355938382E-007  0.28336085245260005E-007  0.35587997208519861E-007  0.40404089909714002E-007  0.43358304529351739E-007  0.44652472887969454E-001 -0.17487702199845246E-008 -0.17900664211207985E-008 -0.15002445169342572E-008 -0.10800431032718125E-008  0.69336793511058848E-007  0.10535007074279113E-006  
0.10783778426049019E-006  0.90378151001668002E-007  0.65064179299490369E-007 -0.23092154119733535E-005 -0.35086820007119933E-005 -0.35916748583593896E-005 -0.30103335484278697E-005 -0.21673357904508320E-005  0.11290639734037975E-003  0.17155817192643569E-003  0.17562710250344598E-003  0.14721468424066714E-003  0.10600373034605450E-003  </sparseX_slice>
        <sparseX_slice start="201" end="250">  0.11691134182954125E-002  0.17780856323360585E-002  0.18236454046525602E-002  0.15329025536685622E-002  0.11079237785990230E-002  0.27274770607352912E-002  0.41521979826591327E-002  0.42668422362484842E-002  0.35969912076027405E-002  0.26098052285436217E-002 -0.11783406791032362E-003 -0.17935062946229809E-003 -0.18423039582324480E-003 -0.15521654935185829E-003 -0.11252882896627205E-003  0.58676908455305089E-005  0.89309801342759301E-005  0.91739682529699520E-005  0.77291825583557565E-005  0.56034925053609284E-005  0.10378751978812419E-002  0.14074351744155233E-002  0.11824449267736820E-002  0.73928484905717406E-003  0.36208897693843406E-003  0.16975026095394527E+000 -0.68447633713656427E-008 -0.72168009104601757E-008 -0.63464386384418428E-008 -0.49064628153475584E-008  0.26358985361778670E-006  0.41234479930554701E-006  0.43475695116711856E-006  0.38232393660736321E-006  0.29557614448625815E-006 -0.87786833164834944E-005 -0.13733135300334598E-004 
-0.14480134414037918E-004 -0.12734522226670848E-004 -0.98458593291370569E-005  0.42922349362342003E-003  0.67148621233435019E-003  0.70805519744611737E-003  0.62275779025688460E-003  0.48155796713619911E-003  0.44444863857444920E-002  0.69595051815744408E-002  0.73521773613365714E-002  0.64845909355152453E-002  0.50331202573934688E-002  </sparseX_slice>
        <sparseX_slice start="251" end="300">  0.10368741367747561E-001  0.16251885089062786E-001  0.17202127570254001E-001  0.15216242235442195E-001  0.11855927111018572E-001 -0.44795646205815184E-003 -0.70198623303739302E-003 -0.74274008641487697E-003 -0.65660783626474389E-003 -0.51120044496841559E-003  0.22306537304773535E-004  0.34956248107900119E-004  0.36985612187011973E-004  0.32696525318525320E-004  0.25455768876580594E-004  0.55798826663905690E-002  0.77905673837460670E-002  0.67417322251976100E-002  0.44227749469071655E-002  0.23262571737070032E-002  0.14999438580980781E-001  0.21561540191679680E-001  0.19219057212364856E-001  0.13229635543009001E-001  0.74725727416211909E-002  0.16726934321276204E+000 -0.70504277834890996E-008 -0.81100835373859164E-008 -0.80624124519278483E-008 -0.72374245337228328E-008  0.25973746045761550E-006  0.42473451186976961E-006  0.48857038404842350E-006  0.48569811240309609E-006  0.43599842089835835E-006 -0.86503819456243237E-005 -0.14145774429682860E-004 
-0.16272459388509857E-004 -0.16177729970910183E-004 -0.14523428903074774E-004  0.42295034756591909E-003  0.69166233963284551E-003  0.79569699533281577E-003  0.79114137057738907E-003  0.71033646374722139E-003  0.43795297543798278E-002  0.71686172376356381E-002  0.82622166416830081E-002  0.82379188837462015E-002  0.74242543769194981E-002  </sparseX_slice>
        <sparseX_slice start="301" end="350">  0.10217201132884744E-001  0.16740205022330718E-001  0.19331375958192190E-001  0.19330466716794652E-001  0.17488439426242185E-001 -0.44140953171617573E-003 -0.72307879359841522E-003 -0.83467511742759022E-003 -0.83414391861732411E-003 -0.75406148610592471E-003  0.21980524939120726E-004  0.36006577509677314E-004  0.41563624691830269E-004  0.41537134112679951E-004  0.37549292255074771E-004  0.54983321001471101E-002  0.80246503423753029E-002  0.75762117053542058E-002  0.56186213773546474E-002  0.34314151302791813E-002  0.20902387895808859E-001  0.31408833535599263E-001  0.30544124445843451E-001  0.23768282704266296E-001  0.15588369287978947E-001  0.14564205766369688E-001  0.22876724373513648E-001  0.24271313828103616E-001  0.21350976029285013E-001  0.16259276788631601E-001 -0.10210092037325220E-001  0.43008436916117605E-009  0.49407551462000935E-009  0.49014265169898311E-009  0.43865782406553855E-009 -0.15854330063579997E-007 -0.25909303691653410E-007 
-0.29764263563261239E-007 -0.29527311106679998E-007 -0.26425715075319231E-007  0.52801783116048093E-006  0.86290884166402621E-006  0.99133673647739582E-006  0.98350159008746678E-006  0.88026005534268021E-006 -0.25816816715624249E-004 -0.42192214451180784E-004 -0.48474766090679897E-004 -0.48096290230208568E-004 -0.43053249963421085E-004  </sparseX_slice>
        <sparseX_slice start="351" end="400"> -0.26732574549267872E-003 -0.43729406457102845E-003 -0.50334363639086758E-003 -0.50081231024034242E-003 -0.44998151692137253E-003 -0.62365620577541428E-003 -0.10211721526342456E-002 -0.11776894135341128E-002 -0.11751676401624829E-002 -0.10599683284118870E-002  0.26943562151985094E-004  0.44108655013369856E-004  0.50849357627760983E-004  0.50710567662897680E-004  0.45703408604207597E-004 -0.13416874745044266E-005 -0.21964434853396860E-005 -0.25321032963993476E-005 -0.25251897219791894E-005 -0.22758497527765547E-005 -0.33561724889942952E-003 -0.48951308859893571E-003 -0.46155143531351975E-003 -0.34157592373368253E-003 -0.20797689668476156E-003 -0.12758781741889344E-002 -0.19159757070175353E-002 -0.18607828063213700E-002 -0.14449582157279115E-002 -0.94480572760840382E-003 -0.12572310818065985E-002 -0.19735449750911465E-002 -0.20911071528001224E-002 -0.18356514219540923E-002 -0.13936639102217539E-002  0.54264201509375613E-004  0.85127566891022026E-004  
0.90080190043702432E-004  0.78910119572527093E-004  0.59728951044508752E-004  0.57618793850773694E-003 -0.24271000923957900E-010 -0.27882157000084362E-010 -0.27660112918543695E-010 -0.24754550334425236E-010  0.89471022615272630E-009  0.14621427304268370E-008  0.16796862930983440E-008  0.16663082809886233E-008  0.14912687248852859E-008  </sparseX_slice>
        <sparseX_slice start="401" end="450"> -0.29797724106646373E-007 -0.48696634416560935E-007 -0.55944092974678672E-007 -0.55501729839445914E-007 -0.49675260879670712E-007  0.14569250059477991E-005  0.23810381156741658E-005  0.27355758354513794E-005  0.27142074131260075E-005  0.24296018099083680E-005  0.15086041305247860E-004  0.24677866498485229E-004  0.28405184793739982E-004  0.28262231422275848E-004  0.25393574442495025E-004  0.35194901498403307E-004  0.57627926140272304E-004  0.66460531141175445E-004  0.66317978067078373E-004  0.59816644999926744E-004 -0.15205108314062180E-005 -0.24891888274666462E-005 -0.28695811283444855E-005 -0.28617383589392910E-005 -0.25791568431676402E-005  0.75715687697060209E-007  0.12395214912384485E-006  0.14289415192925764E-006  0.14250347854564245E-006  0.12843185318468004E-006  0.18939947853952996E-004  0.27624748718133043E-004  0.26046726061548206E-004  0.19276079296465617E-004  0.11736652750576004E-004  0.72001859756547969E-004  0.10812447856684701E-003  
0.10500953156687526E-003  0.81543010531875273E-004  0.53317733452398484E-004  0.70949545078123575E-004  0.11137329172723081E-003  0.11800742237391411E-003  0.10359091467419998E-003  0.78647915350306925E-004 -0.43307480697917095E-005 -0.67939015028397451E-005 -0.71891464088624465E-005 -0.62976591576128739E-005 -0.47668232330583239E-005  </sparseX_slice>
        <sparseX_slice start="451" end="500">  0.17281539507002708E-006  0.27110546745319991E-006  0.28687675982358261E-006  0.25130180438399229E-006  0.19021432101069550E-006 -0.30483579492105278E-004  0.12840723227862447E-011  0.14751227635540620E-011  0.14633753745165086E-011  0.13096547773089492E-011 -0.47335198254865748E-010 -0.77355565927688379E-010 -0.88864842363939431E-010 -0.88157069782492791E-010 -0.78896493105811320E-010  0.15764670358100172E-008  0.25763255773033508E-008  0.29597568449630238E-008  0.29363533304906507E-008  0.26281003632150860E-008 -0.77079519137225626E-007 -0.12597029489699893E-006 -0.14472733175882127E-006 -0.14359682122034797E-006 -0.12853958461446815E-006 -0.79813635207417931E-006 -0.13055977977751793E-005 -0.15027938725141946E-005 -0.14952308262096086E-005 -0.13434627424968827E-005 -0.18620080460587183E-005 -0.30488410926328864E-005 -0.35161355114650874E-005 -0.35085936300001916E-005 -0.31646365548318668E-005  0.80443566586661798E-007  0.13169207522808008E-006  
0.15181696467290152E-006  0.15140203711798626E-006  0.13645188603511734E-006 -0.40057853183987813E-008 -0.65577651510322423E-008 -0.75599034998964637E-008 -0.75392346336673685E-008 -0.67947665301779424E-008 -0.10020296632338343E-005 -0.14615044251374425E-005 -0.13780181543820425E-005 -0.10198128924037833E-005 -0.62093486396447491E-006  </sparseX_slice>
        <sparseX_slice start="501" end="550"> -0.38093029527008628E-005 -0.57203924460459391E-005 -0.55555942247932201E-005 -0.43140833852593396E-005 -0.28208076247748233E-005 -0.37536295933564480E-005 -0.58922729166628167E-005 -0.62432556782308092E-005 -0.54805413847835610E-005 -0.41609165455402652E-005  0.22912090695214090E-006  0.35943556307647240E-006  0.38034623785397395E-006  0.33318155119210107E-006  0.25219172780045879E-006 -0.12930020862021735E-007 -0.20284068682959006E-007 -0.21464074224346212E-007 -0.18802361509254840E-007 -0.14231805469470877E-007  0.48371107048816900E-009  0.75882542355222790E-009  0.80296933531938736E-009  0.70339486656552497E-009  0.53241071924724406E-009  0.15482680876863292E-005 -0.65218331730336037E-013 -0.74921828022104649E-013 -0.74325175401585965E-013 -0.66517670539268426E-013  0.24041657214597932E-011  0.39289071731668228E-011  0.45134659984240051E-011  0.44775180644531966E-011  0.40071712225564678E-011 -0.80069127166192354E-010 -0.13085217488477070E-009 
-0.15032673808876504E-009 -0.14913806814731713E-009 -0.13348182829041345E-009  0.39148866925316651E-008  0.63980605570052072E-008  0.73507348188482481E-008  0.72933159257506297E-008  0.65285553786993273E-008  0.40537530832258891E-007  0.66311615608174975E-007  0.76327250077755824E-007  0.75943121197187903E-007  0.68234784949063412E-007  </sparseX_slice>
        <sparseX_slice start="551" end="600">  0.94571821444870287E-007  0.15485134773480519E-006  0.17858533987889856E-006  0.17820228596426307E-006  0.16073262616837952E-006 -0.40857474443923026E-008 -0.66886711099301814E-008 -0.77108189223901171E-008 -0.76897446553449650E-008 -0.69304230068903035E-008  0.20345476738404274E-009  0.33307041623764796E-009  0.38396925589996285E-009  0.38291947937567077E-009  0.34510777135813384E-009  0.50893319496872535E-007  0.74230149449171561E-007  0.69989862352338160E-007  0.51796533838594273E-007  0.31537426063075357E-007  0.19347538236195283E-006  0.29054006192144745E-006  0.28216992195802478E-006  0.21911329785251280E-006  0.14326947489549383E-006  0.19064771950072042E-006  0.29926991097413500E-006  0.31709640701053030E-006  0.27835797076623120E-006  0.21133391845929708E-006 -0.11637104118550783E-007 -0.18255815792007988E-007 -0.19317873824069411E-007 -0.16922368425877891E-007 -0.12808876471270632E-007  0.65671876490001264E-009  0.10302325630192393E-008  
0.10901653187261791E-008  0.95497631125651346E-009  0.72283670765696954E-009 -0.34744112703285820E-010 -0.54505091254819803E-010 -0.57675870546360183E-010 -0.50523612150639485E-010 -0.38242122543455303E-010  0.12478041554024682E-011  0.19575022663244766E-011  0.20713780072045671E-011  0.18145109568484848E-011  0.13734320927050176E-011  </sparseX_slice>
        <sparseX_slice start="601" end="650"> -0.77118449175692094E-007  0.32484920672783850E-014  0.37318183022855614E-014  0.37020993374905870E-014  0.33132114751737373E-014 -0.11975027676079078E-012 -0.19569687611572102E-012 -0.22481345509472684E-012 -0.22302290671298714E-012 -0.19959516877131574E-012  0.39882026652990183E-011  0.65176805481146777E-011  0.74876986765062427E-011  0.74284916288408432E-011  0.66486622522038799E-011 -0.19499852307733017E-009 -0.31868415542022412E-009 -0.36613637782746455E-009 -0.36327637184768494E-009 -0.32518403638690813E-009 -0.20191538765532946E-008 -0.33029479834328783E-008 -0.38018216629639403E-008 -0.37826883980024554E-008 -0.33987400741249019E-008 -0.47105745210104893E-008 -0.77130671910440403E-008 -0.88952453173370919E-008 -0.88761655958840711E-008 -0.80060106906705632E-008  0.20350901057835177E-009  0.33315931985324868E-009  0.38407198462503469E-009  0.38302228605863354E-009  0.34520085938189204E-009 -0.10133978903811968E-010 -0.16590068716673908E-010 
-0.19125314137552697E-010 -0.19073025300639414E-010 -0.17189643277727127E-010 -0.25349704642345956E-008 -0.36973661429361489E-008 -0.34861595905513989E-008 -0.25799591130743146E-008 -0.15708632169844130E-008 -0.96369107908982954E-008 -0.14471653311846066E-007 -0.14054740880144705E-007 -0.10913922374650140E-007 -0.71361799716909658E-008  </sparseX_slice>
        <sparseX_slice start="651" end="681"> -0.94960663361270214E-008 -0.14906482671073638E-007 -0.15794411408671964E-007 -0.13864869522217092E-007 -0.10526435427702136E-007  0.57963826139424454E-009  0.90931293715457697E-009  0.96221350974826728E-009  0.84289459930258540E-009  0.63800364872433911E-009 -0.32710829020151796E-010 -0.51315362101836359E-010 -0.54300582304786170E-010 -0.47566886322430436E-010 -0.36004130256967565E-010  0.17305866541929913E-011  0.27148709859624973E-011  0.28728058963224618E-011  0.25165555285931104E-011  0.19048207524221254E-011 -0.87896898405805233E-013 -0.13788892839258017E-012 -0.14591047919739562E-012 -0.12781644021603956E-012 -0.96746288748188679E-013  0.30957841885325886E-014  0.48565350090129701E-014  0.51390590866476856E-014  0.45017756238505275E-014  0.34074652967054934E-014  0.00000000000000000E+000  </sparseX_slice>
      </sparseX>
      <sparseX i="4" alpha="58.316331085164670" sparseCutoff="1.0000000000000000" sliced="T">
        <sparseX_slice start="1" end="50">  0.97999887699581434E+000  0.11084517113630096E-014  0.13824105848319718E-014  0.15530733640339842E-014  0.16434123756940353E-014  0.21520819956006867E-005 -0.94435190041106766E-013 -0.11777520210860214E-012 -0.13231478429598676E-012 -0.14001108431219995E-012  0.23629909301459402E-011  0.40227305468877431E-011  0.50169603676060036E-011  0.56363088018649477E-011  0.59641463153760497E-011 -0.71673647718924994E-004  0.31451621170716765E-011  0.39226532263482837E-011  0.44071673264465747E-011  0.46638724618791386E-011 -0.11129553618541970E-009 -0.18947203454435538E-009 -0.23630979686597683E-009 -0.26549781027239076E-009 -0.28096196639782708E-009  0.26209784000387696E-008  0.44620999910311909E-008  0.55653539198164037E-008  0.62531250271552608E-008  0.66178479188732353E-008  0.35043995056623701E-002 -0.15378374646308845E-009 -0.19181141039699542E-009 -0.21552420551451840E-009 -0.22810857505130162E-009  0.54416655828670730E-008  0.92642980671990132E-008  
0.11555167589893407E-007  0.12983669642272893E-007  0.13741763807322754E-007 -0.18123102316171288E-006 -0.30854726198497942E-006 -0.38485958517561216E-006 -0.43246266794191449E-006 -0.45774828552653035E-006  0.62657295755957871E-005  0.10667781209495760E-004  0.13307051306669684E-004  0.14954439448376222E-004  0.15830938960150167E-004  </sparseX_slice>
        <sparseX_slice start="51" end="100">  0.36287053538572395E-001 -0.15938656083959693E-008 -0.19916971364003665E-008 -0.22441892037786843E-008 -0.23841322713515574E-008  0.56346889110515879E-007  0.96018249098788457E-007  0.11998448972239832E-006  0.13519507550002337E-006  0.14362538782665581E-006 -0.18765953566918811E-005 -0.31978858673509982E-005 -0.39962363663559537E-005 -0.45031046425418451E-005 -0.47842675771141323E-005  0.91753943738276993E-004  0.15636169174658548E-003  0.19540950715750104E-003  0.22021583900584308E-003  0.23399706329875388E-003  0.67181212418718076E-003  0.11459261380469320E-002  0.14347609627235237E-002  0.16214253939927207E-002  0.17293549602544116E-002  0.84655692578084182E-001 -0.37220060965886609E-008 -0.46600383176066649E-008 -0.52660417420990809E-008 -0.56160188882133991E-008  0.13145418150858481E-006  0.22422248566434601E-006  0.28073159789514492E-006  0.31723836373092622E-006  0.33832136771682271E-006 -0.43779933645121783E-005 -0.74677254040593769E-005 
-0.93501236975662842E-005 -0.10566638934336518E-004 -0.11269734235050743E-004  0.21405688521052618E-003  0.36513691423419259E-003  0.45720595482923805E-003  0.51674154680164100E-003  0.55119925310490058E-003  0.22164977598540855E-002  0.37843997388462385E-002  0.47474537051464842E-002  0.53806754452832067E-002  0.57609931015382464E-002  </sparseX_slice>
        <sparseX_slice start="101" end="150">  0.36564257644071288E-002  0.62489548444146416E-002  0.78543803699976256E-002  0.89278447083466668E-002  0.95957863708583911E-002 -0.36573450137660324E-002  0.16076886002872668E-009  0.20120751044196009E-009  0.22723903973516207E-009  0.24214988230971582E-009 -0.56791608530715763E-008 -0.96850978954880194E-008 -0.12121210613539687E-007 -0.13689397971356486E-007 -0.14587643134076605E-007  0.18914064387613979E-006  0.32256199185663795E-006  0.40371236957508664E-006  0.45596920842288857E-006  0.48592514964768336E-006 -0.92478114341206060E-005 -0.15771775739336091E-004 -0.19740883156015943E-004 -0.22298314110905864E-004 -0.23766450385108317E-004 -0.95758439664866011E-004 -0.16346389987511074E-003 -0.20498186406363585E-003 -0.23218568731385426E-003 -0.24840083861761450E-003 -0.22339915312795733E-003 -0.38172204024128147E-003 -0.47960270841046536E-003 -0.54482907201139016E-003 -0.58512852591594542E-003  0.68245856519366130E-005  0.11658886936605456E-004  
0.14642705540037611E-004  0.16624321289508841E-004  0.17839881934029550E-004  0.18212194687663365E-003 -0.80056785941115143E-011 -0.10019363551846449E-010 -0.11315623429541839E-010 -0.12058110469657682E-010  0.28280072765733485E-009  0.48228108907364634E-009  0.60358987375168638E-009  0.68167896062902938E-009  0.72640717693044052E-009  </sparseX_slice>
        <sparseX_slice start="151" end="200"> -0.94184885939301327E-008 -0.16062362033413939E-007 -0.20103330100677235E-007 -0.22705499301497497E-007 -0.24197158712398058E-007  0.46050602729321335E-006  0.78537452716259269E-006  0.98302038895163368E-006  0.11103696173277170E-005  0.11834756287377969E-005  0.47684080654113843E-005  0.81398813421102219E-005  0.10207311909369142E-004  0.11561947306391397E-004  0.12369383475379150E-004  0.11124432763415944E-004  0.19008307740156618E-004  0.23882378373747559E-004  0.27130376098811097E-004  0.29137096153605422E-004 -0.48060428612910115E-006 -0.82104754456503254E-006 -0.10311747604862188E-005 -0.11707238404627957E-005 -0.12563249064653659E-005  0.16922674256430315E-007  0.28910095539212005E-007  0.36308911073720863E-007  0.41222564421108178E-007  0.44236623214263122E-007  0.52438204645676427E-005 -0.22994577019205058E-012 -0.28628713243806365E-012 -0.32054255449316186E-012 -0.33717759615657315E-012  0.81426553390003155E-011  0.13852479233636819E-010  
0.17246605857831978E-010  0.19310214478666136E-010  0.20312322263476633E-010 -0.27118567575824864E-009 -0.46135654404032797E-009 -0.57442019118250854E-009 -0.64318849000787147E-009 -0.67661843279638500E-009  0.13259307685814769E-007  0.22558181472642863E-007  0.28088220057575391E-007  0.31453919952886935E-007  0.33093200515273417E-007  </sparseX_slice>
        <sparseX_slice start="201" end="250">  0.13729633482202650E-006  0.23380045332573903E-006  0.29165745322173261E-006  0.32752027739191808E-006  0.34588163681714748E-006  0.32030476931493671E-006  0.54597245092661863E-006  0.68240039250407245E-006  0.76853388708298893E-006  0.81475253231234646E-006 -0.13837995003808333E-007 -0.23582811598028107E-007 -0.29464153455905165E-007 -0.33163600111353615E-007 -0.35130264647977593E-007  0.68907980556299941E-009  0.11743344449016036E-008  0.14672020173285873E-008  0.16514187476999888E-008  0.17493488244269421E-008  0.14029430905529418E-010  0.23850861831498922E-010  0.29643986778924803E-010  0.33078775162984935E-010  0.34589228191102329E-010 -0.11108306535128913E-003  0.50121068229890273E-011  0.65790891421640808E-011  0.79034326723055495E-011  0.90097672971497775E-011 -0.17249086258138566E-009 -0.30194121694100720E-009 -0.39633970403120946E-009 -0.47612080792590479E-009 -0.54276825905614492E-009  0.57446925092373070E-008  0.10056146196052560E-007  
0.13200599030297860E-007  0.15858727195884779E-007  0.18080010943629713E-007 -0.28088004769203182E-006 -0.49169860867119655E-006 -0.64548798274574488E-006 -0.77554114155234063E-006 -0.88428780310206245E-006 -0.29084324752497271E-005 -0.50961269970443470E-005 -0.67025030687939082E-005 -0.80754783566095383E-005 -0.92423491228422765E-005  </sparseX_slice>
        <sparseX_slice start="251" end="300"> -0.67852123966784856E-005 -0.11900511343034695E-004 -0.15682063579659282E-004 -0.18949296272221658E-004 -0.21771110549969554E-004  0.29313873610384826E-006  0.51403237736019779E-006  0.67710794555790774E-006  0.81769573798333115E-006  0.93872046415144072E-006 -0.14597200188454482E-007 -0.25596859985058513E-007 -0.33717382892352234E-007 -0.40718078468138129E-007 -0.46744582111292829E-007 -0.42029584235368749E-009 -0.73521433749434552E-009 -0.96341976330311327E-009 -0.11534386034935829E-008 -0.13071057749296530E-008  0.62956436468913787E-008  0.11331668555124885E-007  0.15655411791353722E-007  0.20109883232888928E-007  0.24697363835570453E-007  0.32452185150372674E-001 -0.14117632480235120E-008 -0.17305182480987876E-008 -0.18944942280687162E-008 -0.19368806591915915E-008  0.50392068237732112E-007  0.85047970483318103E-007  0.10425046316464315E-006  0.11412865268527828E-006  0.11668196399717323E-006 -0.16782740407115042E-005 -0.28325209572991425E-005 
-0.34721945567455081E-005 -0.38014200136604343E-005 -0.38867622614145489E-005  0.82057254037071290E-004  0.13849705310397167E-003  0.16978470863256287E-003  0.18590127571392698E-003  0.19010035292800918E-003  0.84967937178972953E-003  0.14354292627380787E-002  0.17629801964760647E-002  0.19357344801708394E-002  0.19868800903651116E-002  </sparseX_slice>
        <sparseX_slice start="301" end="350">  0.19822550654797783E-002  0.33520244360562153E-002  0.41249018832292574E-002  0.45422456168296294E-002  0.46802588305136185E-002 -0.85638549032693938E-004 -0.14478781962961145E-003 -0.17810180564527400E-003 -0.19600595338201430E-003 -0.20180205009040139E-003  0.42644757929097098E-005  0.72098834817249025E-005  0.88687879298374465E-005  0.97603367845776612E-005  0.10048947328750443E-004  0.12278665925233599E-006  0.20708827998910829E-006  0.25341129219395998E-006  0.27648527764490757E-006  0.28099592492025685E-006 -0.26010651177239150E-005 -0.45138842094271950E-005 -0.58235781216459068E-005 -0.68171378374563071E-005 -0.75085294036061904E-005  0.53731914686600522E-003  0.89903576675392886E-003  0.10831418103496694E-002  0.11554857817093903E-002  0.11413771562862132E-002  0.15623442138523741E+000 -0.68011848699383567E-008 -0.83478243697115411E-008 -0.91566932463168306E-008 -0.93854485213608111E-008  0.24260232668606803E-006  0.40971952689653368E-006  
0.50289244734381121E-006  0.55162008296001067E-006  0.56540012481916085E-006 -0.80797078058521746E-005 -0.13645700655217370E-004 -0.16749473961932640E-004 -0.18373472164643394E-004 -0.18833895080814969E-004  0.39504790033518112E-003  0.66721106631761104E-003  0.81902223792463191E-003  0.89852000105943573E-003  0.92116004557711139E-003  </sparseX_slice>
        <sparseX_slice start="351" end="400">  0.40906079020387922E-002  0.69151961543614309E-002  0.85044171384095167E-002  0.93560205033256169E-002  0.96277283361493275E-002  0.95431624021050706E-002  0.16148414339363440E-001  0.19898060307263835E-001  0.21954117962732313E-001  0.22678902859592669E-001 -0.41228931409078223E-003 -0.69751690277736807E-003 -0.85914297355064626E-003 -0.94735912254565228E-003 -0.97786239107733666E-003  0.20530448255776354E-004  0.34733692436445429E-004  0.42782030233913082E-004  0.47174812460752612E-004  0.48693695917856873E-004  0.59113130820698278E-006  0.99765005115080359E-006  0.12224274218783456E-005  0.13363412973276847E-005  0.13616083032973096E-005 -0.12522297089391948E-004 -0.21745686490132101E-004 -0.28092282422450082E-004 -0.32949395712375274E-004 -0.36383716185220619E-004  0.36583065327536373E-002  0.61251210467022201E-002  0.73892002847682709E-002  0.78981428176369238E-002  0.78216133518746091E-002  0.12453684896255330E-001  0.20865192033579658E-001  
0.25204585552280057E-001  0.26993261602711236E-001  0.26799921081862872E-001  0.11140692404691751E-001 -0.48854806963812856E-009 -0.60846685597805982E-009 -0.68207369220559676E-009 -0.71940025263990287E-009  0.17299375350888000E-007  0.29431295838332809E-007  0.36655465277951736E-007  0.41089674684759402E-007  0.43338258338085455E-007  </sparseX_slice>
        <sparseX_slice start="401" end="450"> -0.57614409543485788E-006 -0.98020871972365807E-006 -0.12208569933360607E-005 -0.13686231110795319E-005 -0.14436293426461847E-005  0.28169894340386617E-004  0.47927630953166637E-004  0.59697936134626138E-004  0.66929931816783343E-004  0.70607469424793643E-004  0.29169119058882219E-003  0.49673781804035954E-003  0.61988078916815743E-003  0.69692139699246221E-003  0.73797114561019797E-003  0.68049944402276137E-003  0.11599856207531953E-002  0.14503551654909839E-002  0.16353421366366383E-002  0.17383514927021527E-002 -0.29399337158237531E-004 -0.50104583673070759E-004 -0.62622307418054484E-004 -0.70567913238688112E-004 -0.74953738181720664E-004  0.14639757802415796E-005  0.24950179587433679E-005  0.31183511147212718E-005  0.35140085671380134E-005  0.37324009678972419E-005  0.42152119981796201E-007  0.71663984435777111E-007  0.89101847033394684E-007  0.99542839122818075E-007  0.10436809228235461E-006 -0.89293421280763000E-006 -0.15620532834900364E-005 
-0.20476260646852316E-005 -0.24543703043151446E-005 -0.27888336456222078E-005  0.26086484298481046E-003  0.43998452047567491E-003  0.53859344259545028E-003  0.58832542363037384E-003  0.59953134989593248E-003  0.12558805397735948E-002  0.21196302339331094E-002  0.25981138716131441E-002  0.28435639197932315E-002  0.29051199384368654E-002  </sparseX_slice>
        <sparseX_slice start="451" end="500">  0.63324066062417830E-004  0.10766333521811667E-003  0.13390808739677931E-003  0.14977544923911113E-003  0.15745796099405460E-003 -0.58667045311997011E-003  0.25726889512680587E-010  0.32041489213401793E-010  0.35917035226513534E-010  0.37881791361779625E-010 -0.91098757663606071E-009 -0.15498489162154507E-008 -0.19302541852140995E-008 -0.21637241106986280E-008 -0.22820826852948443E-008  0.30339830349217468E-007  0.51617687181479630E-007  0.64289576003617293E-007  0.72069755884451826E-007  0.76017857042982790E-007 -0.14834306591263938E-005 -0.25238639609198797E-005 -0.31436564833844368E-005 -0.35244354770495162E-005 -0.37180101279059617E-005 -0.15360499755094236E-004 -0.26158160794617936E-004 -0.32642539892826460E-004 -0.36698894345193592E-004 -0.38859687449974071E-004 -0.35835197909655181E-004 -0.61084719715545028E-004 -0.76374808149544651E-004 -0.86114802256990043E-004 -0.91537177417344326E-004  0.15481732935007113E-005  0.26385020601775170E-005  
0.32976520708406092E-005  0.37160064295391598E-005  0.39468736091849197E-005 -0.77093173669285326E-007 -0.13138738098850710E-006 -0.16421044568702674E-006 -0.18504271742843027E-006 -0.19653876159418127E-006 -0.22197366583133804E-008 -0.37738178169107012E-008 -0.46920482891801703E-008 -0.52417850155753155E-008 -0.54957588382251039E-008  </sparseX_slice>
        <sparseX_slice start="501" end="550">  0.47022043173327379E-007  0.82257560176288825E-007  0.10782672518658587E-006  0.12924366631695819E-006  0.14685290131396860E-006 -0.13737179887716601E-004 -0.23169538166329945E-004 -0.28361998376380461E-004 -0.30980384094357019E-004 -0.31569799187952201E-004 -0.66134848586541978E-004 -0.11161950322826233E-003 -0.13681507344992321E-003 -0.14973805124457248E-003 -0.15297624234210226E-003 -0.47159134254850355E-005 -0.80179400911695351E-005 -0.99723513463614848E-005 -0.11153850274184729E-004 -0.11725720634271281E-004  0.17560337498502104E-006  0.29855736484172196E-006  0.37132854821757990E-006  0.41531631709652631E-006  0.43660073941312763E-006  0.29796881177082064E-004 -0.13066638337288608E-011 -0.16273811254778340E-011 -0.18242193189642021E-011 -0.19240088325005379E-011  0.46268886442917144E-010  0.78716532193463550E-010  0.98037241885690686E-010  0.10989513189917659E-009  0.11590653675986981E-009 -0.15409542359611432E-008 -0.26216525315866563E-008 
-0.32652553024751168E-008 -0.36604090557118330E-008 -0.38609322083439914E-008  0.75343162160905297E-007  0.12818657138322911E-006  0.15966571316248465E-006  0.17900540078348327E-006  0.18883701293584944E-006  0.78015687271972707E-006  0.13285680202553996E-005  0.16579083748399578E-005  0.18639297933953330E-005  0.19736759850642935E-005  </sparseX_slice>
        <sparseX_slice start="551" end="600">  0.18200629133317915E-005  0.31024813165394803E-005  0.38790619380004731E-005  0.43737542627131889E-005  0.46491554787145527E-005 -0.78631428296149534E-007 -0.13400901867883169E-006 -0.16748711967589423E-006 -0.18873525265683637E-006 -0.20046094474024157E-006  0.39155476863909804E-008  0.66731401346213199E-008  0.83402172145480824E-008  0.93982840687639697E-008  0.99821655640457521E-008  0.11274000437627557E-009  0.19167149040727635E-009  0.23830823763486661E-009  0.26622925391711848E-009  0.27912852497008356E-009 -0.23882406650752895E-008 -0.41778458635722173E-008 -0.54764988050973722E-008 -0.65642609826302243E-008 -0.74586303616960737E-008  0.69770876417188324E-006  0.11767764443976654E-005  0.14405004877004672E-005  0.15734877563652208E-005  0.16034239748010394E-005  0.33589764313467631E-005  0.56691333763945416E-005  0.69488114840848922E-005  0.76051668558311572E-005  0.77696336643125580E-005  0.23952034951357673E-006  0.40722965490919563E-006  
0.50649382273137978E-006  0.56650191260725142E-006  0.59554707569964068E-006 -0.12613175813148365E-007 -0.21444670420857735E-007 -0.26671652199717062E-007 -0.29831188892810656E-007 -0.31359997421441567E-007  0.45298731902778465E-009  0.77016001548481213E-009  0.95788087729500524E-009  0.10713518758182115E-008  0.11262571836167292E-008  </sparseX_slice>
        <sparseX_slice start="601" end="650"> -0.14841675358093031E-005  0.65084262701253927E-013  0.81059028304261867E-013  0.90863438863179153E-013  0.95833903903341187E-013 -0.23046297620383895E-011 -0.39208305364899110E-011 -0.48831852849163498E-011 -0.54738207708224522E-011 -0.57732457969947158E-011  0.76754148784551430E-010  0.13058318266165434E-009  0.16264071018167691E-009  0.18232311816363685E-009  0.19231107465908652E-009 -0.37528046864998098E-008 -0.63849080929030437E-008 -0.79528681756449931E-008 -0.89161682047662206E-008 -0.94058758179235779E-008 -0.38859218065402849E-007 -0.66175299120378041E-007 -0.82579575108790591E-007 -0.92841397449732012E-007 -0.98307799576554623E-007 -0.90656410415704957E-007 -0.15453302052078348E-006 -0.19321410731861654E-006 -0.21785448104905616E-006 -0.23157207589310684E-006  0.39165915545960679E-008  0.66749212390309100E-008  0.83424484663488404E-008  0.94008071906882631E-008  0.99848579643170240E-008 -0.19503144394603409E-009 -0.33238572489188347E-009 
-0.41542198853955749E-009 -0.46812376177761737E-009 -0.49720660282454007E-009 -0.56155224262518838E-011 -0.95470597042610361E-011 -0.11870012424969915E-010 -0.13260744081267234E-010 -0.13903250227754280E-010  0.11895705599989482E-009  0.20809638308739194E-009  0.27278162730337661E-009  0.32696250953851350E-009  0.37151059457681797E-009  </sparseX_slice>
        <sparseX_slice start="651" end="681"> -0.34752519603628649E-007 -0.58614637729169682E-007 -0.71750598539435754E-007 -0.78374626924591710E-007 -0.79865734772999366E-007 -0.16730891207459078E-006 -0.28237665758664625E-006 -0.34611677495278234E-006 -0.37880950303796845E-006 -0.38700151130916707E-006 -0.11930387103304224E-007 -0.20283902527718407E-007 -0.25228200370495149E-007 -0.28217172884283636E-007 -0.29663897721477456E-007  0.62825588873134271E-009  0.10681481550078099E-008  0.13285014657789460E-008  0.14858763855855427E-008  0.15620255627358805E-008 -0.31908997573978358E-010 -0.54251041989548690E-010 -0.67474336045342612E-010 -0.75467376165194789E-010 -0.79334975228433120E-010  0.11238549992540791E-011  0.19107558804510644E-011  0.23764886285320787E-011  0.26580085375355242E-011  0.27942278131732598E-011  0.00000000000000000E+000  </sparseX_slice>
      </sparseX>
      <sparseX i="5" alpha="747.86144179927567" sparseCutoff="1.0000000000000000" sliced="T">
        <sparseX_slice start="1" end="50">  0.99552095029571497E+000  0.00000000000000000E+000  0.00000000000000000E+000  0.00000000000000000E+000  0.00000000000000000E+000  0.00000000000000000E+000  0.00000000000000000E+000  0.00000000000000000E+000  0.00000000000000000E+000  0.00000000000000000E+000  0.00000000000000000E+000  0.00000000000000000E+000  0.00000000000000000E+000  0.00000000000000000E+000  0.00000000000000000E+000  0.00000000000000000E+000  0.00000000000000000E+000  0.00000000000000000E+000  0.00000000000000000E+000  0.00000000000000000E+000  0.00000000000000000E+000  0.00000000000000000E+000  0.00000000000000000E+000  0.00000000000000000E+000  0.00000000000000000E+000  0.00000000000000000E+000  0.00000000000000000E+000  0.00000000000000000E+000  0.00000000000000000E+000  0.00000000000000000E+000  0.00000000000000000E+000  0.00000000000000000E+000  0.00000000000000000E+000  0.00000000000000000E+000  0.00000000000000000E+000  0.00000000000000000E+000  0.00000000000000000E+000  
0.00000000000000000E+000  0.00000000000000000E+000  0.00000000000000000E+000  0.00000000000000000E+000  0.00000000000000000E+000  0.00000000000000000E+000  0.00000000000000000E+000  0.00000000000000000E+000  0.00000000000000000E+000  0.00000000000000000E+000  0.00000000000000000E+000  0.00000000000000000E+000  0.00000000000000000E+000  </sparseX_slice>
        <sparseX_slice start="51" end="100">  0.00000000000000000E+000  0.00000000000000000E+000  0.00000000000000000E+000  0.00000000000000000E+000  0.00000000000000000E+000  0.00000000000000000E+000  0.00000000000000000E+000  0.00000000000000000E+000  0.00000000000000000E+000  0.00000000000000000E+000  0.00000000000000000E+000  0.00000000000000000E+000  0.00000000000000000E+000  0.00000000000000000E+000  0.00000000000000000E+000  0.00000000000000000E+000  0.00000000000000000E+000  0.00000000000000000E+000  0.00000000000000000E+000  0.00000000000000000E+000  0.00000000000000000E+000  0.00000000000000000E+000  0.00000000000000000E+000  0.00000000000000000E+000  0.00000000000000000E+000  0.00000000000000000E+000  0.00000000000000000E+000  0.00000000000000000E+000  0.00000000000000000E+000  0.00000000000000000E+000  0.00000000000000000E+000  0.00000000000000000E+000  0.00000000000000000E+000  0.00000000000000000E+000  0.00000000000000000E+000  0.00000000000000000E+000  0.00000000000000000E+000  
0.00000000000000000E+000  0.00000000000000000E+000  0.00000000000000000E+000  0.00000000000000000E+000  0.00000000000000000E+000  0.00000000000000000E+000  0.00000000000000000E+000  0.00000000000000000E+000  0.00000000000000000E+000  0.00000000000000000E+000  0.00000000000000000E+000  0.00000000000000000E+000  0.00000000000000000E+000  </sparseX_slice>
        <sparseX_slice start="101" end="150">  0.00000000000000000E+000  0.00000000000000000E+000  0.00000000000000000E+000  0.00000000000000000E+000  0.00000000000000000E+000  0.00000000000000000E+000  0.00000000000000000E+000  0.00000000000000000E+000  0.00000000000000000E+000  0.00000000000000000E+000  0.00000000000000000E+000  0.00000000000000000E+000  0.00000000000000000E+000  0.00000000000000000E+000  0.00000000000000000E+000  0.00000000000000000E+000  0.00000000000000000E+000  0.00000000000000000E+000  0.00000000000000000E+000  0.00000000000000000E+000  0.00000000000000000E+000  0.00000000000000000E+000  0.00000000000000000E+000  0.00000000000000000E+000  0.00000000000000000E+000  0.00000000000000000E+000  0.00000000000000000E+000  0.00000000000000000E+000  0.00000000000000000E+000  0.00000000000000000E+000  0.00000000000000000E+000  0.00000000000000000E+000  0.00000000000000000E+000  0.00000000000000000E+000  0.00000000000000000E+000  0.00000000000000000E+000  0.00000000000000000E+000  
0.00000000000000000E+000  0.00000000000000000E+000  0.00000000000000000E+000  0.00000000000000000E+000  0.00000000000000000E+000  0.00000000000000000E+000  0.00000000000000000E+000  0.00000000000000000E+000  0.00000000000000000E+000  0.00000000000000000E+000  0.00000000000000000E+000  0.00000000000000000E+000  0.00000000000000000E+000  </sparseX_slice>
        <sparseX_slice start="151" end="200">  0.00000000000000000E+000  0.00000000000000000E+000  0.00000000000000000E+000  0.00000000000000000E+000  0.00000000000000000E+000  0.00000000000000000E+000  0.00000000000000000E+000  0.00000000000000000E+000  0.00000000000000000E+000  0.00000000000000000E+000  0.00000000000000000E+000  0.00000000000000000E+000  0.00000000000000000E+000  0.00000000000000000E+000  0.00000000000000000E+000  0.00000000000000000E+000  0.00000000000000000E+000  0.00000000000000000E+000  0.00000000000000000E+000  0.00000000000000000E+000  0.00000000000000000E+000  0.00000000000000000E+000  0.00000000000000000E+000  0.00000000000000000E+000  0.00000000000000000E+000  0.00000000000000000E+000  0.00000000000000000E+000  0.00000000000000000E+000  0.00000000000000000E+000  0.00000000000000000E+000 -0.14050998983212505E-006  0.00000000000000000E+000  0.00000000000000000E+000  0.00000000000000000E+000  0.00000000000000000E+000  0.00000000000000000E+000  0.00000000000000000E+000  
0.00000000000000000E+000  0.00000000000000000E+000  0.00000000000000000E+000  0.00000000000000000E+000  0.00000000000000000E+000  0.00000000000000000E+000  0.00000000000000000E+000  0.00000000000000000E+000  0.00000000000000000E+000  0.00000000000000000E+000  0.00000000000000000E+000  0.00000000000000000E+000  0.00000000000000000E+000  </sparseX_slice>
        <sparseX_slice start="201" end="250">  0.00000000000000000E+000  0.00000000000000000E+000  0.00000000000000000E+000  0.00000000000000000E+000  0.00000000000000000E+000  0.00000000000000000E+000  0.00000000000000000E+000  0.00000000000000000E+000  0.00000000000000000E+000  0.00000000000000000E+000  0.00000000000000000E+000  0.00000000000000000E+000  0.00000000000000000E+000  0.00000000000000000E+000  0.00000000000000000E+000  0.00000000000000000E+000  0.00000000000000000E+000  0.00000000000000000E+000  0.00000000000000000E+000  0.00000000000000000E+000  0.99159426211770312E-014  0.16879420814891507E-013  0.21047689571396436E-013  0.23639813181583035E-013  0.25005488274816834E-013  0.84726782812301910E-005  0.00000000000000000E+000  0.00000000000000000E+000  0.00000000000000000E+000  0.00000000000000000E+000  0.00000000000000000E+000  0.00000000000000000E+000  0.00000000000000000E+000  0.00000000000000000E+000  0.00000000000000000E+000  0.00000000000000000E+000  0.00000000000000000E+000  
0.00000000000000000E+000  0.00000000000000000E+000  0.00000000000000000E+000  0.00000000000000000E+000  0.00000000000000000E+000  0.00000000000000000E+000  0.00000000000000000E+000  0.00000000000000000E+000  0.00000000000000000E+000  0.00000000000000000E+000  0.00000000000000000E+000  0.00000000000000000E+000  0.00000000000000000E+000  </sparseX_slice>
        <sparseX_slice start="251" end="300">  0.00000000000000000E+000  0.00000000000000000E+000  0.00000000000000000E+000  0.00000000000000000E+000  0.00000000000000000E+000  0.00000000000000000E+000  0.00000000000000000E+000  0.00000000000000000E+000  0.00000000000000000E+000  0.00000000000000000E+000  0.00000000000000000E+000  0.00000000000000000E+000  0.00000000000000000E+000  0.00000000000000000E+000  0.00000000000000000E+000 -0.84559521454118783E-012 -0.14394096535779150E-011 -0.17948495036551729E-011 -0.20158713390139703E-011 -0.21322972783272275E-011  0.36054629104443247E-010  0.61373555809018112E-010  0.76528227239468151E-010  0.85951128806379375E-010  0.90913875249952636E-010 -0.26456439983123535E-003  0.00000000000000000E+000  0.00000000000000000E+000  0.00000000000000000E+000  0.00000000000000000E+000  0.00000000000000000E+000  0.00000000000000000E+000  0.00000000000000000E+000  0.00000000000000000E+000  0.00000000000000000E+000  0.00000000000000000E+000  0.00000000000000000E+000  
0.00000000000000000E+000  0.00000000000000000E+000  0.00000000000000000E+000  0.00000000000000000E+000  0.00000000000000000E+000  0.00000000000000000E+000  0.00000000000000000E+000  0.00000000000000000E+000  0.00000000000000000E+000  0.00000000000000000E+000  0.00000000000000000E+000  0.00000000000000000E+000  0.00000000000000000E+000  </sparseX_slice>
        <sparseX_slice start="301" end="350">  0.00000000000000000E+000  0.00000000000000000E+000  0.00000000000000000E+000  0.00000000000000000E+000  0.00000000000000000E+000  0.00000000000000000E+000  0.00000000000000000E+000  0.00000000000000000E+000  0.00000000000000000E+000  0.00000000000000000E+000  0.00000000000000000E+000  0.00000000000000000E+000  0.00000000000000000E+000  0.00000000000000000E+000  0.00000000000000000E+000  0.26404211632920850E-010  0.44958119887808194E-010  0.56088835154825272E-010  0.63044125777559307E-010  0.66752516240028964E-010 -0.15921600357564458E-008 -0.27109406746012993E-008 -0.33820890037174580E-008 -0.38014422662726088E-008 -0.40249923246486626E-008  0.35154620119883092E-007  0.59872686569415512E-007  0.74734032406589694E-007  0.84065000102309647E-007  0.89098408625415438E-007  0.15013657385901881E-001  0.00000000000000000E+000  0.00000000000000000E+000  0.00000000000000000E+000  0.00000000000000000E+000  0.00000000000000000E+000  0.00000000000000000E+000  
0.00000000000000000E+000  0.00000000000000000E+000  0.00000000000000000E+000  0.00000000000000000E+000  0.00000000000000000E+000  0.00000000000000000E+000  0.00000000000000000E+000  0.00000000000000000E+000  0.00000000000000000E+000  0.00000000000000000E+000  0.00000000000000000E+000  0.00000000000000000E+000  0.00000000000000000E+000  </sparseX_slice>
        <sparseX_slice start="351" end="400">  0.00000000000000000E+000  0.00000000000000000E+000  0.00000000000000000E+000  0.00000000000000000E+000  0.00000000000000000E+000  0.00000000000000000E+000  0.00000000000000000E+000  0.00000000000000000E+000  0.00000000000000000E+000  0.00000000000000000E+000  0.00000000000000000E+000  0.00000000000000000E+000  0.00000000000000000E+000  0.00000000000000000E+000  0.00000000000000000E+000  0.00000000000000000E+000  0.00000000000000000E+000  0.00000000000000000E+000  0.00000000000000000E+000  0.00000000000000000E+000 -0.14984018532137951E-008 -0.25494722540727021E-008 -0.31761152650173831E-008 -0.35623768732542776E-008 -0.37613731819854923E-008  0.90352841484420929E-007  0.15373125143089903E-006  0.19151591368768756E-006  0.21480462846232755E-006  0.22680041203528952E-006 -0.28213210140798360E-005 -0.48015990549691210E-005 -0.59848496993640910E-005 -0.67177749652439607E-005 -0.71000879387267027E-005  0.11321203638873152E-003  0.19253648705032061E-003  
0.23963932341499171E-003  0.26841432480066474E-003  0.28289645974256220E-003  0.85143210324247348E-001  0.00000000000000000E+000  0.00000000000000000E+000  0.00000000000000000E+000  0.00000000000000000E+000  0.00000000000000000E+000  0.00000000000000000E+000  0.00000000000000000E+000  0.00000000000000000E+000  0.00000000000000000E+000  </sparseX_slice>
        <sparseX_slice start="401" end="450">  0.00000000000000000E+000  0.00000000000000000E+000  0.00000000000000000E+000  0.00000000000000000E+000  0.00000000000000000E+000  0.00000000000000000E+000  0.00000000000000000E+000  0.00000000000000000E+000  0.00000000000000000E+000  0.00000000000000000E+000  0.00000000000000000E+000  0.00000000000000000E+000  0.00000000000000000E+000  0.00000000000000000E+000  0.00000000000000000E+000  0.00000000000000000E+000  0.00000000000000000E+000  0.00000000000000000E+000  0.00000000000000000E+000  0.00000000000000000E+000  0.00000000000000000E+000  0.00000000000000000E+000  0.00000000000000000E+000  0.00000000000000000E+000  0.00000000000000000E+000  0.00000000000000000E+000  0.00000000000000000E+000  0.00000000000000000E+000  0.00000000000000000E+000  0.00000000000000000E+000 -0.84975126885620240E-008 -0.14461476133020009E-007 -0.18024213952045023E-007 -0.20230044916343235E-007 -0.21379613083934717E-007  0.51239553349107630E-006  0.87201608878691764E-006  
0.10868383277989680E-005  0.12198336775248678E-005  0.12891316075242237E-005 -0.15999854154097465E-004 -0.27236307444743510E-004 -0.33963569471267390E-004 -0.38148936544331488E-004 -0.40356839283827804E-004  0.90796920767590599E-003  0.15445087629787141E-002  0.19232385759911895E-002  0.21556471377567376E-002  0.22740286290640456E-002  </sparseX_slice>
        <sparseX_slice start="451" end="500">  0.36409913132243120E-002  0.61949486963854541E-002  0.77175285079886420E-002  0.86560480443242469E-002  0.91397506538412263E-002  0.32901480350222237E-001  0.00000000000000000E+000  0.00000000000000000E+000  0.00000000000000000E+000  0.00000000000000000E+000  0.00000000000000000E+000  0.00000000000000000E+000  0.00000000000000000E+000  0.00000000000000000E+000  0.00000000000000000E+000  0.00000000000000000E+000  0.00000000000000000E+000  0.00000000000000000E+000  0.00000000000000000E+000  0.00000000000000000E+000  0.00000000000000000E+000  0.00000000000000000E+000  0.00000000000000000E+000  0.00000000000000000E+000  0.00000000000000000E+000  0.00000000000000000E+000  0.00000000000000000E+000  0.00000000000000000E+000  0.00000000000000000E+000  0.00000000000000000E+000  0.00000000000000000E+000  0.00000000000000000E+000  0.00000000000000000E+000  0.00000000000000000E+000  0.00000000000000000E+000  0.00000000000000000E+000  0.00000000000000000E+000  
0.00000000000000000E+000  0.00000000000000000E+000  0.00000000000000000E+000  0.00000000000000000E+000  0.00000000000000000E+000  0.00000000000000000E+000  0.00000000000000000E+000  0.00000000000000000E+000 -0.32836528677245280E-008 -0.55989084097038683E-008 -0.70048141531263688E-008 -0.79069449679135961E-008 -0.84198057556868655E-008  </sparseX_slice>
        <sparseX_slice start="501" end="550">  0.19800253610941478E-006  0.33760994852788680E-006  0.42238183151740851E-006  0.47677391711596074E-006  0.50769102725374003E-006 -0.61827465167535983E-005 -0.10544815024343517E-004 -0.13199382383941985E-004 -0.14910572027290457E-004 -0.15893493785378026E-004  0.35086216424292125E-003  0.59797236619281132E-003  0.74743502450564086E-003  0.84253808426857149E-003  0.89556715850848140E-003  0.19897570776463498E-002  0.33919032019621436E-002  0.42416372432465717E-002  0.47846097970292885E-002  0.50903960902606380E-002  0.54368891428879795E-003  0.92857971028830540E-003  0.11656248813770400E-002  0.13223407952800816E-002  0.14175513828077202E-002 -0.16427879589450951E-002  0.00000000000000000E+000  0.00000000000000000E+000  0.00000000000000000E+000  0.00000000000000000E+000  0.00000000000000000E+000  0.00000000000000000E+000  0.00000000000000000E+000  0.00000000000000000E+000  0.00000000000000000E+000  0.00000000000000000E+000  0.00000000000000000E+000  
0.00000000000000000E+000  0.00000000000000000E+000  0.00000000000000000E+000  0.00000000000000000E+000  0.00000000000000000E+000  0.00000000000000000E+000  0.00000000000000000E+000  0.00000000000000000E+000  0.00000000000000000E+000  0.00000000000000000E+000  0.00000000000000000E+000  0.00000000000000000E+000  0.00000000000000000E+000  </sparseX_slice>
        <sparseX_slice start="551" end="600">  0.00000000000000000E+000  0.00000000000000000E+000  0.00000000000000000E+000  0.00000000000000000E+000  0.00000000000000000E+000  0.00000000000000000E+000  0.00000000000000000E+000  0.00000000000000000E+000  0.00000000000000000E+000  0.00000000000000000E+000  0.00000000000000000E+000  0.00000000000000000E+000  0.00000000000000000E+000  0.00000000000000000E+000  0.00000000000000000E+000  0.16395448882642598E-009  0.27955096842165813E-009  0.34973359556480423E-009  0.39475170309548328E-009  0.42032313033352309E-009 -0.98863692058445904E-008 -0.16856712264873202E-007 -0.21088513329350813E-007 -0.23802785593775604E-007 -0.25344323611432992E-007  0.30870773663726451E-006  0.52649785211228205E-006  0.65901355260231263E-006  0.74440554800698339E-006  0.79341534159436393E-006 -0.17518729629555837E-004 -0.29856490198851498E-004 -0.37317640819172427E-004 -0.42063444862394901E-004 -0.44707396157439661E-004 -0.99349601707545213E-004 -0.16935619508574742E-003 
-0.21177478969947001E-003 -0.23887011654806362E-003 -0.25411645842907392E-003 -0.38391187693475060E-004 -0.65567983252828865E-004 -0.82302787134520025E-004 -0.93362761864102247E-004 -0.10007717215909987E-003  0.13554472546526212E-005  0.23149118918980270E-005  0.29056297949421675E-005  0.32958997158696987E-005  0.35326551505754579E-005  </sparseX_slice>
        <sparseX_slice start="601" end="650">  0.81823956803859577E-004  0.00000000000000000E+000  0.00000000000000000E+000  0.00000000000000000E+000  0.00000000000000000E+000  0.00000000000000000E+000  0.00000000000000000E+000  0.00000000000000000E+000  0.00000000000000000E+000  0.00000000000000000E+000  0.00000000000000000E+000  0.00000000000000000E+000  0.00000000000000000E+000  0.00000000000000000E+000  0.00000000000000000E+000  0.00000000000000000E+000  0.00000000000000000E+000  0.00000000000000000E+000  0.00000000000000000E+000  0.00000000000000000E+000  0.00000000000000000E+000  0.00000000000000000E+000  0.00000000000000000E+000  0.00000000000000000E+000  0.00000000000000000E+000  0.00000000000000000E+000  0.00000000000000000E+000  0.00000000000000000E+000  0.00000000000000000E+000  0.00000000000000000E+000  0.00000000000000000E+000  0.00000000000000000E+000  0.00000000000000000E+000  0.00000000000000000E+000  0.00000000000000000E+000  0.00000000000000000E+000  0.00000000000000000E+000  
0.00000000000000000E+000  0.00000000000000000E+000  0.00000000000000000E+000 -0.81662425990430135E-011 -0.13923869757398559E-010 -0.17419523627166724E-010 -0.19661782551498538E-010 -0.20935440629867478E-010  0.49242012180652436E-009  0.83959883036432057E-009  0.10503762316834044E-008  0.11855685252143316E-008  0.12623492355756899E-008  </sparseX_slice>
