<GAP_2023_3_22_60_12_47_42_838>
<Potential label="GAP_2023_3_22_60_12_47_42_838" init_args="IP GAP label=GAP_2023_3_22_60_12_47_42_838"/>
<GAP_params label="GAP_2023_3_22_60_12_47_42_838" gap_version="1662319253">
  <GAP_data do_core="F">
    <e0 Z="1" value=".00000000000000000E+000"/>
    <e0 Z="2" value=".00000000000000000E+000"/>
    <e0 Z="3" value=".00000000000000000E+000"/>
    <e0 Z="4" value=".00000000000000000E+000"/>
    <e0 Z="5" value=".00000000000000000E+000"/>
    <e0 Z="6" value="-73.773381022338896"/>
    <e0 Z="7" value=".00000000000000000E+000"/>
    <e0 Z="8" value="-73.773381022338896"/>
    <e0 Z="9" value=".00000000000000000E+000"/>
    <e0 Z="10" value=".00000000000000000E+000"/>
    <e0 Z="11" value=".00000000000000000E+000"/>
    <e0 Z="12" value=".00000000000000000E+000"/>
    <e0 Z="13" value=".00000000000000000E+000"/>
    <e0 Z="14" value=".00000000000000000E+000"/>
    <e0 Z="15" value=".00000000000000000E+000"/>
    <e0 Z="16" value=".00000000000000000E+000"/>
    <e0 Z="17" value=".00000000000000000E+000"/>
    <e0 Z="18" value=".00000000000000000E+000"/>
    <e0 Z="19" value=".00000000000000000E+000"/>
    <e0 Z="20" value=".00000000000000000E+000"/>
    <e0 Z="21" value=".00000000000000000E+000"/>
    <e0 Z="22" value=".00000000000000000E+000"/>
    <e0 Z="23" value=".00000000000000000E+000"/>
    <e0 Z="24" value=".00000000000000000E+000"/>
    <e0 Z="25" value=".00000000000000000E+000"/>
    <e0 Z="26" value=".00000000000000000E+000"/>
    <e0 Z="27" value=".00000000000000000E+000"/>
    <e0 Z="28" value=".00000000000000000E+000"/>
    <e0 Z="29" value=".00000000000000000E+000"/>
    <e0 Z="30" value=".00000000000000000E+000"/>
    <e0 Z="31" value=".00000000000000000E+000"/>
    <e0 Z="32" value=".00000000000000000E+000"/>
    <e0 Z="33" value=".00000000000000000E+000"/>
    <e0 Z="34" value=".00000000000000000E+000"/>
    <e0 Z="35" value=".00000000000000000E+000"/>
    <e0 Z="36" value=".00000000000000000E+000"/>
    <e0 Z="37" value=".00000000000000000E+000"/>
    <e0 Z="38" value=".00000000000000000E+000"/>
    <e0 Z="39" value=".00000000000000000E+000"/>
    <e0 Z="40" value=".00000000000000000E+000"/>
    <e0 Z="41" value=".00000000000000000E+000"/>
    <e0 Z="42" value=".00000000000000000E+000"/>
    <e0 Z="43" value=".00000000000000000E+000"/>
    <e0 Z="44" value=".00000000000000000E+000"/>
    <e0 Z="45" value=".00000000000000000E+000"/>
    <e0 Z="46" value=".00000000000000000E+000"/>
    <e0 Z="47" value=".00000000000000000E+000"/>
    <e0 Z="48" value=".00000000000000000E+000"/>
    <e0 Z="49" value=".00000000000000000E+000"/>
    <e0 Z="50" value=".00000000000000000E+000"/>
    <e0 Z="51" value=".00000000000000000E+000"/>
    <e0 Z="52" value=".00000000000000000E+000"/>
    <e0 Z="53" value=".00000000000000000E+000"/>
    <e0 Z="54" value=".00000000000000000E+000"/>
    <e0 Z="55" value=".00000000000000000E+000"/>
    <e0 Z="56" value=".00000000000000000E+000"/>
    <e0 Z="57" value=".00000000000000000E+000"/>
    <e0 Z="58" value=".00000000000000000E+000"/>
    <e0 Z="59" value=".00000000000000000E+000"/>
    <e0 Z="60" value=".00000000000000000E+000"/>
    <e0 Z="61" value=".00000000000000000E+000"/>
    <e0 Z="62" value=".00000000000000000E+000"/>
    <e0 Z="63" value=".00000000000000000E+000"/>
    <e0 Z="64" value=".00000000000000000E+000"/>
    <e0 Z="65" value=".00000000000000000E+000"/>
    <e0 Z="66" value=".00000000000000000E+000"/>
    <e0 Z="67" value=".00000000000000000E+000"/>
    <e0 Z="68" value=".00000000000000000E+000"/>
    <e0 Z="69" value=".00000000000000000E+000"/>
    <e0 Z="70" value=".00000000000000000E+000"/>
    <e0 Z="71" value=".00000000000000000E+000"/>
    <e0 Z="72" value=".00000000000000000E+000"/>
    <e0 Z="73" value=".00000000000000000E+000"/>
    <e0 Z="74" value=".00000000000000000E+000"/>
    <e0 Z="75" value=".00000000000000000E+000"/>
    <e0 Z="76" value=".00000000000000000E+000"/>
    <e0 Z="77" value=".00000000000000000E+000"/>
    <e0 Z="78" value=".00000000000000000E+000"/>
    <e0 Z="79" value=".00000000000000000E+000"/>
    <e0 Z="80" value=".00000000000000000E+000"/>
    <e0 Z="81" value=".00000000000000000E+000"/>
    <e0 Z="82" value=".00000000000000000E+000"/>
    <e0 Z="83" value=".00000000000000000E+000"/>
    <e0 Z="84" value=".00000000000000000E+000"/>
    <e0 Z="85" value=".00000000000000000E+000"/>
    <e0 Z="86" value=".00000000000000000E+000"/>
    <e0 Z="87" value=".00000000000000000E+000"/>
    <e0 Z="88" value=".00000000000000000E+000"/>
    <e0 Z="89" value=".00000000000000000E+000"/>
    <e0 Z="90" value=".00000000000000000E+000"/>
    <e0 Z="91" value=".00000000000000000E+000"/>
    <e0 Z="92" value=".00000000000000000E+000"/>
    <e0 Z="93" value=".00000000000000000E+000"/>
    <e0 Z="94" value=".00000000000000000E+000"/>
    <e0 Z="95" value=".00000000000000000E+000"/>
    <e0 Z="96" value=".00000000000000000E+000"/>
    <e0 Z="97" value=".00000000000000000E+000"/>
    <e0 Z="98" value=".00000000000000000E+000"/>
    <e0 Z="99" value=".00000000000000000E+000"/>
    <e0 Z="100" value=".00000000000000000E+000"/>
    <e0 Z="101" value=".00000000000000000E+000"/>
    <e0 Z="102" value=".00000000000000000E+000"/>
    <e0 Z="103" value=".00000000000000000E+000"/>
    <e0 Z="104" value=".00000000000000000E+000"/>
    <e0 Z="105" value=".00000000000000000E+000"/>
    <e0 Z="106" value=".00000000000000000E+000"/>
    <e0 Z="107" value=".00000000000000000E+000"/>
    <e0 Z="108" value=".00000000000000000E+000"/>
    <e0 Z="109" value=".00000000000000000E+000"/>
    <e0 Z="110" value=".00000000000000000E+000"/>
    <e0 Z="111" value=".00000000000000000E+000"/>
    <e0 Z="112" value=".00000000000000000E+000"/>
    <e0 Z="113" value=".00000000000000000E+000"/>
    <e0 Z="114" value=".00000000000000000E+000"/>
    <e0 Z="115" value=".00000000000000000E+000"/>
    <e0 Z="116" value=".00000000000000000E+000"/>
    <e0 Z="117" value=".00000000000000000E+000"/>
    <e0 Z="118" value=".00000000000000000E+000"/>
  </GAP_data>
  <gpSparse label="GAP_2023_3_22_60_12_47_42_838" n_coordinate="2" fitted="T">
    <gpCoordinates label="GAP_2023_3_22_60_12_47_42_8381" dimensions="681" signal_variance=".72770126504682189E-001" signal_mean=".00000000000000000E+000" sparsified="T" n_permutations="1" covariance_type="2" zeta="4.0000000000000000" n_sparseX="22">
      <descriptor> soap=T l_max=4 n_max=8 cutoff=4 delta=0.07277012650468219 covariance_type=dot_product zeta=4 n_sparse=1000 sparse_method=cur_points atom_gaussian_width=0.3 cutoff_transition_width=0.5               n_species=2 Z=8 species_Z={8 6 }</descriptor>
      <permutation i="1">1  </permutation>
      <sparseX i="1" alpha="11784.219370172843" sparseCutoff="1.0000000000000000" sliced="T">
        <sparseX_slice start="1" end="50">  0.95093293059094497E+000  0.98636999743644637E-008  0.11442685920492011E-007  0.11504700344075786E-007  0.10457319146082650E-007  0.13106917401701597E-001 -0.17029103559631485E-005 -0.19581360643622412E-005 -0.19453466504978820E-005 -0.17439816718210778E-005  0.90327760375419236E-004  0.14699877773975901E-003  0.16754356770771095E-003  0.16447075879521051E-003  0.14542312561949435E-003  0.84063876142288885E-001 -0.10961151143075996E-004 -0.12695349490903312E-004 -0.12751822133044995E-004 -0.11604095164520455E-004  0.81930402567023598E-003  0.13381139590301070E-002  0.15361886494671712E-002  0.15246808260193385E-002  0.13684150374126231E-002  0.37156854309770052E-002  0.60903532494710469E-002  0.70425728634020256E-002  0.70670666271003667E-002  0.64383147681635637E-002  0.12144607968368169E+000 -0.15955775580799683E-004 -0.18760376397304109E-004 -0.19269542204029716E-004 -0.18057576341283878E-004  0.11836387584399516E-002  0.19478470603251077E-002  
0.22700814421785409E-002  0.23039767350988716E-002  0.21294429814907884E-002  0.75915075175335273E-002  0.12537739263288506E-001  0.14717811395122229E-001  0.15102656134388798E-001  0.14168875398120815E-001  0.77550949157736563E-002  0.12905237134468242E-001  0.15378894649998047E-001  0.16137545770328859E-001  0.15590805768008168E-001  </sparseX_slice>
        <sparseX_slice start="51" end="100"> -0.63881329545522883E-002  0.83897969110635341E-006  0.98573148703825298E-006  0.10113633596444889E-005  0.94632673923907373E-006 -0.62260072772786160E-004 -0.10242085172973291E-003 -0.11927749786609578E-003 -0.12092439076549750E-003 -0.11159575321648248E-003 -0.39931761876380717E-003 -0.65925398367621031E-003 -0.77332191024414459E-003 -0.79266403352523304E-003 -0.74253517752178460E-003 -0.57688940330805603E-003 -0.95965364193800350E-003 -0.11427657129768475E-002 -0.11978110177720599E-002 -0.11554873916567461E-002  0.21456951027911708E-004  0.35680673779529922E-004  0.42457975832341368E-004  0.44453823856355183E-004  0.42818541008874529E-004  0.33792721789876594E-003 -0.44381339628911413E-007 -0.52144324859942045E-007 -0.53500127200342516E-007 -0.50059625372612271E-007  0.32935089685773269E-005  0.54179793073482560E-005  0.63096742662633226E-005  0.63967813604125089E-005  0.59032904466839581E-005  0.21123588523725509E-004  0.34873996666908282E-004  
0.40908045892133276E-004  0.41931147906765688E-004  0.39279279842198399E-004  0.30516996512454921E-004  0.50764892953258940E-004  0.60451296686595120E-004  0.63363024971858955E-004  0.61123989791966017E-004 -0.16052113958962551E-005 -0.26692976466918749E-005 -0.31763086898848674E-005 -0.33256130910767379E-005 -0.32032685259577312E-005  </sparseX_slice>
        <sparseX_slice start="101" end="150">  0.60043564021825999E-007  0.99846067519085002E-007  0.11881085585989137E-006  0.12439540035159273E-006  0.11981876317626923E-006 -0.17163398222025547E-004  0.22541380643279126E-008  0.26484217967934269E-008  0.27172832884496955E-008  0.25425394282956815E-008 -0.16727804977354476E-006 -0.27518036838344622E-006 -0.32046975202618302E-006 -0.32489393951205660E-006 -0.29982942552316491E-006 -0.10728717383739145E-005 -0.17712580106733218E-005 -0.20777287019431935E-005 -0.21296922724295389E-005 -0.19950032979768919E-005 -0.15499650100405283E-005 -0.25783601507812242E-005 -0.30703347338225128E-005 -0.32182220467795592E-005 -0.31045009407090281E-005  0.81529042228715792E-007  0.13557421837058365E-006  0.16132542113126146E-006  0.16890862413079460E-006  0.16269471587220384E-006 -0.43128223245052727E-008 -0.71717652932630185E-008 -0.85339722614633360E-008 -0.89351001201080484E-008 -0.86063683809832247E-008  0.15489117531389168E-009  0.25756756725456733E-009  
0.30649001739920744E-009  0.32089616629998115E-009  0.30909005712328071E-009  0.85490017102388119E-006 -0.11227747511146104E-009 -0.13191654809378340E-009 -0.13534650410936656E-009 -0.12664260095367159E-009  0.83320349216408160E-008  0.13706594751793561E-007  0.15962436008852339E-007  0.16182802546275969E-007  0.14934351801242924E-007  </sparseX_slice>
        <sparseX_slice start="151" end="200">  0.53439197806732740E-007  0.88225464250187844E-007  0.10349061413388671E-006  0.10607889325611148E-006  0.99370103666909378E-007  0.77202971988626449E-007  0.12842681299738219E-006  0.15293181775980632E-006  0.16029800990231474E-006  0.15463361921512321E-006 -0.40609202934706930E-008 -0.67528831395682583E-008 -0.80355375043274663E-008 -0.84132530042788235E-008 -0.81037413816177650E-008  0.21481949524911993E-009  0.35722199627539812E-009  0.42507283531020966E-009  0.44505281074825785E-009  0.42867884934384690E-009 -0.10910729729736383E-010 -0.18143384268081617E-010 -0.21589543354605308E-010 -0.22604330651312237E-010 -0.21772693431490592E-010  0.38428278110133452E-012  0.63902143466285780E-012  0.76039733074449475E-012  0.79613877922773402E-012  0.76684799193103494E-012  0.44209336617384729E-001 -0.52432505963857399E-005 -0.51763178672831525E-005 -0.41040254596267342E-005 -0.27383207718045980E-005  0.43087339205636190E-003  0.64008485259768036E-003  
0.62635540356350574E-003  0.49070076907463118E-003  0.32291697614249997E-003  0.27634939896799479E-002  0.41200447158878644E-002  0.40609030692381268E-002  0.32165624189326963E-002  0.21486231087990402E-002  0.39923868215162254E-002  0.59974092147331128E-002  0.60009431127881494E-002  0.48606140076954589E-002  0.33435546042756667E-002  </sparseX_slice>
        <sparseX_slice start="201" end="250"> -0.21000182046448506E-003 -0.31535317759608409E-003 -0.31530916293612661E-003 -0.25510968868424516E-003 -0.17522258061277663E-003  0.11108931427713713E-004  0.16681925231696754E-004  0.16679576172268243E-004  0.13495051669109841E-004  0.92690784045170695E-005 -0.56422508698942393E-006 -0.84727867534994029E-006 -0.84715936421773394E-006 -0.68541665779446143E-006 -0.47077853923258136E-006  0.28103765764999960E-007  0.42202521615479842E-007  0.42196578788255745E-007  0.34140256514709651E-007  0.23449240557716427E-007  0.10276568311366906E-002  0.13935783168562341E-002  0.11708032034319221E-002  0.73200624394956758E-003  0.35852404160895552E-003  0.16806563986344836E+000 -0.20522312891026803E-004 -0.20868753838782512E-004 -0.17361133772612560E-004 -0.12439752638253554E-004  0.16380026907621742E-002  0.25053201979076188E-002  0.25252036423757478E-002  0.20757965022476649E-002  0.14669600973220721E-002  0.10505662857010980E-001  0.16126035792139341E-001  
0.16371866776328153E-001  0.13606925929774274E-001  0.97608506138165112E-002  0.15177405884816380E-001  0.23474122813264321E-001  0.24193298756407838E-001  0.20561707239581870E-001  0.15189232991967037E-001 -0.79834019303003404E-003 -0.12343061737822496E-002 -0.12711949832169471E-002 -0.10791827379013255E-002 -0.79600811632557912E-003  </sparseX_slice>
        <sparseX_slice start="251" end="300">  0.42231569425171867E-004  0.65293787305452128E-004  0.67245091626682272E-004  0.57087705619897213E-004  0.42107938457765981E-004 -0.21449507621563802E-005 -0.33162859111506352E-005 -0.34153930819859965E-005 -0.28994971895298464E-005 -0.21386714937681375E-005  0.10683891090122866E-006  0.16518252131229656E-006  0.17011899928647317E-006  0.14442248621846749E-006  0.10652614372152547E-006  0.55249461117902266E-002  0.77138656041508226E-002  0.66753567182857359E-002  0.43792306589924227E-002  0.23033540838252832E-002  0.14851762092809829E-001  0.21349256744011072E-001  0.19029836605223099E-001  0.13099383593496005E-001  0.73990017680059597E-002  0.16560934303493466E+000 -0.21138946248113122E-004 -0.23451850626550984E-004 -0.22055302049254865E-004 -0.18349628709284744E-004  0.16140631108594349E-002  0.25805974832903691E-002  0.28377688040271344E-002  0.26370581235933607E-002  0.21638833102211380E-002  0.10352121500323937E-001  0.16610574335129236E-001  
0.18398346977609486E-001  0.17286017449875849E-001  0.14398034258297956E-001  0.14955586517275051E-001  0.24179449119897566E-001  0.27187901730115926E-001  0.26121258539734481E-001  0.22405331833072771E-001 -0.78667236797187279E-003 -0.12713933366012367E-002 -0.14285412101714677E-002 -0.13709762025048795E-002 -0.11741755490567495E-002  </sparseX_slice>
        <sparseX_slice start="301" end="350">  0.41614350640139501E-004  0.67255667892539620E-004  0.75568568031453219E-004  0.72523292962122372E-004  0.62112572402556537E-004 -0.21136020833979895E-005 -0.34159302604649362E-005 -0.38381442901893992E-005 -0.36834740831804003E-005 -0.31547112698284513E-005  0.10527744909248678E-006  0.17014575587506940E-006  0.19117602281504778E-006  0.18347197815372382E-006  0.15713457027360338E-006  0.54441984490131989E-002  0.79456439065701354E-002  0.75016203576683633E-002  0.55633034220265000E-002  0.33976312434249858E-002  0.20696594110783187E-001  0.31099598879312546E-001  0.30243403254975803E-001  0.23534272844452534E-001  0.15434894501550632E-001  0.14420814348819979E-001  0.22651492322454142E-001  0.24032351391604537E-001  0.21140765684277495E-001  0.16099196604071279E-001 -0.10108765911018648E-001  0.12895005297611235E-005  0.14287134175241233E-005  0.13408200454764498E-005  0.11121647161251957E-005 -0.98522135613126200E-004 -0.15741947506490233E-003 
-0.17288010360917166E-003 -0.16031611742628338E-003 -0.13115222686889714E-003 -0.63189172187660264E-003 -0.10132645285806329E-002 -0.11208482266817552E-002 -0.10508783172177092E-002 -0.87265992883759941E-003 -0.91288643741089365E-003 -0.14749747732682346E-002 -0.16563179006507521E-002 -0.15880039631709412E-002 -0.13579794944413074E-002  </sparseX_slice>
        <sparseX_slice start="351" end="400">  0.48018346493995090E-004  0.77556485637423736E-004  0.87028355542544537E-004  0.83346506435708864E-004  0.71166378180561454E-004 -0.25401328297732606E-005 -0.41026746725660130E-005 -0.46037231265403154E-005 -0.44089482316049293E-005 -0.37646217560217675E-005  0.12901390886868338E-006  0.20837575481747435E-006  0.23382411619059757E-006  0.22393145542471183E-006  0.19120597040148377E-006 -0.64261174465297955E-008 -0.10379090791107571E-007 -0.11646660779747864E-007 -0.11153912358232313E-007 -0.95238725268250261E-008 -0.33231294011350535E-003 -0.48469360329302092E-003 -0.45700724556205859E-003 -0.33821294900710170E-003 -0.20592926686466661E-003 -0.12633165568269951E-002 -0.18971120300668538E-002 -0.18424625292921438E-002 -0.14307319262771157E-002 -0.93550367332792365E-003 -0.12448530537905375E-002 -0.19541145017707355E-002 -0.20705192248555225E-002 -0.18175785751580844E-002 -0.13799426371993678E-002  0.53729945065773340E-004  0.84289446180227929E-004  
0.89193308441594068E-004  0.78133212538526701E-004  0.59140891585831924E-004  0.57046978321392318E-003 -0.72770532466264936E-007 -0.80626565447534948E-007 -0.75666203977086855E-007 -0.62762216778286766E-007  0.55599171886778051E-005  0.88836714345165568E-005  0.97561406068240756E-005  0.90470843443284643E-005  0.74012458535630852E-005  </sparseX_slice>
        <sparseX_slice start="401" end="450">  0.35659657842180013E-004  0.57181674277908932E-004  0.63252813193226797E-004  0.59303985925596445E-004  0.49246366867535377E-004  0.51517082563072767E-004  0.83237421891498776E-004  0.93470966241896225E-004  0.89615479869274662E-004  0.76634155152427390E-004 -0.27098278816469363E-005 -0.43767541197467039E-005 -0.49112700404969996E-005 -0.47034751441987567E-005 -0.40160954487528793E-005  0.14334776742191870E-006  0.23152671407881790E-006  0.25980184648057008E-006  0.24880920996261642E-006  0.21244695440697237E-006 -0.72806648478896479E-008 -0.11759293060497228E-007 -0.13195393265028196E-007 -0.12637074781374738E-007 -0.10790227733038172E-007  0.36264622792710931E-009  0.58572443046961815E-009  0.65725585417323515E-009  0.62944629332466175E-009  0.53745577739590426E-009  0.18753475208986183E-004  0.27352770146716926E-004  0.25790283861238282E-004  0.19086297280236265E-004  0.11621099914932892E-004  0.71292967771476802E-004  0.10705994250478971E-003  
0.10397566361491495E-003  0.80740181454958782E-004  0.52792795429486809E-004  0.70251013623236344E-004  0.11027676958011715E-003  0.11684558410775504E-003  0.10257101366904500E-003  0.77873589839509014E-004 -0.42881098295237760E-005 -0.67270123649895510E-005 -0.71183659000536823E-005 -0.62356557577474166E-005 -0.47198916288526598E-005  </sparseX_slice>
        <sparseX_slice start="451" end="500">  0.17111394667860677E-006  0.26843630732822038E-006  0.28405232394887412E-006  0.24882762058423937E-006  0.18834157205579127E-006 -0.30181056947293562E-004  0.38499700505598616E-008  0.42655983193294665E-008  0.40031673012071666E-008  0.33204738493623569E-008 -0.29415085992520569E-006 -0.46999613446223234E-006 -0.51615465379944565E-006 -0.47864159049720755E-006 -0.39156748392545600E-006 -0.18865962680660545E-005 -0.30252318617137372E-005 -0.33464292091848995E-005 -0.31375140394315008E-005 -0.26054094605582477E-005 -0.27255431371576554E-005 -0.44037273125168644E-005 -0.49451392886998386E-005 -0.47411623662699440E-005 -0.40543773182920169E-005  0.14336512120341518E-006  0.23155488504225002E-006  0.25983377952703884E-006  0.24884026037567360E-006  0.21247401061749317E-006 -0.75839023540462414E-008 -0.12249064077155247E-007 -0.13744977397398167E-007 -0.13163405076633015E-007 -0.11239637359798885E-007  0.38518807981441367E-009  0.62213267602045418E-009  
0.69811044314943608E-009  0.66857225404129086E-009  0.57086366376741809E-009 -0.19186023131894710E-010 -0.30988113440487025E-010 -0.34772527533188142E-010 -0.33301245296597369E-010 -0.28434429910850739E-010 -0.99216421254309126E-006 -0.14471152305162334E-005 -0.13644509211435267E-005 -0.10097723575045225E-005 -0.61482146981321281E-006  </sparseX_slice>
        <sparseX_slice start="501" end="550"> -0.37717985834941769E-005 -0.56640725069474933E-005 -0.55008968012602753E-005 -0.42716092166048149E-005 -0.27930354543976733E-005 -0.37166733544113235E-005 -0.58342607339414627E-005 -0.61817879060647521E-005 -0.54265828915632444E-005 -0.41199503760599656E-005  0.22686510446176371E-006  0.35589675184748497E-006  0.37660155125173474E-006  0.32990122298929821E-006  0.24970878228844739E-006 -0.12802718759174916E-007 -0.20084362539776017E-007 -0.21252750374711509E-007 -0.18617243466201665E-007 -0.14091686688310054E-007  0.47894870876419871E-009  0.75135443234945565E-009  0.79506372665885456E-009  0.69646961512154180E-009  0.52716888670407803E-009  0.15329028973201867E-005 -0.19554087371375387E-009 -0.21665073008716293E-009 -0.20332179767779709E-009 -0.16864763857845120E-009  0.14939990544930415E-007  0.23871212910206220E-007  0.26215614835743643E-007  0.24310317631218067E-007  0.19887803519613664E-007  0.95820662955650377E-007  0.15365222940894472E-006  
0.16996591734143490E-006  0.15935506730987021E-006  0.13232935207048354E-006  0.13843096943279098E-006  0.22366633375795915E-006  0.25116477386645910E-006  0.24080473856329514E-006  0.20592276634471547E-006 -0.72815478282009554E-008 -0.11760726431434194E-007 -0.13197018055063593E-007 -0.12638654662006282E-007 -0.10791604384059275E-007  </sparseX_slice>
        <sparseX_slice start="551" end="600">  0.38518816328443246E-009  0.62213281152002328E-009  0.69811059674413312E-009  0.66857240339043222E-009  0.57086379390466437E-009 -0.19563792102836286E-010 -0.31598263216937155E-010 -0.35457191668617650E-010 -0.33956940177888748E-010 -0.28994298167144436E-010  0.97446257426616876E-012  0.15738934841876470E-011  0.17661047555517178E-011  0.16913779887669669E-011  0.14441913041147236E-011  0.50392250963268187E-007  0.73499318909890009E-007  0.69300779422736540E-007  0.51286572737356081E-007  0.31226925353212016E-007  0.19157052673282452E-006  0.28767955912423372E-006  0.27939182710352333E-006  0.21695602495434949E-006  0.14185891990702307E-006  0.18877070353497841E-006  0.29632345872998680E-006  0.31397444457532826E-006  0.27561740635408893E-006  0.20925323718972952E-006 -0.11522531385749544E-007 -0.18076078747164319E-007 -0.19127680321168210E-007 -0.16755759794016332E-007 -0.12682767091610829E-007  0.65025306150766218E-009  0.10200894415894175E-008  
0.10794321312854579E-008  0.94557412282316518E-009  0.71572004219435751E-009 -0.34402040663660079E-010 -0.53968463139007831E-010 -0.57108024625427584E-010 -0.50026183558773488E-010 -0.37865610960909694E-010  0.12355189398858946E-011  0.19382297409751592E-011  0.20509843219258134E-011  0.17966462478189833E-011  0.13599100113886449E-011  </sparseX_slice>
        <sparseX_slice start="601" end="650"> -0.76353116826759590E-007  0.97397918688611182E-011  0.10791263121666850E-010  0.10127355750098994E-010  0.84002534494832115E-011 -0.74415336122199768E-009 -0.11890130231443553E-008 -0.13057864955034609E-008 -0.12108846068703354E-008 -0.99060141918657932E-009 -0.47727786840643884E-008 -0.76533397146438132E-008 -0.84659162468965061E-008 -0.79373951817280208E-008 -0.65912579954735953E-008 -0.68951764655290718E-008 -0.11140706786769969E-007 -0.12510390159296816E-007 -0.11994362048700208E-007 -0.10256908681882636E-007  0.36269020886985557E-009  0.58579582617833946E-009  0.65733678440079075E-009  0.62952498663040317E-009  0.53752434790530826E-009 -0.19186027296938506E-010 -0.30988120201736732E-010 -0.34772535197360864E-010 -0.33301252748922454E-010 -0.28434436404527632E-010  0.97446257464427371E-012  0.15738934848014372E-011  0.17661047562474757E-011  0.16913779894434932E-011  0.14441913047042239E-011 -0.48537487212217479E-013 -0.78394837194931204E-013 
-0.87968783257356556E-013 -0.84246680856493963E-013 -0.71934437305862557E-013 -0.25100124943909818E-008 -0.36609638439752173E-008 -0.34518367188814610E-008 -0.25545582089413714E-008 -0.15553973339096068E-008 -0.95420308969120523E-008 -0.14329173116498565E-007 -0.13916365382680133E-007 -0.10806469704354707E-007 -0.70659209422289242E-008  </sparseX_slice>
        <sparseX_slice start="651" end="681"> -0.94025731216719264E-008 -0.14759721377311844E-007 -0.15638908041198100E-007 -0.13728363397075464E-007 -0.10422797747629731E-007  0.57393145160999317E-009  0.90036032599633830E-009  0.95274006771088008E-009  0.83459590774481580E-009  0.63172220440392741E-009 -0.32388775609367357E-010 -0.50810138361393903E-010 -0.53765967675237528E-010 -0.47098568079224281E-010 -0.35649652755206904E-010  0.17135482191751101E-011  0.26881418113417534E-011  0.28445217786419739E-011  0.24917788624036798E-011  0.18860669012166850E-011 -0.87031512331012576E-013 -0.13653134740094944E-012 -0.14447392228635666E-012 -0.12655802758147927E-012 -0.95793776286554181E-013  0.30653047452768021E-014  0.48087201504142133E-014  0.50884626463661503E-014  0.44574535373221139E-014  0.33739172071643341E-014  0.00000000000000000E+000  </sparseX_slice>
      </sparseX>
      <sparseX i="2" alpha="11785.424656983110" sparseCutoff="1.0000000000000000" sliced="T">
        <sparseX_slice start="1" end="50">  0.84074575966737264E+000  0.87207663772087513E-008  0.10116790950630701E-007  0.10171619595205955E-007  0.92456012897710639E-008  0.11588183428397139E-001 -0.15055895266766634E-005 -0.17312415418627298E-005 -0.17199340719779621E-005 -0.15419017980689842E-005  0.79861238445797273E-004  0.12996563173407657E-003  0.14812984131516482E-003  0.14541308708324713E-003  0.12857255468709685E-003  0.74323167422450806E-001 -0.96910529104165512E-005 -0.11224305004706643E-004 -0.11274234009045915E-004 -0.10259497268944549E-004  0.72436905201358082E-003  0.11830630750237639E-002  0.13581863152915092E-002  0.13480119344750267E-002  0.12098530854902411E-002  0.32851389092292925E-002  0.53846475441618755E-002  0.62265308956902174E-002  0.62481865007336544E-002  0.56922898204540143E-002  0.10737379392133285E+000 -0.14106936704174417E-004 -0.16586560837677108E-004 -0.17036728225093323E-004 -0.15965196125209101E-004  0.10464873337785519E-002  0.17221447525549447E-002  
0.20070409649449741E-002  0.20370087185884855E-002  0.18826986631215483E-002  0.67118590065894093E-002  0.11084957500498316E-001  0.13012418777361649E-001  0.13352670515691492E-001  0.12527089479194512E-001  0.68564910904945660E-002  0.11409872399269508E-001  0.13596900527277021E-001  0.14267644690157844E-001  0.13784256930827651E-001  </sparseX_slice>
        <sparseX_slice start="51" end="100"> -0.56479227093267550E-002  0.74176484487330409E-006  0.87151211324967910E-006  0.89417395144328898E-006  0.83667330016710519E-006 -0.55045829728257441E-004 -0.90553070593298051E-004 -0.10545649154492434E-003 -0.10691255450925753E-003 -0.98664851426839029E-004 -0.35304760613086734E-003 -0.58286444131780814E-003 -0.68371500868268304E-003 -0.70081590781910584E-003 -0.65649561795840580E-003 -0.51004366767157922E-003 -0.84845597860128455E-003 -0.10103503586540903E-002 -0.10590174150861495E-002 -0.10215979420134433E-002  0.18970676071651675E-004  0.31546257593132764E-004  0.37538255324608168E-004  0.39302839039347492E-004  0.37857040838814298E-004  0.29877067707395806E-003 -0.39238753755406133E-007 -0.46102220888985691E-007 -0.47300922744783685E-007 -0.44259081170326390E-007  0.29118811755073918E-005  0.47901833894719372E-005  0.55785552414791335E-005  0.56555690010061742E-005  0.52192602143351506E-005  0.18675941182564942E-004  0.30833052339597277E-004  
0.36167919959103824E-004  0.37072472375828747E-004  0.34727883437156960E-004  0.26980909578645302E-004  0.44882627488667764E-004  0.53446641419879229E-004  0.56020979872558360E-004  0.54041387755508386E-004 -0.14192112093866021E-005 -0.23599989079688945E-005 -0.28082612101316149E-005 -0.29402653064917380E-005 -0.28320971370728576E-005  </sparseX_slice>
        <sparseX_slice start="101" end="150">  0.53086153841886238E-007  0.88276633593881609E-007  0.10504392061023684E-006  0.10998136882559515E-006  0.10593503897949533E-006 -0.15174628843364516E-004  0.19929449894124404E-008  0.23415419992669674E-008  0.24024243236159620E-008  0.22479285072169056E-008 -0.14789508966225159E-006 -0.24329447474104645E-006 -0.28333605499415376E-006 -0.28724759990869378E-006 -0.26508737895474199E-006 -0.94855518795030837E-006 -0.15660175537564264E-005 -0.18369766570313030E-005 -0.18829190680448982E-005 -0.17638368693932655E-005 -0.13703663717004307E-005 -0.22795985856936560E-005 -0.27145667430157976E-005 -0.28453179529880631E-005 -0.27447740190914142E-005  0.72082051571122311E-007  0.11986486696222949E-006  0.14263220820250008E-006  0.14933672495805338E-006  0.14384283905789250E-006 -0.38130839356601800E-008 -0.63407534492400827E-008 -0.75451178112903605E-008 -0.78997658999104670E-008 -0.76091251966113147E-008  0.13694351585250497E-009  0.22772251652127226E-009  
0.27097619003332960E-009  0.28371305949260419E-009  0.27327495612151513E-009  0.75584057571818403E-006 -0.99267580361801299E-010 -0.11663102083433258E-009 -0.11966353856842248E-009 -0.11196818021527503E-009  0.73665794972698464E-008  0.12118374541817800E-007  0.14112825370412277E-007  0.14307657441057220E-007  0.13203868060887340E-007  </sparseX_slice>
        <sparseX_slice start="151" end="200">  0.47247053404824356E-007  0.78002541059268606E-007  0.91498876733995015E-007  0.93787244953080416E-007  0.87855820960730999E-007  0.68257254791692151E-007  0.11354565078322028E-006  0.13521119435823741E-006  0.14172384589177982E-006  0.13671580347558527E-006 -0.35903704743519152E-008 -0.59704083037624171E-008 -0.71044380377206280E-008 -0.74383866209791774E-008 -0.71647389472590728E-008  0.18992777925184064E-009  0.31582971728807097E-009  0.37581849606865352E-009  0.39348333770723082E-009  0.37900667150201190E-009 -0.96464739626295911E-011 -0.16041061255419930E-010 -0.19087904566791494E-010 -0.19985105714448111E-010 -0.19249832548850507E-010  0.33975489577730340E-012  0.56497629248730381E-012  0.67228803517040619E-012  0.70388802533793510E-012  0.67799124079634274E-012  0.17468149723762541E+000 -0.16527915398148070E-004 -0.14757776866657146E-004 -0.10145433710927194E-004 -0.56658226867593747E-005  0.17024822131047875E-002  0.20176926692504460E-002  
0.17857507058133622E-002  0.12130461113173633E-002  0.66814317307397947E-003  0.10919215366254663E-001  0.12987315644940023E-001  0.11577708886798776E-001  0.79515639265330829E-002  0.44456871818951945E-002  0.15774860264697505E-001  0.18905194456566850E-001  0.17108798516369414E-001  0.12015772732063782E-001  0.69181038709498731E-002  </sparseX_slice>
        <sparseX_slice start="201" end="250"> -0.82976663366032019E-003 -0.99406475888031169E-003 -0.89895218762253357E-003 -0.63064872794348634E-003 -0.36255068532899993E-003  0.43894003461252068E-004  0.52585212901662986E-004  0.47553776582492279E-004  0.33360697559352775E-004  0.19178525485549549E-004 -0.22293861549504626E-005 -0.26708146039199032E-005 -0.24152668341031307E-005 -0.16943972045074590E-005 -0.97408154497019417E-006  0.11104459504409828E-006  0.13303192247381382E-006  0.12030321751091414E-006  0.84397066429392856E-007  0.48518508316186548E-007  0.18146761447390913E-001  0.15662154883672848E-001  0.10763886449213583E-001  0.50596576198804338E-002  0.17360442934800237E-002  0.42044282952891571E+000 -0.48831934842283846E-004 -0.43728518883741935E-004 -0.30214270466497467E-004 -0.17014140318741530E-004  0.40977232862087513E-002  0.59612984809706516E-002  0.52913276956533381E-002  0.36125910769295483E-002  0.20063955983401719E-002  0.26281580347222201E-001  0.38371188142755475E-001  
0.34305713269774211E-001  0.23680673488522416E-001  0.13350143431554912E-001  0.37968685808150326E-001  0.55855635852735487E-001  0.50694791347029040E-001  0.35784355556876569E-001  0.20774668835832032E-001 -0.19971744965653049E-002 -0.29369768882101764E-002 -0.26636700139332941E-002 -0.18781445700950400E-002 -0.10887188981855774E-002  </sparseX_slice>
        <sparseX_slice start="251" end="300">  0.10564896286351359E-003  0.15536367583109443E-003  0.14090579062615862E-003  0.99352000883280923E-004  0.57592011214938795E-004 -0.53659342169759380E-005 -0.78909554878923411E-005 -0.71566362819170309E-005 -0.50461100898550809E-005 -0.29251109687477024E-005  0.26727446514110238E-006  0.39304449555162441E-006  0.35646842788269804E-006  0.25134418737861771E-006  0.14569829558499290E-006  0.61769512307369066E-001  0.65441367126188255E-001  0.45105337165602000E-001  0.21309714071496944E-001  0.73726366451654524E-002  0.10512819771592892E+000  0.13671721941049628E+000  0.94505430284025249E-001  0.44874964664079961E-001  0.15655064593045744E-001 -0.77540476566258154E-002  0.67649834053604090E-006  0.67504890343443702E-007 -0.60054289362909811E-006 -0.93210577123748656E-006 -0.75572561626342967E-004 -0.82585474911893851E-004 -0.81683648333926754E-005  0.71804344945000683E-004  0.10991874297276826E-003 -0.48469996915427463E-003 -0.53157928693198264E-003 
-0.52958651963186776E-004  0.47068024348468387E-003  0.73137669645838266E-003 -0.70024026701970884E-003 -0.77380192052602472E-003 -0.78258912449405903E-004  0.71125465222163751E-003  0.11381232524629191E-002  0.36833036830040622E-004  0.40687717934667145E-004  0.41119790194526569E-005 -0.37330253465140319E-004 -0.59644574997201789E-004  </sparseX_slice>
        <sparseX_slice start="301" end="350"> -0.19484387302660246E-005 -0.21523470085462447E-005 -0.21752005756846086E-006  0.19747336995756634E-005  0.31551312628758869E-005  0.98961634539872694E-007  0.10931818102322132E-006  0.11047891851153851E-007 -0.10029716118060069E-006 -0.16024981364920814E-006 -0.49292288857093018E-008 -0.54450832197470108E-008 -0.55028989660264819E-009  0.49957507910899153E-008  0.79819620404001788E-008 -0.11391887517609195E-002 -0.90659885597942135E-003 -0.69630321744102615E-004  0.42355473600117676E-003  0.40390387274671306E-003 -0.27419260181078204E-002 -0.26785577731258639E-002 -0.20632042798718076E-003  0.12613948023850357E-002  0.12129001463909658E-002  0.35757096821405233E-004  0.26239093271897551E-004  0.22521520126875160E-006  0.17728335380257000E-004  0.46985649799513620E-004  0.49303695735900921E-003 -0.43028596743062132E-007 -0.43369927318196930E-008  0.38107258513188008E-007  0.59169278495729938E-007  0.48052407586429683E-005  0.52528393403040991E-005  
0.52479366654828330E-006 -0.45563218951004897E-005 -0.69775479516897140E-005  0.30819387319553760E-004  0.33811037520412394E-004  0.34024392526639700E-005 -0.29866865307707386E-004 -0.46427168217808574E-004  0.44524401442986616E-004  0.49217579411855910E-004  0.50279073525841471E-005 -0.45132437979787794E-004 -0.72247092299449674E-004  </sparseX_slice>
        <sparseX_slice start="351" end="400"> -0.23420088724187606E-005 -0.25879374752331381E-005 -0.26418268409932030E-006  0.23687793732141288E-005  0.37861866943314038E-005  0.12389043061270550E-006  0.13689977629285624E-006  0.13975030607409034E-007 -0.12530609950221172E-006 -0.20028503861298636E-006 -0.62924224030427053E-008 -0.69531699430423951E-008 -0.70979489658615354E-009  0.63643244967087608E-008  0.10172521343914073E-007  0.31342237236052774E-009  0.34633387261417291E-009  0.35354524239906289E-010 -0.31700377921898126E-009 -0.50668813506407444E-009  0.72434705188569802E-004  0.57664112746750652E-004  0.44735455132513933E-005 -0.26876531202866072E-004 -0.25639472975610510E-004  0.17434389381347338E-003  0.17036934958554722E-003  0.13255487003294401E-004 -0.80041406420114510E-004 -0.76993865679041742E-004 -0.32153500222279547E-005 -0.23602296866809321E-005 -0.20462851691485436E-007 -0.15909137331307694E-005 -0.42180460020225657E-005  0.14456536861869050E-006  0.10615237569691967E-006  
0.92961819848042908E-009  0.71383083971964822E-007  0.18933346831528464E-006 -0.27825625055267143E-004  0.24284148812861708E-008  0.24477221993120999E-009 -0.21506591098268319E-008 -0.33393384948721627E-008 -0.27119433067757921E-006 -0.29645571058639461E-006 -0.29618428876860493E-007  0.25714511023169230E-006  0.39379210068575335E-006  </sparseX_slice>
        <sparseX_slice start="401" end="450"> -0.17393599063660278E-005 -0.19082013563348046E-005 -0.19202766999017211E-006  0.16855960901454563E-005  0.26202116026955109E-005 -0.25128325207082006E-005 -0.27777039297454219E-005 -0.28376622244974507E-006  0.25471391193447681E-005  0.40774114978526443E-005  0.13217642164009390E-006  0.14605602674476320E-006  0.14910004709010560E-007 -0.13368678663698147E-006 -0.21368114160908811E-006 -0.69920289315239524E-008 -0.77262443853208737E-008 -0.78872607746955466E-009  0.70718995521033067E-008  0.11303493238227833E-007  0.35512669762996214E-009  0.39241766266798855E-009  0.40059571983728078E-010 -0.35918334172488048E-009 -0.57410691793533447E-009 -0.17688680913398484E-010 -0.19546124991522871E-010 -0.19953469876309238E-011  0.17890740300588478E-010  0.28595974758025075E-010 -0.40880118974495508E-005 -0.32544028880735343E-005 -0.25247901805507830E-006  0.15168306230159552E-005  0.14470157702171328E-005 -0.98394810926852175E-005 -0.96151744459409454E-005 
-0.74811630562828494E-006  0.45172963523785638E-005  0.43453053014596994E-005  0.18146535022284793E-006  0.13320482953731302E-006  0.11548872558397083E-008  0.89786388383782580E-007  0.23805399940295170E-006 -0.11538376871273005E-007 -0.84724773897416780E-008 -0.74198144892394034E-010 -0.56973667483266682E-008 -0.15111464623800515E-007  </sparseX_slice>
        <sparseX_slice start="451" end="500">  0.46046346402189161E-009  0.33811241928600076E-009  0.29610891409354218E-011  0.22736470644562507E-009  0.60305334579332691E-009  0.14721321026835251E-005 -0.12847680876650650E-009 -0.12949827863200425E-010  0.11378196502586319E-009  0.17666979139759073E-009  0.14347705737545128E-007  0.15684174862482513E-007  0.15669815620480984E-008 -0.13604422851239314E-007 -0.20833817353048670E-007  0.92021924078839250E-007  0.10095458672859484E-006  0.10159344357145788E-007 -0.89177515162830617E-007 -0.13862393344568209E-006  0.13294297666465094E-006  0.14695616442725202E-006  0.15012830030906163E-007 -0.13475798785081762E-006 -0.21571800518992947E-006 -0.69928762832008026E-008 -0.77271854829617171E-008 -0.78882315352394827E-009  0.70727830422059951E-008  0.11304934426877211E-007  0.36991766519329235E-009  0.40876179355746120E-009  0.41728047967692114E-010 -0.37414326790665842E-009 -0.59801837864844477E-009 -0.18788200123543763E-010 -0.20761101981261252E-010 
-0.21193767887898258E-011  0.19002819293525187E-010  0.30373485523345279E-010  0.93583073066709402E-012  0.10340999727905180E-011  0.10556508424214886E-012 -0.94652080279345915E-012 -0.15128879276745694E-011  0.21627882710395763E-006  0.17217622109066548E-006  0.13357560853114798E-007 -0.80248872594251454E-007 -0.76555274245437512E-007  </sparseX_slice>
        <sparseX_slice start="501" end="550">  0.52056390329127925E-006  0.50869682032811632E-006  0.39579562510248949E-007 -0.23899038821600264E-006 -0.22989109440285088E-006 -0.96005378875467886E-008 -0.70472848536393631E-008 -0.61100034835371440E-010 -0.47502050214293152E-008 -0.12594395710546767E-007  0.61044504737358200E-009  0.44824171757828974E-009  0.39254994067355421E-011  0.30142275041897166E-009  0.79948148619809575E-009 -0.34451808838122381E-010 -0.25297521643112909E-010 -0.22154826248052226E-012 -0.17011393875874710E-010 -0.45120362638722662E-010  0.12888396419678779E-011  0.94637843033863271E-012  0.82881045237011341E-014  0.63639499314585880E-012  0.16879494482960277E-011 -0.74769931679253761E-007  0.65253669805494166E-011  0.65772476728248120E-012 -0.57790124511975461E-011 -0.89730997703135671E-011 -0.72872330940595570E-009 -0.79660288691329652E-009 -0.79587357771975082E-010  0.69097179883294928E-009  0.10581544259860672E-008 -0.46738149136385158E-008 -0.51275069259466487E-008 
-0.51599546137865781E-009  0.45293467235841171E-008  0.70407418015345892E-008 -0.67522046862050408E-008 -0.74639377499215625E-008 -0.76250512691285008E-009  0.68443895261536808E-008  0.10956367625216170E-007  0.35516981185539729E-009  0.39246554679558830E-009  0.40064511324735730E-010 -0.35922829471468970E-009 -0.57418024726668222E-009  </sparseX_slice>
        <sparseX_slice start="551" end="600"> -0.18788204199224316E-010 -0.20761106507849201E-010 -0.21193772557158607E-011  0.19002823543017955E-010  0.30373492455297193E-010  0.95425705142408162E-012  0.10544611953629010E-011  0.10764363973917527E-012 -0.96515760894247989E-012 -0.15426763897614964E-011 -0.47531060336075785E-013 -0.52522177985428356E-013 -0.53616751666352440E-014  0.48074011583624448E-013  0.76839929503148610E-013 -0.10984851900691468E-007 -0.87448702900355755E-008 -0.67843362061534245E-009  0.40758588921480651E-008  0.38882601734786184E-008 -0.26439561648593479E-007 -0.25836829746544386E-007 -0.20102551799296451E-008  0.12138377368530040E-007  0.11676222120741615E-007  0.48761355086777701E-009  0.35793323579541436E-009  0.31032849716285218E-011  0.24126401717830466E-009  0.63967228558739602E-009 -0.31004645848602725E-010 -0.22766301025626449E-010 -0.19937702732710774E-012 -0.15309331556626741E-010 -0.40605850515946861E-010  0.17498153789034611E-011  0.12848670044389982E-011  
0.11252487748962767E-013  0.86401264909214301E-012  0.22916737062242794E-011 -0.92575077394910678E-013 -0.67976692817939574E-013 -0.59531992406160952E-015 -0.45711129472685859E-013 -0.12124243057470771E-012  0.33247522327868060E-014  0.24413229519670557E-014  0.21380389869073282E-016  0.16416748875880487E-014  0.43543149312030881E-014  </sparseX_slice>
        <sparseX_slice start="601" end="650">  0.37242524223925313E-008 -0.32502522389029419E-012 -0.32760937489250857E-013  0.28784968284758257E-012  0.44694555425455883E-012  0.36297338908256159E-010  0.39678386279640146E-010  0.39642059758143591E-011 -0.34416955289562007E-010 -0.52706135952473695E-010  0.23280035333725356E-009  0.25539852265359079E-009  0.25701472554861506E-010 -0.22560446597069600E-009 -0.35069578266153082E-009  0.33632389510483911E-009  0.37177495848167831E-009  0.37979994126170018E-010 -0.34091557528663761E-009 -0.54573112148710940E-009 -0.17690828417998690E-010 -0.19548510083293810E-010 -0.19955930144916273E-011  0.17892979393403748E-010  0.28599627266560427E-010  0.93583093403817663E-012  0.10341001986612832E-011  0.10556510754114143E-012 -0.94652101483754220E-012 -0.15128882735698229E-011 -0.47531060354537964E-013 -0.52522178005933016E-013 -0.53616751687503182E-014  0.48074011602873966E-013  0.76839929534549186E-013  0.23674980385816303E-014  0.26161030804557749E-014  
0.26706232410488783E-015 -0.23945421651911710E-014 -0.38273579654476363E-014  0.54714990881989412E-009  0.43557755945108253E-009  0.33792434983734835E-010 -0.20301646680017076E-009 -0.19367226965098140E-009  0.13169411728122857E-008  0.12869194020837959E-008  0.10012979222178669E-009 -0.60460642805702953E-009 -0.58158670926845561E-009  </sparseX_slice>
        <sparseX_slice start="651" end="681"> -0.24287783969108835E-010 -0.17828473164644409E-010 -0.15457305247437894E-012 -0.12017238483872367E-010 -0.31861752520461328E-010  0.15443257043809788E-011  0.11339779218647167E-011  0.99308687371518017E-014  0.76255004992597061E-012  0.20225568453913923E-011 -0.87157417657893999E-013 -0.63998574644437080E-013 -0.56048071485196962E-015 -0.43036032387494750E-013 -0.11414710646454979E-012  0.46111177113304150E-014  0.33858846358112871E-014  0.29652583859460560E-016  0.22768482041582691E-014  0.60390240518287446E-014 -0.23419974037159523E-015 -0.17196986767181002E-015 -0.15060616267889078E-017 -0.11564164952087571E-015 -0.30672343530667456E-015  0.82486625393056360E-017  0.60568871814422120E-017  0.53044440199077740E-019  0.40729718182985273E-017  0.10802992807451096E-016  0.00000000000000000E+000  </sparseX_slice>
      </sparseX>
      <sparseX i="3" alpha="-338.71588909758628" sparseCutoff="1.0000000000000000" sliced="T">
        <sparseX_slice start="1" end="50">  0.96054098752969286E+000  0.10864433893286501E-014  0.13549628060764340E-014  0.15222370737488477E-014  0.16107824032480086E-014  0.21093523817456220E-005 -0.92560178209292313E-013 -0.11543677405702684E-012 -0.12968767266555578E-012 -0.13723116255256490E-012  0.23160737168638442E-011  0.39428591835926334E-011  0.49173485592863434E-011  0.55243998229487569E-011  0.58457281186939140E-011 -0.70250566583134549E-004  0.30827148854844156E-011  0.38447688994537592E-011  0.43196629662787564E-011  0.45712712181659587E-011 -0.10908576197852755E-009 -0.18571006502415872E-009 -0.23161786301266955E-009 -0.26022634806254217E-009 -0.27538346318248475E-009  0.25689388424452115E-008  0.43735049421486632E-008  0.54548537509349899E-008  0.61289691546820068E-008  0.64864504690069865E-008  0.34348196114125525E-002 -0.15073036833112801E-009 -0.18800299254116401E-009 -0.21124496982699316E-009 -0.22357947655556769E-009  0.53336212474004758E-008  0.90803553178712189E-008  
0.11325739598694173E-007  0.12725878725676707E-007  0.13468920921979758E-007 -0.17763267902143916E-006 -0.30242105239463539E-006 -0.37721819349230682E-006 -0.42387611647888289E-006 -0.44865968782284150E-006  0.61413234396619486E-005  0.10455972285531022E-004  0.13042839643245206E-004  0.14657518873623814E-004  0.15516615477070468E-004  </sparseX_slice>
        <sparseX_slice start="51" end="100">  0.35566573654994132E-001 -0.15622193876093779E-008 -0.19521519658498963E-008 -0.21996308001996413E-008 -0.23367952964860546E-008  0.55228120950869401E-007  0.94111805610381560E-007  0.11760219623873205E-006  0.13251077565316282E-006  0.14077370402735710E-006 -0.18393355333591413E-005 -0.31343918050690745E-005 -0.39168910453333246E-005 -0.44136954458113763E-005 -0.46892758869428054E-005  0.89932168083989441E-004  0.15325712848007696E-003  0.19152964904730021E-003  0.21584345087903180E-003  0.22935104879818460E-003  0.65847328639737968E-003  0.11231737608209406E-002  0.14062737665865637E-002  0.15892319733322932E-002  0.16950185967603310E-002  0.82974852785785772E-001 -0.36481056208639712E-008 -0.45675132008740382E-008 -0.51614844200990244E-008 -0.55045127657763084E-008  0.12884415715682791E-006  0.21977054552003657E-006  0.27515766864918854E-006  0.31093959221109316E-006  0.33160399289978087E-006 -0.42910682537087559E-005 -0.73194536265232945E-005 
-0.91644768793173449E-005 -0.10356838191459124E-004 -0.11045973526538096E-004  0.20980678318524961E-003  0.35788711641916926E-003  0.44812812510805380E-003  0.50648163718721199E-003  0.54025518531820892E-003  0.21724891702265582E-002  0.37092604366055853E-002  0.46531929548449683E-002  0.52738420697304288E-002  0.56466085143554003E-002  </sparseX_slice>
        <sparseX_slice start="101" end="150">  0.35838273869650940E-002  0.61248817709697598E-002  0.76984315534716439E-002  0.87505822444974880E-002  0.94052619172824356E-002 -0.35847283846169422E-002  0.15757679238307499E-009  0.19721253290695026E-009  0.22272720587356750E-009  0.23734199348982191E-009 -0.55664010461643052E-008 -0.94928001605184975E-008 -0.11880543831311487E-007 -0.13417594810315170E-007 -0.14298005304547439E-007  0.18538525412163839E-006  0.31615751963646701E-006  0.39569665563123121E-006  0.44691593431644759E-006  0.47627709996864934E-006 -0.90641960270904797E-005 -0.15458626942715821E-004 -0.19348927683994501E-004 -0.21855580816577081E-004 -0.23294567227432543E-004 -0.93857154695888267E-004 -0.16021832218095932E-003 -0.20091194669216239E-003 -0.22757563770520791E-003 -0.24346883698519420E-003 -0.21896356026104071E-003 -0.37414294455030862E-003 -0.47008019087808742E-003 -0.53401148424677444E-003 -0.57351079201032218E-003  0.66890834218988256E-005  0.11427399596532264E-004  
0.14351974445777150E-004  0.16294245190756397E-004  0.17485670864089225E-004  0.17850591343530604E-003 -0.78467257495296517E-011 -0.98204289682575872E-011 -0.11090951590521742E-010 -0.11818696541543677E-010  0.27718571581511348E-009  0.47270539226105121E-009  0.59160558956318462E-009  0.66814421668323933E-009  0.71198435371309290E-009  </sparseX_slice>
        <sparseX_slice start="151" end="200"> -0.92314843898432732E-008 -0.15743443642436711E-007 -0.19704178240218927E-007 -0.22254681340321891E-007 -0.23716723835713961E-007  0.45136267459364457E-006  0.76978090649857397E-006  0.96350250732936099E-006  0.10883232152474067E-005  0.11599777059234148E-005  0.46737312660352835E-005  0.79782639003559481E-005  0.10004645608885640E-004  0.11332384703839716E-004  0.12123789218000196E-004  0.10903557017366726E-004  0.18630897561810499E-004  0.23408193464465819E-004  0.26591702155711036E-004  0.28558578759729852E-004 -0.47106188225909730E-006 -0.80474563571228890E-006 -0.10107007732391082E-005 -0.11474791045576793E-005 -0.12313805603672601E-005  0.16586674355938382E-007  0.28336085245260005E-007  0.35587997208519861E-007  0.40404089909714002E-007  0.43358304529351739E-007  0.44652472887969454E-001 -0.17487702199845246E-008 -0.17900664211207985E-008 -0.15002445169342572E-008 -0.10800431032718125E-008  0.69336793511058848E-007  0.10535007074279113E-006  
0.10783778426049019E-006  0.90378151001668002E-007  0.65064179299490369E-007 -0.23092154119733535E-005 -0.35086820007119933E-005 -0.35916748583593896E-005 -0.30103335484278697E-005 -0.21673357904508320E-005  0.11290639734037975E-003  0.17155817192643569E-003  0.17562710250344598E-003  0.14721468424066714E-003  0.10600373034605450E-003  </sparseX_slice>
        <sparseX_slice start="201" end="250">  0.11691134182954125E-002  0.17780856323360585E-002  0.18236454046525602E-002  0.15329025536685622E-002  0.11079237785990230E-002  0.27274770607352912E-002  0.41521979826591327E-002  0.42668422362484842E-002  0.35969912076027405E-002  0.26098052285436217E-002 -0.11783406791032362E-003 -0.17935062946229809E-003 -0.18423039582324480E-003 -0.15521654935185829E-003 -0.11252882896627205E-003  0.58676908455305089E-005  0.89309801342759301E-005  0.91739682529699520E-005  0.77291825583557565E-005  0.56034925053609284E-005  0.10378751978812419E-002  0.14074351744155233E-002  0.11824449267736820E-002  0.73928484905717406E-003  0.36208897693843406E-003  0.16975026095394527E+000 -0.68447633713656427E-008 -0.72168009104601757E-008 -0.63464386384418428E-008 -0.49064628153475584E-008  0.26358985361778670E-006  0.41234479930554701E-006  0.43475695116711856E-006  0.38232393660736321E-006  0.29557614448625815E-006 -0.87786833164834944E-005 -0.13733135300334598E-004 
-0.14480134414037918E-004 -0.12734522226670848E-004 -0.98458593291370569E-005  0.42922349362342003E-003  0.67148621233435019E-003  0.70805519744611737E-003  0.62275779025688460E-003  0.48155796713619911E-003  0.44444863857444920E-002  0.69595051815744408E-002  0.73521773613365714E-002  0.64845909355152453E-002  0.50331202573934688E-002  </sparseX_slice>
        <sparseX_slice start="251" end="300">  0.10368741367747561E-001  0.16251885089062786E-001  0.17202127570254001E-001  0.15216242235442195E-001  0.11855927111018572E-001 -0.44795646205815184E-003 -0.70198623303739302E-003 -0.74274008641487697E-003 -0.65660783626474389E-003 -0.51120044496841559E-003  0.22306537304773535E-004  0.34956248107900119E-004  0.36985612187011973E-004  0.32696525318525320E-004  0.25455768876580594E-004  0.55798826663905690E-002  0.77905673837460670E-002  0.67417322251976100E-002  0.44227749469071655E-002  0.23262571737070032E-002  0.14999438580980781E-001  0.21561540191679680E-001  0.19219057212364856E-001  0.13229635543009001E-001  0.74725727416211909E-002  0.16726934321276204E+000 -0.70504277834890996E-008 -0.81100835373859164E-008 -0.80624124519278483E-008 -0.72374245337228328E-008  0.25973746045761550E-006  0.42473451186976961E-006  0.48857038404842350E-006  0.48569811240309609E-006  0.43599842089835835E-006 -0.86503819456243237E-005 -0.14145774429682860E-004 
-0.16272459388509857E-004 -0.16177729970910183E-004 -0.14523428903074774E-004  0.42295034756591909E-003  0.69166233963284551E-003  0.79569699533281577E-003  0.79114137057738907E-003  0.71033646374722139E-003  0.43795297543798278E-002  0.71686172376356381E-002  0.82622166416830081E-002  0.82379188837462015E-002  0.74242543769194981E-002  </sparseX_slice>
        <sparseX_slice start="301" end="350">  0.10217201132884744E-001  0.16740205022330718E-001  0.19331375958192190E-001  0.19330466716794652E-001  0.17488439426242185E-001 -0.44140953171617573E-003 -0.72307879359841522E-003 -0.83467511742759022E-003 -0.83414391861732411E-003 -0.75406148610592471E-003  0.21980524939120726E-004  0.36006577509677314E-004  0.41563624691830269E-004  0.41537134112679951E-004  0.37549292255074771E-004  0.54983321001471101E-002  0.80246503423753029E-002  0.75762117053542058E-002  0.56186213773546474E-002  0.34314151302791813E-002  0.20902387895808859E-001  0.31408833535599263E-001  0.30544124445843451E-001  0.23768282704266296E-001  0.15588369287978947E-001  0.14564205766369688E-001  0.22876724373513648E-001  0.24271313828103616E-001  0.21350976029285013E-001  0.16259276788631601E-001 -0.10210092037325220E-001  0.43008436916117605E-009  0.49407551462000935E-009  0.49014265169898311E-009  0.43865782406553855E-009 -0.15854330063579997E-007 -0.25909303691653410E-007 
-0.29764263563261239E-007 -0.29527311106679998E-007 -0.26425715075319231E-007  0.52801783116048093E-006  0.86290884166402621E-006  0.99133673647739582E-006  0.98350159008746678E-006  0.88026005534268021E-006 -0.25816816715624249E-004 -0.42192214451180784E-004 -0.48474766090679897E-004 -0.48096290230208568E-004 -0.43053249963421085E-004  </sparseX_slice>
        <sparseX_slice start="351" end="400"> -0.26732574549267872E-003 -0.43729406457102845E-003 -0.50334363639086758E-003 -0.50081231024034242E-003 -0.44998151692137253E-003 -0.62365620577541428E-003 -0.10211721526342456E-002 -0.11776894135341128E-002 -0.11751676401624829E-002 -0.10599683284118870E-002  0.26943562151985094E-004  0.44108655013369856E-004  0.50849357627760983E-004  0.50710567662897680E-004  0.45703408604207597E-004 -0.13416874745044266E-005 -0.21964434853396860E-005 -0.25321032963993476E-005 -0.25251897219791894E-005 -0.22758497527765547E-005 -0.33561724889942952E-003 -0.48951308859893571E-003 -0.46155143531351975E-003 -0.34157592373368253E-003 -0.20797689668476156E-003 -0.12758781741889344E-002 -0.19159757070175353E-002 -0.18607828063213700E-002 -0.14449582157279115E-002 -0.94480572760840382E-003 -0.12572310818065985E-002 -0.19735449750911465E-002 -0.20911071528001224E-002 -0.18356514219540923E-002 -0.13936639102217539E-002  0.54264201509375613E-004  0.85127566891022026E-004  
0.90080190043702432E-004  0.78910119572527093E-004  0.59728951044508752E-004  0.57618793850773694E-003 -0.24271000923957900E-010 -0.27882157000084362E-010 -0.27660112918543695E-010 -0.24754550334425236E-010  0.89471022615272630E-009  0.14621427304268370E-008  0.16796862930983440E-008  0.16663082809886233E-008  0.14912687248852859E-008  </sparseX_slice>
        <sparseX_slice start="401" end="450"> -0.29797724106646373E-007 -0.48696634416560935E-007 -0.55944092974678672E-007 -0.55501729839445914E-007 -0.49675260879670712E-007  0.14569250059477991E-005  0.23810381156741658E-005  0.27355758354513794E-005  0.27142074131260075E-005  0.24296018099083680E-005  0.15086041305247860E-004  0.24677866498485229E-004  0.28405184793739982E-004  0.28262231422275848E-004  0.25393574442495025E-004  0.35194901498403307E-004  0.57627926140272304E-004  0.66460531141175445E-004  0.66317978067078373E-004  0.59816644999926744E-004 -0.15205108314062180E-005 -0.24891888274666462E-005 -0.28695811283444855E-005 -0.28617383589392910E-005 -0.25791568431676402E-005  0.75715687697060209E-007  0.12395214912384485E-006  0.14289415192925764E-006  0.14250347854564245E-006  0.12843185318468004E-006  0.18939947853952996E-004  0.27624748718133043E-004  0.26046726061548206E-004  0.19276079296465617E-004  0.11736652750576004E-004  0.72001859756547969E-004  0.10812447856684701E-003  
0.10500953156687526E-003  0.81543010531875273E-004  0.53317733452398484E-004  0.70949545078123575E-004  0.11137329172723081E-003  0.11800742237391411E-003  0.10359091467419998E-003  0.78647915350306925E-004 -0.43307480697917095E-005 -0.67939015028397451E-005 -0.71891464088624465E-005 -0.62976591576128739E-005 -0.47668232330583239E-005  </sparseX_slice>
        <sparseX_slice start="451" end="500">  0.17281539507002708E-006  0.27110546745319991E-006  0.28687675982358261E-006  0.25130180438399229E-006  0.19021432101069550E-006 -0.30483579492105278E-004  0.12840723227862447E-011  0.14751227635540620E-011  0.14633753745165086E-011  0.13096547773089492E-011 -0.47335198254865748E-010 -0.77355565927688379E-010 -0.88864842363939431E-010 -0.88157069782492791E-010 -0.78896493105811320E-010  0.15764670358100172E-008  0.25763255773033508E-008  0.29597568449630238E-008  0.29363533304906507E-008  0.26281003632150860E-008 -0.77079519137225626E-007 -0.12597029489699893E-006 -0.14472733175882127E-006 -0.14359682122034797E-006 -0.12853958461446815E-006 -0.79813635207417931E-006 -0.13055977977751793E-005 -0.15027938725141946E-005 -0.14952308262096086E-005 -0.13434627424968827E-005 -0.18620080460587183E-005 -0.30488410926328864E-005 -0.35161355114650874E-005 -0.35085936300001916E-005 -0.31646365548318668E-005  0.80443566586661798E-007  0.13169207522808008E-006  
0.15181696467290152E-006  0.15140203711798626E-006  0.13645188603511734E-006 -0.40057853183987813E-008 -0.65577651510322423E-008 -0.75599034998964637E-008 -0.75392346336673685E-008 -0.67947665301779424E-008 -0.10020296632338343E-005 -0.14615044251374425E-005 -0.13780181543820425E-005 -0.10198128924037833E-005 -0.62093486396447491E-006  </sparseX_slice>
        <sparseX_slice start="501" end="550"> -0.38093029527008628E-005 -0.57203924460459391E-005 -0.55555942247932201E-005 -0.43140833852593396E-005 -0.28208076247748233E-005 -0.37536295933564480E-005 -0.58922729166628167E-005 -0.62432556782308092E-005 -0.54805413847835610E-005 -0.41609165455402652E-005  0.22912090695214090E-006  0.35943556307647240E-006  0.38034623785397395E-006  0.33318155119210107E-006  0.25219172780045879E-006 -0.12930020862021735E-007 -0.20284068682959006E-007 -0.21464074224346212E-007 -0.18802361509254840E-007 -0.14231805469470877E-007  0.48371107048816900E-009  0.75882542355222790E-009  0.80296933531938736E-009  0.70339486656552497E-009  0.53241071924724406E-009  0.15482680876863292E-005 -0.65218331730336037E-013 -0.74921828022104649E-013 -0.74325175401585965E-013 -0.66517670539268426E-013  0.24041657214597932E-011  0.39289071731668228E-011  0.45134659984240051E-011  0.44775180644531966E-011  0.40071712225564678E-011 -0.80069127166192354E-010 -0.13085217488477070E-009 
-0.15032673808876504E-009 -0.14913806814731713E-009 -0.13348182829041345E-009  0.39148866925316651E-008  0.63980605570052072E-008  0.73507348188482481E-008  0.72933159257506297E-008  0.65285553786993273E-008  0.40537530832258891E-007  0.66311615608174975E-007  0.76327250077755824E-007  0.75943121197187903E-007  0.68234784949063412E-007  </sparseX_slice>
        <sparseX_slice start="551" end="600">  0.94571821444870287E-007  0.15485134773480519E-006  0.17858533987889856E-006  0.17820228596426307E-006  0.16073262616837952E-006 -0.40857474443923026E-008 -0.66886711099301814E-008 -0.77108189223901171E-008 -0.76897446553449650E-008 -0.69304230068903035E-008  0.20345476738404274E-009  0.33307041623764796E-009  0.38396925589996285E-009  0.38291947937567077E-009  0.34510777135813384E-009  0.50893319496872535E-007  0.74230149449171561E-007  0.69989862352338160E-007  0.51796533838594273E-007  0.31537426063075357E-007  0.19347538236195283E-006  0.29054006192144745E-006  0.28216992195802478E-006  0.21911329785251280E-006  0.14326947489549383E-006  0.19064771950072042E-006  0.29926991097413500E-006  0.31709640701053030E-006  0.27835797076623120E-006  0.21133391845929708E-006 -0.11637104118550783E-007 -0.18255815792007988E-007 -0.19317873824069411E-007 -0.16922368425877891E-007 -0.12808876471270632E-007  0.65671876490001264E-009  0.10302325630192393E-008  
0.10901653187261791E-008  0.95497631125651346E-009  0.72283670765696954E-009 -0.34744112703285820E-010 -0.54505091254819803E-010 -0.57675870546360183E-010 -0.50523612150639485E-010 -0.38242122543455303E-010  0.12478041554024682E-011  0.19575022663244766E-011  0.20713780072045671E-011  0.18145109568484848E-011  0.13734320927050176E-011  </sparseX_slice>
        <sparseX_slice start="601" end="650"> -0.77118449175692094E-007  0.32484920672783850E-014  0.37318183022855614E-014  0.37020993374905870E-014  0.33132114751737373E-014 -0.11975027676079078E-012 -0.19569687611572102E-012 -0.22481345509472684E-012 -0.22302290671298714E-012 -0.19959516877131574E-012  0.39882026652990183E-011  0.65176805481146777E-011  0.74876986765062427E-011  0.74284916288408432E-011  0.66486622522038799E-011 -0.19499852307733017E-009 -0.31868415542022412E-009 -0.36613637782746455E-009 -0.36327637184768494E-009 -0.32518403638690813E-009 -0.20191538765532946E-008 -0.33029479834328783E-008 -0.38018216629639403E-008 -0.37826883980024554E-008 -0.33987400741249019E-008 -0.47105745210104893E-008 -0.77130671910440403E-008 -0.88952453173370919E-008 -0.88761655958840711E-008 -0.80060106906705632E-008  0.20350901057835177E-009  0.33315931985324868E-009  0.38407198462503469E-009  0.38302228605863354E-009  0.34520085938189204E-009 -0.10133978903811968E-010 -0.16590068716673908E-010 
-0.19125314137552697E-010 -0.19073025300639414E-010 -0.17189643277727127E-010 -0.25349704642345956E-008 -0.36973661429361489E-008 -0.34861595905513989E-008 -0.25799591130743146E-008 -0.15708632169844130E-008 -0.96369107908982954E-008 -0.14471653311846066E-007 -0.14054740880144705E-007 -0.10913922374650140E-007 -0.71361799716909658E-008  </sparseX_slice>
        <sparseX_slice start="651" end="681"> -0.94960663361270214E-008 -0.14906482671073638E-007 -0.15794411408671964E-007 -0.13864869522217092E-007 -0.10526435427702136E-007  0.57963826139424454E-009  0.90931293715457697E-009  0.96221350974826728E-009  0.84289459930258540E-009  0.63800364872433911E-009 -0.32710829020151796E-010 -0.51315362101836359E-010 -0.54300582304786170E-010 -0.47566886322430436E-010 -0.36004130256967565E-010  0.17305866541929913E-011  0.27148709859624973E-011  0.28728058963224618E-011  0.25165555285931104E-011  0.19048207524221254E-011 -0.87896898405805233E-013 -0.13788892839258017E-012 -0.14591047919739562E-012 -0.12781644021603956E-012 -0.96746288748188679E-013  0.30957841885325886E-014  0.48565350090129701E-014  0.51390590866476856E-014  0.45017756238505275E-014  0.34074652967054934E-014  0.00000000000000000E+000  </sparseX_slice>
      </sparseX>
      <sparseX i="4" alpha="-338.36080973483712" sparseCutoff="1.0000000000000000" sliced="T">
        <sparseX_slice start="1" end="50">  0.97999887699581434E+000  0.11084517113630096E-014  0.13824105848319718E-014  0.15530733640339842E-014  0.16434123756940353E-014  0.21520819956006867E-005 -0.94435190041106766E-013 -0.11777520210860214E-012 -0.13231478429598676E-012 -0.14001108431219995E-012  0.23629909301459402E-011  0.40227305468877431E-011  0.50169603676060036E-011  0.56363088018649477E-011  0.59641463153760497E-011 -0.71673647718924994E-004  0.31451621170716765E-011  0.39226532263482837E-011  0.44071673264465747E-011  0.46638724618791386E-011 -0.11129553618541970E-009 -0.18947203454435538E-009 -0.23630979686597683E-009 -0.26549781027239076E-009 -0.28096196639782708E-009  0.26209784000387696E-008  0.44620999910311909E-008  0.55653539198164037E-008  0.62531250271552608E-008  0.66178479188732353E-008  0.35043995056623701E-002 -0.15378374646308845E-009 -0.19181141039699542E-009 -0.21552420551451840E-009 -0.22810857505130162E-009  0.54416655828670730E-008  0.92642980671990132E-008  
0.11555167589893407E-007  0.12983669642272893E-007  0.13741763807322754E-007 -0.18123102316171288E-006 -0.30854726198497942E-006 -0.38485958517561216E-006 -0.43246266794191449E-006 -0.45774828552653035E-006  0.62657295755957871E-005  0.10667781209495760E-004  0.13307051306669684E-004  0.14954439448376222E-004  0.15830938960150167E-004  </sparseX_slice>
        <sparseX_slice start="51" end="100">  0.36287053538572395E-001 -0.15938656083959693E-008 -0.19916971364003665E-008 -0.22441892037786843E-008 -0.23841322713515574E-008  0.56346889110515879E-007  0.96018249098788457E-007  0.11998448972239832E-006  0.13519507550002337E-006  0.14362538782665581E-006 -0.18765953566918811E-005 -0.31978858673509982E-005 -0.39962363663559537E-005 -0.45031046425418451E-005 -0.47842675771141323E-005  0.91753943738276993E-004  0.15636169174658548E-003  0.19540950715750104E-003  0.22021583900584308E-003  0.23399706329875388E-003  0.67181212418718076E-003  0.11459261380469320E-002  0.14347609627235237E-002  0.16214253939927207E-002  0.17293549602544116E-002  0.84655692578084182E-001 -0.37220060965886609E-008 -0.46600383176066649E-008 -0.52660417420990809E-008 -0.56160188882133991E-008  0.13145418150858481E-006  0.22422248566434601E-006  0.28073159789514492E-006  0.31723836373092622E-006  0.33832136771682271E-006 -0.43779933645121783E-005 -0.74677254040593769E-005 
-0.93501236975662842E-005 -0.10566638934336518E-004 -0.11269734235050743E-004  0.21405688521052618E-003  0.36513691423419259E-003  0.45720595482923805E-003  0.51674154680164100E-003  0.55119925310490058E-003  0.22164977598540855E-002  0.37843997388462385E-002  0.47474537051464842E-002  0.53806754452832067E-002  0.57609931015382464E-002  </sparseX_slice>
        <sparseX_slice start="101" end="150">  0.36564257644071288E-002  0.62489548444146416E-002  0.78543803699976256E-002  0.89278447083466668E-002  0.95957863708583911E-002 -0.36573450137660324E-002  0.16076886002872668E-009  0.20120751044196009E-009  0.22723903973516207E-009  0.24214988230971582E-009 -0.56791608530715763E-008 -0.96850978954880194E-008 -0.12121210613539687E-007 -0.13689397971356486E-007 -0.14587643134076605E-007  0.18914064387613979E-006  0.32256199185663795E-006  0.40371236957508664E-006  0.45596920842288857E-006  0.48592514964768336E-006 -0.92478114341206060E-005 -0.15771775739336091E-004 -0.19740883156015943E-004 -0.22298314110905864E-004 -0.23766450385108317E-004 -0.95758439664866011E-004 -0.16346389987511074E-003 -0.20498186406363585E-003 -0.23218568731385426E-003 -0.24840083861761450E-003 -0.22339915312795733E-003 -0.38172204024128147E-003 -0.47960270841046536E-003 -0.54482907201139016E-003 -0.58512852591594542E-003  0.68245856519366130E-005  0.11658886936605456E-004  
0.14642705540037611E-004  0.16624321289508841E-004  0.17839881934029550E-004  0.18212194687663365E-003 -0.80056785941115143E-011 -0.10019363551846449E-010 -0.11315623429541839E-010 -0.12058110469657682E-010  0.28280072765733485E-009  0.48228108907364634E-009  0.60358987375168638E-009  0.68167896062902938E-009  0.72640717693044052E-009  </sparseX_slice>
        <sparseX_slice start="151" end="200"> -0.94184885939301327E-008 -0.16062362033413939E-007 -0.20103330100677235E-007 -0.22705499301497497E-007 -0.24197158712398058E-007  0.46050602729321335E-006  0.78537452716259269E-006  0.98302038895163368E-006  0.11103696173277170E-005  0.11834756287377969E-005  0.47684080654113843E-005  0.81398813421102219E-005  0.10207311909369142E-004  0.11561947306391397E-004  0.12369383475379150E-004  0.11124432763415944E-004  0.19008307740156618E-004  0.23882378373747559E-004  0.27130376098811097E-004  0.29137096153605422E-004 -0.48060428612910115E-006 -0.82104754456503254E-006 -0.10311747604862188E-005 -0.11707238404627957E-005 -0.12563249064653659E-005  0.16922674256430315E-007  0.28910095539212005E-007  0.36308911073720863E-007  0.41222564421108178E-007  0.44236623214263122E-007  0.52438204645676427E-005 -0.22994577019205058E-012 -0.28628713243806365E-012 -0.32054255449316186E-012 -0.33717759615657315E-012  0.81426553390003155E-011  0.13852479233636819E-010  
0.17246605857831978E-010  0.19310214478666136E-010  0.20312322263476633E-010 -0.27118567575824864E-009 -0.46135654404032797E-009 -0.57442019118250854E-009 -0.64318849000787147E-009 -0.67661843279638500E-009  0.13259307685814769E-007  0.22558181472642863E-007  0.28088220057575391E-007  0.31453919952886935E-007  0.33093200515273417E-007  </sparseX_slice>
        <sparseX_slice start="201" end="250">  0.13729633482202650E-006  0.23380045332573903E-006  0.29165745322173261E-006  0.32752027739191808E-006  0.34588163681714748E-006  0.32030476931493671E-006  0.54597245092661863E-006  0.68240039250407245E-006  0.76853388708298893E-006  0.81475253231234646E-006 -0.13837995003808333E-007 -0.23582811598028107E-007 -0.29464153455905165E-007 -0.33163600111353615E-007 -0.35130264647977593E-007  0.68907980556299941E-009  0.11743344449016036E-008  0.14672020173285873E-008  0.16514187476999888E-008  0.17493488244269421E-008  0.14029430905529418E-010  0.23850861831498922E-010  0.29643986778924803E-010  0.33078775162984935E-010  0.34589228191102329E-010 -0.11108306535128913E-003  0.50121068229890273E-011  0.65790891421640808E-011  0.79034326723055495E-011  0.90097672971497775E-011 -0.17249086258138566E-009 -0.30194121694100720E-009 -0.39633970403120946E-009 -0.47612080792590479E-009 -0.54276825905614492E-009  0.57446925092373070E-008  0.10056146196052560E-007  
0.13200599030297860E-007  0.15858727195884779E-007  0.18080010943629713E-007 -0.28088004769203182E-006 -0.49169860867119655E-006 -0.64548798274574488E-006 -0.77554114155234063E-006 -0.88428780310206245E-006 -0.29084324752497271E-005 -0.50961269970443470E-005 -0.67025030687939082E-005 -0.80754783566095383E-005 -0.92423491228422765E-005  </sparseX_slice>
        <sparseX_slice start="251" end="300"> -0.67852123966784856E-005 -0.11900511343034695E-004 -0.15682063579659282E-004 -0.18949296272221658E-004 -0.21771110549969554E-004  0.29313873610384826E-006  0.51403237736019779E-006  0.67710794555790774E-006  0.81769573798333115E-006  0.93872046415144072E-006 -0.14597200188454482E-007 -0.25596859985058513E-007 -0.33717382892352234E-007 -0.40718078468138129E-007 -0.46744582111292829E-007 -0.42029584235368749E-009 -0.73521433749434552E-009 -0.96341976330311327E-009 -0.11534386034935829E-008 -0.13071057749296530E-008  0.62956436468913787E-008  0.11331668555124885E-007  0.15655411791353722E-007  0.20109883232888928E-007  0.24697363835570453E-007  0.32452185150372674E-001 -0.14117632480235120E-008 -0.17305182480987876E-008 -0.18944942280687162E-008 -0.19368806591915915E-008  0.50392068237732112E-007  0.85047970483318103E-007  0.10425046316464315E-006  0.11412865268527828E-006  0.11668196399717323E-006 -0.16782740407115042E-005 -0.28325209572991425E-005 
-0.34721945567455081E-005 -0.38014200136604343E-005 -0.38867622614145489E-005  0.82057254037071290E-004  0.13849705310397167E-003  0.16978470863256287E-003  0.18590127571392698E-003  0.19010035292800918E-003  0.84967937178972953E-003  0.14354292627380787E-002  0.17629801964760647E-002  0.19357344801708394E-002  0.19868800903651116E-002  </sparseX_slice>
        <sparseX_slice start="301" end="350">  0.19822550654797783E-002  0.33520244360562153E-002  0.41249018832292574E-002  0.45422456168296294E-002  0.46802588305136185E-002 -0.85638549032693938E-004 -0.14478781962961145E-003 -0.17810180564527400E-003 -0.19600595338201430E-003 -0.20180205009040139E-003  0.42644757929097098E-005  0.72098834817249025E-005  0.88687879298374465E-005  0.97603367845776612E-005  0.10048947328750443E-004  0.12278665925233599E-006  0.20708827998910829E-006  0.25341129219395998E-006  0.27648527764490757E-006  0.28099592492025685E-006 -0.26010651177239150E-005 -0.45138842094271950E-005 -0.58235781216459068E-005 -0.68171378374563071E-005 -0.75085294036061904E-005  0.53731914686600522E-003  0.89903576675392886E-003  0.10831418103496694E-002  0.11554857817093903E-002  0.11413771562862132E-002  0.15623442138523741E+000 -0.68011848699383567E-008 -0.83478243697115411E-008 -0.91566932463168306E-008 -0.93854485213608111E-008  0.24260232668606803E-006  0.40971952689653368E-006  
0.50289244734381121E-006  0.55162008296001067E-006  0.56540012481916085E-006 -0.80797078058521746E-005 -0.13645700655217370E-004 -0.16749473961932640E-004 -0.18373472164643394E-004 -0.18833895080814969E-004  0.39504790033518112E-003  0.66721106631761104E-003  0.81902223792463191E-003  0.89852000105943573E-003  0.92116004557711139E-003  </sparseX_slice>
        <sparseX_slice start="351" end="400">  0.40906079020387922E-002  0.69151961543614309E-002  0.85044171384095167E-002  0.93560205033256169E-002  0.96277283361493275E-002  0.95431624021050706E-002  0.16148414339363440E-001  0.19898060307263835E-001  0.21954117962732313E-001  0.22678902859592669E-001 -0.41228931409078223E-003 -0.69751690277736807E-003 -0.85914297355064626E-003 -0.94735912254565228E-003 -0.97786239107733666E-003  0.20530448255776354E-004  0.34733692436445429E-004  0.42782030233913082E-004  0.47174812460752612E-004  0.48693695917856873E-004  0.59113130820698278E-006  0.99765005115080359E-006  0.12224274218783456E-005  0.13363412973276847E-005  0.13616083032973096E-005 -0.12522297089391948E-004 -0.21745686490132101E-004 -0.28092282422450082E-004 -0.32949395712375274E-004 -0.36383716185220619E-004  0.36583065327536373E-002  0.61251210467022201E-002  0.73892002847682709E-002  0.78981428176369238E-002  0.78216133518746091E-002  0.12453684896255330E-001  0.20865192033579658E-001  
0.25204585552280057E-001  0.26993261602711236E-001  0.26799921081862872E-001  0.11140692404691751E-001 -0.48854806963812856E-009 -0.60846685597805982E-009 -0.68207369220559676E-009 -0.71940025263990287E-009  0.17299375350888000E-007  0.29431295838332809E-007  0.36655465277951736E-007  0.41089674684759402E-007  0.43338258338085455E-007  </sparseX_slice>
        <sparseX_slice start="401" end="450"> -0.57614409543485788E-006 -0.98020871972365807E-006 -0.12208569933360607E-005 -0.13686231110795319E-005 -0.14436293426461847E-005  0.28169894340386617E-004  0.47927630953166637E-004  0.59697936134626138E-004  0.66929931816783343E-004  0.70607469424793643E-004  0.29169119058882219E-003  0.49673781804035954E-003  0.61988078916815743E-003  0.69692139699246221E-003  0.73797114561019797E-003  0.68049944402276137E-003  0.11599856207531953E-002  0.14503551654909839E-002  0.16353421366366383E-002  0.17383514927021527E-002 -0.29399337158237531E-004 -0.50104583673070759E-004 -0.62622307418054484E-004 -0.70567913238688112E-004 -0.74953738181720664E-004  0.14639757802415796E-005  0.24950179587433679E-005  0.31183511147212718E-005  0.35140085671380134E-005  0.37324009678972419E-005  0.42152119981796201E-007  0.71663984435777111E-007  0.89101847033394684E-007  0.99542839122818075E-007  0.10436809228235461E-006 -0.89293421280763000E-006 -0.15620532834900364E-005 
-0.20476260646852316E-005 -0.24543703043151446E-005 -0.27888336456222078E-005  0.26086484298481046E-003  0.43998452047567491E-003  0.53859344259545028E-003  0.58832542363037384E-003  0.59953134989593248E-003  0.12558805397735948E-002  0.21196302339331094E-002  0.25981138716131441E-002  0.28435639197932315E-002  0.29051199384368654E-002  </sparseX_slice>
        <sparseX_slice start="451" end="500">  0.63324066062417830E-004  0.10766333521811667E-003  0.13390808739677931E-003  0.14977544923911113E-003  0.15745796099405460E-003 -0.58667045311997011E-003  0.25726889512680587E-010  0.32041489213401793E-010  0.35917035226513534E-010  0.37881791361779625E-010 -0.91098757663606071E-009 -0.15498489162154507E-008 -0.19302541852140995E-008 -0.21637241106986280E-008 -0.22820826852948443E-008  0.30339830349217468E-007  0.51617687181479630E-007  0.64289576003617293E-007  0.72069755884451826E-007  0.76017857042982790E-007 -0.14834306591263938E-005 -0.25238639609198797E-005 -0.31436564833844368E-005 -0.35244354770495162E-005 -0.37180101279059617E-005 -0.15360499755094236E-004 -0.26158160794617936E-004 -0.32642539892826460E-004 -0.36698894345193592E-004 -0.38859687449974071E-004 -0.35835197909655181E-004 -0.61084719715545028E-004 -0.76374808149544651E-004 -0.86114802256990043E-004 -0.91537177417344326E-004  0.15481732935007113E-005  0.26385020601775170E-005  
0.32976520708406092E-005  0.37160064295391598E-005  0.39468736091849197E-005 -0.77093173669285326E-007 -0.13138738098850710E-006 -0.16421044568702674E-006 -0.18504271742843027E-006 -0.19653876159418127E-006 -0.22197366583133804E-008 -0.37738178169107012E-008 -0.46920482891801703E-008 -0.52417850155753155E-008 -0.54957588382251039E-008  </sparseX_slice>
        <sparseX_slice start="501" end="550">  0.47022043173327379E-007  0.82257560176288825E-007  0.10782672518658587E-006  0.12924366631695819E-006  0.14685290131396860E-006 -0.13737179887716601E-004 -0.23169538166329945E-004 -0.28361998376380461E-004 -0.30980384094357019E-004 -0.31569799187952201E-004 -0.66134848586541978E-004 -0.11161950322826233E-003 -0.13681507344992321E-003 -0.14973805124457248E-003 -0.15297624234210226E-003 -0.47159134254850355E-005 -0.80179400911695351E-005 -0.99723513463614848E-005 -0.11153850274184729E-004 -0.11725720634271281E-004  0.17560337498502104E-006  0.29855736484172196E-006  0.37132854821757990E-006  0.41531631709652631E-006  0.43660073941312763E-006  0.29796881177082064E-004 -0.13066638337288608E-011 -0.16273811254778340E-011 -0.18242193189642021E-011 -0.19240088325005379E-011  0.46268886442917144E-010  0.78716532193463550E-010  0.98037241885690686E-010  0.10989513189917659E-009  0.11590653675986981E-009 -0.15409542359611432E-008 -0.26216525315866563E-008 
-0.32652553024751168E-008 -0.36604090557118330E-008 -0.38609322083439914E-008  0.75343162160905297E-007  0.12818657138322911E-006  0.15966571316248465E-006  0.17900540078348327E-006  0.18883701293584944E-006  0.78015687271972707E-006  0.13285680202553996E-005  0.16579083748399578E-005  0.18639297933953330E-005  0.19736759850642935E-005  </sparseX_slice>
        <sparseX_slice start="551" end="600">  0.18200629133317915E-005  0.31024813165394803E-005  0.38790619380004731E-005  0.43737542627131889E-005  0.46491554787145527E-005 -0.78631428296149534E-007 -0.13400901867883169E-006 -0.16748711967589423E-006 -0.18873525265683637E-006 -0.20046094474024157E-006  0.39155476863909804E-008  0.66731401346213199E-008  0.83402172145480824E-008  0.93982840687639697E-008  0.99821655640457521E-008  0.11274000437627557E-009  0.19167149040727635E-009  0.23830823763486661E-009  0.26622925391711848E-009  0.27912852497008356E-009 -0.23882406650752895E-008 -0.41778458635722173E-008 -0.54764988050973722E-008 -0.65642609826302243E-008 -0.74586303616960737E-008  0.69770876417188324E-006  0.11767764443976654E-005  0.14405004877004672E-005  0.15734877563652208E-005  0.16034239748010394E-005  0.33589764313467631E-005  0.56691333763945416E-005  0.69488114840848922E-005  0.76051668558311572E-005  0.77696336643125580E-005  0.23952034951357673E-006  0.40722965490919563E-006  
0.50649382273137978E-006  0.56650191260725142E-006  0.59554707569964068E-006 -0.12613175813148365E-007 -0.21444670420857735E-007 -0.26671652199717062E-007 -0.29831188892810656E-007 -0.31359997421441567E-007  0.45298731902778465E-009  0.77016001548481213E-009  0.95788087729500524E-009  0.10713518758182115E-008  0.11262571836167292E-008  </sparseX_slice>
        <sparseX_slice start="601" end="650"> -0.14841675358093031E-005  0.65084262701253927E-013  0.81059028304261867E-013  0.90863438863179153E-013  0.95833903903341187E-013 -0.23046297620383895E-011 -0.39208305364899110E-011 -0.48831852849163498E-011 -0.54738207708224522E-011 -0.57732457969947158E-011  0.76754148784551430E-010  0.13058318266165434E-009  0.16264071018167691E-009  0.18232311816363685E-009  0.19231107465908652E-009 -0.37528046864998098E-008 -0.63849080929030437E-008 -0.79528681756449931E-008 -0.89161682047662206E-008 -0.94058758179235779E-008 -0.38859218065402849E-007 -0.66175299120378041E-007 -0.82579575108790591E-007 -0.92841397449732012E-007 -0.98307799576554623E-007 -0.90656410415704957E-007 -0.15453302052078348E-006 -0.19321410731861654E-006 -0.21785448104905616E-006 -0.23157207589310684E-006  0.39165915545960679E-008  0.66749212390309100E-008  0.83424484663488404E-008  0.94008071906882631E-008  0.99848579643170240E-008 -0.19503144394603409E-009 -0.33238572489188347E-009 
-0.41542198853955749E-009 -0.46812376177761737E-009 -0.49720660282454007E-009 -0.56155224262518838E-011 -0.95470597042610361E-011 -0.11870012424969915E-010 -0.13260744081267234E-010 -0.13903250227754280E-010  0.11895705599989482E-009  0.20809638308739194E-009  0.27278162730337661E-009  0.32696250953851350E-009  0.37151059457681797E-009  </sparseX_slice>
        <sparseX_slice start="651" end="681"> -0.34752519603628649E-007 -0.58614637729169682E-007 -0.71750598539435754E-007 -0.78374626924591710E-007 -0.79865734772999366E-007 -0.16730891207459078E-006 -0.28237665758664625E-006 -0.34611677495278234E-006 -0.37880950303796845E-006 -0.38700151130916707E-006 -0.11930387103304224E-007 -0.20283902527718407E-007 -0.25228200370495149E-007 -0.28217172884283636E-007 -0.29663897721477456E-007  0.62825588873134271E-009  0.10681481550078099E-008  0.13285014657789460E-008  0.14858763855855427E-008  0.15620255627358805E-008 -0.31908997573978358E-010 -0.54251041989548690E-010 -0.67474336045342612E-010 -0.75467376165194789E-010 -0.79334975228433120E-010  0.11238549992540791E-011  0.19107558804510644E-011  0.23764886285320787E-011  0.26580085375355242E-011  0.27942278131732598E-011  0.00000000000000000E+000  </sparseX_slice>
      </sparseX>
      <sparseX i="5" alpha="1372.9999184082058" sparseCutoff="1.0000000000000000" sliced="T">
        <sparseX_slice start="1" end="50">  0.10000000000000000E+001  0.00000000000000000E+000  0.00000000000000000E+000  0.00000000000000000E+000  0.00000000000000000E+000  0.00000000000000000E+000  0.00000000000000000E+000  0.00000000000000000E+000  0.00000000000000000E+000  0.00000000000000000E+000  0.00000000000000000E+000  0.00000000000000000E+000  0.00000000000000000E+000  0.00000000000000000E+000  0.00000000000000000E+000  0.00000000000000000E+000  0.00000000000000000E+000  0.00000000000000000E+000  0.00000000000000000E+000  0.00000000000000000E+000  0.00000000000000000E+000  0.00000000000000000E+000  0.00000000000000000E+000  0.00000000000000000E+000  0.00000000000000000E+000  0.00000000000000000E+000  0.00000000000000000E+000  0.00000000000000000E+000  0.00000000000000000E+000  0.00000000000000000E+000  0.00000000000000000E+000  0.00000000000000000E+000  0.00000000000000000E+000  0.00000000000000000E+000  0.00000000000000000E+000  0.00000000000000000E+000  0.00000000000000000E+000  
0.00000000000000000E+000  0.00000000000000000E+000  0.00000000000000000E+000  0.00000000000000000E+000  0.00000000000000000E+000  0.00000000000000000E+000  0.00000000000000000E+000  0.00000000000000000E+000  0.00000000000000000E+000  0.00000000000000000E+000  0.00000000000000000E+000  0.00000000000000000E+000  0.00000000000000000E+000  </sparseX_slice>
        <sparseX_slice start="51" end="100">  0.00000000000000000E+000  0.00000000000000000E+000  0.00000000000000000E+000  0.00000000000000000E+000  0.00000000000000000E+000  0.00000000000000000E+000  0.00000000000000000E+000  0.00000000000000000E+000  0.00000000000000000E+000  0.00000000000000000E+000  0.00000000000000000E+000  0.00000000000000000E+000  0.00000000000000000E+000  0.00000000000000000E+000  0.00000000000000000E+000  0.00000000000000000E+000  0.00000000000000000E+000  0.00000000000000000E+000  0.00000000000000000E+000  0.00000000000000000E+000  0.00000000000000000E+000  0.00000000000000000E+000  0.00000000000000000E+000  0.00000000000000000E+000  0.00000000000000000E+000  0.00000000000000000E+000  0.00000000000000000E+000  0.00000000000000000E+000  0.00000000000000000E+000  0.00000000000000000E+000  0.00000000000000000E+000  0.00000000000000000E+000  0.00000000000000000E+000  0.00000000000000000E+000  0.00000000000000000E+000  0.00000000000000000E+000  0.00000000000000000E+000  
0.00000000000000000E+000  0.00000000000000000E+000  0.00000000000000000E+000  0.00000000000000000E+000  0.00000000000000000E+000  0.00000000000000000E+000  0.00000000000000000E+000  0.00000000000000000E+000  0.00000000000000000E+000  0.00000000000000000E+000  0.00000000000000000E+000  0.00000000000000000E+000  0.00000000000000000E+000  </sparseX_slice>
        <sparseX_slice start="101" end="150">  0.00000000000000000E+000  0.00000000000000000E+000  0.00000000000000000E+000  0.00000000000000000E+000  0.00000000000000000E+000  0.00000000000000000E+000  0.00000000000000000E+000  0.00000000000000000E+000  0.00000000000000000E+000  0.00000000000000000E+000  0.00000000000000000E+000  0.00000000000000000E+000  0.00000000000000000E+000  0.00000000000000000E+000  0.00000000000000000E+000  0.00000000000000000E+000  0.00000000000000000E+000  0.00000000000000000E+000  0.00000000000000000E+000  0.00000000000000000E+000  0.00000000000000000E+000  0.00000000000000000E+000  0.00000000000000000E+000  0.00000000000000000E+000  0.00000000000000000E+000  0.00000000000000000E+000  0.00000000000000000E+000  0.00000000000000000E+000  0.00000000000000000E+000  0.00000000000000000E+000  0.00000000000000000E+000  0.00000000000000000E+000  0.00000000000000000E+000  0.00000000000000000E+000  0.00000000000000000E+000  0.00000000000000000E+000  0.00000000000000000E+000  
0.00000000000000000E+000  0.00000000000000000E+000  0.00000000000000000E+000  0.00000000000000000E+000  0.00000000000000000E+000  0.00000000000000000E+000  0.00000000000000000E+000  0.00000000000000000E+000  0.00000000000000000E+000  0.00000000000000000E+000  0.00000000000000000E+000  0.00000000000000000E+000  0.00000000000000000E+000  </sparseX_slice>
        <sparseX_slice start="151" end="200">  0.00000000000000000E+000  0.00000000000000000E+000  0.00000000000000000E+000  0.00000000000000000E+000  0.00000000000000000E+000  0.00000000000000000E+000  0.00000000000000000E+000  0.00000000000000000E+000  0.00000000000000000E+000  0.00000000000000000E+000  0.00000000000000000E+000  0.00000000000000000E+000  0.00000000000000000E+000  0.00000000000000000E+000  0.00000000000000000E+000  0.00000000000000000E+000  0.00000000000000000E+000  0.00000000000000000E+000  0.00000000000000000E+000  0.00000000000000000E+000  0.00000000000000000E+000  0.00000000000000000E+000  0.00000000000000000E+000  0.00000000000000000E+000  0.00000000000000000E+000  0.00000000000000000E+000  0.00000000000000000E+000  0.00000000000000000E+000  0.00000000000000000E+000  0.00000000000000000E+000  0.00000000000000000E+000  0.00000000000000000E+000  0.00000000000000000E+000  0.00000000000000000E+000  0.00000000000000000E+000  0.00000000000000000E+000  0.00000000000000000E+000  
0.00000000000000000E+000  0.00000000000000000E+000  0.00000000000000000E+000  0.00000000000000000E+000  0.00000000000000000E+000  0.00000000000000000E+000  0.00000000000000000E+000  0.00000000000000000E+000  0.00000000000000000E+000  0.00000000000000000E+000  0.00000000000000000E+000  0.00000000000000000E+000  0.00000000000000000E+000  </sparseX_slice>
        <sparseX_slice start="201" end="250">  0.00000000000000000E+000  0.00000000000000000E+000  0.00000000000000000E+000  0.00000000000000000E+000  0.00000000000000000E+000  0.00000000000000000E+000  0.00000000000000000E+000  0.00000000000000000E+000  0.00000000000000000E+000  0.00000000000000000E+000  0.00000000000000000E+000  0.00000000000000000E+000  0.00000000000000000E+000  0.00000000000000000E+000  0.00000000000000000E+000  0.00000000000000000E+000  0.00000000000000000E+000  0.00000000000000000E+000  0.00000000000000000E+000  0.00000000000000000E+000  0.00000000000000000E+000  0.00000000000000000E+000  0.00000000000000000E+000  0.00000000000000000E+000  0.00000000000000000E+000  0.00000000000000000E+000  0.00000000000000000E+000  0.00000000000000000E+000  0.00000000000000000E+000  0.00000000000000000E+000  0.00000000000000000E+000  0.00000000000000000E+000  0.00000000000000000E+000  0.00000000000000000E+000  0.00000000000000000E+000  0.00000000000000000E+000  0.00000000000000000E+000  
0.00000000000000000E+000  0.00000000000000000E+000  0.00000000000000000E+000  0.00000000000000000E+000  0.00000000000000000E+000  0.00000000000000000E+000  0.00000000000000000E+000  0.00000000000000000E+000  0.00000000000000000E+000  0.00000000000000000E+000  0.00000000000000000E+000  0.00000000000000000E+000  0.00000000000000000E+000  </sparseX_slice>
        <sparseX_slice start="251" end="300">  0.00000000000000000E+000  0.00000000000000000E+000  0.00000000000000000E+000  0.00000000000000000E+000  0.00000000000000000E+000  0.00000000000000000E+000  0.00000000000000000E+000  0.00000000000000000E+000  0.00000000000000000E+000  0.00000000000000000E+000  0.00000000000000000E+000  0.00000000000000000E+000  0.00000000000000000E+000  0.00000000000000000E+000  0.00000000000000000E+000  0.00000000000000000E+000  0.00000000000000000E+000  0.00000000000000000E+000  0.00000000000000000E+000  0.00000000000000000E+000  0.00000000000000000E+000  0.00000000000000000E+000  0.00000000000000000E+000  0.00000000000000000E+000  0.00000000000000000E+000  0.00000000000000000E+000  0.00000000000000000E+000  0.00000000000000000E+000  0.00000000000000000E+000  0.00000000000000000E+000  0.00000000000000000E+000  0.00000000000000000E+000  0.00000000000000000E+000  0.00000000000000000E+000  0.00000000000000000E+000  0.00000000000000000E+000  0.00000000000000000E+000  
0.00000000000000000E+000  0.00000000000000000E+000  0.00000000000000000E+000  0.00000000000000000E+000  0.00000000000000000E+000  0.00000000000000000E+000  0.00000000000000000E+000  0.00000000000000000E+000  0.00000000000000000E+000  0.00000000000000000E+000  0.00000000000000000E+000  0.00000000000000000E+000  0.00000000000000000E+000  </sparseX_slice>
        <sparseX_slice start="301" end="350">  0.00000000000000000E+000  0.00000000000000000E+000  0.00000000000000000E+000  0.00000000000000000E+000  0.00000000000000000E+000  0.00000000000000000E+000  0.00000000000000000E+000  0.00000000000000000E+000  0.00000000000000000E+000  0.00000000000000000E+000  0.00000000000000000E+000  0.00000000000000000E+000  0.00000000000000000E+000  0.00000000000000000E+000  0.00000000000000000E+000  0.00000000000000000E+000  0.00000000000000000E+000  0.00000000000000000E+000  0.00000000000000000E+000  0.00000000000000000E+000  0.00000000000000000E+000  0.00000000000000000E+000  0.00000000000000000E+000  0.00000000000000000E+000  0.00000000000000000E+000  0.00000000000000000E+000  0.00000000000000000E+000  0.00000000000000000E+000  0.00000000000000000E+000  0.00000000000000000E+000  0.00000000000000000E+000  0.00000000000000000E+000  0.00000000000000000E+000  0.00000000000000000E+000  0.00000000000000000E+000  0.00000000000000000E+000  0.00000000000000000E+000  
0.00000000000000000E+000  0.00000000000000000E+000  0.00000000000000000E+000  0.00000000000000000E+000  0.00000000000000000E+000  0.00000000000000000E+000  0.00000000000000000E+000  0.00000000000000000E+000  0.00000000000000000E+000  0.00000000000000000E+000  0.00000000000000000E+000  0.00000000000000000E+000  0.00000000000000000E+000  </sparseX_slice>
        <sparseX_slice start="351" end="400">  0.00000000000000000E+000  0.00000000000000000E+000  0.00000000000000000E+000  0.00000000000000000E+000  0.00000000000000000E+000  0.00000000000000000E+000  0.00000000000000000E+000  0.00000000000000000E+000  0.00000000000000000E+000  0.00000000000000000E+000  0.00000000000000000E+000  0.00000000000000000E+000  0.00000000000000000E+000  0.00000000000000000E+000  0.00000000000000000E+000  0.00000000000000000E+000  0.00000000000000000E+000  0.00000000000000000E+000  0.00000000000000000E+000  0.00000000000000000E+000  0.00000000000000000E+000  0.00000000000000000E+000  0.00000000000000000E+000  0.00000000000000000E+000  0.00000000000000000E+000  0.00000000000000000E+000  0.00000000000000000E+000  0.00000000000000000E+000  0.00000000000000000E+000  0.00000000000000000E+000  0.00000000000000000E+000  0.00000000000000000E+000  0.00000000000000000E+000  0.00000000000000000E+000  0.00000000000000000E+000  0.00000000000000000E+000  0.00000000000000000E+000  
0.00000000000000000E+000  0.00000000000000000E+000  0.00000000000000000E+000  0.00000000000000000E+000  0.00000000000000000E+000  0.00000000000000000E+000  0.00000000000000000E+000  0.00000000000000000E+000  0.00000000000000000E+000  0.00000000000000000E+000  0.00000000000000000E+000  0.00000000000000000E+000  0.00000000000000000E+000  </sparseX_slice>
        <sparseX_slice start="401" end="450">  0.00000000000000000E+000  0.00000000000000000E+000  0.00000000000000000E+000  0.00000000000000000E+000  0.00000000000000000E+000  0.00000000000000000E+000  0.00000000000000000E+000  0.00000000000000000E+000  0.00000000000000000E+000  0.00000000000000000E+000  0.00000000000000000E+000  0.00000000000000000E+000  0.00000000000000000E+000  0.00000000000000000E+000  0.00000000000000000E+000  0.00000000000000000E+000  0.00000000000000000E+000  0.00000000000000000E+000  0.00000000000000000E+000  0.00000000000000000E+000  0.00000000000000000E+000  0.00000000000000000E+000  0.00000000000000000E+000  0.00000000000000000E+000  0.00000000000000000E+000  0.00000000000000000E+000  0.00000000000000000E+000  0.00000000000000000E+000  0.00000000000000000E+000  0.00000000000000000E+000  0.00000000000000000E+000  0.00000000000000000E+000  0.00000000000000000E+000  0.00000000000000000E+000  0.00000000000000000E+000  0.00000000000000000E+000  0.00000000000000000E+000  
0.00000000000000000E+000  0.00000000000000000E+000  0.00000000000000000E+000  0.00000000000000000E+000  0.00000000000000000E+000  0.00000000000000000E+000  0.00000000000000000E+000  0.00000000000000000E+000  0.00000000000000000E+000  0.00000000000000000E+000  0.00000000000000000E+000  0.00000000000000000E+000  0.00000000000000000E+000  </sparseX_slice>
        <sparseX_slice start="451" end="500">  0.00000000000000000E+000  0.00000000000000000E+000  0.00000000000000000E+000  0.00000000000000000E+000  0.00000000000000000E+000  0.00000000000000000E+000  0.00000000000000000E+000  0.00000000000000000E+000  0.00000000000000000E+000  0.00000000000000000E+000  0.00000000000000000E+000  0.00000000000000000E+000  0.00000000000000000E+000  0.00000000000000000E+000  0.00000000000000000E+000  0.00000000000000000E+000  0.00000000000000000E+000  0.00000000000000000E+000  0.00000000000000000E+000  0.00000000000000000E+000  0.00000000000000000E+000  0.00000000000000000E+000  0.00000000000000000E+000  0.00000000000000000E+000  0.00000000000000000E+000  0.00000000000000000E+000  0.00000000000000000E+000  0.00000000000000000E+000  0.00000000000000000E+000  0.00000000000000000E+000  0.00000000000000000E+000  0.00000000000000000E+000  0.00000000000000000E+000  0.00000000000000000E+000  0.00000000000000000E+000  0.00000000000000000E+000  0.00000000000000000E+000  
0.00000000000000000E+000  0.00000000000000000E+000  0.00000000000000000E+000  0.00000000000000000E+000  0.00000000000000000E+000  0.00000000000000000E+000  0.00000000000000000E+000  0.00000000000000000E+000  0.00000000000000000E+000  0.00000000000000000E+000  0.00000000000000000E+000  0.00000000000000000E+000  0.00000000000000000E+000  </sparseX_slice>
        <sparseX_slice start="501" end="550">  0.00000000000000000E+000  0.00000000000000000E+000  0.00000000000000000E+000  0.00000000000000000E+000  0.00000000000000000E+000  0.00000000000000000E+000  0.00000000000000000E+000  0.00000000000000000E+000  0.00000000000000000E+000  0.00000000000000000E+000  0.00000000000000000E+000  0.00000000000000000E+000  0.00000000000000000E+000  0.00000000000000000E+000  0.00000000000000000E+000  0.00000000000000000E+000  0.00000000000000000E+000  0.00000000000000000E+000  0.00000000000000000E+000  0.00000000000000000E+000  0.00000000000000000E+000  0.00000000000000000E+000  0.00000000000000000E+000  0.00000000000000000E+000  0.00000000000000000E+000  0.00000000000000000E+000  0.00000000000000000E+000  0.00000000000000000E+000  0.00000000000000000E+000  0.00000000000000000E+000  0.00000000000000000E+000  0.00000000000000000E+000  0.00000000000000000E+000  0.00000000000000000E+000  0.00000000000000000E+000  0.00000000000000000E+000  0.00000000000000000E+000  
0.00000000000000000E+000  0.00000000000000000E+000  0.00000000000000000E+000  0.00000000000000000E+000  0.00000000000000000E+000  0.00000000000000000E+000  0.00000000000000000E+000  0.00000000000000000E+000  0.00000000000000000E+000  0.00000000000000000E+000  0.00000000000000000E+000  0.00000000000000000E+000  0.00000000000000000E+000  </sparseX_slice>
        <sparseX_slice start="551" end="600">  0.00000000000000000E+000  0.00000000000000000E+000  0.00000000000000000E+000  0.00000000000000000E+000  0.00000000000000000E+000  0.00000000000000000E+000  0.00000000000000000E+000  0.00000000000000000E+000  0.00000000000000000E+000  0.00000000000000000E+000  0.00000000000000000E+000  0.00000000000000000E+000  0.00000000000000000E+000  0.00000000000000000E+000  0.00000000000000000E+000  0.00000000000000000E+000  0.00000000000000000E+000  0.00000000000000000E+000  0.00000000000000000E+000  0.00000000000000000E+000  0.00000000000000000E+000  0.00000000000000000E+000  0.00000000000000000E+000  0.00000000000000000E+000  0.00000000000000000E+000  0.00000000000000000E+000  0.00000000000000000E+000  0.00000000000000000E+000  0.00000000000000000E+000  0.00000000000000000E+000  0.00000000000000000E+000  0.00000000000000000E+000  0.00000000000000000E+000  0.00000000000000000E+000  0.00000000000000000E+000  0.00000000000000000E+000  0.00000000000000000E+000  
0.00000000000000000E+000  0.00000000000000000E+000  0.00000000000000000E+000  0.00000000000000000E+000  0.00000000000000000E+000  0.00000000000000000E+000  0.00000000000000000E+000  0.00000000000000000E+000  0.00000000000000000E+000  0.00000000000000000E+000  0.00000000000000000E+000  0.00000000000000000E+000  0.00000000000000000E+000  </sparseX_slice>
        <sparseX_slice start="601" end="650">  0.00000000000000000E+000  0.00000000000000000E+000  0.00000000000000000E+000  0.00000000000000000E+000  0.00000000000000000E+000  0.00000000000000000E+000  0.00000000000000000E+000  0.00000000000000000E+000  0.00000000000000000E+000  0.00000000000000000E+000  0.00000000000000000E+000  0.00000000000000000E+000  0.00000000000000000E+000  0.00000000000000000E+000  0.00000000000000000E+000  0.00000000000000000E+000  0.00000000000000000E+000  0.00000000000000000E+000  0.00000000000000000E+000  0.00000000000000000E+000  0.00000000000000000E+000  0.00000000000000000E+000  0.00000000000000000E+000  0.00000000000000000E+000  0.00000000000000000E+000  0.00000000000000000E+000  0.00000000000000000E+000  0.00000000000000000E+000  0.00000000000000000E+000  0.00000000000000000E+000  0.00000000000000000E+000  0.00000000000000000E+000  0.00000000000000000E+000  0.00000000000000000E+000  0.00000000000000000E+000  0.00000000000000000E+000  0.00000000000000000E+000  
0.00000000000000000E+000  0.00000000000000000E+000  0.00000000000000000E+000  0.00000000000000000E+000  0.00000000000000000E+000  0.00000000000000000E+000  0.00000000000000000E+000  0.00000000000000000E+000  0.00000000000000000E+000  0.00000000000000000E+000  0.00000000000000000E+000  0.00000000000000000E+000  0.00000000000000000E+000  </sparseX_slice>
