<GAP_2023_3_22_60_12_47_47_281>
<Potential label="GAP_2023_3_22_60_12_47_47_281" init_args="IP GAP label=GAP_2023_3_22_60_12_47_47_281"/>
<GAP_params label="GAP_2023_3_22_60_12_47_47_281" gap_version="1662319253">
  <GAP_data do_core="F">
    <e0 Z="1" value=".00000000000000000E+000"/>
    <e0 Z="2" value=".00000000000000000E+000"/>
    <e0 Z="3" value=".00000000000000000E+000"/>
    <e0 Z="4" value=".00000000000000000E+000"/>
    <e0 Z="5" value=".00000000000000000E+000"/>
    <e0 Z="6" value="-72.903018380850213"/>
    <e0 Z="7" value=".00000000000000000E+000"/>
    <e0 Z="8" value="-72.903018380850213"/>
    <e0 Z="9" value=".00000000000000000E+000"/>
    <e0 Z="10" value=".00000000000000000E+000"/>
    <e0 Z="11" value=".00000000000000000E+000"/>
    <e0 Z="12" value=".00000000000000000E+000"/>
    <e0 Z="13" value=".00000000000000000E+000"/>
    <e0 Z="14" value=".00000000000000000E+000"/>
    <e0 Z="15" value=".00000000000000000E+000"/>
    <e0 Z="16" value=".00000000000000000E+000"/>
    <e0 Z="17" value=".00000000000000000E+000"/>
    <e0 Z="18" value=".00000000000000000E+000"/>
    <e0 Z="19" value=".00000000000000000E+000"/>
    <e0 Z="20" value=".00000000000000000E+000"/>
    <e0 Z="21" value=".00000000000000000E+000"/>
    <e0 Z="22" value=".00000000000000000E+000"/>
    <e0 Z="23" value=".00000000000000000E+000"/>
    <e0 Z="24" value=".00000000000000000E+000"/>
    <e0 Z="25" value=".00000000000000000E+000"/>
    <e0 Z="26" value=".00000000000000000E+000"/>
    <e0 Z="27" value=".00000000000000000E+000"/>
    <e0 Z="28" value=".00000000000000000E+000"/>
    <e0 Z="29" value=".00000000000000000E+000"/>
    <e0 Z="30" value=".00000000000000000E+000"/>
    <e0 Z="31" value=".00000000000000000E+000"/>
    <e0 Z="32" value=".00000000000000000E+000"/>
    <e0 Z="33" value=".00000000000000000E+000"/>
    <e0 Z="34" value=".00000000000000000E+000"/>
    <e0 Z="35" value=".00000000000000000E+000"/>
    <e0 Z="36" value=".00000000000000000E+000"/>
    <e0 Z="37" value=".00000000000000000E+000"/>
    <e0 Z="38" value=".00000000000000000E+000"/>
    <e0 Z="39" value=".00000000000000000E+000"/>
    <e0 Z="40" value=".00000000000000000E+000"/>
    <e0 Z="41" value=".00000000000000000E+000"/>
    <e0 Z="42" value=".00000000000000000E+000"/>
    <e0 Z="43" value=".00000000000000000E+000"/>
    <e0 Z="44" value=".00000000000000000E+000"/>
    <e0 Z="45" value=".00000000000000000E+000"/>
    <e0 Z="46" value=".00000000000000000E+000"/>
    <e0 Z="47" value=".00000000000000000E+000"/>
    <e0 Z="48" value=".00000000000000000E+000"/>
    <e0 Z="49" value=".00000000000000000E+000"/>
    <e0 Z="50" value=".00000000000000000E+000"/>
    <e0 Z="51" value=".00000000000000000E+000"/>
    <e0 Z="52" value=".00000000000000000E+000"/>
    <e0 Z="53" value=".00000000000000000E+000"/>
    <e0 Z="54" value=".00000000000000000E+000"/>
    <e0 Z="55" value=".00000000000000000E+000"/>
    <e0 Z="56" value=".00000000000000000E+000"/>
    <e0 Z="57" value=".00000000000000000E+000"/>
    <e0 Z="58" value=".00000000000000000E+000"/>
    <e0 Z="59" value=".00000000000000000E+000"/>
    <e0 Z="60" value=".00000000000000000E+000"/>
    <e0 Z="61" value=".00000000000000000E+000"/>
    <e0 Z="62" value=".00000000000000000E+000"/>
    <e0 Z="63" value=".00000000000000000E+000"/>
    <e0 Z="64" value=".00000000000000000E+000"/>
    <e0 Z="65" value=".00000000000000000E+000"/>
    <e0 Z="66" value=".00000000000000000E+000"/>
    <e0 Z="67" value=".00000000000000000E+000"/>
    <e0 Z="68" value=".00000000000000000E+000"/>
    <e0 Z="69" value=".00000000000000000E+000"/>
    <e0 Z="70" value=".00000000000000000E+000"/>
    <e0 Z="71" value=".00000000000000000E+000"/>
    <e0 Z="72" value=".00000000000000000E+000"/>
    <e0 Z="73" value=".00000000000000000E+000"/>
    <e0 Z="74" value=".00000000000000000E+000"/>
    <e0 Z="75" value=".00000000000000000E+000"/>
    <e0 Z="76" value=".00000000000000000E+000"/>
    <e0 Z="77" value=".00000000000000000E+000"/>
    <e0 Z="78" value=".00000000000000000E+000"/>
    <e0 Z="79" value=".00000000000000000E+000"/>
    <e0 Z="80" value=".00000000000000000E+000"/>
    <e0 Z="81" value=".00000000000000000E+000"/>
    <e0 Z="82" value=".00000000000000000E+000"/>
    <e0 Z="83" value=".00000000000000000E+000"/>
    <e0 Z="84" value=".00000000000000000E+000"/>
    <e0 Z="85" value=".00000000000000000E+000"/>
    <e0 Z="86" value=".00000000000000000E+000"/>
    <e0 Z="87" value=".00000000000000000E+000"/>
    <e0 Z="88" value=".00000000000000000E+000"/>
    <e0 Z="89" value=".00000000000000000E+000"/>
    <e0 Z="90" value=".00000000000000000E+000"/>
    <e0 Z="91" value=".00000000000000000E+000"/>
    <e0 Z="92" value=".00000000000000000E+000"/>
    <e0 Z="93" value=".00000000000000000E+000"/>
    <e0 Z="94" value=".00000000000000000E+000"/>
    <e0 Z="95" value=".00000000000000000E+000"/>
    <e0 Z="96" value=".00000000000000000E+000"/>
    <e0 Z="97" value=".00000000000000000E+000"/>
    <e0 Z="98" value=".00000000000000000E+000"/>
    <e0 Z="99" value=".00000000000000000E+000"/>
    <e0 Z="100" value=".00000000000000000E+000"/>
    <e0 Z="101" value=".00000000000000000E+000"/>
    <e0 Z="102" value=".00000000000000000E+000"/>
    <e0 Z="103" value=".00000000000000000E+000"/>
    <e0 Z="104" value=".00000000000000000E+000"/>
    <e0 Z="105" value=".00000000000000000E+000"/>
    <e0 Z="106" value=".00000000000000000E+000"/>
    <e0 Z="107" value=".00000000000000000E+000"/>
    <e0 Z="108" value=".00000000000000000E+000"/>
    <e0 Z="109" value=".00000000000000000E+000"/>
    <e0 Z="110" value=".00000000000000000E+000"/>
    <e0 Z="111" value=".00000000000000000E+000"/>
    <e0 Z="112" value=".00000000000000000E+000"/>
    <e0 Z="113" value=".00000000000000000E+000"/>
    <e0 Z="114" value=".00000000000000000E+000"/>
    <e0 Z="115" value=".00000000000000000E+000"/>
    <e0 Z="116" value=".00000000000000000E+000"/>
    <e0 Z="117" value=".00000000000000000E+000"/>
    <e0 Z="118" value=".00000000000000000E+000"/>
  </GAP_data>
  <gpSparse label="GAP_2023_3_22_60_12_47_47_281" n_coordinate="2" fitted="T">
    <gpCoordinates label="GAP_2023_3_22_60_12_47_47_2811" dimensions="681" signal_variance=".72770126504682189E-001" signal_mean=".00000000000000000E+000" sparsified="T" n_permutations="1" covariance_type="2" zeta="4.0000000000000000" n_sparseX="16">
      <descriptor> soap=T l_max=4 n_max=8 cutoff=4 delta=0.07277012650468219 covariance_type=dot_product zeta=4 n_sparse=1000 sparse_method=cur_points atom_gaussian_width=0.3 cutoff_transition_width=0.5               n_species=2 Z=8 species_Z={8 6 }</descriptor>
      <permutation i="1">1  </permutation>
      <sparseX i="1" alpha="1893.9095980454622" sparseCutoff="1.0000000000000000" sliced="T">
        <sparseX_slice start="1" end="50">  0.99628291162238924E+000  0.00000000000000000E+000  0.00000000000000000E+000  0.00000000000000000E+000  0.00000000000000000E+000  0.00000000000000000E+000  0.00000000000000000E+000  0.00000000000000000E+000  0.00000000000000000E+000  0.00000000000000000E+000  0.00000000000000000E+000  0.00000000000000000E+000  0.00000000000000000E+000  0.00000000000000000E+000  0.00000000000000000E+000  0.00000000000000000E+000  0.00000000000000000E+000  0.00000000000000000E+000  0.00000000000000000E+000  0.00000000000000000E+000  0.00000000000000000E+000  0.00000000000000000E+000  0.00000000000000000E+000  0.00000000000000000E+000  0.00000000000000000E+000  0.00000000000000000E+000  0.00000000000000000E+000  0.00000000000000000E+000  0.00000000000000000E+000  0.00000000000000000E+000  0.00000000000000000E+000  0.00000000000000000E+000  0.00000000000000000E+000  0.00000000000000000E+000  0.00000000000000000E+000  0.00000000000000000E+000  0.00000000000000000E+000  
0.00000000000000000E+000  0.00000000000000000E+000  0.00000000000000000E+000  0.00000000000000000E+000  0.00000000000000000E+000  0.00000000000000000E+000  0.00000000000000000E+000  0.00000000000000000E+000  0.00000000000000000E+000  0.00000000000000000E+000  0.00000000000000000E+000  0.00000000000000000E+000  0.00000000000000000E+000  </sparseX_slice>
        <sparseX_slice start="51" end="100">  0.00000000000000000E+000  0.00000000000000000E+000  0.00000000000000000E+000  0.00000000000000000E+000  0.00000000000000000E+000  0.00000000000000000E+000  0.00000000000000000E+000  0.00000000000000000E+000  0.00000000000000000E+000  0.00000000000000000E+000  0.00000000000000000E+000  0.00000000000000000E+000  0.00000000000000000E+000  0.00000000000000000E+000  0.00000000000000000E+000  0.00000000000000000E+000  0.00000000000000000E+000  0.00000000000000000E+000  0.00000000000000000E+000  0.00000000000000000E+000  0.00000000000000000E+000  0.00000000000000000E+000  0.00000000000000000E+000  0.00000000000000000E+000  0.00000000000000000E+000  0.00000000000000000E+000  0.00000000000000000E+000  0.00000000000000000E+000  0.00000000000000000E+000  0.00000000000000000E+000  0.00000000000000000E+000  0.00000000000000000E+000  0.00000000000000000E+000  0.00000000000000000E+000  0.00000000000000000E+000  0.00000000000000000E+000  0.00000000000000000E+000  
0.00000000000000000E+000  0.00000000000000000E+000  0.00000000000000000E+000  0.00000000000000000E+000  0.00000000000000000E+000  0.00000000000000000E+000  0.00000000000000000E+000  0.00000000000000000E+000  0.00000000000000000E+000  0.00000000000000000E+000  0.00000000000000000E+000  0.00000000000000000E+000  0.00000000000000000E+000  </sparseX_slice>
        <sparseX_slice start="101" end="150">  0.00000000000000000E+000  0.00000000000000000E+000  0.00000000000000000E+000  0.00000000000000000E+000  0.00000000000000000E+000  0.00000000000000000E+000  0.00000000000000000E+000  0.00000000000000000E+000  0.00000000000000000E+000  0.00000000000000000E+000  0.00000000000000000E+000  0.00000000000000000E+000  0.00000000000000000E+000  0.00000000000000000E+000  0.00000000000000000E+000  0.00000000000000000E+000  0.00000000000000000E+000  0.00000000000000000E+000  0.00000000000000000E+000  0.00000000000000000E+000  0.00000000000000000E+000  0.00000000000000000E+000  0.00000000000000000E+000  0.00000000000000000E+000  0.00000000000000000E+000  0.00000000000000000E+000  0.00000000000000000E+000  0.00000000000000000E+000  0.00000000000000000E+000  0.00000000000000000E+000  0.00000000000000000E+000  0.00000000000000000E+000  0.00000000000000000E+000  0.00000000000000000E+000  0.00000000000000000E+000  0.00000000000000000E+000  0.00000000000000000E+000  
0.00000000000000000E+000  0.00000000000000000E+000  0.00000000000000000E+000  0.00000000000000000E+000  0.00000000000000000E+000  0.00000000000000000E+000  0.00000000000000000E+000  0.00000000000000000E+000  0.00000000000000000E+000  0.00000000000000000E+000  0.00000000000000000E+000  0.00000000000000000E+000  0.00000000000000000E+000  </sparseX_slice>
        <sparseX_slice start="151" end="200">  0.00000000000000000E+000  0.00000000000000000E+000  0.00000000000000000E+000  0.00000000000000000E+000  0.00000000000000000E+000  0.00000000000000000E+000  0.00000000000000000E+000  0.00000000000000000E+000  0.00000000000000000E+000  0.00000000000000000E+000  0.00000000000000000E+000  0.00000000000000000E+000  0.00000000000000000E+000  0.00000000000000000E+000  0.00000000000000000E+000  0.00000000000000000E+000  0.00000000000000000E+000  0.00000000000000000E+000  0.00000000000000000E+000  0.00000000000000000E+000  0.00000000000000000E+000  0.00000000000000000E+000  0.00000000000000000E+000  0.00000000000000000E+000  0.00000000000000000E+000  0.00000000000000000E+000  0.00000000000000000E+000  0.00000000000000000E+000  0.00000000000000000E+000  0.00000000000000000E+000 -0.83002325393465947E-007  0.00000000000000000E+000  0.00000000000000000E+000  0.00000000000000000E+000  0.00000000000000000E+000  0.00000000000000000E+000  0.00000000000000000E+000  
0.00000000000000000E+000  0.00000000000000000E+000  0.00000000000000000E+000  0.00000000000000000E+000  0.00000000000000000E+000  0.00000000000000000E+000  0.00000000000000000E+000  0.00000000000000000E+000  0.00000000000000000E+000  0.00000000000000000E+000  0.00000000000000000E+000  0.00000000000000000E+000  0.00000000000000000E+000  </sparseX_slice>
        <sparseX_slice start="201" end="250">  0.00000000000000000E+000  0.00000000000000000E+000  0.00000000000000000E+000  0.00000000000000000E+000  0.00000000000000000E+000  0.00000000000000000E+000  0.00000000000000000E+000  0.00000000000000000E+000  0.00000000000000000E+000  0.00000000000000000E+000  0.00000000000000000E+000  0.00000000000000000E+000  0.00000000000000000E+000  0.00000000000000000E+000  0.00000000000000000E+000  0.00000000000000000E+000  0.00000000000000000E+000  0.00000000000000000E+000  0.00000000000000000E+000  0.00000000000000000E+000  0.34575450107358728E-014  0.58856244151429088E-014  0.73391247536995809E-014  0.82432283095215534E-014  0.87200292743490714E-014  0.50012499606489793E-005  0.00000000000000000E+000  0.00000000000000000E+000  0.00000000000000000E+000  0.00000000000000000E+000  0.00000000000000000E+000  0.00000000000000000E+000  0.00000000000000000E+000  0.00000000000000000E+000  0.00000000000000000E+000  0.00000000000000000E+000  0.00000000000000000E+000  
0.00000000000000000E+000  0.00000000000000000E+000  0.00000000000000000E+000  0.00000000000000000E+000  0.00000000000000000E+000  0.00000000000000000E+000  0.00000000000000000E+000  0.00000000000000000E+000  0.00000000000000000E+000  0.00000000000000000E+000  0.00000000000000000E+000  0.00000000000000000E+000  0.00000000000000000E+000  </sparseX_slice>
        <sparseX_slice start="251" end="300">  0.00000000000000000E+000  0.00000000000000000E+000  0.00000000000000000E+000  0.00000000000000000E+000  0.00000000000000000E+000  0.00000000000000000E+000  0.00000000000000000E+000  0.00000000000000000E+000  0.00000000000000000E+000  0.00000000000000000E+000  0.00000000000000000E+000  0.00000000000000000E+000  0.00000000000000000E+000  0.00000000000000000E+000  0.00000000000000000E+000 -0.29462604883608490E-012 -0.50152828604356093E-012 -0.62538338468129335E-012 -0.70242211881128322E-012 -0.74304854417686187E-012  0.12552910863521687E-010  0.21368218897440841E-010  0.26645164850091864E-010  0.29927403104037634E-010  0.31658215909175848E-010 -0.16443504527811236E-003  0.00000000000000000E+000  0.00000000000000000E+000  0.00000000000000000E+000  0.00000000000000000E+000  0.00000000000000000E+000  0.00000000000000000E+000  0.00000000000000000E+000  0.00000000000000000E+000  0.00000000000000000E+000  0.00000000000000000E+000  0.00000000000000000E+000  
0.00000000000000000E+000  0.00000000000000000E+000  0.00000000000000000E+000  0.00000000000000000E+000  0.00000000000000000E+000  0.00000000000000000E+000  0.00000000000000000E+000  0.00000000000000000E+000  0.00000000000000000E+000  0.00000000000000000E+000  0.00000000000000000E+000  0.00000000000000000E+000  0.00000000000000000E+000  </sparseX_slice>
        <sparseX_slice start="301" end="350">  0.00000000000000000E+000  0.00000000000000000E+000  0.00000000000000000E+000  0.00000000000000000E+000  0.00000000000000000E+000  0.00000000000000000E+000  0.00000000000000000E+000  0.00000000000000000E+000  0.00000000000000000E+000  0.00000000000000000E+000  0.00000000000000000E+000  0.00000000000000000E+000  0.00000000000000000E+000  0.00000000000000000E+000  0.00000000000000000E+000  0.96869478753640072E-011  0.16490695250821528E-010  0.20565772213073785E-010  0.23103559661209513E-010  0.24445899615682409E-010 -0.58368060714943244E-009 -0.99363494251361524E-009 -0.12391734274718798E-008 -0.13920817854645535E-008 -0.14729576859108813E-008  0.13569882510372275E-007  0.23102309175199441E-007  0.28814811092210438E-007  0.32376542840777409E-007  0.34266055148343003E-007  0.81025057650158331E-002  0.00000000000000000E+000  0.00000000000000000E+000  0.00000000000000000E+000  0.00000000000000000E+000  0.00000000000000000E+000  0.00000000000000000E+000  
0.00000000000000000E+000  0.00000000000000000E+000  0.00000000000000000E+000  0.00000000000000000E+000  0.00000000000000000E+000  0.00000000000000000E+000  0.00000000000000000E+000  0.00000000000000000E+000  0.00000000000000000E+000  0.00000000000000000E+000  0.00000000000000000E+000  0.00000000000000000E+000  0.00000000000000000E+000  </sparseX_slice>
        <sparseX_slice start="351" end="400">  0.00000000000000000E+000  0.00000000000000000E+000  0.00000000000000000E+000  0.00000000000000000E+000  0.00000000000000000E+000  0.00000000000000000E+000  0.00000000000000000E+000  0.00000000000000000E+000  0.00000000000000000E+000  0.00000000000000000E+000  0.00000000000000000E+000  0.00000000000000000E+000  0.00000000000000000E+000  0.00000000000000000E+000  0.00000000000000000E+000  0.00000000000000000E+000  0.00000000000000000E+000  0.00000000000000000E+000  0.00000000000000000E+000  0.00000000000000000E+000 -0.47732252496902637E-009 -0.81243842003084642E-009 -0.10128623786751853E-008 -0.11372800737129763E-008 -0.12025675164773662E-008  0.28760751556077956E-007  0.48952890736549523E-007  0.61029176650238672E-007  0.68525668719602691E-007  0.72459230139592076E-007 -0.94561869963854623E-006 -0.16096145028061015E-005 -0.20069483393452768E-005 -0.22538966715155039E-005 -0.23838699101205451E-005  0.32947769607533763E-004  0.56073590479540585E-004  
0.69891862624246365E-004  0.78452635150879591E-004  0.82922234902387611E-004  0.55950389628385722E-001  0.00000000000000000E+000  0.00000000000000000E+000  0.00000000000000000E+000  0.00000000000000000E+000  0.00000000000000000E+000  0.00000000000000000E+000  0.00000000000000000E+000  0.00000000000000000E+000  0.00000000000000000E+000  </sparseX_slice>
        <sparseX_slice start="401" end="450">  0.00000000000000000E+000  0.00000000000000000E+000  0.00000000000000000E+000  0.00000000000000000E+000  0.00000000000000000E+000  0.00000000000000000E+000  0.00000000000000000E+000  0.00000000000000000E+000  0.00000000000000000E+000  0.00000000000000000E+000  0.00000000000000000E+000  0.00000000000000000E+000  0.00000000000000000E+000  0.00000000000000000E+000  0.00000000000000000E+000  0.00000000000000000E+000  0.00000000000000000E+000  0.00000000000000000E+000  0.00000000000000000E+000  0.00000000000000000E+000  0.00000000000000000E+000  0.00000000000000000E+000  0.00000000000000000E+000  0.00000000000000000E+000  0.00000000000000000E+000  0.00000000000000000E+000  0.00000000000000000E+000  0.00000000000000000E+000  0.00000000000000000E+000  0.00000000000000000E+000 -0.32960644552370410E-008 -0.56127231830187354E-008 -0.70037902601025085E-008 -0.78750113926481078E-008 -0.83425343869793445E-008  0.19860217348017129E-006  0.33819058520445479E-006  
0.42200753232052976E-006  0.47450090292524914E-006  0.50266917309085186E-006 -0.65297990793297172E-005 -0.11120006652664171E-004 -0.13877744427649484E-004 -0.15606940081248448E-004 -0.16537546895929579E-004  0.32175461499207896E-003  0.54784352619535010E-003  0.68347762904325633E-003  0.76825659016680826E-003  0.81353179927597628E-003  </sparseX_slice>
        <sparseX_slice start="451" end="500">  0.15710628291668786E-002  0.26762378387706759E-002  0.33418888255564508E-002  0.37616211820012632E-002  0.39906907309739600E-002  0.62808547727458308E-001  0.00000000000000000E+000  0.00000000000000000E+000  0.00000000000000000E+000  0.00000000000000000E+000  0.00000000000000000E+000  0.00000000000000000E+000  0.00000000000000000E+000  0.00000000000000000E+000  0.00000000000000000E+000  0.00000000000000000E+000  0.00000000000000000E+000  0.00000000000000000E+000  0.00000000000000000E+000  0.00000000000000000E+000  0.00000000000000000E+000  0.00000000000000000E+000  0.00000000000000000E+000  0.00000000000000000E+000  0.00000000000000000E+000  0.00000000000000000E+000  0.00000000000000000E+000  0.00000000000000000E+000  0.00000000000000000E+000  0.00000000000000000E+000  0.00000000000000000E+000  0.00000000000000000E+000  0.00000000000000000E+000  0.00000000000000000E+000  0.00000000000000000E+000  0.00000000000000000E+000  0.00000000000000000E+000  
0.00000000000000000E+000  0.00000000000000000E+000  0.00000000000000000E+000  0.00000000000000000E+000  0.00000000000000000E+000  0.00000000000000000E+000  0.00000000000000000E+000  0.00000000000000000E+000 -0.37000818586704725E-008 -0.63097453188442544E-008 -0.78961526859391893E-008 -0.89165642030620156E-008 -0.95000352832583776E-008  </sparseX_slice>
        <sparseX_slice start="501" end="550">  0.22294597365016047E-006  0.38018915102157537E-006  0.47577608495811102E-006  0.53725862152958264E-006  0.57241296932771382E-006 -0.73301937635966170E-005 -0.12500956778778393E-004 -0.15645926686496497E-004 -0.17671121514530115E-004 -0.18832080483249438E-004  0.36119391172223790E-003  0.61587807061795380E-003  0.77056044169293374E-003  0.86986657784940012E-003  0.92640682539311665E-003  0.24941592981662605E-002  0.42547878579388132E-002  0.53283089884415278E-002  0.60233265041595074E-002  0.64267333777761389E-002  0.19798159848031238E-002  0.33822142886185389E-002  0.42477290775194271E-002  0.48224502708175947E-002  0.51749063875643391E-002 -0.30213463699871033E-002  0.00000000000000000E+000  0.00000000000000000E+000  0.00000000000000000E+000  0.00000000000000000E+000  0.00000000000000000E+000  0.00000000000000000E+000  0.00000000000000000E+000  0.00000000000000000E+000  0.00000000000000000E+000  0.00000000000000000E+000  0.00000000000000000E+000  
0.00000000000000000E+000  0.00000000000000000E+000  0.00000000000000000E+000  0.00000000000000000E+000  0.00000000000000000E+000  0.00000000000000000E+000  0.00000000000000000E+000  0.00000000000000000E+000  0.00000000000000000E+000  0.00000000000000000E+000  0.00000000000000000E+000  0.00000000000000000E+000  0.00000000000000000E+000  </sparseX_slice>
        <sparseX_slice start="551" end="600">  0.00000000000000000E+000  0.00000000000000000E+000  0.00000000000000000E+000  0.00000000000000000E+000  0.00000000000000000E+000  0.00000000000000000E+000  0.00000000000000000E+000  0.00000000000000000E+000  0.00000000000000000E+000  0.00000000000000000E+000  0.00000000000000000E+000  0.00000000000000000E+000  0.00000000000000000E+000  0.00000000000000000E+000  0.00000000000000000E+000  0.17798897278852207E-009  0.30350508061775200E-009  0.37976445519988776E-009  0.42875877787527102E-009  0.45669806250618890E-009 -0.10724607279793432E-007 -0.18287479620799282E-007 -0.22882390055982265E-007 -0.25834429576682820E-007 -0.27517781381935886E-007  0.35261210647707129E-006  0.60130856369288937E-006  0.75248884621688382E-006  0.84972734920177658E-006  0.90532028705379235E-006 -0.17374894875436526E-004 -0.29624353128066650E-004 -0.37060006053225854E-004 -0.41828099068156185E-004 -0.44535434830978055E-004 -0.11997919732810166E-003 -0.20465956493972832E-003 
-0.25626434044714538E-003 -0.28963556498368392E-003 -0.30895429273264006E-003 -0.13468573126541839E-003 -0.23007543570688186E-003 -0.28891532798449991E-003 -0.32794290470210106E-003 -0.35182074723661349E-003  0.45812960259294992E-005  0.78254512574560446E-005  0.98254932483990765E-005  0.11150612521113459E-004  0.11959427757338363E-004  </sparseX_slice>
        <sparseX_slice start="601" end="650">  0.15047749611918831E-003  0.00000000000000000E+000  0.00000000000000000E+000  0.00000000000000000E+000  0.00000000000000000E+000  0.00000000000000000E+000  0.00000000000000000E+000  0.00000000000000000E+000  0.00000000000000000E+000  0.00000000000000000E+000  0.00000000000000000E+000  0.00000000000000000E+000  0.00000000000000000E+000  0.00000000000000000E+000  0.00000000000000000E+000  0.00000000000000000E+000  0.00000000000000000E+000  0.00000000000000000E+000  0.00000000000000000E+000  0.00000000000000000E+000  0.00000000000000000E+000  0.00000000000000000E+000  0.00000000000000000E+000  0.00000000000000000E+000  0.00000000000000000E+000  0.00000000000000000E+000  0.00000000000000000E+000  0.00000000000000000E+000  0.00000000000000000E+000  0.00000000000000000E+000  0.00000000000000000E+000  0.00000000000000000E+000  0.00000000000000000E+000  0.00000000000000000E+000  0.00000000000000000E+000  0.00000000000000000E+000  0.00000000000000000E+000  
0.00000000000000000E+000  0.00000000000000000E+000  0.00000000000000000E+000 -0.88647019183561773E-011 -0.15116002603451438E-010 -0.18914079538862918E-010 -0.21354223235894951E-010 -0.22745722245554996E-010  0.53413672340117151E-009  0.91080382903612748E-009  0.11396520649367565E-008  0.12866772759413401E-008  0.13705155846132720E-008  </sparseX_slice>
        <sparseX_slice start="651" end="681"> -0.17561768955410698E-007 -0.29948038417541149E-007 -0.37477530333801320E-007 -0.42320457191382761E-007 -0.45089229587683289E-007  0.86535284473225241E-006  0.14754342764146412E-005  0.18457649013847522E-005  0.20832379676536367E-005  0.22180751658798966E-005  0.59755377204235650E-005  0.10193023820732791E-004  0.12763185316120091E-004  0.14425226562977540E-004  0.15387384151587656E-004  0.67079934313815693E-005  0.11458855575190764E-004  0.14389360085369868E-004  0.16333113995566300E-004  0.17522336208201408E-004 -0.32268174216901600E-006 -0.55118245022486542E-006 -0.69205443598201252E-006 -0.78538838908731422E-006 -0.84235655534564559E-006  0.11363979334658433E-007  0.19411154925182447E-007  0.24372279856811150E-007  0.27659239371164679E-007  0.29665489885098785E-007  0.00000000000000000E+000  </sparseX_slice>
      </sparseX>
      <sparseX i="2" alpha="1643.6508253168779" sparseCutoff="1.0000000000000000" sliced="T">
        <sparseX_slice start="1" end="50">  0.96165672294488891E+000  0.96659529950631959E-014  0.12051404135317686E-013  0.13533224556601341E-013  0.14311999405807080E-013  0.62983376659422234E-005 -0.82382567031949368E-012 -0.10271334363335924E-011 -0.11534224139401933E-011 -0.12197887381637830E-011  0.20625373071145215E-010  0.35107181641789349E-010  0.43770961631876381E-010  0.49152486143100243E-010  0.51980318177888067E-010 -0.20424844672824484E-003  0.26718789317213604E-010  0.33320005695945394E-010  0.37429188577444326E-010  0.39600077083432283E-010 -0.94590959936227143E-009 -0.16102467051654723E-008 -0.20080720242599934E-008 -0.22557060941242067E-008 -0.23865214563722841E-008  0.21690394813207908E-007  0.36928262683579294E-007  0.46061967846727048E-007  0.51759436626008157E-007  0.54785011532962214E-007  0.10432715391833639E-001 -0.13643202629101145E-008 -0.17003097456800079E-008 -0.19081928885255316E-008 -0.20163534397426926E-008  0.48315694903080458E-007  0.82222745277090572E-007  
0.10247130399777001E-006  0.11499908202673129E-006  0.12151670153160504E-006 -0.15668270200742972E-005 -0.26666955003836081E-005 -0.33241488516470971E-005 -0.37317831484716583E-005 -0.39450034231500415E-005  0.56590646043473897E-004  0.96284855758030398E-004  0.11994673810589135E-003  0.13452817857970443E-003  0.14203749869890782E-003  </sparseX_slice>
        <sparseX_slice start="51" end="100">  0.64913934567743289E-001 -0.84917899482088190E-008 -0.10590003276688816E-007 -0.11896499084076804E-007 -0.12587443142688847E-007  0.30062756815820413E-006  0.51177007396256240E-006  0.63821985838760526E-006  0.71695397369277891E-006  0.75858951177297600E-006 -0.97490349194888679E-005 -0.16598022224480536E-004 -0.20703726083193991E-004 -0.23265548820942646E-004 -0.24627381940018824E-004  0.49796661022054247E-003  0.84753159195361189E-003  0.10565048383358419E-002  0.11861105328508203E-002  0.12539749905534784E-002  0.21909163636693800E-002  0.37301286568086007E-002  0.46529088287571340E-002  0.52288606409181780E-002  0.55353455648599337E-002  0.47840096358959847E-001 -0.62684480570563105E-008 -0.78427671550244445E-008 -0.88533732770327957E-008 -0.94285452271987311E-008  0.22155569408351523E-006  0.37777714066830596E-006  0.47265422042548317E-006  0.53355706638519032E-006  0.56821670926747550E-006 -0.71848174519214915E-005 -0.12252286125608716E-004 
-0.15332809506237143E-004 -0.17314218809341415E-004 -0.18446985763255138E-004  0.36699008887890221E-003  0.62562873001775993E-003  0.78242860070346640E-003  0.88270332481293109E-003  0.93928209074587213E-003  0.22834678913164807E-002  0.38940327321265321E-002  0.48731835280465020E-002  0.55031539831713813E-002  0.58636346580777680E-002  </sparseX_slice>
        <sparseX_slice start="101" end="150">  0.11899645502534088E-002  0.20325694250779951E-002  0.25519431577135793E-002  0.28959180443157775E-002  0.31056969253807358E-002 -0.23505123320321495E-002  0.30797379824762159E-009  0.38529155974532638E-009  0.43488902423426018E-009  0.46307008965544254E-009 -0.10885625883103207E-007 -0.18560488950973375E-007 -0.23220080133486772E-007 -0.26209005845884461E-007 -0.27907185696598274E-007  0.35300936472671560E-006  0.60196448323005619E-006  0.75325481085478714E-006  0.85049658336517797E-006  0.90599844890399652E-006 -0.18031208030413538E-004 -0.30737633066849926E-004 -0.38438363653479149E-004 -0.43359516830955233E-004 -0.46131553860368907E-004 -0.11219290609421202E-003 -0.19131690014780923E-003 -0.23940484848429969E-003 -0.27032196554513567E-003 -0.28798438798278465E-003 -0.82683625235157736E-004 -0.14122582616007035E-003 -0.17729895198232074E-003 -0.20117357627973175E-003 -0.21571289705486709E-003  0.28725989696802854E-005  0.49062860359195536E-005  
0.61590161753825029E-005  0.69875609692433737E-005  0.74914029079156151E-005  0.11707099142143935E-003 -0.15339122017078658E-010 -0.19190052799705322E-010 -0.21660328213602066E-010 -0.23063923991709714E-010  0.54217584694652130E-009  0.92443450168676682E-009  0.11565126525728541E-008  0.13053805388021798E-008  0.13899606649347458E-008  </sparseX_slice>
        <sparseX_slice start="151" end="200"> -0.17582190804282836E-007 -0.29981792966651638E-007 -0.37517041903253767E-007 -0.42360312892867095E-007 -0.45124657862650371E-007  0.89807288899510388E-006  0.15309364199532000E-005  0.19144832254620561E-005  0.21595885695100629E-005  0.22976535855440053E-005  0.55879454738049824E-005  0.95288407390324606E-005  0.11923935437246216E-004  0.13463808398851735E-004  0.14343509079103230E-004  0.41181889789235347E-005  0.70339755906451965E-005  0.88306534721967139E-005  0.10019764692373266E-004  0.10743915387424080E-004 -0.20233767733174182E-006 -0.34558476990066219E-006 -0.43382344300422489E-006 -0.49218366308209142E-006 -0.52767269412389603E-006  0.71260444113716089E-008  0.12171001885432248E-007  0.15278639829871178E-007  0.17333999608101915E-007  0.18583867103834798E-007  0.44704342135544597E-001 -0.52191964633003248E-008 -0.53416618478977756E-008 -0.44758307152113606E-008 -0.32212535633805647E-008  0.20703347827878127E-006  0.31454246705804983E-006  
0.32192196537126433E-006  0.26974024830062023E-006  0.19413070154451024E-006 -0.67138773120797609E-005 -0.10201422717722965E-004 -0.10443084939488555E-004 -0.87532186808137347E-005 -0.63023952467342470E-005  0.34293514733951233E-003  0.52090712490982232E-003  0.53290744484288106E-003  0.44625144902294534E-003  0.32090483833141964E-003  </sparseX_slice>
        <sparseX_slice start="201" end="250">  0.21337944034016156E-002  0.32422254565246562E-002  0.33190961831492433E-002  0.27821243787736621E-002  0.20033052376105098E-002  0.15725580424094038E-002  0.23933377989145146E-002  0.24580633121115501E-002  0.20704566489972249E-002  0.15005632059331790E-002 -0.77263997208219803E-004 -0.11758657417469989E-003 -0.12075725681457781E-003 -0.10170347997611078E-003 -0.73698107349651397E-004  0.38482558168624370E-005  0.58565852650418504E-005  0.60145053157952865E-005  0.50655009300980193E-005  0.36706485351061489E-005  0.10390808685098525E-002  0.14090701525467384E-002  0.11838185400183873E-002  0.74014365561744723E-003  0.36250960558947956E-003  0.16994744641181356E+000 -0.20428163958713399E-007 -0.21535351779372670E-007 -0.18933970209195535E-007 -0.14633638953532533E-007  0.78705578193172783E-006  0.12311330171650433E-005  0.12978550434647201E-005  0.11410739481695905E-005  0.88190468098916371E-006 -0.25523388785156676E-004 -0.39928816122397962E-004 
-0.42102161132169562E-004 -0.37028474105119203E-004 -0.28630772079420049E-004  0.13036978018488663E-002  0.20388533426064928E-002  0.21484604636766045E-002  0.18877638988658188E-002  0.14578192775533856E-002  0.81118050887856123E-002  0.12690212695139334E-001  0.13381210928172549E-001  0.11769135934241786E-001  0.91006948022270603E-002  </sparseX_slice>
        <sparseX_slice start="251" end="300">  0.59782162285606094E-002  0.93676291568253675E-002  0.99098856553649067E-002  0.87585896352858471E-002  0.68168182822393964E-002 -0.29372580822895230E-003 -0.46023901063598708E-003 -0.48684287389652597E-003 -0.43023313046553895E-003 -0.33479869662345752E-003  0.14629479329596932E-004  0.22922931695276094E-004  0.24247975900146711E-004  0.21428434140543453E-004  0.16675168325366160E-004  0.55863646602330799E-002  0.77996174682783597E-002  0.67495639072211065E-002  0.44279127610309900E-002  0.23289595216912876E-002  0.15016863009832784E-001  0.21586587630687555E-001  0.19241383454323271E-001  0.13245004041103948E-001  0.74812534206595976E-002  0.16746364678462919E+000 -0.21041968425483761E-007 -0.24200958860394570E-007 -0.24053407883658034E-007 -0.21585786250870870E-007  0.77555287971689692E-006  0.12681248362365776E-005  0.14585012046903399E-005  0.14496017896663518E-005  0.13008798425274214E-005 -0.25150361800123692E-004 -0.41128556135172165E-004 
-0.47313490855965024E-004 -0.47040371412823955E-004 -0.42232675567998358E-004  0.12846441227112189E-002  0.21001147115337648E-002  0.24143930327817642E-002  0.23981845617044193E-002  0.21503998709815099E-002  0.79932502126711710E-002  0.13071515158360456E-001  0.15037513131554686E-001  0.14951318922380538E-001  0.13424251709303187E-001  </sparseX_slice>
        <sparseX_slice start="301" end="350">  0.58908439758246353E-002  0.96490980461062907E-002  0.11136513464638035E-001  0.11126769856265730E-001  0.10055351428219254E-001 -0.28943297495386070E-003 -0.47406779921832287E-003 -0.54710340854201268E-003 -0.54656117326754581E-003 -0.49385481802115619E-003  0.14415667965719752E-004  0.23611696377920557E-004  0.27249346712291499E-004  0.27222334301565090E-004  0.24597205132067015E-004  0.55047193589745956E-002  0.80339723545424929E-002  0.75850127788820538E-002  0.56251483728756791E-002  0.34354013093935813E-002  0.20926669616005325E-001  0.31445320300241199E-001  0.30579606702087904E-001  0.23795893654414785E-001  0.15606477861183916E-001  0.14581124597417392E-001  0.22903299625251308E-001  0.24299509135458561E-001  0.21375778861786675E-001  0.16278164736341041E-001 -0.10221952294045551E-001  0.12835847687677486E-008  0.14743499432684261E-008  0.14622919867705726E-008  0.13083071171838837E-008 -0.47339614836952278E-007 -0.77357103279273855E-007 
-0.88853552489245237E-007 -0.88126434777566204E-007 -0.78845882044765068E-007  0.15351737731442192E-005  0.25088901926390294E-005  0.28823916838056187E-005  0.28597510383723178E-005  0.25597080125400120E-005 -0.78414457043732381E-004 -0.12810946209410254E-003 -0.14708757001917572E-003 -0.14579414627396029E-003 -0.13033500023113177E-003  </sparseX_slice>
        <sparseX_slice start="351" end="400"> -0.48790662282289257E-003 -0.79737776536476705E-003 -0.91610240570626678E-003 -0.90894371215906626E-003 -0.81363930180864742E-003 -0.35957610650858007E-003 -0.58860630497519308E-003 -0.67844906846510991E-003 -0.67643580810484722E-003 -0.60945140873863832E-003  0.17666939178190638E-004  0.28918692117365288E-004  0.33330161998908823E-004  0.33227392468243782E-004  0.29932371504260749E-004 -0.87992990157379757E-006 -0.14403411896941226E-005 -0.16600611988608464E-005 -0.16549422644353570E-005 -0.14908281849504980E-005 -0.33600712608339078E-003 -0.49008174228142953E-003 -0.46208760672438554E-003 -0.34197272294376774E-003 -0.20821849763666243E-003 -0.12773603262274890E-002 -0.19182014424814894E-002 -0.18629444257341717E-002 -0.14466367833281676E-002 -0.94590328203291081E-003 -0.12586915720387624E-002 -0.19758375871658613E-002 -0.20935363335730667E-002 -0.18377838469396163E-002 -0.13952828906599987E-002  0.54327238716622143E-004  0.85226457207791456E-004  
0.90184833684457192E-004  0.79001787254405395E-004  0.59798336498654976E-004  0.57685725048307261E-003 -0.72436687642245508E-010 -0.83201970902953349E-010 -0.82521203436904553E-010 -0.73831019551987851E-010  0.26715248974190011E-008  0.43655023520800129E-008  0.50142713557172514E-008  0.49732197934759205E-008  0.44494689223819254E-008  </sparseX_slice>
        <sparseX_slice start="401" end="450"> -0.86634734375111554E-007 -0.14158449027667586E-006 -0.16266197187572797E-006 -0.16138370404230829E-006 -0.14445067969056953E-006  0.44251769903798081E-005  0.72296160842071255E-005  0.83005908989230232E-005  0.82275691267061077E-005  0.73551277249686807E-005  0.27534121157858063E-004  0.44998511612169444E-004  0.51698394978553071E-004  0.51294221443026914E-004  0.45915686317906705E-004  0.20292022323443612E-004  0.33216887653377121E-004  0.38286907332483071E-004  0.38173153814447455E-004  0.34392856450573498E-004 -0.99700151845937725E-006 -0.16319718953496592E-005 -0.18809205924858543E-005 -0.18751141621211782E-005 -0.16891580552778044E-005  0.49657240519052621E-007  0.81282940865911401E-007  0.93682211740415351E-007  0.93392994364557461E-007  0.84131136662053675E-007  0.18961949862365517E-004  0.27656839617135350E-004  0.26076983815705920E-004  0.19298471779386456E-004  0.11750286892261305E-004  0.72085502305951823E-004  0.10825008375358624E-003  
0.10513151820668784E-003  0.81637736769642086E-004  0.53379671174138909E-004  0.71031965182957583E-004  0.11150267096947626E-003  0.11814450830043469E-003  0.10371125334639156E-003  0.78739278436863863E-004 -0.43357789788627808E-005 -0.68017937884559440E-005 -0.71974978394464342E-005 -0.63049749723571083E-005 -0.47723607184665985E-005  </sparseX_slice>
        <sparseX_slice start="451" end="500">  0.17301614988759381E-006  0.27142040310252594E-006  0.28721001654274922E-006  0.25159373467106459E-006  0.19043528767456018E-006 -0.30518989856400658E-004  0.38323077835618151E-011  0.44018517380537615E-011  0.43658352856569321E-011  0.39060756977428808E-011 -0.14133867811694393E-009 -0.23095960331124581E-009 -0.26528312782376280E-009 -0.26311126781234815E-009 -0.23540190195179683E-009  0.45834642407490737E-008  0.74906150706219216E-008  0.86057322422275621E-008  0.85381046360604809E-008  0.76422524419356079E-008 -0.23411672743834558E-006 -0.38248731262405605E-006 -0.43914789612274175E-006 -0.43528463125261612E-006 -0.38912757584317443E-006 -0.14567097208501416E-005 -0.23806741019372745E-005 -0.27351355661558713E-005 -0.27137524975322587E-005 -0.24291977485868514E-005 -0.10735619998473155E-005 -0.17573599959241499E-005 -0.20255925161048268E-005 -0.20195743026863413E-005 -0.18195753163472004E-005  0.52746982382898296E-007  0.86340482988279681E-007  
0.99511267453414089E-007  0.99204074015752784E-007  0.89365950374304586E-007 -0.26271470427540118E-008 -0.43003242844245907E-008 -0.49563153624721410E-008 -0.49410141060497191E-008 -0.44510097562412037E-008 -0.10031936931060425E-005 -0.14632022140070196E-005 -0.13796189595827281E-005 -0.10209975805566169E-005 -0.62165618665268505E-006  </sparseX_slice>
        <sparseX_slice start="501" end="550"> -0.38137281135438305E-005 -0.57270376661749144E-005 -0.55620480034315252E-005 -0.43190949354318485E-005 -0.28240844782048842E-005 -0.37579900800128714E-005 -0.58991178055337342E-005 -0.62505082939725827E-005 -0.54869079766339187E-005 -0.41657501660731572E-005  0.22938707031019858E-006  0.35985310933074666E-006  0.38078807545508366E-006  0.33356859889406687E-006  0.25248469188670762E-006 -0.12945041306110280E-007 -0.20307632118996106E-007 -0.21489008439862145E-007 -0.18824203687453633E-007 -0.14248338160377906E-007  0.48427298412827911E-009  0.75970692985210644E-009  0.80390212236858755E-009  0.70421198073557628E-009  0.53302920590909346E-009  0.15500665883193038E-005 -0.19464380306769481E-012 -0.22357107289340513E-012 -0.22174178890231420E-012 -0.19839049256765432E-012  0.71786243128339839E-011  0.11730491933955579E-010  0.13473791721640356E-010  0.13363482446701388E-010  0.11956117314000346E-010 -0.23279521411982128E-009 -0.38045008047525549E-009 
-0.43708714080380657E-009 -0.43365231896290224E-009 -0.38815177779531227E-009  0.11890843002221039E-007  0.19426619509431618E-007  0.22304423714746175E-007  0.22108207593799704E-007  0.19763880021012928E-007  0.73986625304250730E-007  0.12091499097579351E-006  0.13891817112966808E-006  0.13783212010262079E-006  0.12337951826301382E-006  </sparseX_slice>
        <sparseX_slice start="551" end="600">  0.54526463499694501E-007  0.89256722654929700E-007  0.10288031469924922E-006  0.10257464823971903E-006  0.92416653236562166E-007 -0.26790314951806969E-008 -0.43852531990321777E-008 -0.50542004032555293E-008 -0.50385979770972033E-008 -0.45389173906127097E-008  0.13343340892787765E-009  0.21841446992725979E-009  0.25173240925099716E-009  0.25095525487791578E-009  0.22606782005642877E-009  0.50952440844636837E-007  0.74316380540473238E-007  0.70071167620554392E-007  0.51856704425231779E-007  0.31574062210064755E-007  0.19370013730970496E-006  0.29087757419634188E-006  0.28249771087510907E-006  0.21936783565060079E-006  0.14343590704283736E-006  0.19086918963150577E-006  0.29961756447084162E-006  0.31746476904977264E-006  0.27868133144608716E-006  0.21157941916962886E-006 -0.11650622617370742E-007 -0.18277023063312556E-007 -0.19340314858525610E-007 -0.16942026668621586E-007 -0.12823756185304112E-007  0.65748165674646377E-009  0.10314293554123964E-008  
0.10914317333276662E-008  0.95608568056397106E-009  0.72367640687078904E-009 -0.34784473968579570E-010 -0.54568408296955349E-010 -0.57742870994236052E-010 -0.50582304019705917E-010 -0.38286547349077884E-010  0.12492536946375307E-011  0.19597762420325041E-011  0.20737842691801258E-011  0.18166188235461674E-011  0.13750275704059456E-011  </sparseX_slice>
        <sparseX_slice start="601" end="650"> -0.77208031581193806E-007  0.96951092343901758E-014  0.11135961891360582E-013  0.11044846182384093E-013  0.98817299405047879E-014 -0.35756364070511830E-012 -0.58428986117415110E-012 -0.67112274053385659E-012 -0.66562829142606544E-012 -0.59552814706407795E-012  0.11595411693379124E-010  0.18950025792279227E-010  0.21771089077859514E-010  0.21600002341865449E-010  0.19333643434511331E-010 -0.59227686665895884E-009 -0.96763007725127163E-009 -0.11109720469722687E-008 -0.11011986213807679E-008 -0.98442885249446563E-009 -0.36852363286343120E-008 -0.60227144512682684E-008 -0.69194437352593824E-008 -0.68653480837388955E-008 -0.61454713070431719E-008 -0.27159355266536571E-008 -0.44458321426357045E-008 -0.51244163613611136E-008 -0.51091912698465132E-008 -0.46032266842502895E-008  0.13344120171714576E-009  0.21842724050294856E-009  0.25174716189150196E-009  0.25097001294792690E-009  0.22608117604728523E-009 -0.66462505082831683E-011 -0.10879114109683483E-010 
-0.12538663790266136E-010 -0.12499954124608617E-010 -0.11260323602828154E-010 -0.25379152686189402E-008 -0.37016612699137067E-008 -0.34902093647762365E-008 -0.25829561795154441E-008 -0.15726880449079912E-008 -0.96481057209966799E-008 -0.14488464627292420E-007 -0.14071067880063883E-007 -0.10926600773437311E-007 -0.71444698726442903E-008  </sparseX_slice>
        <sparseX_slice start="651" end="681"> -0.95070976511562075E-008 -0.14923799115641442E-007 -0.15812759335253602E-007 -0.13880975953883041E-007 -0.10538663693725889E-007  0.58031161097269933E-009  0.91036926059575858E-009  0.96333128630707157E-009  0.84387376641580701E-009  0.63874479974305866E-009 -0.32748828276582254E-010 -0.51374973724706830E-010 -0.54363661774586576E-010 -0.47622143445686196E-010 -0.36045955249460029E-010  0.17325970283723586E-011  0.27180247757581535E-011  0.28761431546922217E-011  0.25194789408610657E-011  0.19070335294868936E-011 -0.87999005777645512E-013 -0.13804911010933468E-012 -0.14607997932567109E-012 -0.12796492100461284E-012 -0.96858676209618444E-013  0.30993804745564292E-014  0.48621767100856421E-014  0.51450289880502002E-014  0.45070052108541982E-014  0.34114236539671707E-014  0.00000000000000000E+000  </sparseX_slice>
      </sparseX>
      <sparseX i="3" alpha="1643.9529312040388" sparseCutoff="1.0000000000000000" sliced="T">
        <sparseX_slice start="1" end="50">  0.97523677339034764E+000  0.98024509013788930E-014  0.12221588227199298E-013  0.13724334198725581E-013  0.14514106529138005E-013  0.63872797397459651E-005 -0.83545933740076011E-012 -0.10416381172106863E-011 -0.11697104865886785E-011 -0.12370140038972147E-011  0.20916634599380390E-010  0.35602948256131107E-010  0.44389073950778336E-010  0.49846593744510171E-010  0.52714359053581265E-010 -0.20713274436148159E-003  0.27096099118218487E-010  0.33790534677231203E-010  0.37957745449025012E-010  0.40159290190985099E-010 -0.95926727655590284E-009 -0.16329858291834656E-008 -0.20364290447402921E-008 -0.22875600829930507E-008 -0.24202227564239895E-008  0.21996696062621792E-007  0.37449745722319412E-007  0.46712432645704492E-007  0.52490358319413713E-007  0.55558658929711401E-007  0.10580041145321179E-001 -0.13835865328295341E-008 -0.17243206963324715E-008 -0.19351394642292691E-008 -0.20448274063611834E-008  0.48997985743913924E-007  0.83383855059807690E-007  
0.10391835411898192E-006  0.11662304336121047E-006  0.12323270153180419E-006 -0.15889529923305492E-005 -0.27043532825774343E-005 -0.33710908716179472E-005 -0.37844815825371602E-005 -0.40007128506574241E-005  0.57389791736188528E-004  0.97644543853719724E-004  0.12164056784303299E-003  0.13642792035643066E-003  0.14404328345708132E-003  </sparseX_slice>
        <sparseX_slice start="51" end="100">  0.65830617709461095E-001 -0.86117068927041203E-008 -0.10739550173501025E-007 -0.12064495681855880E-007 -0.12765196917792288E-007  0.30487288506128986E-006  0.51899704306189449E-006  0.64723249009432902E-006  0.72707845043953795E-006  0.76930194542157153E-006 -0.98867060684990592E-005 -0.16832411454779930E-004 -0.20996094074713606E-004 -0.23594093632299195E-004 -0.24975157899054262E-004  0.50499865349086927E-003  0.85950002257780011E-003  0.10714242879254375E-002  0.12028602112814750E-002  0.12716830179844223E-002  0.22218554233468281E-002  0.37828037269442205E-002  0.47186149535156079E-002  0.53027000781952277E-002  0.56135130337813272E-002  0.48515671027518074E-001 -0.63569680442809427E-008 -0.79535189140004208E-008 -0.89783963261582700E-008 -0.95616905760094268E-008  0.22468439628082227E-006  0.38311192646557716E-006  0.47932881438764159E-006  0.54109170083858777E-006  0.57624079040962655E-006 -0.72862779638801831E-005 -0.12425306975656365E-004 
-0.15549332015358355E-004 -0.17558721820909339E-004 -0.18707485161069904E-004  0.37217254515570865E-003  0.63446355590838740E-003  0.79347767841904089E-003  0.89516843361248848E-003  0.95254617747297747E-003  0.23157139188383414E-002  0.39490223762238636E-002  0.49420002654142732E-002  0.55808668581687490E-002  0.59464380665607752E-002  </sparseX_slice>
        <sparseX_slice start="101" end="150">  0.12067686532510594E-002  0.20612723859868825E-002  0.25879804629066090E-002  0.29368127962468948E-002  0.31495540730600265E-002 -0.23837051286715997E-002  0.31232285505374959E-009  0.39073246052905733E-009  0.44103031638806757E-009  0.46960934116511496E-009 -0.11039347419173001E-007 -0.18822591185827757E-007 -0.23547982858062654E-007 -0.26579116731630158E-007 -0.28301277455651370E-007  0.35799439198886352E-006  0.61046513408975719E-006  0.76389191044097572E-006  0.86250688416193257E-006  0.91879252016254961E-006 -0.18285836016474641E-004 -0.31171695032686925E-004 -0.38981171606671247E-004 -0.43971818925669373E-004 -0.46783001319325741E-004 -0.11377723997139465E-003 -0.19401858474386746E-003 -0.24278560779449120E-003 -0.27413932140719091E-003 -0.29205116401938796E-003 -0.83851243341407064E-004 -0.14322014887179879E-003 -0.17980268190423475E-003 -0.20401445208186416E-003 -0.21875909010260082E-003  0.29131644209344192E-005  0.49755702308697055E-005  
0.62459908185794641E-005  0.70862359206984590E-005  0.75971928711836003E-005  0.11872421125682350E-003 -0.15555733668420395E-010 -0.19461045430290768E-010 -0.21966204877059622E-010 -0.23389621554888494E-010  0.54983219164434230E-009  0.93748891795287996E-009  0.11728443640744965E-008  0.13238144904862773E-008  0.14095890161921612E-008  </sparseX_slice>
        <sparseX_slice start="151" end="200"> -0.17830477986566201E-007 -0.30405181324698574E-007 -0.38046839396948168E-007 -0.42958504713550198E-007 -0.45761886424035863E-007  0.91075503933551323E-006  0.15525555625388084E-005  0.19415186302571715E-005  0.21900852332525820E-005  0.23300999365686476E-005  0.56668557331627736E-005  0.96634024124813133E-005  0.12092319477915452E-004  0.13653937779619216E-004  0.14546061166778159E-004  0.41763440489639682E-005  0.71333059869019506E-005  0.89553556832430444E-005  0.10161258956103229E-004  0.10895635756513957E-004 -0.20519499200507717E-006 -0.35046495063091449E-006 -0.43994968753603543E-006 -0.49913404237400490E-006 -0.53512423232242245E-006  0.72266749589194494E-008  0.12342874878811628E-007  0.15494397381060820E-007  0.17578781954528745E-007  0.18846299473640259E-007 -0.13253298961181540E-004  0.16893390312303819E-011  0.19993355651948625E-011  0.20740583615974220E-011  0.19689632512774088E-011 -0.61378301335527444E-010 -0.10181047414426178E-009 
-0.12049247086606576E-009 -0.12499512449072755E-009 -0.11866070452544661E-009  0.19904335676363270E-008  0.33019760210812486E-008  0.39087519435711523E-008  0.40561601970630297E-008  0.38522843333147157E-008 -0.10166846921059224E-006 -0.16860617222286129E-006 -0.19946242157781036E-006 -0.20678877466823455E-006 -0.19615029410121459E-006  </sparseX_slice>
        <sparseX_slice start="201" end="250"> -0.63259660692987188E-006 -0.10494370254635640E-005 -0.12423075874569659E-005 -0.12892105841243948E-005 -0.12245029198530833E-005 -0.46620934061997987E-006 -0.77467077299263752E-006 -0.92003079591034293E-006 -0.95943037134613475E-006 -0.91720622129503195E-006  0.22906116162757362E-007  0.38060186218086153E-007  0.45198345604705787E-007  0.47128447537374606E-007  0.45047327757668246E-007 -0.11408754135189880E-008 -0.18956477587179541E-008 -0.22511747705736094E-008 -0.23473060596424239E-008 -0.22436520229703527E-008  0.90055019533266795E-010  0.14556902101070242E-009  0.16353613900020471E-009  0.15671864387095848E-009  0.13355339087176823E-009  0.19041460614997669E-002 -0.24364459254252430E-009 -0.29066932663138290E-009 -0.30543880996197503E-009 -0.29549383102575740E-009  0.88184271019546332E-008  0.14683595791528856E-007  0.17517552321126914E-007  0.18407564021531245E-007  0.17808105940875953E-007 -0.28597228883107861E-006 -0.47622684811561208E-006 
-0.56826593553654033E-006 -0.59733552659138559E-006 -0.57813484081694103E-006  0.14607051104263378E-004  0.24317192329046160E-004  0.28998437669784789E-004  0.30453008660525003E-004  0.29437421863101462E-004  0.90887283319552063E-004  0.15135485047183483E-003  0.18061035686122045E-003  0.18985721612098505E-003  0.18376831495197607E-003  </sparseX_slice>
        <sparseX_slice start="251" end="300">  0.66981864845580772E-004  0.11172674125863707E-003  0.13375680230113372E-003  0.14129171883072605E-003  0.13765050210830075E-003 -0.32909987923249966E-005 -0.54892229397223829E-005 -0.65710693644825461E-005 -0.69404300272844212E-005 -0.67605159456126950E-005  0.16391340991227658E-006  0.27339942855674125E-006  0.32728245627362395E-006  0.34567897545637039E-006  0.33671798157028759E-006 -0.18297813077189374E-007 -0.29690938121074510E-007 -0.33623448289869809E-007 -0.32639155169788547E-007 -0.28345278276536897E-007  0.18589189427918670E-005  0.30279512783309245E-005  0.34565334665878772E-005  0.33988121128546447E-005  0.30079910189092633E-005  0.47036241590002456E-001 -0.60813187392658317E-008 -0.74084214415739540E-008 -0.80362441061269450E-008 -0.81173933541745072E-008  0.21783290473245772E-006  0.36649952012066181E-006  0.44647783006120070E-006  0.48431199000088054E-006  0.48919938637331983E-006 -0.70640913202373171E-005 -0.11886523831147652E-004 
-0.14483652575711605E-004 -0.15716189129822318E-004 -0.15881711974742044E-004  0.36082357259741585E-003  0.60695210122978433E-003  0.73909638108262819E-003  0.80123351512679012E-003  0.80866369279547511E-003  0.22450988934695089E-002  0.37777858266749729E-002  0.46032983798040845E-002  0.49952359827746817E-002  0.50482261958591911E-002  </sparseX_slice>
        <sparseX_slice start="301" end="350">  0.16545869251984456E-002  0.27886764003377910E-002  0.34091205068250874E-002  0.37174540551651691E-002  0.37813421252618513E-002 -0.81294296376761320E-004 -0.13700987154687355E-003 -0.16747983606690690E-003 -0.18260610008169714E-003 -0.18571544122328467E-003  0.40489912535398683E-005  0.68239933044953360E-005  0.83415969431936660E-005  0.90949824924641823E-005  0.92498455766119009E-005 -0.45199282443149445E-006 -0.74107968700581244E-006 -0.85697613207815566E-006 -0.85875209635222850E-006 -0.77866185126596215E-006  0.64939330123634154E-004  0.10688207342878170E-003  0.12458972850115169E-003  0.12646520619610615E-003  0.11685833819138665E-003  0.11342927601170035E-002  0.18863872913325946E-002  0.22453999936696474E-002  0.23527997204868768E-002  0.22699321771586086E-002  0.17929470374276890E+000 -0.23233769301518269E-007 -0.28431505520932684E-007 -0.31045722791653731E-007 -0.31629994068172273E-007  0.83034453432466031E-006  0.14002169043730478E-005  
0.17134604166987246E-005  0.18710003812325698E-005  0.19061998124292179E-005 -0.26927197362278641E-004 -0.45412642278839697E-004 -0.55584317309319840E-004 -0.60714986332193168E-004 -0.61884207606518842E-004  0.13754023145848408E-002  0.23188695908984715E-002  0.28364507884675173E-002  0.30953357406159013E-002  0.31510149490431233E-002  </sparseX_slice>
        <sparseX_slice start="351" end="400">  0.85579614223129721E-002  0.14433087317193984E-001  0.17666206536988600E-001  0.19297660642473652E-001  0.19670768393612759E-001  0.63070233195070798E-002  0.10654179943519717E-001  0.13083276818918368E-001  0.14361316874306477E-001  0.14734265517668189E-001 -0.30988098309169167E-003 -0.52344826575148585E-003 -0.64274203638845873E-003 -0.70544626175293962E-003 -0.72365327734667405E-003  0.15434113413831862E-004  0.26071168598357431E-004  0.32012779161415974E-004  0.35135854701167115E-004  0.36042673793710345E-004 -0.17229250639686987E-005 -0.28313060407047613E-005 -0.32888411954748532E-005 -0.33175422719895227E-005 -0.30341106636145098E-005  0.24753844189467791E-003  0.40834456192507396E-003  0.47814147476191984E-003  0.48856203003592785E-003  0.45534673293972890E-003  0.61146979169235749E-002  0.10192195979390896E-001  0.12186609418971100E-001  0.12854305367554391E-001  0.12508648762578871E-001  0.16481428750093025E-001  0.27534340206704769E-001  
0.33070599792743433E-001  0.35114158898349630E-001  0.34464971121168635E-001 -0.50333674671020319E-002  0.64926329447598789E-009  0.78716808264409328E-009  0.84738641152866735E-009  0.84656589068149663E-009 -0.23310388306572008E-007 -0.39128796904030827E-007 -0.47439673917592729E-007 -0.51068558128325098E-007 -0.51018781051554298E-007  </sparseX_slice>
        <sparseX_slice start="401" end="450">  0.75593130390498322E-006  0.12690477104329451E-005  0.15389336470150757E-005  0.16572026600675796E-005  0.16563094896134625E-005 -0.38611878208852997E-004 -0.64800372703560576E-004 -0.78531315446114214E-004 -0.84486531794392150E-004 -0.84335829185994672E-004 -0.24024895163430956E-003 -0.40332989879556913E-003 -0.48911493332906271E-003 -0.52672554968248109E-003 -0.52648133697517560E-003 -0.17705802418015445E-003 -0.29772904604065143E-003 -0.36222977783105590E-003 -0.39198909468509167E-003 -0.39435753875319046E-003  0.86993359335647513E-005  0.14627662911645742E-004  0.17795259419032894E-004  0.19255005924160476E-004  0.19368330577653218E-004 -0.43328421151914544E-006 -0.72855388186635450E-006 -0.88632091515686801E-006 -0.95902569352384157E-006 -0.96466974280650516E-006  0.48367937168275056E-007  0.79120312498653117E-007  0.91056409800627459E-007  0.90551611886183294E-007  0.81206926274882735E-007 -0.69491842998181646E-005 -0.11411111650295266E-004 
-0.13238050571885885E-004 -0.13335196871390125E-004 -0.12187198382307694E-004 -0.17165884392411100E-003 -0.28481899142778437E-003 -0.33740422093375092E-003 -0.35085553559841535E-003 -0.33478967331107323E-003 -0.65433632717673269E-003 -0.10881552214648661E-002 -0.12948655858630348E-002 -0.13554296701615818E-002 -0.13045315064679971E-002  </sparseX_slice>
        <sparseX_slice start="451" end="500">  0.12989044686454129E-004  0.21501909562970409E-004  0.25349961838616672E-004  0.26160239179766914E-004  0.24688870989977456E-004  0.26606866046980797E-003 -0.34320510133348043E-010 -0.41609825172763871E-010 -0.44792266626088034E-010 -0.44747916591385321E-010  0.12322096155899368E-008  0.20683754681286285E-008  0.25076684147729298E-008  0.26994490834084216E-008  0.26967589696429531E-008 -0.39959258041812481E-007 -0.67082746208174584E-007 -0.81348267818086322E-007 -0.87598600111252967E-007 -0.87549474537745111E-007  0.20410611345981887E-005  0.34253928520820319E-005  0.41511773385474212E-005  0.44659003342064461E-005  0.44578368814767739E-005  0.12699791373948706E-004  0.21320299478607778E-004  0.25854690140443881E-004  0.27842352602266512E-004  0.27828835549848256E-004  0.93594579825438360E-005  0.15738164822450363E-004  0.19147521425527703E-004  0.20720275667365354E-004  0.20845014482104831E-004 -0.45985529050854000E-006 -0.77322845362992225E-006 
-0.94066013302107658E-006 -0.10178064546562802E-005 -0.10237743461474752E-005  0.22903821450570650E-007  0.38511865830125125E-007  0.46851059055599398E-007  0.50693442780248838E-007  0.50990669083759866E-007 -0.25567758237727546E-008 -0.41823548473586390E-008 -0.48132557406760618E-008 -0.47864963231012925E-008 -0.42924488260044835E-008  </sparseX_slice>
        <sparseX_slice start="501" end="550">  0.36734058661426931E-006  0.60319931275771295E-006  0.69976537675934919E-006  0.70488939360868431E-006  0.64419290063193506E-006  0.90740521051168875E-005  0.15055730340272242E-004  0.17835238693174571E-004  0.18545983843914258E-004  0.17696366628852753E-004  0.34588849553812662E-004  0.57520643200817360E-004  0.68446792798063731E-004  0.71647086090587133E-004  0.68955137083625585E-004 -0.97101803028394712E-006 -0.16074035091025911E-005 -0.18950502149919877E-005 -0.19555920017140018E-005 -0.18455604802343028E-005  0.36295048554256364E-007  0.60081780957839472E-007  0.70832755887437432E-007  0.73094516661102067E-007  0.68980341133974651E-007 -0.13513668689373072E-004  0.17431440372045904E-011  0.21133694406617723E-011  0.22750060687145641E-011  0.22727534348137176E-011 -0.62584118217980410E-010 -0.10505311109770940E-009 -0.12736486570394882E-009 -0.13710543157383596E-009 -0.13696879492934125E-009  0.20295369371827850E-008  0.34071430930878510E-008  
0.41316910740121153E-008  0.44491462896394554E-008  0.44466510203986309E-008 -0.10366581279814312E-006 -0.17397623467689237E-006 -0.21083893752565492E-006 -0.22682376061488882E-006 -0.22641420776595650E-006 -0.64502438110773062E-006 -0.10828613200431418E-005 -0.13131637014509452E-005 -0.14141173445452639E-005 -0.14134307561250789E-005  </sparseX_slice>
        <sparseX_slice start="551" end="600"> -0.47536832810325588E-006 -0.79934383434880361E-006 -0.97250556754595697E-006 -0.10523859683680358E-005 -0.10587214304423275E-005  0.23356121799594592E-007  0.39272393187194148E-007  0.47776273294145467E-007  0.51694545410016904E-007  0.51997653498102422E-007 -0.11632886573602676E-008 -0.19560236436630429E-008 -0.23795725182607613E-008 -0.25747277076157389E-008 -0.25898237757481510E-008  0.12985904215271011E-009  0.21242245191929868E-009  0.24446600172434619E-009  0.24310687989594177E-009  0.21801412347635239E-009 -0.18657285585231443E-007 -0.30636586728873948E-007 -0.35541191455050496E-007 -0.35801440048097415E-007 -0.32718654612753579E-007 -0.46087251915402696E-006 -0.76468288106548625E-006 -0.90585452509268201E-006 -0.94195335430097402E-006 -0.89880113093781037E-006 -0.17567730539607626E-005 -0.29214823970303355E-005 -0.34764231671278555E-005 -0.36389664542420603E-005 -0.35022418157682786E-005  0.49318156935487343E-007  0.81640273742649682E-007  
0.96249892813898749E-007  0.99324816691411348E-007  0.93736295231596858E-007 -0.26070053574331825E-008 -0.43155617545503219E-008 -0.50877840466181147E-008 -0.52502419336688938E-008 -0.49547282341275710E-008  0.93628155966308597E-010  0.15498935750927813E-009  0.18272299433158683E-009  0.18855751170678635E-009  0.17794440756954823E-009  </sparseX_slice>
        <sparseX_slice start="601" end="650">  0.67310899027601708E-006 -0.86825121270885326E-013 -0.10526586102652424E-012 -0.11331689956521736E-012 -0.11320469700407288E-012  0.31172832181498452E-011  0.52326422351016874E-011  0.63439794268320312E-011  0.68291520770652630E-011  0.68223462745574763E-011 -0.10109020650989197E-009 -0.16970807112360922E-009 -0.20579743893017536E-009 -0.22160972235950942E-009 -0.22148543424744058E-009  0.51635416098052875E-008  0.86656680983731406E-008  0.10501780649201512E-007  0.11297976587431737E-007  0.11277576966752279E-007  0.32128337600304128E-007  0.53936773683414087E-007  0.65408018608770135E-007  0.70436468416020139E-007  0.70402269789767955E-007  0.23677855561932184E-007  0.39814911374603515E-007  0.48440009565368527E-007  0.52418811853449570E-007  0.52734378005577992E-007 -0.11633565926957865E-008 -0.19561380059815531E-008 -0.23797119652548451E-008 -0.25748791138857468E-008 -0.25899767739908496E-008  0.57942818604918708E-010  0.97428546606002450E-010  
0.11852530144059279E-009  0.12824588253363514E-009  0.12899781002928877E-009 -0.64682130923010340E-011 -0.10580654699154514E-010 -0.12176727678605419E-010 -0.12109030508365714E-010 -0.10859173024535273E-010  0.92930994167720972E-009  0.15259928619130358E-008  0.17702887381833756E-008  0.17832515886485799E-008  0.16296996080092889E-008  </sparseX_slice>
        <sparseX_slice start="651" end="681">  0.22955826662946193E-007  0.38088466853693683E-007  0.45120154911862023E-007  0.46918219301609775E-007  0.44768828917454711E-007  0.87503975691334093E-007  0.14551755792923276E-006  0.17315887650276532E-006  0.18125507526647365E-006  0.17444489028856668E-006 -0.24565124083014719E-008 -0.40664606693439158E-008 -0.47941583926722607E-008 -0.49473187927422737E-008 -0.46689573701368046E-008  0.12985361592932658E-009  0.21495594437033221E-009  0.25341994545760226E-009  0.26151189048335482E-009  0.24679250282506338E-009 -0.65952853699022612E-011 -0.10917645781923975E-010 -0.12871238130912223E-010 -0.13282228891362763E-010 -0.12534628452175103E-010  0.23229010900363753E-012  0.38452636792312327E-012  0.45333312216307644E-012  0.46780847584817338E-012  0.44147751699549654E-012  0.00000000000000000E+000  </sparseX_slice>
      </sparseX>
      <sparseX i="4" alpha="-272.06997625634892" sparseCutoff="1.0000000000000000" sliced="T">
        <sparseX_slice start="1" end="50">  0.99999530790284974E+000  0.00000000000000000E+000  0.00000000000000000E+000  0.00000000000000000E+000  0.00000000000000000E+000  0.00000000000000000E+000  0.00000000000000000E+000  0.00000000000000000E+000  0.00000000000000000E+000  0.00000000000000000E+000  0.00000000000000000E+000  0.00000000000000000E+000  0.00000000000000000E+000  0.00000000000000000E+000  0.00000000000000000E+000  0.00000000000000000E+000  0.00000000000000000E+000  0.00000000000000000E+000  0.00000000000000000E+000  0.00000000000000000E+000  0.00000000000000000E+000  0.00000000000000000E+000  0.00000000000000000E+000  0.00000000000000000E+000  0.00000000000000000E+000  0.00000000000000000E+000  0.00000000000000000E+000  0.00000000000000000E+000  0.00000000000000000E+000  0.00000000000000000E+000  0.00000000000000000E+000  0.00000000000000000E+000  0.00000000000000000E+000  0.00000000000000000E+000  0.00000000000000000E+000  0.00000000000000000E+000  0.00000000000000000E+000  
0.00000000000000000E+000  0.00000000000000000E+000  0.00000000000000000E+000  0.00000000000000000E+000  0.00000000000000000E+000  0.00000000000000000E+000  0.00000000000000000E+000  0.00000000000000000E+000  0.00000000000000000E+000  0.00000000000000000E+000  0.00000000000000000E+000  0.00000000000000000E+000  0.00000000000000000E+000  </sparseX_slice>
        <sparseX_slice start="51" end="100">  0.00000000000000000E+000  0.00000000000000000E+000  0.00000000000000000E+000  0.00000000000000000E+000  0.00000000000000000E+000  0.00000000000000000E+000  0.00000000000000000E+000  0.00000000000000000E+000  0.00000000000000000E+000  0.00000000000000000E+000  0.00000000000000000E+000  0.00000000000000000E+000  0.00000000000000000E+000  0.00000000000000000E+000  0.00000000000000000E+000  0.00000000000000000E+000  0.00000000000000000E+000  0.00000000000000000E+000  0.00000000000000000E+000  0.00000000000000000E+000  0.00000000000000000E+000  0.00000000000000000E+000  0.00000000000000000E+000  0.00000000000000000E+000  0.00000000000000000E+000  0.00000000000000000E+000  0.00000000000000000E+000  0.00000000000000000E+000  0.00000000000000000E+000  0.00000000000000000E+000  0.00000000000000000E+000  0.00000000000000000E+000  0.00000000000000000E+000  0.00000000000000000E+000  0.00000000000000000E+000  0.00000000000000000E+000  0.00000000000000000E+000  
0.00000000000000000E+000  0.00000000000000000E+000  0.00000000000000000E+000  0.00000000000000000E+000  0.00000000000000000E+000  0.00000000000000000E+000  0.00000000000000000E+000  0.00000000000000000E+000  0.00000000000000000E+000  0.00000000000000000E+000  0.00000000000000000E+000  0.00000000000000000E+000  0.00000000000000000E+000  </sparseX_slice>
        <sparseX_slice start="101" end="150">  0.00000000000000000E+000  0.00000000000000000E+000  0.00000000000000000E+000  0.00000000000000000E+000  0.00000000000000000E+000  0.00000000000000000E+000  0.00000000000000000E+000  0.00000000000000000E+000  0.00000000000000000E+000  0.00000000000000000E+000  0.00000000000000000E+000  0.00000000000000000E+000  0.00000000000000000E+000  0.00000000000000000E+000  0.00000000000000000E+000  0.00000000000000000E+000  0.00000000000000000E+000  0.00000000000000000E+000  0.00000000000000000E+000  0.00000000000000000E+000  0.00000000000000000E+000  0.00000000000000000E+000  0.00000000000000000E+000  0.00000000000000000E+000  0.00000000000000000E+000  0.00000000000000000E+000  0.00000000000000000E+000  0.00000000000000000E+000  0.00000000000000000E+000  0.00000000000000000E+000  0.00000000000000000E+000  0.00000000000000000E+000  0.00000000000000000E+000  0.00000000000000000E+000  0.00000000000000000E+000  0.00000000000000000E+000  0.00000000000000000E+000  
0.00000000000000000E+000  0.00000000000000000E+000  0.00000000000000000E+000  0.00000000000000000E+000  0.00000000000000000E+000  0.00000000000000000E+000  0.00000000000000000E+000  0.00000000000000000E+000  0.00000000000000000E+000  0.00000000000000000E+000  0.00000000000000000E+000  0.00000000000000000E+000  0.00000000000000000E+000  </sparseX_slice>
        <sparseX_slice start="151" end="200">  0.00000000000000000E+000  0.00000000000000000E+000  0.00000000000000000E+000  0.00000000000000000E+000  0.00000000000000000E+000  0.00000000000000000E+000  0.00000000000000000E+000  0.00000000000000000E+000  0.00000000000000000E+000  0.00000000000000000E+000  0.00000000000000000E+000  0.00000000000000000E+000  0.00000000000000000E+000  0.00000000000000000E+000  0.00000000000000000E+000  0.00000000000000000E+000  0.00000000000000000E+000  0.00000000000000000E+000  0.00000000000000000E+000  0.00000000000000000E+000  0.00000000000000000E+000  0.00000000000000000E+000  0.00000000000000000E+000  0.00000000000000000E+000  0.00000000000000000E+000  0.00000000000000000E+000  0.00000000000000000E+000  0.00000000000000000E+000  0.00000000000000000E+000  0.00000000000000000E+000  0.14109459448898997E-009  0.00000000000000000E+000  0.00000000000000000E+000  0.00000000000000000E+000  0.00000000000000000E+000  0.00000000000000000E+000  0.00000000000000000E+000  
0.00000000000000000E+000  0.00000000000000000E+000  0.00000000000000000E+000  0.00000000000000000E+000  0.00000000000000000E+000  0.00000000000000000E+000  0.00000000000000000E+000  0.00000000000000000E+000  0.00000000000000000E+000  0.00000000000000000E+000  0.00000000000000000E+000  0.00000000000000000E+000  0.00000000000000000E+000  </sparseX_slice>
        <sparseX_slice start="201" end="250">  0.00000000000000000E+000  0.00000000000000000E+000  0.00000000000000000E+000  0.00000000000000000E+000  0.00000000000000000E+000  0.00000000000000000E+000  0.00000000000000000E+000  0.00000000000000000E+000  0.00000000000000000E+000  0.00000000000000000E+000  0.00000000000000000E+000  0.00000000000000000E+000  0.00000000000000000E+000  0.00000000000000000E+000  0.00000000000000000E+000  0.00000000000000000E+000  0.00000000000000000E+000  0.00000000000000000E+000  0.00000000000000000E+000  0.00000000000000000E+000  0.99538890016204741E-020  0.17054779771146674E-019  0.21545286116210301E-019  0.24676295660411233E-019  0.26790891265417190E-019 -0.84989551643157984E-008  0.00000000000000000E+000  0.00000000000000000E+000  0.00000000000000000E+000  0.00000000000000000E+000  0.00000000000000000E+000  0.00000000000000000E+000  0.00000000000000000E+000  0.00000000000000000E+000  0.00000000000000000E+000  0.00000000000000000E+000  0.00000000000000000E+000  
0.00000000000000000E+000  0.00000000000000000E+000  0.00000000000000000E+000  0.00000000000000000E+000  0.00000000000000000E+000  0.00000000000000000E+000  0.00000000000000000E+000  0.00000000000000000E+000  0.00000000000000000E+000  0.00000000000000000E+000  0.00000000000000000E+000  0.00000000000000000E+000  0.00000000000000000E+000  </sparseX_slice>
        <sparseX_slice start="251" end="300">  0.00000000000000000E+000  0.00000000000000000E+000  0.00000000000000000E+000  0.00000000000000000E+000  0.00000000000000000E+000  0.00000000000000000E+000  0.00000000000000000E+000  0.00000000000000000E+000  0.00000000000000000E+000  0.00000000000000000E+000  0.00000000000000000E+000  0.00000000000000000E+000  0.00000000000000000E+000  0.00000000000000000E+000  0.00000000000000000E+000 -0.84793576513495659E-018 -0.14528349410820418E-017 -0.18353649201299218E-017 -0.21020842898892849E-017 -0.22822190367159231E-017  0.36116288903661320E-016  0.61880874287212942E-016  0.78174046329072959E-016  0.89534475162097695E-016  0.97206988747551221E-016  0.28775628350438313E-006  0.00000000000000000E+000  0.00000000000000000E+000  0.00000000000000000E+000  0.00000000000000000E+000  0.00000000000000000E+000  0.00000000000000000E+000  0.00000000000000000E+000  0.00000000000000000E+000  0.00000000000000000E+000  0.00000000000000000E+000  0.00000000000000000E+000  
0.00000000000000000E+000  0.00000000000000000E+000  0.00000000000000000E+000  0.00000000000000000E+000  0.00000000000000000E+000  0.00000000000000000E+000  0.00000000000000000E+000  0.00000000000000000E+000  0.00000000000000000E+000  0.00000000000000000E+000  0.00000000000000000E+000  0.00000000000000000E+000  0.00000000000000000E+000  </sparseX_slice>
        <sparseX_slice start="301" end="350">  0.00000000000000000E+000  0.00000000000000000E+000  0.00000000000000000E+000  0.00000000000000000E+000  0.00000000000000000E+000  0.00000000000000000E+000  0.00000000000000000E+000  0.00000000000000000E+000  0.00000000000000000E+000  0.00000000000000000E+000  0.00000000000000000E+000  0.00000000000000000E+000  0.00000000000000000E+000  0.00000000000000000E+000  0.00000000000000000E+000  0.28709275400127788E-016  0.49189592294253666E-016  0.62140498573280952E-016  0.71169764244477884E-016  0.77266922630581436E-016 -0.17293280816985554E-014 -0.29629777183818490E-014 -0.37430867843084226E-014 -0.42869724319741874E-014 -0.46542400575967176E-014  0.41402033610491376E-013  0.70936594390049289E-013  0.89612213597633520E-013  0.10263159860620163E-012  0.11142177529022358E-012 -0.71394515762448244E-005  0.00000000000000000E+000  0.00000000000000000E+000  0.00000000000000000E+000  0.00000000000000000E+000  0.00000000000000000E+000  0.00000000000000000E+000  
0.00000000000000000E+000  0.00000000000000000E+000  0.00000000000000000E+000  0.00000000000000000E+000  0.00000000000000000E+000  0.00000000000000000E+000  0.00000000000000000E+000  0.00000000000000000E+000  0.00000000000000000E+000  0.00000000000000000E+000  0.00000000000000000E+000  0.00000000000000000E+000  0.00000000000000000E+000  </sparseX_slice>
        <sparseX_slice start="351" end="400">  0.00000000000000000E+000  0.00000000000000000E+000  0.00000000000000000E+000  0.00000000000000000E+000  0.00000000000000000E+000  0.00000000000000000E+000  0.00000000000000000E+000  0.00000000000000000E+000  0.00000000000000000E+000  0.00000000000000000E+000  0.00000000000000000E+000  0.00000000000000000E+000  0.00000000000000000E+000  0.00000000000000000E+000  0.00000000000000000E+000  0.00000000000000000E+000  0.00000000000000000E+000  0.00000000000000000E+000  0.00000000000000000E+000  0.00000000000000000E+000 -0.71229889061715997E-015 -0.12210893959846576E-014 -0.15442406397330569E-014 -0.17714498270214048E-014 -0.19272593168600261E-014  0.42905940917669410E-013  0.73553377934330912E-013  0.93018673217761415E-013  0.10670481564304808E-012  0.11609013544893291E-012 -0.14527025804966852E-011 -0.24903453036173770E-011 -0.31493610164280683E-011 -0.36126793818844372E-011 -0.39303534715992910E-011  0.25486003987579028E-010  0.43713824892325901E-010  
0.55341088081651626E-010  0.63583986284630809E-010  0.69320733633419399E-010  0.56545890705368966E-003  0.00000000000000000E+000  0.00000000000000000E+000  0.00000000000000000E+000  0.00000000000000000E+000  0.00000000000000000E+000  0.00000000000000000E+000  0.00000000000000000E+000  0.00000000000000000E+000  0.00000000000000000E+000  </sparseX_slice>
        <sparseX_slice start="401" end="450">  0.00000000000000000E+000  0.00000000000000000E+000  0.00000000000000000E+000  0.00000000000000000E+000  0.00000000000000000E+000  0.00000000000000000E+000  0.00000000000000000E+000  0.00000000000000000E+000  0.00000000000000000E+000  0.00000000000000000E+000  0.00000000000000000E+000  0.00000000000000000E+000  0.00000000000000000E+000  0.00000000000000000E+000  0.00000000000000000E+000  0.00000000000000000E+000  0.00000000000000000E+000  0.00000000000000000E+000  0.00000000000000000E+000  0.00000000000000000E+000  0.00000000000000000E+000  0.00000000000000000E+000  0.00000000000000000E+000  0.00000000000000000E+000  0.00000000000000000E+000  0.00000000000000000E+000  0.00000000000000000E+000  0.00000000000000000E+000  0.00000000000000000E+000  0.00000000000000000E+000  0.56415503051256089E-013  0.96590163760116566E-013  0.12184377214910480E-012  0.13924594746364174E-012  0.15074210745038556E-012 -0.33982367130468722E-011 -0.58181922168424384E-011 
-0.73393652087255980E-011 -0.83876003296874141E-011 -0.90800815015822974E-011  0.11505696266292058E-009  0.19699037718829065E-009  0.24849108113568857E-009  0.28397697509655943E-009  0.30741569655457343E-009 -0.28546504821300206E-008 -0.48901169836233818E-008 -0.61752003107669005E-008 -0.70683241507561141E-008 -0.76678317857494570E-008  </sparseX_slice>
        <sparseX_slice start="451" end="500">  0.15987263792112538E-006  0.27352038139448975E-006  0.34452791045446273E-006  0.39287570046735586E-006  0.42408411749846537E-006  0.29887311249303921E-002  0.00000000000000000E+000  0.00000000000000000E+000  0.00000000000000000E+000  0.00000000000000000E+000  0.00000000000000000E+000  0.00000000000000000E+000  0.00000000000000000E+000  0.00000000000000000E+000  0.00000000000000000E+000  0.00000000000000000E+000  0.00000000000000000E+000  0.00000000000000000E+000  0.00000000000000000E+000  0.00000000000000000E+000  0.00000000000000000E+000  0.00000000000000000E+000  0.00000000000000000E+000  0.00000000000000000E+000  0.00000000000000000E+000  0.00000000000000000E+000  0.00000000000000000E+000  0.00000000000000000E+000  0.00000000000000000E+000  0.00000000000000000E+000  0.00000000000000000E+000  0.00000000000000000E+000  0.00000000000000000E+000  0.00000000000000000E+000  0.00000000000000000E+000  0.00000000000000000E+000  0.00000000000000000E+000  
0.00000000000000000E+000  0.00000000000000000E+000  0.00000000000000000E+000  0.00000000000000000E+000  0.00000000000000000E+000  0.00000000000000000E+000  0.00000000000000000E+000  0.00000000000000000E+000  0.29818394899186753E-012  0.51058628049272536E-012  0.64422911424906388E-012  0.73649611769989070E-012  0.79766980395779736E-012  </sparseX_slice>
        <sparseX_slice start="501" end="550"> -0.17961368558299137E-010 -0.30755607067475995E-010 -0.38805699004308343E-010 -0.44363481969527936E-010 -0.48048332040679894E-010  0.60813318379291939E-009  0.10413129046061258E-008  0.13138561477145883E-008  0.15020037816855305E-008  0.16267267490932841E-008 -0.15088245388500814E-007 -0.25849698816573943E-007 -0.32650366582935223E-007 -0.37385600015652388E-007 -0.40575244573472959E-007  0.11950193450611022E-005  0.20447533571685684E-005  0.25761812791066020E-005  0.29387190177604469E-005  0.31736247550149265E-005  0.44662778247732961E-005  0.76429702794651810E-005  0.96315999102437347E-005  0.10990841957231836E-004  0.11874877730689834E-004  0.36202874431724762E-003  0.00000000000000000E+000  0.00000000000000000E+000  0.00000000000000000E+000  0.00000000000000000E+000  0.00000000000000000E+000  0.00000000000000000E+000  0.00000000000000000E+000  0.00000000000000000E+000  0.00000000000000000E+000  0.00000000000000000E+000  0.00000000000000000E+000  
0.00000000000000000E+000  0.00000000000000000E+000  0.00000000000000000E+000  0.00000000000000000E+000  0.00000000000000000E+000  0.00000000000000000E+000  0.00000000000000000E+000  0.00000000000000000E+000  0.00000000000000000E+000  0.00000000000000000E+000  0.00000000000000000E+000  0.00000000000000000E+000  0.00000000000000000E+000  </sparseX_slice>
        <sparseX_slice start="551" end="600">  0.00000000000000000E+000  0.00000000000000000E+000  0.00000000000000000E+000  0.00000000000000000E+000  0.00000000000000000E+000  0.00000000000000000E+000  0.00000000000000000E+000  0.00000000000000000E+000  0.00000000000000000E+000  0.00000000000000000E+000  0.00000000000000000E+000  0.00000000000000000E+000  0.00000000000000000E+000  0.00000000000000000E+000  0.00000000000000000E+000  0.36119395193703890E-013  0.61934226364637666E-013  0.78363134826048626E-013  0.89961065357447132E-013  0.97976112183841253E-013 -0.21756830686908225E-011 -0.37306617958099388E-011 -0.47202713379979688E-011 -0.54188827409011373E-011 -0.59016760405201145E-011  0.73663934192584207E-010  0.12631148077080583E-009  0.15981563727588201E-009  0.18346581485498687E-009  0.19980744121292003E-009 -0.18276580607687390E-008 -0.31355740628565653E-008 -0.39715452500789905E-008 -0.45665527972354443E-008 -0.49837723510312448E-008  0.14475418993649572E-006  0.24802902490940569E-006  
0.31336311328662749E-006  0.35895680543376148E-006  0.38980968501499057E-006  0.76509777727528589E-006  0.13111088370990264E-005  0.16568564593020631E-005  0.18985851900138759E-005  0.20627243461426270E-005  0.65532713341819047E-007  0.11245669679873788E-006  0.14250868766939359E-006  0.16398314786831346E-006  0.17915265422789147E-006  </sparseX_slice>
        <sparseX_slice start="601" end="650"> -0.17915134278459720E-004  0.00000000000000000E+000  0.00000000000000000E+000  0.00000000000000000E+000  0.00000000000000000E+000  0.00000000000000000E+000  0.00000000000000000E+000  0.00000000000000000E+000  0.00000000000000000E+000  0.00000000000000000E+000  0.00000000000000000E+000  0.00000000000000000E+000  0.00000000000000000E+000  0.00000000000000000E+000  0.00000000000000000E+000  0.00000000000000000E+000  0.00000000000000000E+000  0.00000000000000000E+000  0.00000000000000000E+000  0.00000000000000000E+000  0.00000000000000000E+000  0.00000000000000000E+000  0.00000000000000000E+000  0.00000000000000000E+000  0.00000000000000000E+000  0.00000000000000000E+000  0.00000000000000000E+000  0.00000000000000000E+000  0.00000000000000000E+000  0.00000000000000000E+000  0.00000000000000000E+000  0.00000000000000000E+000  0.00000000000000000E+000  0.00000000000000000E+000  0.00000000000000000E+000  0.00000000000000000E+000  0.00000000000000000E+000  
0.00000000000000000E+000  0.00000000000000000E+000  0.00000000000000000E+000 -0.17873824250400266E-014 -0.30648275241919155E-014 -0.38777850739986116E-014 -0.44516542539846418E-014 -0.48481965409226841E-014  0.10766452922536745E-012  0.18461254182675755E-012  0.23358174453260262E-012  0.26814925222958754E-012  0.29203532093218557E-012  </sparseX_slice>
        <sparseX_slice start="651" end="681"> -0.36452886497413228E-011 -0.62505487774823896E-011 -0.79084469271893816E-011 -0.90786649970719915E-011 -0.98871625312241741E-011  0.90442375329978264E-010  0.15516450686582002E-009  0.19653117407379455E-009  0.22597235932106250E-009  0.24661427499468361E-009 -0.71632178129189359E-008 -0.12273765685960964E-007 -0.15506715066236623E-007 -0.17762701937296039E-007 -0.19289130017342397E-007 -0.37861163322508033E-007 -0.64880481875957938E-007 -0.81989232078347399E-007 -0.93950030539270958E-007 -0.10207072741446282E-006 -0.45861701314322976E-008 -0.78700164980433760E-008 -0.99730563328061559E-008 -0.11475749341453404E-007 -0.12537133774183574E-007  0.16047677108022145E-009  0.27538226465215736E-009  0.34896768135310757E-009  0.40154377038067357E-009  0.43867539654710815E-009  0.00000000000000000E+000  </sparseX_slice>
      </sparseX>
      <sparseX i="5" alpha="-1150.6491860706194" sparseCutoff="1.0000000000000000" sliced="T">
        <sparseX_slice start="1" end="50">  0.96615066222137524E+000  0.00000000000000000E+000  0.00000000000000000E+000  0.00000000000000000E+000  0.00000000000000000E+000  0.00000000000000000E+000  0.00000000000000000E+000  0.00000000000000000E+000  0.00000000000000000E+000  0.00000000000000000E+000  0.00000000000000000E+000  0.00000000000000000E+000  0.00000000000000000E+000  0.00000000000000000E+000  0.00000000000000000E+000  0.00000000000000000E+000  0.00000000000000000E+000  0.00000000000000000E+000  0.00000000000000000E+000  0.00000000000000000E+000  0.00000000000000000E+000  0.00000000000000000E+000  0.00000000000000000E+000  0.00000000000000000E+000  0.00000000000000000E+000  0.00000000000000000E+000  0.00000000000000000E+000  0.00000000000000000E+000  0.00000000000000000E+000  0.00000000000000000E+000  0.00000000000000000E+000  0.00000000000000000E+000  0.00000000000000000E+000  0.00000000000000000E+000  0.00000000000000000E+000  0.00000000000000000E+000  0.00000000000000000E+000  
0.00000000000000000E+000  0.00000000000000000E+000  0.00000000000000000E+000  0.00000000000000000E+000  0.00000000000000000E+000  0.00000000000000000E+000  0.00000000000000000E+000  0.00000000000000000E+000  0.00000000000000000E+000  0.00000000000000000E+000  0.00000000000000000E+000  0.00000000000000000E+000  0.00000000000000000E+000  </sparseX_slice>
        <sparseX_slice start="51" end="100">  0.00000000000000000E+000  0.00000000000000000E+000  0.00000000000000000E+000  0.00000000000000000E+000  0.00000000000000000E+000  0.00000000000000000E+000  0.00000000000000000E+000  0.00000000000000000E+000  0.00000000000000000E+000  0.00000000000000000E+000  0.00000000000000000E+000  0.00000000000000000E+000  0.00000000000000000E+000  0.00000000000000000E+000  0.00000000000000000E+000  0.00000000000000000E+000  0.00000000000000000E+000  0.00000000000000000E+000  0.00000000000000000E+000  0.00000000000000000E+000  0.00000000000000000E+000  0.00000000000000000E+000  0.00000000000000000E+000  0.00000000000000000E+000  0.00000000000000000E+000  0.00000000000000000E+000  0.00000000000000000E+000  0.00000000000000000E+000  0.00000000000000000E+000  0.00000000000000000E+000  0.00000000000000000E+000  0.00000000000000000E+000  0.00000000000000000E+000  0.00000000000000000E+000  0.00000000000000000E+000  0.00000000000000000E+000  0.00000000000000000E+000  
0.00000000000000000E+000  0.00000000000000000E+000  0.00000000000000000E+000  0.00000000000000000E+000  0.00000000000000000E+000  0.00000000000000000E+000  0.00000000000000000E+000  0.00000000000000000E+000  0.00000000000000000E+000  0.00000000000000000E+000  0.00000000000000000E+000  0.00000000000000000E+000  0.00000000000000000E+000  </sparseX_slice>
        <sparseX_slice start="101" end="150">  0.00000000000000000E+000  0.00000000000000000E+000  0.00000000000000000E+000  0.00000000000000000E+000  0.00000000000000000E+000  0.00000000000000000E+000  0.00000000000000000E+000  0.00000000000000000E+000  0.00000000000000000E+000  0.00000000000000000E+000  0.00000000000000000E+000  0.00000000000000000E+000  0.00000000000000000E+000  0.00000000000000000E+000  0.00000000000000000E+000  0.00000000000000000E+000  0.00000000000000000E+000  0.00000000000000000E+000  0.00000000000000000E+000  0.00000000000000000E+000  0.00000000000000000E+000  0.00000000000000000E+000  0.00000000000000000E+000  0.00000000000000000E+000  0.00000000000000000E+000  0.00000000000000000E+000  0.00000000000000000E+000  0.00000000000000000E+000  0.00000000000000000E+000  0.00000000000000000E+000  0.00000000000000000E+000  0.00000000000000000E+000  0.00000000000000000E+000  0.00000000000000000E+000  0.00000000000000000E+000  0.00000000000000000E+000  0.00000000000000000E+000  
0.00000000000000000E+000  0.00000000000000000E+000  0.00000000000000000E+000  0.00000000000000000E+000  0.00000000000000000E+000  0.00000000000000000E+000  0.00000000000000000E+000  0.00000000000000000E+000  0.00000000000000000E+000  0.00000000000000000E+000  0.00000000000000000E+000  0.00000000000000000E+000  0.00000000000000000E+000  </sparseX_slice>
        <sparseX_slice start="151" end="200">  0.00000000000000000E+000  0.00000000000000000E+000  0.00000000000000000E+000  0.00000000000000000E+000  0.00000000000000000E+000  0.00000000000000000E+000  0.00000000000000000E+000  0.00000000000000000E+000  0.00000000000000000E+000  0.00000000000000000E+000  0.00000000000000000E+000  0.00000000000000000E+000  0.00000000000000000E+000  0.00000000000000000E+000  0.00000000000000000E+000  0.00000000000000000E+000  0.00000000000000000E+000  0.00000000000000000E+000  0.00000000000000000E+000  0.00000000000000000E+000  0.00000000000000000E+000  0.00000000000000000E+000  0.00000000000000000E+000  0.00000000000000000E+000  0.00000000000000000E+000  0.00000000000000000E+000  0.00000000000000000E+000  0.00000000000000000E+000  0.00000000000000000E+000  0.00000000000000000E+000  0.44913247533016919E-001  0.00000000000000000E+000  0.00000000000000000E+000  0.00000000000000000E+000  0.00000000000000000E+000  0.00000000000000000E+000  0.00000000000000000E+000  
0.00000000000000000E+000  0.00000000000000000E+000  0.00000000000000000E+000  0.00000000000000000E+000  0.00000000000000000E+000  0.00000000000000000E+000  0.00000000000000000E+000  0.00000000000000000E+000  0.00000000000000000E+000  0.00000000000000000E+000  0.00000000000000000E+000  0.00000000000000000E+000  0.00000000000000000E+000  </sparseX_slice>
        <sparseX_slice start="201" end="250">  0.00000000000000000E+000  0.00000000000000000E+000  0.00000000000000000E+000  0.00000000000000000E+000  0.00000000000000000E+000  0.00000000000000000E+000  0.00000000000000000E+000  0.00000000000000000E+000  0.00000000000000000E+000  0.00000000000000000E+000  0.00000000000000000E+000  0.00000000000000000E+000  0.00000000000000000E+000  0.00000000000000000E+000  0.00000000000000000E+000  0.00000000000000000E+000  0.00000000000000000E+000  0.00000000000000000E+000  0.00000000000000000E+000  0.00000000000000000E+000  0.10439364598292056E-002  0.14156546918337311E-002  0.11893504857993216E-002  0.74360232300148277E-003  0.36420360126144944E-003  0.17074161845743765E+000  0.00000000000000000E+000  0.00000000000000000E+000  0.00000000000000000E+000  0.00000000000000000E+000  0.00000000000000000E+000  0.00000000000000000E+000  0.00000000000000000E+000  0.00000000000000000E+000  0.00000000000000000E+000  0.00000000000000000E+000  0.00000000000000000E+000  
0.00000000000000000E+000  0.00000000000000000E+000  0.00000000000000000E+000  0.00000000000000000E+000  0.00000000000000000E+000  0.00000000000000000E+000  0.00000000000000000E+000  0.00000000000000000E+000  0.00000000000000000E+000  0.00000000000000000E+000  0.00000000000000000E+000  0.00000000000000000E+000  0.00000000000000000E+000  </sparseX_slice>
        <sparseX_slice start="251" end="300">  0.00000000000000000E+000  0.00000000000000000E+000  0.00000000000000000E+000  0.00000000000000000E+000  0.00000000000000000E+000  0.00000000000000000E+000  0.00000000000000000E+000  0.00000000000000000E+000  0.00000000000000000E+000  0.00000000000000000E+000  0.00000000000000000E+000  0.00000000000000000E+000  0.00000000000000000E+000  0.00000000000000000E+000  0.00000000000000000E+000  0.56124695617600119E-002  0.78360648286532643E-002  0.67811044012389800E-002  0.44486042542697677E-002  0.23398426742729213E-002  0.15087036325389085E-001  0.21687461057088270E-001  0.19331297817396034E-001  0.13306897516959211E-001  0.75162130761283101E-002  0.16824621192310354E+000  0.00000000000000000E+000  0.00000000000000000E+000  0.00000000000000000E+000  0.00000000000000000E+000  0.00000000000000000E+000  0.00000000000000000E+000  0.00000000000000000E+000  0.00000000000000000E+000  0.00000000000000000E+000  0.00000000000000000E+000  0.00000000000000000E+000  
0.00000000000000000E+000  0.00000000000000000E+000  0.00000000000000000E+000  0.00000000000000000E+000  0.00000000000000000E+000  0.00000000000000000E+000  0.00000000000000000E+000  0.00000000000000000E+000  0.00000000000000000E+000  0.00000000000000000E+000  0.00000000000000000E+000  0.00000000000000000E+000  0.00000000000000000E+000  </sparseX_slice>
        <sparseX_slice start="301" end="350">  0.00000000000000000E+000  0.00000000000000000E+000  0.00000000000000000E+000  0.00000000000000000E+000  0.00000000000000000E+000  0.00000000000000000E+000  0.00000000000000000E+000  0.00000000000000000E+000  0.00000000000000000E+000  0.00000000000000000E+000  0.00000000000000000E+000  0.00000000000000000E+000  0.00000000000000000E+000  0.00000000000000000E+000  0.00000000000000000E+000  0.55304427346472163E-002  0.80715148477274387E-002  0.76204572984786270E-002  0.56514345094384457E-002  0.34514548286931021E-002  0.21024459266849503E-001  0.31592263265809509E-001  0.30722504215988655E-001  0.23907091096467901E-001  0.15679406427886445E-001  0.14649261721453907E-001  0.23010326004251434E-001  0.24413059956379636E-001  0.21475667185622868E-001  0.16354232074104778E-001 -0.10269719935955058E-001  0.00000000000000000E+000  0.00000000000000000E+000  0.00000000000000000E+000  0.00000000000000000E+000  0.00000000000000000E+000  0.00000000000000000E+000  
0.00000000000000000E+000  0.00000000000000000E+000  0.00000000000000000E+000  0.00000000000000000E+000  0.00000000000000000E+000  0.00000000000000000E+000  0.00000000000000000E+000  0.00000000000000000E+000  0.00000000000000000E+000  0.00000000000000000E+000  0.00000000000000000E+000  0.00000000000000000E+000  0.00000000000000000E+000  </sparseX_slice>
        <sparseX_slice start="351" end="400">  0.00000000000000000E+000  0.00000000000000000E+000  0.00000000000000000E+000  0.00000000000000000E+000  0.00000000000000000E+000  0.00000000000000000E+000  0.00000000000000000E+000  0.00000000000000000E+000  0.00000000000000000E+000  0.00000000000000000E+000  0.00000000000000000E+000  0.00000000000000000E+000  0.00000000000000000E+000  0.00000000000000000E+000  0.00000000000000000E+000  0.00000000000000000E+000  0.00000000000000000E+000  0.00000000000000000E+000  0.00000000000000000E+000  0.00000000000000000E+000 -0.33757727652508938E-003 -0.49237187842550835E-003 -0.46424692717767163E-003 -0.34357075042680915E-003 -0.20919149594727826E-003 -0.12833293897524590E-002 -0.19271651358331349E-002 -0.18716499048322562E-002 -0.14533968702667892E-002 -0.95032345750180704E-003 -0.12645733970787125E-002 -0.19850706123590331E-002 -0.21033193612046176E-002 -0.18463717514660895E-002 -0.14018030025177472E-002  0.54581108147492478E-004  0.85624717688124267E-004  
0.90606264497829352E-004  0.79370960053204003E-004  0.60077772192655414E-004  0.57955293030834717E-003  0.00000000000000000E+000  0.00000000000000000E+000  0.00000000000000000E+000  0.00000000000000000E+000  0.00000000000000000E+000  0.00000000000000000E+000  0.00000000000000000E+000  0.00000000000000000E+000  0.00000000000000000E+000  </sparseX_slice>
        <sparseX_slice start="401" end="450">  0.00000000000000000E+000  0.00000000000000000E+000  0.00000000000000000E+000  0.00000000000000000E+000  0.00000000000000000E+000  0.00000000000000000E+000  0.00000000000000000E+000  0.00000000000000000E+000  0.00000000000000000E+000  0.00000000000000000E+000  0.00000000000000000E+000  0.00000000000000000E+000  0.00000000000000000E+000  0.00000000000000000E+000  0.00000000000000000E+000  0.00000000000000000E+000  0.00000000000000000E+000  0.00000000000000000E+000  0.00000000000000000E+000  0.00000000000000000E+000  0.00000000000000000E+000  0.00000000000000000E+000  0.00000000000000000E+000  0.00000000000000000E+000  0.00000000000000000E+000  0.00000000000000000E+000  0.00000000000000000E+000  0.00000000000000000E+000  0.00000000000000000E+000  0.00000000000000000E+000  0.19050558441293309E-004  0.27786079134900979E-004  0.26198840718366478E-004  0.19388652914357360E-004  0.11805195603183674E-004  0.72422355528694679E-004  0.10875593289673036E-003  
0.10562279439381164E-003  0.82019227275341412E-004  0.53629112652505052E-004  0.71363895260771049E-004  0.11202371934756882E-003  0.11869659376973557E-003  0.10419589268172082E-003  0.79107224540441403E-004 -0.43560399339149042E-005 -0.68335783510209548E-005 -0.72311315142540530E-005 -0.63344379166498079E-005 -0.47946618058792078E-005  </sparseX_slice>
        <sparseX_slice start="451" end="500">  0.17382464876478600E-006  0.27268874187493540E-006  0.28855213966850382E-006  0.25276942406261732E-006  0.19132518561970972E-006 -0.30661606465925388E-004  0.00000000000000000E+000  0.00000000000000000E+000  0.00000000000000000E+000  0.00000000000000000E+000  0.00000000000000000E+000  0.00000000000000000E+000  0.00000000000000000E+000  0.00000000000000000E+000  0.00000000000000000E+000  0.00000000000000000E+000  0.00000000000000000E+000  0.00000000000000000E+000  0.00000000000000000E+000  0.00000000000000000E+000  0.00000000000000000E+000  0.00000000000000000E+000  0.00000000000000000E+000  0.00000000000000000E+000  0.00000000000000000E+000  0.00000000000000000E+000  0.00000000000000000E+000  0.00000000000000000E+000  0.00000000000000000E+000  0.00000000000000000E+000  0.00000000000000000E+000  0.00000000000000000E+000  0.00000000000000000E+000  0.00000000000000000E+000  0.00000000000000000E+000  0.00000000000000000E+000  0.00000000000000000E+000  
0.00000000000000000E+000  0.00000000000000000E+000  0.00000000000000000E+000  0.00000000000000000E+000  0.00000000000000000E+000  0.00000000000000000E+000  0.00000000000000000E+000  0.00000000000000000E+000 -0.10078815848144724E-005 -0.14700397106678710E-005 -0.13860658743967518E-005 -0.10257686692557484E-005 -0.62456116592331850E-006  </sparseX_slice>
        <sparseX_slice start="501" end="550"> -0.38315495417730435E-005 -0.57537999281125889E-005 -0.55880392740070461E-005 -0.43392779264881856E-005 -0.28372813337077255E-005 -0.37755510462126379E-005 -0.59266841924016484E-005 -0.62797167172373502E-005 -0.55125481202924587E-005 -0.41852165819778081E-005  0.23045898867682903E-006  0.36153469128154746E-006  0.38256748582604400E-006  0.33512735417701384E-006  0.25366454469253665E-006 -0.13005533065798587E-007 -0.20402529027621731E-007 -0.21589425881857528E-007 -0.18912168582957497E-007 -0.14314920184148545E-007  0.48653597613322546E-009  0.76325701578442887E-009  0.80765873100731688E-009  0.70750274056406572E-009  0.53552003416280345E-009  0.15573101190653684E-005  0.00000000000000000E+000  0.00000000000000000E+000  0.00000000000000000E+000  0.00000000000000000E+000  0.00000000000000000E+000  0.00000000000000000E+000  0.00000000000000000E+000  0.00000000000000000E+000  0.00000000000000000E+000  0.00000000000000000E+000  0.00000000000000000E+000  
0.00000000000000000E+000  0.00000000000000000E+000  0.00000000000000000E+000  0.00000000000000000E+000  0.00000000000000000E+000  0.00000000000000000E+000  0.00000000000000000E+000  0.00000000000000000E+000  0.00000000000000000E+000  0.00000000000000000E+000  0.00000000000000000E+000  0.00000000000000000E+000  0.00000000000000000E+000  </sparseX_slice>
        <sparseX_slice start="551" end="600">  0.00000000000000000E+000  0.00000000000000000E+000  0.00000000000000000E+000  0.00000000000000000E+000  0.00000000000000000E+000  0.00000000000000000E+000  0.00000000000000000E+000  0.00000000000000000E+000  0.00000000000000000E+000  0.00000000000000000E+000  0.00000000000000000E+000  0.00000000000000000E+000  0.00000000000000000E+000  0.00000000000000000E+000  0.00000000000000000E+000  0.51190539954112186E-007  0.74663658585112403E-007  0.70398607922408131E-007  0.52099029129196852E-007  0.31721606782417215E-007  0.19460529179169185E-006  0.29223683570049004E-006  0.28381781354876281E-006  0.22039293445745100E-006  0.14410617840113841E-006  0.19176111518647802E-006  0.30101766766709878E-006  0.31894827165627251E-006  0.27998360030200015E-006  0.21256812295795590E-006 -0.11705065600357323E-007 -0.18362431001442634E-007 -0.19430691524853121E-007 -0.17021196211741346E-007 -0.12883681183542372E-007  0.66055404728110076E-009  0.10362491914583133E-008  
0.10965319585465295E-008  0.96055343805214597E-009  0.72705812333359109E-009 -0.34947020691331110E-010 -0.54823404705480888E-010 -0.58012701564359266E-010 -0.50818673491759800E-010 -0.38465459147562630E-010  0.12550914167813817E-011  0.19689342130789103E-011  0.20834749960530809E-011  0.18251078246022970E-011  0.13814530298067228E-011  </sparseX_slice>
        <sparseX_slice start="601" end="650"> -0.77568828178459938E-007  0.00000000000000000E+000  0.00000000000000000E+000  0.00000000000000000E+000  0.00000000000000000E+000  0.00000000000000000E+000  0.00000000000000000E+000  0.00000000000000000E+000  0.00000000000000000E+000  0.00000000000000000E+000  0.00000000000000000E+000  0.00000000000000000E+000  0.00000000000000000E+000  0.00000000000000000E+000  0.00000000000000000E+000  0.00000000000000000E+000  0.00000000000000000E+000  0.00000000000000000E+000  0.00000000000000000E+000  0.00000000000000000E+000  0.00000000000000000E+000  0.00000000000000000E+000  0.00000000000000000E+000  0.00000000000000000E+000  0.00000000000000000E+000  0.00000000000000000E+000  0.00000000000000000E+000  0.00000000000000000E+000  0.00000000000000000E+000  0.00000000000000000E+000  0.00000000000000000E+000  0.00000000000000000E+000  0.00000000000000000E+000  0.00000000000000000E+000  0.00000000000000000E+000  0.00000000000000000E+000  0.00000000000000000E+000  
0.00000000000000000E+000  0.00000000000000000E+000  0.00000000000000000E+000 -0.25497748646533013E-008 -0.37189590134042156E-008 -0.35065190003473696E-008 -0.25950262502708710E-008 -0.15800371653184719E-008 -0.96931910072403359E-008 -0.14556168754282966E-007 -0.14136821525543325E-007 -0.10977660425744860E-007 -0.71778557494767083E-008  </sparseX_slice>
