<GAP_2023_3_22_60_12_47_45_49>
<Potential label="GAP_2023_3_22_60_12_47_45_49" init_args="IP GAP label=GAP_2023_3_22_60_12_47_45_49"/>
<GAP_params label="GAP_2023_3_22_60_12_47_45_49" gap_version="1662319253">
  <GAP_data do_core="F">
    <e0 Z="1" value=".00000000000000000E+000"/>
    <e0 Z="2" value=".00000000000000000E+000"/>
    <e0 Z="3" value=".00000000000000000E+000"/>
    <e0 Z="4" value=".00000000000000000E+000"/>
    <e0 Z="5" value=".00000000000000000E+000"/>
    <e0 Z="6" value="-73.143320032107923"/>
    <e0 Z="7" value=".00000000000000000E+000"/>
    <e0 Z="8" value="-73.143320032107923"/>
    <e0 Z="9" value=".00000000000000000E+000"/>
    <e0 Z="10" value=".00000000000000000E+000"/>
    <e0 Z="11" value=".00000000000000000E+000"/>
    <e0 Z="12" value=".00000000000000000E+000"/>
    <e0 Z="13" value=".00000000000000000E+000"/>
    <e0 Z="14" value=".00000000000000000E+000"/>
    <e0 Z="15" value=".00000000000000000E+000"/>
    <e0 Z="16" value=".00000000000000000E+000"/>
    <e0 Z="17" value=".00000000000000000E+000"/>
    <e0 Z="18" value=".00000000000000000E+000"/>
    <e0 Z="19" value=".00000000000000000E+000"/>
    <e0 Z="20" value=".00000000000000000E+000"/>
    <e0 Z="21" value=".00000000000000000E+000"/>
    <e0 Z="22" value=".00000000000000000E+000"/>
    <e0 Z="23" value=".00000000000000000E+000"/>
    <e0 Z="24" value=".00000000000000000E+000"/>
    <e0 Z="25" value=".00000000000000000E+000"/>
    <e0 Z="26" value=".00000000000000000E+000"/>
    <e0 Z="27" value=".00000000000000000E+000"/>
    <e0 Z="28" value=".00000000000000000E+000"/>
    <e0 Z="29" value=".00000000000000000E+000"/>
    <e0 Z="30" value=".00000000000000000E+000"/>
    <e0 Z="31" value=".00000000000000000E+000"/>
    <e0 Z="32" value=".00000000000000000E+000"/>
    <e0 Z="33" value=".00000000000000000E+000"/>
    <e0 Z="34" value=".00000000000000000E+000"/>
    <e0 Z="35" value=".00000000000000000E+000"/>
    <e0 Z="36" value=".00000000000000000E+000"/>
    <e0 Z="37" value=".00000000000000000E+000"/>
    <e0 Z="38" value=".00000000000000000E+000"/>
    <e0 Z="39" value=".00000000000000000E+000"/>
    <e0 Z="40" value=".00000000000000000E+000"/>
    <e0 Z="41" value=".00000000000000000E+000"/>
    <e0 Z="42" value=".00000000000000000E+000"/>
    <e0 Z="43" value=".00000000000000000E+000"/>
    <e0 Z="44" value=".00000000000000000E+000"/>
    <e0 Z="45" value=".00000000000000000E+000"/>
    <e0 Z="46" value=".00000000000000000E+000"/>
    <e0 Z="47" value=".00000000000000000E+000"/>
    <e0 Z="48" value=".00000000000000000E+000"/>
    <e0 Z="49" value=".00000000000000000E+000"/>
    <e0 Z="50" value=".00000000000000000E+000"/>
    <e0 Z="51" value=".00000000000000000E+000"/>
    <e0 Z="52" value=".00000000000000000E+000"/>
    <e0 Z="53" value=".00000000000000000E+000"/>
    <e0 Z="54" value=".00000000000000000E+000"/>
    <e0 Z="55" value=".00000000000000000E+000"/>
    <e0 Z="56" value=".00000000000000000E+000"/>
    <e0 Z="57" value=".00000000000000000E+000"/>
    <e0 Z="58" value=".00000000000000000E+000"/>
    <e0 Z="59" value=".00000000000000000E+000"/>
    <e0 Z="60" value=".00000000000000000E+000"/>
    <e0 Z="61" value=".00000000000000000E+000"/>
    <e0 Z="62" value=".00000000000000000E+000"/>
    <e0 Z="63" value=".00000000000000000E+000"/>
    <e0 Z="64" value=".00000000000000000E+000"/>
    <e0 Z="65" value=".00000000000000000E+000"/>
    <e0 Z="66" value=".00000000000000000E+000"/>
    <e0 Z="67" value=".00000000000000000E+000"/>
    <e0 Z="68" value=".00000000000000000E+000"/>
    <e0 Z="69" value=".00000000000000000E+000"/>
    <e0 Z="70" value=".00000000000000000E+000"/>
    <e0 Z="71" value=".00000000000000000E+000"/>
    <e0 Z="72" value=".00000000000000000E+000"/>
    <e0 Z="73" value=".00000000000000000E+000"/>
    <e0 Z="74" value=".00000000000000000E+000"/>
    <e0 Z="75" value=".00000000000000000E+000"/>
    <e0 Z="76" value=".00000000000000000E+000"/>
    <e0 Z="77" value=".00000000000000000E+000"/>
    <e0 Z="78" value=".00000000000000000E+000"/>
    <e0 Z="79" value=".00000000000000000E+000"/>
    <e0 Z="80" value=".00000000000000000E+000"/>
    <e0 Z="81" value=".00000000000000000E+000"/>
    <e0 Z="82" value=".00000000000000000E+000"/>
    <e0 Z="83" value=".00000000000000000E+000"/>
    <e0 Z="84" value=".00000000000000000E+000"/>
    <e0 Z="85" value=".00000000000000000E+000"/>
    <e0 Z="86" value=".00000000000000000E+000"/>
    <e0 Z="87" value=".00000000000000000E+000"/>
    <e0 Z="88" value=".00000000000000000E+000"/>
    <e0 Z="89" value=".00000000000000000E+000"/>
    <e0 Z="90" value=".00000000000000000E+000"/>
    <e0 Z="91" value=".00000000000000000E+000"/>
    <e0 Z="92" value=".00000000000000000E+000"/>
    <e0 Z="93" value=".00000000000000000E+000"/>
    <e0 Z="94" value=".00000000000000000E+000"/>
    <e0 Z="95" value=".00000000000000000E+000"/>
    <e0 Z="96" value=".00000000000000000E+000"/>
    <e0 Z="97" value=".00000000000000000E+000"/>
    <e0 Z="98" value=".00000000000000000E+000"/>
    <e0 Z="99" value=".00000000000000000E+000"/>
    <e0 Z="100" value=".00000000000000000E+000"/>
    <e0 Z="101" value=".00000000000000000E+000"/>
    <e0 Z="102" value=".00000000000000000E+000"/>
    <e0 Z="103" value=".00000000000000000E+000"/>
    <e0 Z="104" value=".00000000000000000E+000"/>
    <e0 Z="105" value=".00000000000000000E+000"/>
    <e0 Z="106" value=".00000000000000000E+000"/>
    <e0 Z="107" value=".00000000000000000E+000"/>
    <e0 Z="108" value=".00000000000000000E+000"/>
    <e0 Z="109" value=".00000000000000000E+000"/>
    <e0 Z="110" value=".00000000000000000E+000"/>
    <e0 Z="111" value=".00000000000000000E+000"/>
    <e0 Z="112" value=".00000000000000000E+000"/>
    <e0 Z="113" value=".00000000000000000E+000"/>
    <e0 Z="114" value=".00000000000000000E+000"/>
    <e0 Z="115" value=".00000000000000000E+000"/>
    <e0 Z="116" value=".00000000000000000E+000"/>
    <e0 Z="117" value=".00000000000000000E+000"/>
    <e0 Z="118" value=".00000000000000000E+000"/>
  </GAP_data>
  <gpSparse label="GAP_2023_3_22_60_12_47_45_49" n_coordinate="2" fitted="T">
    <gpCoordinates label="GAP_2023_3_22_60_12_47_45_491" dimensions="681" signal_variance=".72770126504682189E-001" signal_mean=".00000000000000000E+000" sparsified="T" n_permutations="1" covariance_type="2" zeta="4.0000000000000000" n_sparseX="19">
      <descriptor> soap=T l_max=4 n_max=8 cutoff=4 delta=0.07277012650468219 covariance_type=dot_product zeta=4 n_sparse=1000 sparse_method=cur_points atom_gaussian_width=0.3 cutoff_transition_width=0.5               n_species=2 Z=8 species_Z={8 6 }</descriptor>
      <permutation i="1">1  </permutation>
      <sparseX i="1" alpha="-1588.2710656744841" sparseCutoff="1.0000000000000000" sliced="T">
        <sparseX_slice start="1" end="50">  0.98914039257499720E+000  0.00000000000000000E+000  0.00000000000000000E+000  0.00000000000000000E+000  0.00000000000000000E+000  0.00000000000000000E+000  0.00000000000000000E+000  0.00000000000000000E+000  0.00000000000000000E+000  0.00000000000000000E+000  0.00000000000000000E+000  0.00000000000000000E+000  0.00000000000000000E+000  0.00000000000000000E+000  0.00000000000000000E+000  0.00000000000000000E+000  0.00000000000000000E+000  0.00000000000000000E+000  0.00000000000000000E+000  0.00000000000000000E+000  0.00000000000000000E+000  0.00000000000000000E+000  0.00000000000000000E+000  0.00000000000000000E+000  0.00000000000000000E+000  0.00000000000000000E+000  0.00000000000000000E+000  0.00000000000000000E+000  0.00000000000000000E+000  0.00000000000000000E+000  0.00000000000000000E+000  0.00000000000000000E+000  0.00000000000000000E+000  0.00000000000000000E+000  0.00000000000000000E+000  0.00000000000000000E+000  0.00000000000000000E+000  
0.00000000000000000E+000  0.00000000000000000E+000  0.00000000000000000E+000  0.00000000000000000E+000  0.00000000000000000E+000  0.00000000000000000E+000  0.00000000000000000E+000  0.00000000000000000E+000  0.00000000000000000E+000  0.00000000000000000E+000  0.00000000000000000E+000  0.00000000000000000E+000  0.00000000000000000E+000  </sparseX_slice>
        <sparseX_slice start="51" end="100">  0.00000000000000000E+000  0.00000000000000000E+000  0.00000000000000000E+000  0.00000000000000000E+000  0.00000000000000000E+000  0.00000000000000000E+000  0.00000000000000000E+000  0.00000000000000000E+000  0.00000000000000000E+000  0.00000000000000000E+000  0.00000000000000000E+000  0.00000000000000000E+000  0.00000000000000000E+000  0.00000000000000000E+000  0.00000000000000000E+000  0.00000000000000000E+000  0.00000000000000000E+000  0.00000000000000000E+000  0.00000000000000000E+000  0.00000000000000000E+000  0.00000000000000000E+000  0.00000000000000000E+000  0.00000000000000000E+000  0.00000000000000000E+000  0.00000000000000000E+000  0.00000000000000000E+000  0.00000000000000000E+000  0.00000000000000000E+000  0.00000000000000000E+000  0.00000000000000000E+000  0.00000000000000000E+000  0.00000000000000000E+000  0.00000000000000000E+000  0.00000000000000000E+000  0.00000000000000000E+000  0.00000000000000000E+000  0.00000000000000000E+000  
0.00000000000000000E+000  0.00000000000000000E+000  0.00000000000000000E+000  0.00000000000000000E+000  0.00000000000000000E+000  0.00000000000000000E+000  0.00000000000000000E+000  0.00000000000000000E+000  0.00000000000000000E+000  0.00000000000000000E+000  0.00000000000000000E+000  0.00000000000000000E+000  0.00000000000000000E+000  </sparseX_slice>
        <sparseX_slice start="101" end="150">  0.00000000000000000E+000  0.00000000000000000E+000  0.00000000000000000E+000  0.00000000000000000E+000  0.00000000000000000E+000  0.00000000000000000E+000  0.00000000000000000E+000  0.00000000000000000E+000  0.00000000000000000E+000  0.00000000000000000E+000  0.00000000000000000E+000  0.00000000000000000E+000  0.00000000000000000E+000  0.00000000000000000E+000  0.00000000000000000E+000  0.00000000000000000E+000  0.00000000000000000E+000  0.00000000000000000E+000  0.00000000000000000E+000  0.00000000000000000E+000  0.00000000000000000E+000  0.00000000000000000E+000  0.00000000000000000E+000  0.00000000000000000E+000  0.00000000000000000E+000  0.00000000000000000E+000  0.00000000000000000E+000  0.00000000000000000E+000  0.00000000000000000E+000  0.00000000000000000E+000  0.00000000000000000E+000  0.00000000000000000E+000  0.00000000000000000E+000  0.00000000000000000E+000  0.00000000000000000E+000  0.00000000000000000E+000  0.00000000000000000E+000  
0.00000000000000000E+000  0.00000000000000000E+000  0.00000000000000000E+000  0.00000000000000000E+000  0.00000000000000000E+000  0.00000000000000000E+000  0.00000000000000000E+000  0.00000000000000000E+000  0.00000000000000000E+000  0.00000000000000000E+000  0.00000000000000000E+000  0.00000000000000000E+000  0.00000000000000000E+000  </sparseX_slice>
        <sparseX_slice start="151" end="200">  0.00000000000000000E+000  0.00000000000000000E+000  0.00000000000000000E+000  0.00000000000000000E+000  0.00000000000000000E+000  0.00000000000000000E+000  0.00000000000000000E+000  0.00000000000000000E+000  0.00000000000000000E+000  0.00000000000000000E+000  0.00000000000000000E+000  0.00000000000000000E+000  0.00000000000000000E+000  0.00000000000000000E+000  0.00000000000000000E+000  0.00000000000000000E+000  0.00000000000000000E+000  0.00000000000000000E+000  0.00000000000000000E+000  0.00000000000000000E+000  0.00000000000000000E+000  0.00000000000000000E+000  0.00000000000000000E+000  0.00000000000000000E+000  0.00000000000000000E+000  0.00000000000000000E+000  0.00000000000000000E+000  0.00000000000000000E+000  0.00000000000000000E+000  0.00000000000000000E+000  0.20080998034258591E-006  0.00000000000000000E+000  0.00000000000000000E+000  0.00000000000000000E+000  0.00000000000000000E+000  0.00000000000000000E+000  0.00000000000000000E+000  
0.00000000000000000E+000  0.00000000000000000E+000  0.00000000000000000E+000  0.00000000000000000E+000  0.00000000000000000E+000  0.00000000000000000E+000  0.00000000000000000E+000  0.00000000000000000E+000  0.00000000000000000E+000  0.00000000000000000E+000  0.00000000000000000E+000  0.00000000000000000E+000  0.00000000000000000E+000  </sparseX_slice>
        <sparseX_slice start="201" end="250">  0.00000000000000000E+000  0.00000000000000000E+000  0.00000000000000000E+000  0.00000000000000000E+000  0.00000000000000000E+000  0.00000000000000000E+000  0.00000000000000000E+000  0.00000000000000000E+000  0.00000000000000000E+000  0.00000000000000000E+000  0.00000000000000000E+000  0.00000000000000000E+000  0.00000000000000000E+000  0.00000000000000000E+000  0.00000000000000000E+000  0.00000000000000000E+000  0.00000000000000000E+000  0.00000000000000000E+000  0.00000000000000000E+000  0.00000000000000000E+000  0.20383682896729086E-013  0.34051894920553096E-013  0.40885091079356646E-013  0.43364053499539125E-013  0.42451030643443525E-013 -0.11806893837635740E-004  0.00000000000000000E+000  0.00000000000000000E+000  0.00000000000000000E+000  0.00000000000000000E+000  0.00000000000000000E+000  0.00000000000000000E+000  0.00000000000000000E+000  0.00000000000000000E+000  0.00000000000000000E+000  0.00000000000000000E+000  0.00000000000000000E+000  
0.00000000000000000E+000  0.00000000000000000E+000  0.00000000000000000E+000  0.00000000000000000E+000  0.00000000000000000E+000  0.00000000000000000E+000  0.00000000000000000E+000  0.00000000000000000E+000  0.00000000000000000E+000  0.00000000000000000E+000  0.00000000000000000E+000  0.00000000000000000E+000  0.00000000000000000E+000  </sparseX_slice>
        <sparseX_slice start="251" end="300">  0.00000000000000000E+000  0.00000000000000000E+000  0.00000000000000000E+000  0.00000000000000000E+000  0.00000000000000000E+000  0.00000000000000000E+000  0.00000000000000000E+000  0.00000000000000000E+000  0.00000000000000000E+000  0.00000000000000000E+000  0.00000000000000000E+000  0.00000000000000000E+000  0.00000000000000000E+000  0.00000000000000000E+000  0.00000000000000000E+000 -0.16949153659515286E-011 -0.28312210188465169E-011 -0.33988335713343265E-011 -0.36040331510106577E-011 -0.35269278784284607E-011  0.70466610776200410E-010  0.11769994704054063E-009  0.14127484298869544E-009  0.14976753676546701E-009  0.14651258251084524E-009  0.90601436733414521E-003  0.00000000000000000E+000  0.00000000000000000E+000  0.00000000000000000E+000  0.00000000000000000E+000  0.00000000000000000E+000  0.00000000000000000E+000  0.00000000000000000E+000  0.00000000000000000E+000  0.00000000000000000E+000  0.00000000000000000E+000  0.00000000000000000E+000  
0.00000000000000000E+000  0.00000000000000000E+000  0.00000000000000000E+000  0.00000000000000000E+000  0.00000000000000000E+000  0.00000000000000000E+000  0.00000000000000000E+000  0.00000000000000000E+000  0.00000000000000000E+000  0.00000000000000000E+000  0.00000000000000000E+000  0.00000000000000000E+000  0.00000000000000000E+000  </sparseX_slice>
        <sparseX_slice start="301" end="350">  0.00000000000000000E+000  0.00000000000000000E+000  0.00000000000000000E+000  0.00000000000000000E+000  0.00000000000000000E+000  0.00000000000000000E+000  0.00000000000000000E+000  0.00000000000000000E+000  0.00000000000000000E+000  0.00000000000000000E+000  0.00000000000000000E+000  0.00000000000000000E+000  0.00000000000000000E+000  0.00000000000000000E+000  0.00000000000000000E+000  0.13006110617108703E-009  0.21782855391079006E-009  0.26289997148002031E-009  0.28107522060188508E-009  0.27821317013836609E-009 -0.76471182873864157E-008 -0.12806554433828531E-007 -0.15453984448046517E-007 -0.16518342543679075E-007 -0.16344476962150029E-007  0.41493707060075038E-006  0.69672009457286435E-006  0.84525181648785794E-006  0.91093052033567397E-006  0.91166889078103088E-006  0.33183840180883037E-001  0.00000000000000000E+000  0.00000000000000000E+000  0.00000000000000000E+000  0.00000000000000000E+000  0.00000000000000000E+000  0.00000000000000000E+000  
0.00000000000000000E+000  0.00000000000000000E+000  0.00000000000000000E+000  0.00000000000000000E+000  0.00000000000000000E+000  0.00000000000000000E+000  0.00000000000000000E+000  0.00000000000000000E+000  0.00000000000000000E+000  0.00000000000000000E+000  0.00000000000000000E+000  0.00000000000000000E+000  0.00000000000000000E+000  </sparseX_slice>
        <sparseX_slice start="351" end="400">  0.00000000000000000E+000  0.00000000000000000E+000  0.00000000000000000E+000  0.00000000000000000E+000  0.00000000000000000E+000  0.00000000000000000E+000  0.00000000000000000E+000  0.00000000000000000E+000  0.00000000000000000E+000  0.00000000000000000E+000  0.00000000000000000E+000  0.00000000000000000E+000  0.00000000000000000E+000  0.00000000000000000E+000  0.00000000000000000E+000  0.00000000000000000E+000  0.00000000000000000E+000  0.00000000000000000E+000  0.00000000000000000E+000  0.00000000000000000E+000  0.47636407506752765E-008  0.80161515998957380E-008  0.97673705247747803E-008  0.10593914914073684E-007  0.10691091607759721E-007 -0.28008468766296052E-006 -0.47128477865179100E-006 -0.57415294242300393E-006 -0.62258748762887560E-006 -0.62808062032562739E-006  0.21492591919819691E-004  0.36259720145660477E-004  0.44410762992704862E-004  0.48555023801650401E-004  0.49544619710546976E-004  0.55662839037629150E-003  0.94354053750068435E-003  
0.11667031239219682E-002  0.12940560689030790E-002  0.13462504682811938E-002  0.13614710901681992E+000  0.00000000000000000E+000  0.00000000000000000E+000  0.00000000000000000E+000  0.00000000000000000E+000  0.00000000000000000E+000  0.00000000000000000E+000  0.00000000000000000E+000  0.00000000000000000E+000  0.00000000000000000E+000  </sparseX_slice>
        <sparseX_slice start="401" end="450">  0.00000000000000000E+000  0.00000000000000000E+000  0.00000000000000000E+000  0.00000000000000000E+000  0.00000000000000000E+000  0.00000000000000000E+000  0.00000000000000000E+000  0.00000000000000000E+000  0.00000000000000000E+000  0.00000000000000000E+000  0.00000000000000000E+000  0.00000000000000000E+000  0.00000000000000000E+000  0.00000000000000000E+000  0.00000000000000000E+000  0.00000000000000000E+000  0.00000000000000000E+000  0.00000000000000000E+000  0.00000000000000000E+000  0.00000000000000000E+000  0.00000000000000000E+000  0.00000000000000000E+000  0.00000000000000000E+000  0.00000000000000000E+000  0.00000000000000000E+000  0.00000000000000000E+000  0.00000000000000000E+000  0.00000000000000000E+000  0.00000000000000000E+000  0.00000000000000000E+000  0.19544329802214421E-007  0.32914219180531619E-007  0.40166529233101803E-007  0.43665648734853905E-007  0.44199981483923610E-007 -0.11491352506922636E-005 -0.19350894637765004E-005 
-0.23610992219051468E-005 -0.25661605517901926E-005 -0.25966620441877618E-005  0.88180097276609063E-004  0.14888196180253498E-003  0.18263116009433543E-003  0.20013249406210877E-003  0.20483140114941844E-003  0.32296996169846894E-002  0.54788977609784737E-002  0.67851898194154145E-002  0.75431288787935142E-002  0.78711991698491683E-002  </sparseX_slice>
        <sparseX_slice start="451" end="500">  0.93697696670659580E-002  0.15907276625744957E-001  0.19730298111629022E-001  0.21984670776405989E-001  0.23010493898113691E-001 -0.27118127278224374E-002  0.00000000000000000E+000  0.00000000000000000E+000  0.00000000000000000E+000  0.00000000000000000E+000  0.00000000000000000E+000  0.00000000000000000E+000  0.00000000000000000E+000  0.00000000000000000E+000  0.00000000000000000E+000  0.00000000000000000E+000  0.00000000000000000E+000  0.00000000000000000E+000  0.00000000000000000E+000  0.00000000000000000E+000  0.00000000000000000E+000  0.00000000000000000E+000  0.00000000000000000E+000  0.00000000000000000E+000  0.00000000000000000E+000  0.00000000000000000E+000  0.00000000000000000E+000  0.00000000000000000E+000  0.00000000000000000E+000  0.00000000000000000E+000  0.00000000000000000E+000  0.00000000000000000E+000  0.00000000000000000E+000  0.00000000000000000E+000  0.00000000000000000E+000  0.00000000000000000E+000  0.00000000000000000E+000  
0.00000000000000000E+000  0.00000000000000000E+000  0.00000000000000000E+000  0.00000000000000000E+000  0.00000000000000000E+000  0.00000000000000000E+000  0.00000000000000000E+000  0.00000000000000000E+000 -0.38928892943188858E-009 -0.65342268048682283E-009 -0.79208344900132622E-009 -0.85237875095261089E-009 -0.85097849971840935E-009  </sparseX_slice>
        <sparseX_slice start="501" end="550">  0.22888768048917740E-007  0.38415960514431589E-007  0.46560846825165269E-007  0.50092940085712109E-007  0.49993314396349960E-007 -0.17563935941216844E-005 -0.29556481356450003E-005 -0.36014841696458789E-005 -0.39067021848120925E-005 -0.39436016168638141E-005 -0.64329978004162451E-004 -0.10876867658490155E-003 -0.13380385751283924E-003 -0.14724624409046002E-003 -0.15154353091707308E-003 -0.26393390519726371E-003 -0.44660283884081868E-003 -0.55024395159977528E-003 -0.60691470755905904E-003 -0.62652360547368110E-003  0.37173329114765632E-005  0.62692722441839586E-005  0.76726769296426472E-005  0.83773249551411862E-005  0.85294090155952484E-005  0.13758946948113829E-003  0.00000000000000000E+000  0.00000000000000000E+000  0.00000000000000000E+000  0.00000000000000000E+000  0.00000000000000000E+000  0.00000000000000000E+000  0.00000000000000000E+000  0.00000000000000000E+000  0.00000000000000000E+000  0.00000000000000000E+000  0.00000000000000000E+000  
0.00000000000000000E+000  0.00000000000000000E+000  0.00000000000000000E+000  0.00000000000000000E+000  0.00000000000000000E+000  0.00000000000000000E+000  0.00000000000000000E+000  0.00000000000000000E+000  0.00000000000000000E+000  0.00000000000000000E+000  0.00000000000000000E+000  0.00000000000000000E+000  0.00000000000000000E+000  </sparseX_slice>
        <sparseX_slice start="551" end="600">  0.00000000000000000E+000  0.00000000000000000E+000  0.00000000000000000E+000  0.00000000000000000E+000  0.00000000000000000E+000  0.00000000000000000E+000  0.00000000000000000E+000  0.00000000000000000E+000  0.00000000000000000E+000  0.00000000000000000E+000  0.00000000000000000E+000  0.00000000000000000E+000  0.00000000000000000E+000  0.00000000000000000E+000  0.00000000000000000E+000  0.19751385014858197E-010  0.33152661931463151E-010  0.40187640997561873E-010  0.43246423406683234E-010  0.43174839677100762E-010 -0.11613093413925542E-008 -0.19491079660083382E-008 -0.23623402295697725E-008 -0.25415233477033987E-008 -0.25364369777891449E-008  0.89114288879868245E-007  0.14996051767960338E-006  0.18272715210829815E-006  0.19821106124405397E-006  0.20008069253781544E-006  0.32639154815212428E-005  0.55185889183787091E-005  0.67887561551685735E-005  0.74707087780674769E-005  0.76886403752990729E-005  0.13391236652000231E-004  0.22659257745216826E-004  
0.27917521084239387E-004  0.30792520796076985E-004  0.31787003113705256E-004 -0.26673005586692392E-006 -0.44983819462680747E-006 -0.55053316306323851E-006 -0.60108783850249180E-006 -0.61199247855078715E-006  0.95693504451976636E-008  0.16138587818772018E-007  0.19751044284261984E-007  0.21564556199641211E-007  0.21955494989039277E-007  </sparseX_slice>
        <sparseX_slice start="601" end="650"> -0.68532489388627752E-005  0.00000000000000000E+000  0.00000000000000000E+000  0.00000000000000000E+000  0.00000000000000000E+000  0.00000000000000000E+000  0.00000000000000000E+000  0.00000000000000000E+000  0.00000000000000000E+000  0.00000000000000000E+000  0.00000000000000000E+000  0.00000000000000000E+000  0.00000000000000000E+000  0.00000000000000000E+000  0.00000000000000000E+000  0.00000000000000000E+000  0.00000000000000000E+000  0.00000000000000000E+000  0.00000000000000000E+000  0.00000000000000000E+000  0.00000000000000000E+000  0.00000000000000000E+000  0.00000000000000000E+000  0.00000000000000000E+000  0.00000000000000000E+000  0.00000000000000000E+000  0.00000000000000000E+000  0.00000000000000000E+000  0.00000000000000000E+000  0.00000000000000000E+000  0.00000000000000000E+000  0.00000000000000000E+000  0.00000000000000000E+000  0.00000000000000000E+000  0.00000000000000000E+000  0.00000000000000000E+000  0.00000000000000000E+000  
0.00000000000000000E+000  0.00000000000000000E+000  0.00000000000000000E+000 -0.98380463929838250E-012 -0.16513141946190974E-011 -0.20017222582953062E-011 -0.21540783373095626E-011 -0.21505127466411175E-011  0.57844121658460122E-010  0.97083898052245429E-010  0.11766674783133312E-009  0.12659174923141339E-009  0.12633839737638868E-009  </sparseX_slice>
        <sparseX_slice start="651" end="681"> -0.44387292719897427E-008 -0.74694433885486866E-008 -0.91015296865094237E-008 -0.98727737372837541E-008 -0.99658987242879291E-008 -0.16257367220490416E-006 -0.27487760210705424E-006 -0.33814386623899212E-006 -0.37211151062949269E-006 -0.38296654382690940E-006 -0.66700946461576283E-006 -0.11286440295974719E-005 -0.13905549557920269E-005 -0.15337569392555405E-005 -0.15832914698650341E-005  0.13285664078989675E-007  0.22406170509165259E-007  0.27421726159548947E-007  0.29939823683508401E-007  0.30482976562620467E-007 -0.67407585102701673E-009 -0.11368203434806477E-008 -0.13912858396711162E-008 -0.15190316397392596E-008 -0.15465697739807273E-008  0.23741332054874448E-010  0.40039454128948462E-010  0.49001871997516300E-010  0.53501150247815784E-010  0.54471057632380454E-010  0.00000000000000000E+000  </sparseX_slice>
      </sparseX>
      <sparseX i="2" alpha="199.45310618205295" sparseCutoff="1.0000000000000000" sliced="T">
        <sparseX_slice start="1" end="50">  0.95358223583308621E+000  0.19657709128292811E-012  0.23846592657376783E-012  0.25696912702492811E-012  0.25715034630422177E-012 -0.27954270226820284E-004 -0.16446277052478104E-010 -0.19951110741131260E-010 -0.21499555121042824E-010 -0.21515110815296652E-010  0.40973981820843882E-009  0.68797444076932965E-009  0.83459894150066313E-009  0.89938989121817437E-009  0.90005710676131291E-009  0.17274488244165801E-002  0.10171128293786707E-008  0.12358495072591355E-008  0.13350382076639752E-008  0.13405017529233692E-008 -0.35808011099420154E-007 -0.60171222059203700E-007 -0.73112449925580616E-007 -0.78981835339830077E-007 -0.79306514316940294E-007  0.15646681161018153E-005  0.26313302860853971E-005  0.32023946283163859E-005  0.34679788902223622E-005  0.34939578643708102E-005  0.35774443181639567E-001  0.21136075410426022E-007  0.25858587876661185E-007  0.28224835516396617E-007  0.28737272273065769E-007 -0.74156272557386314E-006 -0.12503858473181593E-005 
-0.15297855444159635E-005 -0.16698018816633899E-005 -0.17001491344442759E-005  0.45825258471411594E-004  0.77329567228054746E-004  0.94760875011383832E-004  0.10368815999675890E-003  0.10592801099278359E-003  0.67105422944370658E-003  0.11362811425270401E-002  0.14020170021400544E-002  0.15500720828816978E-002  0.16057353792541950E-002  </sparseX_slice>
        <sparseX_slice start="51" end="100">  0.12831623039283580E+000  0.75895696894551022E-007  0.93059819832988260E-007  0.10191234223234982E-006  0.10421772459468394E-006 -0.26598466693762844E-005 -0.44899019059367816E-005 -0.55053882998363051E-005 -0.60292085927460027E-005 -0.61657095558604060E-005  0.16436662323361456E-003  0.27767602458648452E-003  0.34102519433146705E-003  0.37439025077377696E-003  0.38415532871766356E-003  0.34039355266080457E-002  0.57702363256124344E-002  0.71355208736808059E-002  0.79152066108448358E-002  0.82354060727137749E-002  0.86332643182277895E-002  0.14651139584772675E-001  0.18158003098755666E-001  0.20208897503621221E-001  0.21118645717948775E-001 -0.41733583904595296E-002 -0.24652747983530515E-008 -0.30150404761440203E-008 -0.32890324380177873E-008 -0.33458331928177417E-008  0.86508880295139312E-007  0.14584281413427506E-006  0.17836880181678688E-006  0.19458156100373191E-006  0.19794555839231567E-006 -0.53458617361456109E-005 -0.90195852140474922E-005 
-0.11048858316505908E-004 -0.12082753200442992E-004 -0.12333023533378238E-004 -0.11070963390260340E-003 -0.18743115586431823E-003 -0.23118338603200087E-003 -0.25544866035291430E-003 -0.26439163876951569E-003 -0.39709473096268341E-003 -0.67303025362298885E-003 -0.83198217764766848E-003 -0.92235688252489403E-003 -0.95883474021450643E-003  </sparseX_slice>
        <sparseX_slice start="101" end="150">  0.91323640482893761E-005  0.15458515007344828E-004  0.19060310215796563E-004  0.21048704378568821E-004  0.21766643356795624E-004  0.21182288827114237E-003  0.12512723033975051E-009  0.15303057816541389E-009  0.16693641263479057E-009  0.16981822692435080E-009 -0.43908428586218787E-008 -0.74023826511219765E-008 -0.90532386164195468E-008 -0.98760800846394720E-008 -0.10046754221307857E-007  0.27133444274453047E-006  0.45779712565962091E-006  0.56079286152902547E-006  0.61326591088566816E-006  0.62596431691526692E-006  0.56191757856933202E-005  0.95132361829796986E-005  0.11733881354707638E-004  0.12965418789660459E-004  0.13419234230159172E-004  0.20154931582692576E-004  0.34160253301970482E-004  0.42227862171712063E-004  0.46814664202737823E-004  0.48665789988044906E-004 -0.65551920105707911E-006 -0.11096071979905710E-005 -0.13681384070723328E-005 -0.15108567398703044E-005 -0.15623792990103686E-005  0.23526516282221654E-007  0.39823622555190159E-007  
0.49102104837599381E-007  0.54223957146162648E-007  0.56072703401326993E-007 -0.10550778025610723E-004 -0.62325164159378278E-011 -0.76223663096552926E-011 -0.83150079643562096E-011 -0.84585493972814614E-011  0.21870539451504967E-009  0.36870848387598933E-009  0.45093668108915760E-009  0.49192194359688007E-009  0.50042311948725727E-009  </sparseX_slice>
        <sparseX_slice start="151" end="200"> -0.13515014828972728E-007 -0.22802615330776043E-007 -0.27932774388354991E-007 -0.30546426946638296E-007 -0.31178926970671965E-007 -0.27988796152117171E-006 -0.47384890177880779E-006 -0.58445797560104907E-006 -0.64580015106166616E-006 -0.66840443258223331E-006 -0.10039057204156283E-005 -0.17015028535278769E-005 -0.21033458659386536E-005 -0.23318118530917887E-005 -0.24240153488057454E-005  0.32651039924570596E-007  0.55268905560695070E-007  0.68146198139180242E-007  0.75254916687988516E-007  0.77821225184834250E-007 -0.16572354767541014E-008 -0.28052228016686285E-008 -0.34588099839875808E-008 -0.38195992474291625E-008 -0.39498270584253483E-008  0.58368808039118713E-010  0.98801596415492306E-010  0.12182132054114462E-009  0.13452852925908121E-009  0.13911522759842373E-009  0.44328966142485937E-001  0.23437787498856857E-007  0.23661353694244161E-007  0.19421480683762294E-007  0.13596814370065834E-007 -0.91888806731629451E-006 -0.13865524801527183E-005 
-0.13997978936598311E-005 -0.11489889807009125E-005 -0.80441219204138418E-006  0.56783171185524843E-004  0.85750733230998633E-004  0.86708933632222799E-004  0.71347717698551190E-004  0.50119005324283629E-004  0.11759458818908523E-002  0.17819399300831585E-002  0.18142747695818545E-002  0.15084044673414833E-002  0.10744361198470631E-002  </sparseX_slice>
        <sparseX_slice start="201" end="250">  0.42178977306250726E-002  0.63986132804568201E-002  0.65292073948557579E-002  0.54464456386719177E-002  0.38965176154784806E-002 -0.13718294895598149E-003 -0.20784235088629744E-003 -0.21153946577543928E-003 -0.17577396402735396E-003 -0.12509482456050426E-003  0.69628547923987554E-005  0.10549224666994127E-004  0.10736839856232806E-004  0.89214915153003129E-005  0.63492051396582456E-005 -0.34681585138770568E-006 -0.52545090092648069E-006 -0.53479590401762995E-006 -0.44437442875898008E-006 -0.31625030057107297E-006  0.10303554142579608E-002  0.13972377942324287E-002  0.11738776828372854E-002  0.73392846120608288E-003  0.35946551049033826E-003  0.16852042191224273E+000  0.91736528644367389E-007  0.95392705470909583E-007  0.82158097587356318E-007  0.61768149726448449E-007 -0.34932329415608453E-005 -0.54270272447282984E-005 -0.56434010460345876E-005 -0.48605330530821231E-005 -0.36543157365729519E-005  0.21586616604009795E-003  0.33563213232924347E-003  
0.34957424137940888E-003  0.30182007483155405E-003  0.22768261305578370E-003  0.44704605906041896E-002  0.69745910720706312E-002  0.73143988705990500E-002  0.63809574278575936E-002  0.48809911877833751E-002  0.16034705227794131E-001  0.25044453130035678E-001  0.26323039925119387E-001  0.23039932926450568E-001  0.17701255377472167E-001  </sparseX_slice>
        <sparseX_slice start="251" end="300"> -0.52151291692477994E-003 -0.81350408081494170E-003 -0.85283886183988014E-003 -0.74357124078339165E-003 -0.56828575011424651E-003  0.26469898340446997E-004  0.41290128212262977E-004  0.43286458388181279E-004  0.37740313546311149E-004  0.28843421924899578E-004 -0.13184506359532311E-005 -0.20566378813017987E-005 -0.21560739431156306E-005 -0.18798235972723761E-005 -0.14366744580785050E-005  0.55394543852444241E-002  0.77341218870736776E-002  0.66928859210532579E-002  0.43907303324071702E-002  0.23094025936629932E-002  0.14890762188260416E-001  0.21405318984007403E-001  0.19079808146604850E-001  0.13133782017554893E-001  0.74184312318896434E-002  0.16605747839672613E+000  0.94492933535268131E-007  0.10720024285344962E-006  0.10437231126804581E-006  0.91112954292551001E-007 -0.34421789783439327E-005 -0.55900929794086681E-005 -0.63419310697588824E-005 -0.61747421574058447E-005 -0.53904075830581871E-005  0.21271125954369272E-003  0.34571686155071010E-003  
0.39284391176651388E-003  0.38342731541183807E-003  0.33585003935576008E-003  0.44051243435306161E-002  0.71841564134584243E-002  0.82197619973608162E-002  0.81062645607192698E-002  0.71998518486369040E-002  0.15800356341078303E-001  0.25796963107442623E-001  0.29581258427295361E-001  0.29269556155892190E-001  0.26110765487893595E-001  </sparseX_slice>
        <sparseX_slice start="301" end="350"> -0.51389095133495431E-003 -0.83794741500539118E-003 -0.95840172110408400E-003 -0.94462081367564039E-003 -0.83826687062145465E-003  0.26083038019696448E-004  0.42530771531037477E-004  0.48644378294668035E-004  0.47944680664263960E-004  0.42546351074506186E-004 -0.12991813426088270E-005 -0.21184336217620525E-005 -0.24229488950019873E-005 -0.23880973316709858E-005 -0.21192095734111408E-005  0.54584946825400101E-002  0.79665088294551198E-002  0.75213192936030276E-002  0.55779124201456292E-002  0.34065532785324312E-002  0.20750942486469422E-001  0.31181265102969289E-001  0.30322821145346245E-001  0.23596072843776399E-001  0.15475425877899681E-001  0.14458682793827692E-001  0.22710974177681385E-001  0.24095459324004587E-001  0.21196280435620333E-001  0.16141472409481637E-001 -0.10136120016685525E-001 -0.57641798423744600E-008 -0.65307607389060328E-008 -0.63451630282991927E-008 -0.55223249773348037E-008  0.21011001479891157E-006  0.34100223226618243E-006  
0.38635765495280167E-006  0.37538447860785340E-006  0.32671075880557666E-006 -0.12983858820764322E-004 -0.21089134287229974E-004 -0.23932497979415320E-004 -0.23309906585694797E-004 -0.20355755944627744E-004 -0.26888803482716053E-003 -0.43824197253296504E-003 -0.50075725116501858E-003 -0.49280857694329128E-003 -0.43638055648128981E-003  </sparseX_slice>
        <sparseX_slice start="351" end="400"> -0.96445104265009316E-003 -0.15736450248197544E-002 -0.18021239131754182E-002 -0.17794001428035201E-002 -0.15825645601189214E-002  0.31367815581152953E-004  0.51115775728786173E-004  0.58386923067358599E-004  0.57426849993802925E-004  0.50807068141391648E-004 -0.15921041697127629E-005 -0.25944269774240760E-005 -0.29634708605054981E-005 -0.29147272055058588E-005 -0.25787197776376994E-005  0.79301806454392891E-007  0.12922693711706554E-006  0.14760880287824400E-006  0.14518090777910971E-006  0.12844456696990407E-006 -0.33318557975740100E-003 -0.48596638807603794E-003 -0.45820732714747260E-003 -0.33910108182336109E-003 -0.20647002835906731E-003 -0.12666339723627861E-002 -0.19020937655532368E-002 -0.18473007575143230E-002 -0.14344889674511071E-002 -0.93796026617705289E-003 -0.12481219849528062E-002 -0.19592459233228844E-002 -0.20759563202585479E-002 -0.18223514591752899E-002 -0.13835663078608557E-002  0.53871037615803782E-004  0.84510786680160768E-004  
0.89427526275211272E-004  0.78338387030807245E-004  0.59296193051238308E-004  0.57201346232046816E-003  0.32529062740176214E-009  0.36855033464309724E-009  0.35807519553942223E-009  0.31163851210383008E-009 -0.11857175806471019E-007 -0.19243818394391773E-007 -0.21803316446198505E-007 -0.21183990069361711E-007 -0.18437099442782463E-007  </sparseX_slice>
        <sparseX_slice start="401" end="450">  0.73272041235894262E-006  0.11901255532004960E-005  0.13505823428215594E-005  0.13154428533124146E-005  0.11487258575633601E-005  0.15174206256914989E-004  0.24731359898082288E-004  0.28259227350402025E-004  0.27810558493998837E-004  0.24626038469489676E-004  0.54427037094738582E-004  0.88805691603892402E-004  0.10169923502363432E-003  0.10041649855733266E-003  0.89308048122466088E-004 -0.17701855114648168E-005 -0.28846224808445944E-005 -0.32949484593827519E-005 -0.32407568488048695E-005 -0.28671690248086002E-005  0.89847497562489302E-007  0.14641159754076769E-006  0.16723751198506187E-006  0.16448616204197727E-006  0.14552356080709708E-006 -0.44752529373737662E-008 -0.72926786813615691E-008 -0.83300056259841759E-008 -0.81929623730298710E-008 -0.72484458815098941E-008  0.18802721037098040E-004  0.27424597357514789E-004  0.25858008049519820E-004  0.19136417084948723E-004  0.11651616428939174E-004  0.71480180071988218E-004  0.10734107735939680E-003  
0.10424869928436478E-003  0.80952201736711463E-004  0.52931427064439414E-004  0.70435489796480012E-004  0.11056635168577781E-003  0.11715241564092297E-003  0.10284036078749184E-003  0.78078082573626478E-004 -0.42993702235166875E-005 -0.67446772132878474E-005 -0.71370584260865833E-005 -0.62520303244977749E-005 -0.47322858634822866E-005  </sparseX_slice>
        <sparseX_slice start="451" end="500">  0.17156328462326877E-006  0.26914120965178188E-006  0.28479823326776433E-006  0.24948103133057945E-006  0.18883614901181764E-006 -0.30262726245815391E-004 -0.17209701932649482E-010 -0.19498383433744207E-010 -0.18944189596069179E-010 -0.16487427994304959E-010  0.62731122450174864E-009  0.10181061202371601E-008  0.11535179437753953E-008  0.11207520913887271E-008  0.97542613534696076E-009 -0.38765026899868135E-007 -0.62964328842200008E-007 -0.71453394296009068E-007 -0.69594317412586697E-007 -0.60774051107848760E-007 -0.80280077340782107E-006 -0.13084278991825971E-005 -0.14950719036874169E-005 -0.14713347906972873E-005 -0.13028557777076645E-005 -0.28794960826396192E-005 -0.46983200672983856E-005 -0.53804609384755835E-005 -0.53125969375728009E-005 -0.47248974550375710E-005  0.93652760059964693E-007  0.15261273735452987E-006  0.17432128644703407E-006  0.17145424464834242E-006  0.15168934842136408E-006 -0.47534374655711416E-008 -0.77459961674444417E-008 
-0.88478040220691519E-008 -0.87022420945935444E-008 -0.76990138801666568E-008  0.23676602640629382E-009  0.38582367834967011E-009  0.44070410045340039E-009  0.43345373955412938E-009  0.38348350701338729E-009 -0.99476959355781748E-006 -0.14509152935501986E-005 -0.13680339112176811E-005 -0.10124239767588538E-005 -0.61643596483797452E-006  </sparseX_slice>
        <sparseX_slice start="501" end="550"> -0.37817031661192838E-005 -0.56789461203968328E-005 -0.55153419222480974E-005 -0.42828262806901501E-005 -0.28003698466830923E-005 -0.37264331805299276E-005 -0.58495812544349529E-005 -0.61980210181281709E-005 -0.54408328673855715E-005 -0.41307691904817116E-005  0.22746084257506812E-006  0.35683132157772091E-006  0.37759049090440854E-006  0.33076752956662192E-006  0.25036450692793742E-006 -0.12836338153999224E-007 -0.20137103221401581E-007 -0.21308559193087514E-007 -0.18666131555552368E-007 -0.14128690858082605E-007  0.48020640769857516E-009  0.75332745712562262E-009  0.79715153018245172E-009  0.69829851470250972E-009  0.52855320977440192E-009  0.15370508999744622E-005  0.87408476119812704E-012  0.99032742658811166E-012  0.96217979275067911E-012  0.83740029996192992E-012 -0.31861282898060831E-010 -0.51709846484531503E-010 -0.58587444475284602E-010 -0.56923259216168890E-010 -0.49542120130101274E-010  0.19688847263790575E-008  0.31979728966498006E-008  
0.36291345041297154E-008  0.35347115570761581E-008  0.30867281813265995E-008  0.40774437875943547E-007  0.66455357116456184E-007  0.75935049486234900E-007  0.74729435999401505E-007  0.66172347769244902E-007  0.14625027531702190E-006  0.23862876824529846E-006  0.27327486163991107E-006  0.26982803325734961E-006  0.23997863993732131E-006  </sparseX_slice>
        <sparseX_slice start="551" end="600"> -0.47566454511072279E-008 -0.77512364019072803E-008 -0.88538186559535633E-008 -0.87082009365128347E-008 -0.77043372630926129E-008  0.24142819371532108E-009  0.39342094574091911E-009  0.44938202276644373E-009  0.44198889863199170E-009  0.39103470443598479E-009 -0.12025401512578295E-010 -0.19596074300104681E-010 -0.22383463694407219E-010 -0.22015216178882463E-010 -0.19477216453311392E-010  0.50524578870573470E-007  0.73692324994631065E-007  0.69482760321393355E-007  0.51421249095594998E-007  0.31308925930772661E-007  0.19207358278647062E-006  0.28843499340838910E-006  0.28012549815595871E-006  0.21752574224640710E-006  0.14223143539591375E-006  0.18926640737201355E-006  0.29710159152678894E-006  0.31479892811007401E-006  0.27634116593820296E-006  0.20980272728879965E-006 -0.11552789062991370E-007 -0.18123545760984387E-007 -0.19177908795985688E-007 -0.16799759706432794E-007 -0.12716071498458947E-007  0.65196059838492693E-009  0.10227681530676593E-008  
0.10822666741423589E-008  0.94805716024426447E-009  0.71759949257789099E-009 -0.34492378958954166E-010 -0.54110182027351848E-010 -0.57257987868675636E-010 -0.50157550188647352E-010 -0.37965044444461470E-010  0.12387633600621299E-011  0.19433194498212090E-011  0.20563701195047748E-011  0.18013641644350732E-011  0.13634810772269566E-011  </sparseX_slice>
        <sparseX_slice start="601" end="650"> -0.76559726737807007E-007 -0.43537719189469480E-013 -0.49327707470064713E-013 -0.47925688086746323E-013 -0.41710484757729009E-013  0.15869943618861478E-011  0.25756412598798344E-011  0.29182109319663173E-011  0.28353187071992713E-011  0.24676679082227611E-011 -0.98069150886497635E-010 -0.15928941005563848E-009 -0.18076535132019934E-009 -0.17606219215720462E-009 -0.15374836713615807E-009 -0.20309540963944591E-008 -0.33101076751484057E-008 -0.37822863501686736E-008 -0.37222353530904170E-008 -0.32960111229213936E-008 -0.72846521307695582E-008 -0.11885978069394416E-007 -0.13611682431473684E-007 -0.13439997655721732E-007 -0.11953214494598623E-007  0.23692610045083910E-009  0.38608515880639973E-009  0.44100422236970258E-009  0.43375107752670244E-009  0.38374913645867724E-009 -0.12025416034013198E-010 -0.19596098020797235E-010 -0.22383490920471696E-010 -0.22015243152305770E-010 -0.19477240550142755E-010  0.59897915789952149E-012  0.97607053453772689E-012  
0.11149089883216488E-011  0.10965667661083476E-011  0.97015028539608492E-012 -0.25166036804234330E-008 -0.36705773792893405E-008 -0.34609010952615135E-008 -0.25612663701252239E-008 -0.15594817411406810E-008 -0.95670878641221713E-008 -0.14366800915528688E-007 -0.13952909166162399E-007 -0.10834847034082993E-007 -0.70844757500336251E-008  </sparseX_slice>
        <sparseX_slice start="651" end="681"> -0.94272638786969050E-008 -0.14798479777759014E-007 -0.15679975148423374E-007 -0.13764413495341280E-007 -0.10450167571121351E-007  0.57543857118644539E-009  0.90272463391039916E-009  0.95524192259840961E-009  0.83678752109421600E-009  0.63338108003875444E-009 -0.32473827156274681E-010 -0.50943563623229419E-010 -0.53907154819107998E-010 -0.47222246915391816E-010 -0.35743267226779032E-010  0.17180479239030339E-011  0.26952007573827624E-011  0.28519913718245916E-011  0.24983221676942050E-011  0.18910196326645755E-011 -0.87260053380007824E-013 -0.13688987291107811E-012 -0.14485330466025130E-012 -0.12689036357803455E-012 -0.96045326667943372E-013  0.30733541051375294E-014  0.48213476449626291E-014  0.51018247328084794E-014  0.44691586206876955E-014  0.33827769702213716E-014  0.00000000000000000E+000  </sparseX_slice>
      </sparseX>
      <sparseX i="3" alpha="192.41634890559916" sparseCutoff="1.0000000000000000" sliced="T">
        <sparseX_slice start="1" end="50">  0.96897575802220359E+000  0.19975040314091617E-012  0.24231544305396393E-012  0.26111733764602942E-012  0.26130148231853202E-012 -0.28405531442525715E-004 -0.16711766615121348E-010 -0.20273178261215492E-010 -0.21846618925689720E-010 -0.21862425732973620E-010  0.41635418113000283E-009  0.69908029973101226E-009  0.84807173581481087E-009  0.91390859524482762E-009  0.91458658153943596E-009  0.17553347484721912E-002  0.10335319155565900E-008  0.12557996238799460E-008  0.13565895112650125E-008  0.13621412536426218E-008 -0.36386053970495159E-007 -0.61142556263123160E-007 -0.74292692255962223E-007 -0.80256826199720316E-007 -0.80586746416495746E-007  0.15899262977863507E-005  0.26738074208553889E-005  0.32540903614339722E-005  0.35239619066754632E-005  0.35503602551578461E-005  0.36351944171303850E-001  0.21477271621507915E-007  0.26276018834685343E-007  0.28680464423353197E-007  0.29201173362837720E-007 -0.75353365145921251E-006 -0.12705706217008685E-005 
-0.15544806224466325E-005 -0.16967572205433755E-005 -0.17275943640662522E-005  0.46565008129694013E-004  0.78577885793846763E-004  0.96290584329923655E-004  0.10536198101783151E-003  0.10763798956242622E-003  0.68188694819922967E-003  0.11546239433084372E-002  0.14246495334739753E-002  0.15750946431873905E-002  0.16316565030561770E-002  </sparseX_slice>
        <sparseX_slice start="51" end="100">  0.13038761832934698E+000  0.77120868725886699E-007  0.94562069295786680E-007  0.10355749651747348E-006  0.10590009429051414E-006 -0.27027841394613085E-005 -0.45623816586196909E-005 -0.55942608834150026E-005 -0.61265371217051956E-005 -0.62652415975588035E-005  0.16701996677003902E-003  0.28215850327079393E-003  0.34653030830981551E-003  0.38043397140542274E-003  0.39035668540665088E-003  0.34588847015089271E-002  0.58633843075871252E-002  0.72507084209865232E-002  0.80429804975815592E-002  0.83683488870332536E-002  0.87726296931826316E-002  0.14887650536654050E-001  0.18451124775216595E-001  0.20535126433282241E-001  0.21459560564353546E-001 -0.42407282329047944E-002 -0.25050713265230268E-008 -0.30637117818023753E-008 -0.33421267511381667E-008 -0.33998444312399100E-008  0.87905379011598214E-007  0.14819713084775487E-006  0.18124818023370359E-006  0.19772265934255239E-006  0.20114096119120200E-006 -0.54321591084780745E-005 -0.91651869040871299E-005 
-0.11227218230594448E-004 -0.12277803110673495E-004 -0.12532113516691636E-004 -0.11249680142941865E-003 -0.19045682638156380E-003 -0.23491534165041676E-003 -0.25957232632901911E-003 -0.26865966978464884E-003 -0.40350496630742568E-003 -0.68389487101389653E-003 -0.84541272997059496E-003 -0.93724633893871637E-003 -0.97431305272343627E-003  </sparseX_slice>
        <sparseX_slice start="101" end="150">  0.92797863086187368E-005  0.15708059288723429E-004  0.19367997688583840E-004  0.21388490173362490E-004  0.22118018723182046E-004  0.21524231053829070E-003  0.12714713876958298E-009  0.15550092577895215E-009  0.16963123986153757E-009  0.17255957480819930E-009 -0.44617235172932026E-008 -0.75218781044877082E-008 -0.91993835678337022E-008 -0.10035508031398127E-007 -0.10208937332761478E-007  0.27571455030956986E-006  0.46518726984136406E-006  0.56984564904231621E-006  0.62316576225905319E-006  0.63606915658188735E-006  0.57098852220599192E-005  0.96668067999334364E-005  0.11923299483748558E-004  0.13174717426243672E-004  0.13635858735231303E-004  0.20480289349311696E-004  0.34711696688214301E-004  0.42909539649450877E-004  0.47570385676042467E-004  0.49451393882372300E-004 -0.66610114038824652E-006 -0.11275194056446384E-005 -0.13902240417828538E-005 -0.15352462533027274E-005 -0.15876005326946584E-005  0.23906300989627214E-007  0.40466488785724322E-007  
0.49894752091236200E-007  0.55099285624552323E-007  0.56977875888373203E-007 -0.10721097510964599E-004 -0.63331269098602105E-011 -0.77454129232688013E-011 -0.84492357790031354E-011 -0.85950943778211245E-011  0.22223591995568548E-009  0.37466048467317522E-009  0.45821607823540218E-009  0.49986295913756570E-009  0.50850136812099415E-009  </sparseX_slice>
        <sparseX_slice start="151" end="200"> -0.13733185504598083E-007 -0.23170714223429541E-007 -0.28383688600253142E-007 -0.31039532924635600E-007 -0.31682243293187769E-007 -0.28440614714192094E-006 -0.48149816715910136E-006 -0.59389278518321516E-006 -0.65622519735714180E-006 -0.67919437610007792E-006 -0.10201116063919949E-005 -0.17289699360157814E-005 -0.21372998345027050E-005 -0.23694539107482594E-005 -0.24631458324247099E-005  0.33178120325913780E-007  0.56161102470564636E-007  0.69246271078608483E-007  0.76469744509172370E-007  0.79077480504670907E-007 -0.16839879582133638E-008 -0.28505070548984277E-008 -0.35146449882858078E-008 -0.38812584138433405E-008 -0.40135884711093083E-008  0.59311046168080434E-010  0.10039653443928358E-009  0.12378786220938300E-009  0.13670020132091424E-009  0.14136094198194469E-009 -0.72257295592817878E-004 -0.47390121891254801E-010 -0.67813376706810718E-010 -0.86338334527975637E-010 -0.98863741579708998E-010  0.14978099530534909E-008  0.28035449611557336E-008  
0.40118170373001805E-008  0.51078389233037575E-008  0.58489582127877216E-008 -0.92557953457832533E-007 -0.17338401503468289E-006 -0.24850757299140259E-006 -0.31717680123201442E-006 -0.36442009545417108E-006 -0.19168204581136467E-005 -0.36030000909281086E-005 -0.51997066604538838E-005 -0.67056230997725024E-005 -0.78123280943160358E-005  </sparseX_slice>
        <sparseX_slice start="201" end="250"> -0.68752761371068610E-005 -0.12937699998800660E-004 -0.18712691014460214E-004 -0.24212213949950826E-004 -0.28331953361483102E-004  0.22361155144348053E-006  0.42024761693683718E-006  0.60627154584468914E-006  0.78140444359580961E-006  0.90957646928946379E-006 -0.11349623072351018E-007 -0.21330044179787320E-007 -0.30771754449050467E-007 -0.39660555828809246E-007 -0.46165679627550417E-007  0.56531829344826896E-009  0.10624374098446831E-008  0.15327236374150917E-008  0.19754697754815373E-008  0.22994862722401404E-008  0.26941420996149522E-008  0.56215747691974516E-008  0.94889826302892522E-008  0.14273866446910714E-007  0.18702609936258842E-007  0.37109281022113187E-001  0.21405100168698739E-007  0.24964026630074196E-007  0.25367972300346098E-007  0.23490711986198487E-007 -0.76923236622081457E-006 -0.12663010417802521E-005 -0.14768635956169481E-005 -0.15007877674431381E-005 -0.13897531147466305E-005  0.47535118461308469E-004  0.78313835486323673E-004  
0.91482683376087058E-004  0.93193045151444134E-004  0.86588746971456564E-004  0.98442418119154313E-003  0.16273977524497302E-002  0.19141594452869674E-002  0.19702495071464549E-002  0.18562634417118834E-002  0.35309452448132723E-002  0.58436812013772394E-002  0.68886721100030130E-002  0.71140447191900139E-002  0.67318689924800879E-002  </sparseX_slice>
        <sparseX_slice start="251" end="300"> -0.11484049927730254E-003 -0.18981682209705228E-003 -0.22318574521010417E-003 -0.22959264142491482E-003 -0.21612168959107489E-003  0.58288418993748913E-005  0.96343228092724340E-005  0.11327955262299284E-004  0.11653084196980431E-004  0.10969286276744309E-004 -0.29033131182671127E-006 -0.47988015799754516E-006 -0.56423902715246545E-006 -0.58043350984896004E-006 -0.54637391701243085E-006 -0.19567544644620790E-005 -0.35908926987222245E-005 -0.49400792546546877E-005 -0.59311473670934898E-005 -0.62845813394202242E-005  0.71059504150495698E-003  0.11468770676492691E-002  0.12859325384562169E-002  0.12322697995326174E-002  0.10558944111649863E-002  0.17038001117587126E+000  0.98436004167081534E-007  0.11516648794087305E-006  0.11757108819759801E-006  0.10951961529550698E-006 -0.35317800707441728E-005 -0.58233604908674588E-005 -0.68132115061130317E-005 -0.69555914395856571E-005 -0.64793790231734503E-005  0.21824820615246997E-003  0.36014318903047378E-003  
0.42203685759325448E-003  0.43191499900658935E-003  0.40369854531465766E-003  0.45197912320981389E-002  0.74839421763555963E-002  0.88305874664857537E-002  0.91313714723990566E-002  0.86543676557288961E-002  0.16211645003690146E-001  0.26873437758120778E-001  0.31779495561407058E-001  0.32970943409226849E-001  0.31385668629769145E-001  </sparseX_slice>
        <sparseX_slice start="301" end="350"> -0.52726770800678882E-003 -0.87291390106414540E-003 -0.10296222967231242E-002 -0.10640762444430721E-002 -0.10076137460174085E-002  0.26761988392232328E-004  0.44305526847632751E-004  0.52259230549717706E-004  0.54007698119353816E-004  0.51141575180912024E-004 -0.13329994759064064E-005 -0.22068331780770064E-005 -0.26030026357222813E-005 -0.26900927898901252E-005 -0.25473328025926901E-005 -0.89840556955231470E-005 -0.16513500327919838E-004 -0.22790056521681229E-004 -0.27488655457101157E-004 -0.29300300944092872E-004  0.46139541313890932E-002  0.74587934056399271E-002  0.83896659558468333E-002  0.80767303889044562E-002  0.69619551069862607E-002  0.14979398590704896E-001  0.24254386384256813E-001  0.27367880019272026E-001  0.26468868181219289E-001  0.22951546290606650E-001  0.45476492466180317E-001  0.26628695131081325E-007  0.31996692160765298E-007  0.33984255802244294E-007  0.33348908990263360E-007 -0.94267495741395219E-006 -0.15753228959445189E-005 
-0.18929137727913091E-005 -0.20105333918616300E-005 -0.19729819245091664E-005  0.58253094564039697E-004  0.97425157241754078E-004  0.11725445183186454E-003  0.12484625290187543E-003  0.12292689314945523E-003  0.12063871254419042E-002  0.20245398650533515E-002  0.24534011049196802E-002  0.26394487684061906E-002  0.26352696595987957E-002  </sparseX_slice>
        <sparseX_slice start="351" end="400">  0.43270847723662527E-002  0.72697443099218832E-002  0.88292936138227810E-002  0.95303445093347164E-002  0.95569894389108071E-002 -0.14073414941897025E-003 -0.23613878218446964E-003 -0.28605984483110917E-003 -0.30757425008662607E-003 -0.30682009814046024E-003  0.71430994463493293E-005  0.11985435380381817E-004  0.14519176041178350E-004  0.15611077998136670E-004  0.15572696559653777E-004 -0.35579373545706664E-006 -0.59698774245673654E-006 -0.72319192430029356E-006 -0.77757893462507517E-006 -0.77566716767915086E-006 -0.23979534825330634E-005 -0.44671964237069477E-005 -0.63317587944945702E-005 -0.79456736603801354E-005 -0.89219914344601180E-005  0.12315203458862821E-002  0.20177366739448184E-002  0.23308999320939862E-002  0.23346017782958379E-002  0.21199271621867074E-002  0.56542849798244090E-002  0.92790005222657089E-002  0.10753135417564888E-001  0.10820008329106552E-001  0.98836343229440297E-002  0.10671636260786435E-002  0.17749336002186704E-002  
0.21125114774521005E-002  0.22115146639515694E-002  0.21280968653004696E-002 -0.25371635862260844E-002 -0.14855583364794395E-008 -0.17848463488666540E-008 -0.18954208508103838E-008 -0.18595839730760318E-008  0.52592459222235858E-007  0.87883918051461872E-007  0.10559092230880042E-006  0.11213448175414795E-006  0.11001635966733247E-006  </sparseX_slice>
        <sparseX_slice start="401" end="450"> -0.32499786658520214E-005 -0.54351425712323600E-005 -0.65407129958604708E-005 -0.69631123386298748E-005 -0.68545834716061430E-005 -0.67305135457388179E-004 -0.11294477852782553E-003 -0.13685614695480356E-003 -0.14721129276435408E-003 -0.14694649306681116E-003 -0.24141092075483802E-003 -0.40556359260251432E-003 -0.49251755120571620E-003 -0.53154065822463425E-003 -0.53291171824074374E-003  0.78516512571819954E-005  0.13173681050213606E-004  0.15957051655178192E-004  0.17154492073593063E-004  0.17108737718712076E-004 -0.39851824151888992E-006 -0.66864198031542106E-006 -0.80991179386430540E-006 -0.87068444027370480E-006 -0.86835635157849679E-006  0.19849967771378712E-007  0.33304678025604485E-007  0.40341247124288856E-007  0.43368297791060104E-007  0.43252336497081831E-007  0.13378341044818769E-006  0.24921539922484033E-006  0.35319952792231574E-006  0.44315802050385932E-006  0.49750330016156392E-006 -0.68707334445436587E-004 -0.11256524294727248E-003 
-0.13002276024247556E-003 -0.13020890952182351E-003 -0.11821024118186069E-003 -0.31545629794611400E-003 -0.51765572861133067E-003 -0.59983370757442508E-003 -0.60346972175204206E-003 -0.55112591503539172E-003 -0.84199113839400903E-004 -0.14003510907098193E-003 -0.16665173030858599E-003 -0.17443463105880800E-003 -0.16781877778788095E-003  </sparseX_slice>
        <sparseX_slice start="451" end="500">  0.33216512435825560E-005  0.55241029214010854E-005  0.65734078870762947E-005  0.68793214462015435E-005  0.66169784461953422E-005  0.13422747640132968E-003  0.78592775796075936E-010  0.94426452483453474E-010  0.10027631644471072E-009  0.98380346217789036E-010 -0.27823799448584331E-008 -0.46494579834999615E-008 -0.55862378374514477E-008 -0.59324201123645102E-008 -0.58203596666782184E-008  0.17193863140861126E-006  0.28754370059467840E-006  0.34603332959372154E-006  0.36838006504465202E-006  0.36263825935209577E-006  0.35607473362538785E-005  0.59752912007556801E-005  0.72403097699149609E-005  0.77881417053958939E-005  0.77741296293758358E-005  0.12771734090998338E-004  0.21456154041044371E-004  0.26056408259301615E-004  0.28120899495526029E-004  0.28193423961014976E-004 -0.41538801027903213E-006 -0.69694749493452941E-006 -0.84420027575509032E-006 -0.90755004350850908E-006 -0.90512908504585272E-006  0.21083424872317066E-007  0.35374194305496672E-007  
0.42848000651528347E-007  0.46063136014908254E-007  0.45939952024535842E-007 -0.10501534449984286E-008 -0.17619685668015888E-008 -0.21342346119170097E-008 -0.22943786606048269E-008 -0.22882429085859003E-008 -0.70777499985857605E-008 -0.13184625278751896E-007 -0.18685854085822165E-007 -0.23445059117112216E-007 -0.26320159574953548E-007  </sparseX_slice>
        <sparseX_slice start="501" end="550">  0.36349300308976228E-005  0.59552120466379581E-005  0.68787926756830532E-005  0.68886389054697979E-005  0.62538528091972907E-005  0.16689070826211872E-004  0.27386336584209741E-004  0.31733918789264792E-004  0.31926271549316737E-004  0.29157036797370136E-004  0.44545155177408258E-005  0.74084925920019868E-005  0.88166310244359614E-005  0.92283791515171237E-005  0.88783672583001436E-005 -0.24852036630344649E-006 -0.41330406452957146E-006 -0.49181120392704419E-006 -0.51469899369737734E-006 -0.49507075225274259E-006  0.92969381699725966E-008  0.15461356548489031E-007  0.18398239122184659E-007  0.19254446545695813E-007  0.18520163827722772E-007 -0.68174444763129627E-005 -0.39917452038068054E-011 -0.47959412919812718E-011 -0.50930572287521512E-011 -0.49967604604265394E-011  0.14131771895468032E-009  0.23614704300676824E-009  0.28372630769069972E-009  0.30130898509751197E-009  0.29561740902534420E-009 -0.87328027344916658E-008 -0.14604410852110105E-007 
-0.17575112589251416E-007 -0.18710108425635292E-007 -0.18418480778235053E-007 -0.18085117823797231E-006 -0.30348641780834514E-006 -0.36773700249255211E-006 -0.39556151260385583E-006 -0.39484983576192806E-006 -0.64867931936141242E-006 -0.10897630108867484E-005 -0.13234109828853766E-005 -0.14282669680399503E-005 -0.14319505013793985E-005  </sparseX_slice>
        <sparseX_slice start="551" end="600">  0.21097652821366505E-007  0.35398123962800414E-007  0.42877126638907477E-007  0.46094675925734506E-007  0.45971714855800901E-007 -0.10708320106367839E-008 -0.17966634849986631E-008 -0.21762598318465343E-008 -0.23395572970520363E-008 -0.23333007521840344E-008  0.53337535613644634E-010  0.89490789764671481E-010  0.10839826799446931E-009  0.11653202109125204E-009  0.11622038475207154E-009  0.35948055440089146E-009  0.66965015788481154E-009  0.94905883710748426E-009  0.11907799573069410E-008  0.13368069714361750E-008 -0.18461893440381797E-006 -0.30246659294105859E-006 -0.34937546592749153E-006 -0.34987555803478922E-006 -0.31763462565121626E-006 -0.84764175539417980E-006 -0.13909583495753854E-005 -0.16117730516719836E-005 -0.16215426918977995E-005 -0.14808926194443210E-005 -0.22624587025888337E-006 -0.37627904692276718E-006 -0.44779872243601529E-006 -0.46871150450779326E-006 -0.45093431945452992E-006  0.12622406707855843E-007  0.20991808732910903E-007  
0.24979204436236259E-007  0.26141680542556043E-007  0.25144757617480583E-007 -0.66778264030931511E-009 -0.11105619192374332E-008 -0.13215130043381405E-008 -0.13830128698653463E-008 -0.13302706389097199E-008  0.23982823513808225E-010  0.39884850096832571E-010  0.47460971917932247E-010  0.49669685225015119E-010  0.47775494569230955E-010  </sparseX_slice>
        <sparseX_slice start="601" end="650">  0.33957345598073165E-006  0.19882680657839161E-012  0.23888340636375009E-012  0.25368260066964665E-012  0.24888610741829072E-012 -0.70389639964779688E-011 -0.11762364591604895E-010 -0.14132263664170913E-010 -0.15008047919264480E-010 -0.14724553398166693E-010  0.43497648059366284E-009  0.72743830666211958E-009  0.87540745537616588E-009  0.93194102305211116E-009  0.91741519765832793E-009  0.90081055776590321E-008  0.15116504739631978E-007  0.18316793816532559E-007  0.19702718570619981E-007  0.19667270307600210E-007  0.32310388308129378E-007  0.54280543551534755E-007  0.65918430682093497E-007  0.71141254187654058E-007  0.71324729117305998E-007 -0.10508633999917270E-008 -0.17631626236257845E-008 -0.21356879584238476E-008 -0.22959524585451952E-008 -0.22898278299350752E-008  0.53337600018619581E-010  0.89490898085783083E-010  0.10839839983723730E-009  0.11653216386049211E-009  0.11622052852973491E-009 -0.26567156307250300E-011 -0.44574909065135335E-011 
-0.53992628195313238E-011 -0.58044009411144876E-011 -0.57888784929125782E-011 -0.17905544319416083E-010 -0.33354935152167808E-010 -0.47272139929426950E-010 -0.59312146482384641E-010 -0.66585678085913730E-010  0.91957756037185405E-008  0.15065707779585921E-007  0.17402214981285345E-007  0.17427124315812103E-007  0.15821219805451465E-007  </sparseX_slice>
        <sparseX_slice start="651" end="681">  0.42220606462268481E-007  0.69282930800762882E-007  0.80281599258201177E-007  0.80768220088954265E-007  0.73762511226425787E-007  0.11269192192486651E-007  0.18742268722629496E-007  0.22304627531555804E-007  0.23346282613135377E-007  0.22460810030660042E-007 -0.62871568422352244E-009 -0.10455913595609021E-008 -0.12442015197228391E-008 -0.13021038657237988E-008 -0.12524476398168055E-008  0.33261915047734994E-010  0.55316526640770880E-010  0.65823893332078963E-010  0.68887170481096958E-010  0.66260106673758806E-010 -0.16893803347369320E-011 -0.28095391424077099E-011 -0.33432107182635799E-011 -0.34987952691748371E-011 -0.33653660904805406E-011  0.59501040687570850E-013  0.98953740249206883E-013  0.11774998967614308E-012  0.12322977566842928E-012  0.11853031585622145E-012  0.00000000000000000E+000  </sparseX_slice>
      </sparseX>
      <sparseX i="4" alpha="-716.93445025294079" sparseCutoff="1.0000000000000000" sliced="T">
        <sparseX_slice start="1" end="50">  0.99859078910759358E+000  0.00000000000000000E+000  0.00000000000000000E+000  0.00000000000000000E+000  0.00000000000000000E+000  0.00000000000000000E+000  0.00000000000000000E+000  0.00000000000000000E+000  0.00000000000000000E+000  0.00000000000000000E+000  0.00000000000000000E+000  0.00000000000000000E+000  0.00000000000000000E+000  0.00000000000000000E+000  0.00000000000000000E+000  0.00000000000000000E+000  0.00000000000000000E+000  0.00000000000000000E+000  0.00000000000000000E+000  0.00000000000000000E+000  0.00000000000000000E+000  0.00000000000000000E+000  0.00000000000000000E+000  0.00000000000000000E+000  0.00000000000000000E+000  0.00000000000000000E+000  0.00000000000000000E+000  0.00000000000000000E+000  0.00000000000000000E+000  0.00000000000000000E+000  0.00000000000000000E+000  0.00000000000000000E+000  0.00000000000000000E+000  0.00000000000000000E+000  0.00000000000000000E+000  0.00000000000000000E+000  0.00000000000000000E+000  
0.00000000000000000E+000  0.00000000000000000E+000  0.00000000000000000E+000  0.00000000000000000E+000  0.00000000000000000E+000  0.00000000000000000E+000  0.00000000000000000E+000  0.00000000000000000E+000  0.00000000000000000E+000  0.00000000000000000E+000  0.00000000000000000E+000  0.00000000000000000E+000  0.00000000000000000E+000  </sparseX_slice>
        <sparseX_slice start="51" end="100">  0.00000000000000000E+000  0.00000000000000000E+000  0.00000000000000000E+000  0.00000000000000000E+000  0.00000000000000000E+000  0.00000000000000000E+000  0.00000000000000000E+000  0.00000000000000000E+000  0.00000000000000000E+000  0.00000000000000000E+000  0.00000000000000000E+000  0.00000000000000000E+000  0.00000000000000000E+000  0.00000000000000000E+000  0.00000000000000000E+000  0.00000000000000000E+000  0.00000000000000000E+000  0.00000000000000000E+000  0.00000000000000000E+000  0.00000000000000000E+000  0.00000000000000000E+000  0.00000000000000000E+000  0.00000000000000000E+000  0.00000000000000000E+000  0.00000000000000000E+000  0.00000000000000000E+000  0.00000000000000000E+000  0.00000000000000000E+000  0.00000000000000000E+000  0.00000000000000000E+000  0.00000000000000000E+000  0.00000000000000000E+000  0.00000000000000000E+000  0.00000000000000000E+000  0.00000000000000000E+000  0.00000000000000000E+000  0.00000000000000000E+000  
0.00000000000000000E+000  0.00000000000000000E+000  0.00000000000000000E+000  0.00000000000000000E+000  0.00000000000000000E+000  0.00000000000000000E+000  0.00000000000000000E+000  0.00000000000000000E+000  0.00000000000000000E+000  0.00000000000000000E+000  0.00000000000000000E+000  0.00000000000000000E+000  0.00000000000000000E+000  </sparseX_slice>
        <sparseX_slice start="101" end="150">  0.00000000000000000E+000  0.00000000000000000E+000  0.00000000000000000E+000  0.00000000000000000E+000  0.00000000000000000E+000  0.00000000000000000E+000  0.00000000000000000E+000  0.00000000000000000E+000  0.00000000000000000E+000  0.00000000000000000E+000  0.00000000000000000E+000  0.00000000000000000E+000  0.00000000000000000E+000  0.00000000000000000E+000  0.00000000000000000E+000  0.00000000000000000E+000  0.00000000000000000E+000  0.00000000000000000E+000  0.00000000000000000E+000  0.00000000000000000E+000  0.00000000000000000E+000  0.00000000000000000E+000  0.00000000000000000E+000  0.00000000000000000E+000  0.00000000000000000E+000  0.00000000000000000E+000  0.00000000000000000E+000  0.00000000000000000E+000  0.00000000000000000E+000  0.00000000000000000E+000  0.00000000000000000E+000  0.00000000000000000E+000  0.00000000000000000E+000  0.00000000000000000E+000  0.00000000000000000E+000  0.00000000000000000E+000  0.00000000000000000E+000  
0.00000000000000000E+000  0.00000000000000000E+000  0.00000000000000000E+000  0.00000000000000000E+000  0.00000000000000000E+000  0.00000000000000000E+000  0.00000000000000000E+000  0.00000000000000000E+000  0.00000000000000000E+000  0.00000000000000000E+000  0.00000000000000000E+000  0.00000000000000000E+000  0.00000000000000000E+000  </sparseX_slice>
        <sparseX_slice start="151" end="200">  0.00000000000000000E+000  0.00000000000000000E+000  0.00000000000000000E+000  0.00000000000000000E+000  0.00000000000000000E+000  0.00000000000000000E+000  0.00000000000000000E+000  0.00000000000000000E+000  0.00000000000000000E+000  0.00000000000000000E+000  0.00000000000000000E+000  0.00000000000000000E+000  0.00000000000000000E+000  0.00000000000000000E+000  0.00000000000000000E+000  0.00000000000000000E+000  0.00000000000000000E+000  0.00000000000000000E+000  0.00000000000000000E+000  0.00000000000000000E+000  0.00000000000000000E+000  0.00000000000000000E+000  0.00000000000000000E+000  0.00000000000000000E+000  0.00000000000000000E+000  0.00000000000000000E+000  0.00000000000000000E+000  0.00000000000000000E+000  0.00000000000000000E+000  0.00000000000000000E+000 -0.13620039743218652E-008  0.00000000000000000E+000  0.00000000000000000E+000  0.00000000000000000E+000  0.00000000000000000E+000  0.00000000000000000E+000  0.00000000000000000E+000  
0.00000000000000000E+000  0.00000000000000000E+000  0.00000000000000000E+000  0.00000000000000000E+000  0.00000000000000000E+000  0.00000000000000000E+000  0.00000000000000000E+000  0.00000000000000000E+000  0.00000000000000000E+000  0.00000000000000000E+000  0.00000000000000000E+000  0.00000000000000000E+000  0.00000000000000000E+000  </sparseX_slice>
        <sparseX_slice start="201" end="250">  0.00000000000000000E+000  0.00000000000000000E+000  0.00000000000000000E+000  0.00000000000000000E+000  0.00000000000000000E+000  0.00000000000000000E+000  0.00000000000000000E+000  0.00000000000000000E+000  0.00000000000000000E+000  0.00000000000000000E+000  0.00000000000000000E+000  0.00000000000000000E+000  0.00000000000000000E+000  0.00000000000000000E+000  0.00000000000000000E+000  0.00000000000000000E+000  0.00000000000000000E+000  0.00000000000000000E+000  0.00000000000000000E+000  0.00000000000000000E+000  0.92883633932091170E-018  0.15701700168389100E-017  0.19306425025399137E-017  0.21225192246605470E-017  0.21805331038814693E-017  0.82044634402858333E-007  0.00000000000000000E+000  0.00000000000000000E+000  0.00000000000000000E+000  0.00000000000000000E+000  0.00000000000000000E+000  0.00000000000000000E+000  0.00000000000000000E+000  0.00000000000000000E+000  0.00000000000000000E+000  0.00000000000000000E+000  0.00000000000000000E+000  
0.00000000000000000E+000  0.00000000000000000E+000  0.00000000000000000E+000  0.00000000000000000E+000  0.00000000000000000E+000  0.00000000000000000E+000  0.00000000000000000E+000  0.00000000000000000E+000  0.00000000000000000E+000  0.00000000000000000E+000  0.00000000000000000E+000  0.00000000000000000E+000  0.00000000000000000E+000  </sparseX_slice>
        <sparseX_slice start="251" end="300">  0.00000000000000000E+000  0.00000000000000000E+000  0.00000000000000000E+000  0.00000000000000000E+000  0.00000000000000000E+000  0.00000000000000000E+000  0.00000000000000000E+000  0.00000000000000000E+000  0.00000000000000000E+000  0.00000000000000000E+000  0.00000000000000000E+000  0.00000000000000000E+000  0.00000000000000000E+000  0.00000000000000000E+000  0.00000000000000000E+000 -0.79127237758473500E-016 -0.13376222240027442E-015 -0.16447073627510449E-015 -0.18081663191667664E-015 -0.18575879689654542E-015  0.33704106365302227E-014  0.56975779532084008E-014  0.70056012584638857E-014  0.77018511770888107E-014  0.79123611017482014E-014 -0.27067005382401812E-005  0.00000000000000000E+000  0.00000000000000000E+000  0.00000000000000000E+000  0.00000000000000000E+000  0.00000000000000000E+000  0.00000000000000000E+000  0.00000000000000000E+000  0.00000000000000000E+000  0.00000000000000000E+000  0.00000000000000000E+000  0.00000000000000000E+000  
0.00000000000000000E+000  0.00000000000000000E+000  0.00000000000000000E+000  0.00000000000000000E+000  0.00000000000000000E+000  0.00000000000000000E+000  0.00000000000000000E+000  0.00000000000000000E+000  0.00000000000000000E+000  0.00000000000000000E+000  0.00000000000000000E+000  0.00000000000000000E+000  0.00000000000000000E+000  </sparseX_slice>
        <sparseX_slice start="301" end="350">  0.00000000000000000E+000  0.00000000000000000E+000  0.00000000000000000E+000  0.00000000000000000E+000  0.00000000000000000E+000  0.00000000000000000E+000  0.00000000000000000E+000  0.00000000000000000E+000  0.00000000000000000E+000  0.00000000000000000E+000  0.00000000000000000E+000  0.00000000000000000E+000  0.00000000000000000E+000  0.00000000000000000E+000  0.00000000000000000E+000  0.26104539143739234E-014  0.44125101935257337E-014  0.54245547517866075E-014  0.59620484032404018E-014  0.61226940120547193E-014 -0.15724898096347701E-012 -0.26580155637005971E-012 -0.32676525594746391E-012 -0.35914286474668834E-012 -0.36881982982283581E-012  0.36682832866187789E-011  0.62000439440202465E-011  0.76207257989033903E-011  0.83735451602956041E-011  0.85959213135817781E-011  0.22854748180219970E-003  0.00000000000000000E+000  0.00000000000000000E+000  0.00000000000000000E+000  0.00000000000000000E+000  0.00000000000000000E+000  0.00000000000000000E+000  
0.00000000000000000E+000  0.00000000000000000E+000  0.00000000000000000E+000  0.00000000000000000E+000  0.00000000000000000E+000  0.00000000000000000E+000  0.00000000000000000E+000  0.00000000000000000E+000  0.00000000000000000E+000  0.00000000000000000E+000  0.00000000000000000E+000  0.00000000000000000E+000  0.00000000000000000E+000  </sparseX_slice>
        <sparseX_slice start="351" end="400">  0.00000000000000000E+000  0.00000000000000000E+000  0.00000000000000000E+000  0.00000000000000000E+000  0.00000000000000000E+000  0.00000000000000000E+000  0.00000000000000000E+000  0.00000000000000000E+000  0.00000000000000000E+000  0.00000000000000000E+000  0.00000000000000000E+000  0.00000000000000000E+000  0.00000000000000000E+000  0.00000000000000000E+000  0.00000000000000000E+000  0.00000000000000000E+000  0.00000000000000000E+000  0.00000000000000000E+000  0.00000000000000000E+000  0.00000000000000000E+000 -0.22042064131658820E-012 -0.37358641452048854E-012 -0.46177895303555199E-012 -0.51177634496015491E-012 -0.53159098077320340E-012  0.13277737269942364E-010  0.22504163404303086E-010  0.27816719469946645E-010  0.30828468708620815E-010  0.32022063274452438E-010 -0.43804032861791452E-009 -0.74236094942492853E-009 -0.91744781592890838E-009 -0.10165039614457475E-008 -0.10554616973177297E-008  0.26153831983973382E-007  0.44443215580963754E-007  
0.55225087292462660E-007  0.61699094222023680E-007  0.64798138202165397E-007  0.11872875717647686E-001  0.00000000000000000E+000  0.00000000000000000E+000  0.00000000000000000E+000  0.00000000000000000E+000  0.00000000000000000E+000  0.00000000000000000E+000  0.00000000000000000E+000  0.00000000000000000E+000  0.00000000000000000E+000  </sparseX_slice>
        <sparseX_slice start="401" end="450">  0.00000000000000000E+000  0.00000000000000000E+000  0.00000000000000000E+000  0.00000000000000000E+000  0.00000000000000000E+000  0.00000000000000000E+000  0.00000000000000000E+000  0.00000000000000000E+000  0.00000000000000000E+000  0.00000000000000000E+000  0.00000000000000000E+000  0.00000000000000000E+000  0.00000000000000000E+000  0.00000000000000000E+000  0.00000000000000000E+000  0.00000000000000000E+000  0.00000000000000000E+000  0.00000000000000000E+000  0.00000000000000000E+000  0.00000000000000000E+000  0.00000000000000000E+000  0.00000000000000000E+000  0.00000000000000000E+000  0.00000000000000000E+000  0.00000000000000000E+000  0.00000000000000000E+000  0.00000000000000000E+000  0.00000000000000000E+000  0.00000000000000000E+000  0.00000000000000000E+000 -0.11450692255804422E-010 -0.19463091616620208E-010 -0.24196042103993367E-010 -0.27048424786952258E-010 -0.28423292880772850E-010  0.68976880941545789E-009  0.11724210974200761E-008  
0.14575253182619240E-008  0.16293475174726238E-008  0.17121669027803076E-008 -0.22755876984455982E-007 -0.38675494101689646E-007 -0.48071931032169765E-007 -0.53724309881780437E-007 -0.56433795967841000E-007  0.19214531890474509E-005  0.32744715677843288E-005  0.40922448013122898E-005  0.46116416854081152E-005  0.48997544035737038E-005  </sparseX_slice>
        <sparseX_slice start="451" end="500">  0.70582053902521846E-004  0.12062768082897849E-003  0.15162010903831642E-003  0.17234644448801644E-003  0.18524909728453900E-003  0.51316974629065780E-001  0.00000000000000000E+000  0.00000000000000000E+000  0.00000000000000000E+000  0.00000000000000000E+000  0.00000000000000000E+000  0.00000000000000000E+000  0.00000000000000000E+000  0.00000000000000000E+000  0.00000000000000000E+000  0.00000000000000000E+000  0.00000000000000000E+000  0.00000000000000000E+000  0.00000000000000000E+000  0.00000000000000000E+000  0.00000000000000000E+000  0.00000000000000000E+000  0.00000000000000000E+000  0.00000000000000000E+000  0.00000000000000000E+000  0.00000000000000000E+000  0.00000000000000000E+000  0.00000000000000000E+000  0.00000000000000000E+000  0.00000000000000000E+000  0.00000000000000000E+000  0.00000000000000000E+000  0.00000000000000000E+000  0.00000000000000000E+000  0.00000000000000000E+000  0.00000000000000000E+000  0.00000000000000000E+000  
0.00000000000000000E+000  0.00000000000000000E+000  0.00000000000000000E+000  0.00000000000000000E+000  0.00000000000000000E+000  0.00000000000000000E+000  0.00000000000000000E+000  0.00000000000000000E+000 -0.49492212160776904E-010 -0.84151485123311199E-010 -0.10468474674614731E-009 -0.11714219327076097E-009 -0.12325927135110239E-009  </sparseX_slice>
        <sparseX_slice start="501" end="550">  0.29813205607871871E-008  0.50691317947428094E-008  0.63060176603497072E-008  0.70564309493203136E-008  0.74249118760949174E-008 -0.98355511305295857E-007 -0.16721907961198885E-006 -0.20798434322737415E-006 -0.23267097958863785E-006 -0.24472845562796466E-006  0.83049100233335331E-005  0.14157650328676736E-004  0.17705193634867727E-004  0.19972247029637304E-004  0.21248071436240580E-004  0.43143404502099639E-003  0.73758475874126394E-003  0.92770709412482257E-003  0.10555740352744020E-002  0.11360993309281016E-002  0.13185740915122946E-002  0.22550018063379504E-002  0.28381474526971450E-002  0.32325486819745780E-002  0.34837462331942072E-002 -0.63674196116119883E-003  0.00000000000000000E+000  0.00000000000000000E+000  0.00000000000000000E+000  0.00000000000000000E+000  0.00000000000000000E+000  0.00000000000000000E+000  0.00000000000000000E+000  0.00000000000000000E+000  0.00000000000000000E+000  0.00000000000000000E+000  0.00000000000000000E+000  
0.00000000000000000E+000  0.00000000000000000E+000  0.00000000000000000E+000  0.00000000000000000E+000  0.00000000000000000E+000  0.00000000000000000E+000  0.00000000000000000E+000  0.00000000000000000E+000  0.00000000000000000E+000  0.00000000000000000E+000  0.00000000000000000E+000  0.00000000000000000E+000  0.00000000000000000E+000  </sparseX_slice>
        <sparseX_slice start="551" end="600">  0.00000000000000000E+000  0.00000000000000000E+000  0.00000000000000000E+000  0.00000000000000000E+000  0.00000000000000000E+000  0.00000000000000000E+000  0.00000000000000000E+000  0.00000000000000000E+000  0.00000000000000000E+000  0.00000000000000000E+000  0.00000000000000000E+000  0.00000000000000000E+000  0.00000000000000000E+000  0.00000000000000000E+000  0.00000000000000000E+000  0.61410027503082615E-012  0.10407446439238121E-011  0.12861966652697682E-011  0.14249612101020342E-011  0.14792485522304276E-011 -0.36992280126557365E-010 -0.62692556845452988E-010 -0.77478134474949772E-010 -0.85837050714114588E-010 -0.89107212972776391E-010  0.12203969858362376E-008  0.20680842555901295E-008  0.25553748468825196E-008  0.28302963379208495E-008  0.29370140656280735E-008 -0.10304747568905857E-006 -0.17509493419546124E-006 -0.21753275160844284E-006 -0.24294984156586004E-006 -0.25500052503325525E-006 -0.53532415331199607E-005 -0.91220895980023624E-005 
-0.11398162654048426E-004 -0.12840395186900947E-004 -0.13634457449275854E-004 -0.23137794622919340E-004 -0.39440670692023846E-004 -0.49314419510516693E-004 -0.55609598950933320E-004 -0.59126621870127797E-004  0.20300624115797115E-006  0.34491469147930710E-006  0.42843298528202561E-006  0.47832651565740036E-006  0.50175259329490128E-006  </sparseX_slice>
        <sparseX_slice start="601" end="650">  0.31676358506604381E-004  0.00000000000000000E+000  0.00000000000000000E+000  0.00000000000000000E+000  0.00000000000000000E+000  0.00000000000000000E+000  0.00000000000000000E+000  0.00000000000000000E+000  0.00000000000000000E+000  0.00000000000000000E+000  0.00000000000000000E+000  0.00000000000000000E+000  0.00000000000000000E+000  0.00000000000000000E+000  0.00000000000000000E+000  0.00000000000000000E+000  0.00000000000000000E+000  0.00000000000000000E+000  0.00000000000000000E+000  0.00000000000000000E+000  0.00000000000000000E+000  0.00000000000000000E+000  0.00000000000000000E+000  0.00000000000000000E+000  0.00000000000000000E+000  0.00000000000000000E+000  0.00000000000000000E+000  0.00000000000000000E+000  0.00000000000000000E+000  0.00000000000000000E+000  0.00000000000000000E+000  0.00000000000000000E+000  0.00000000000000000E+000  0.00000000000000000E+000  0.00000000000000000E+000  0.00000000000000000E+000  0.00000000000000000E+000  
0.00000000000000000E+000  0.00000000000000000E+000  0.00000000000000000E+000 -0.30549989881939274E-013 -0.51774396225249961E-013 -0.63984736208533829E-013 -0.70887430131166904E-013 -0.73587411269737252E-013  0.18402756512679663E-011  0.31187950833481353E-011  0.38543234718068539E-011  0.42701288231744417E-011  0.44327703537318238E-011  </sparseX_slice>
        <sparseX_slice start="651" end="681"> -0.60711771489395164E-010 -0.10288192622585604E-009 -0.12712284979949535E-009 -0.14079852313347922E-009 -0.14610611693788512E-009  0.51263604132111768E-008  0.87105271720557751E-008  0.10821654342777655E-007  0.12086006129349152E-007  0.12685378992818525E-007  0.26631070090985146E-006  0.45380073201104987E-006  0.56702715095928541E-006  0.63877010140004889E-006  0.67826629016926962E-006  0.11510488113445194E-005  0.19620729481726092E-005  0.24532563400757801E-005  0.27664062237695800E-005  0.29413414222963995E-005 -0.14282234734715864E-007 -0.24265964038616558E-007 -0.30141641659686307E-007 -0.33651594273507937E-007 -0.35299373368463627E-007  0.50240383707906229E-009  0.85359804216799942E-009  0.10602808293844188E-008  0.11837413984800816E-008  0.12416933931757934E-008  0.00000000000000000E+000  </sparseX_slice>
      </sparseX>
      <sparseX i="5" alpha="-8489.9079185415685" sparseCutoff="1.0000000000000000" sliced="T">
        <sparseX_slice start="1" end="50">  0.94407050584987995E+000  0.11627145838511781E-011  0.93812214633022702E-012  0.45498630738265204E-012  0.63397428632068082E-013  0.61022142747673422E-003 -0.85973693817805001E-009 -0.81606569123483309E-009 -0.55372271521471853E-009 -0.18950850368045583E-009  0.19721524411808870E-006  0.31785427530268918E-006  0.35494483048701051E-006  0.33694293692985409E-006  0.28324076971348452E-006  0.39138556341177987E-001 -0.56102264927978082E-007 -0.55153497571878609E-007 -0.39501968618970148E-007 -0.14572599714189128E-007  0.17888454807377400E-004  0.29333093287931286E-004  0.33925307434273858E-004  0.33993646564411661E-004  0.30802012794456921E-004  0.81128823693764698E-003  0.13534981730528887E-002  0.16212751752587031E-002  0.17147829500083964E-002  0.16748365589276241E-002  0.17012926443311760E+000 -0.24418914588513613E-006 -0.24068522316064319E-006 -0.17304479897232559E-006 -0.64155827913832563E-007  0.77758352446491544E-004  0.12767439969392172E-003  
0.14804718739677765E-003  0.14891469822215310E-003  0.13560577185941090E-003  0.49872874356582924E-002  0.83314124100895039E-002  0.10005714341766095E-001  0.10623410552687656E-001  0.10427651497755175E-001  0.15329345868345633E-001  0.25641864218564070E-001  0.30875178074890559E-001  0.32907036943189458E-001  0.32461649818612132E-001  </sparseX_slice>
        <sparseX_slice start="51" end="100"> -0.32066534243244837E-003  0.40224495683192262E-009  0.28141266452943344E-009  0.76965868702636189E-010 -0.34325875506392516E-010 -0.14656155010909138E-006 -0.21031394826034019E-006 -0.17309892536945814E-006 -0.66233421514690531E-007  0.72554388185064490E-007 -0.94002065940461525E-005 -0.13724068746371706E-004 -0.11698826776571265E-004 -0.47250193396631358E-005  0.55792011228775214E-005 -0.40861247395623275E-004 -0.59734996965766487E-004 -0.51052695792631585E-004 -0.20698715794627513E-004  0.24562416738001278E-004  0.54458994958619204E-007  0.69578986771109870E-007  0.42208303080438527E-007  0.65098057337464587E-008  0.92926933686736337E-008  0.16991847425784917E-004 -0.21323157171397058E-010 -0.14937062106606439E-010 -0.41149725576647182E-011  0.17959697573778950E-011  0.77662009840206848E-008  0.11148821875636759E-007  0.91878928162452960E-008  0.35411633302835219E-008 -0.37961300337748132E-008  0.49811081860378373E-006  0.72751807061740595E-006  
0.62096033392199511E-006  0.25262269165400734E-006 -0.29191029621810462E-006  0.21652108584822987E-005  0.31665747632137356E-005  0.27098186538241737E-005  0.11066547926961311E-005 -0.12851342312113103E-005 -0.40810620306104540E-008 -0.52161971586284915E-008 -0.31683593938596218E-008 -0.49221154278907387E-009 -0.68759704400995916E-009  </sparseX_slice>
        <sparseX_slice start="101" end="150">  0.15291383278690429E-009  0.19552392223812430E-009  0.11891619084434195E-009  0.18608251364466605E-010  0.25438787021911393E-010 -0.86302231061661391E-006  0.10830119243391267E-011  0.75866127210609000E-012  0.20900431337381159E-012 -0.91215902761282739E-013 -0.39444826392283496E-009 -0.56625324930043783E-009 -0.46665792792440181E-009 -0.17985986541073096E-009  0.19280248267406061E-009 -0.25299235500563156E-007 -0.36950942082242445E-007 -0.31538903266146521E-007 -0.12831004696117326E-007  0.14825896196449837E-007 -0.10997187246537773E-006 -0.16083163484214619E-006 -0.13763312038300997E-006 -0.56208303177738538E-007  0.65270964941254951E-007  0.20727867283474434E-009  0.26493279944849738E-009  0.16092264670786199E-009  0.25000005247587091E-010  0.34922517401923524E-010 -0.10983561730463970E-010 -0.14044187817770542E-010 -0.85415898827943901E-011 -0.13366228078677068E-011 -0.18271867557661437E-011  0.39446604041058424E-012  0.50438639222008126E-012  
0.30676545055734461E-012  0.48004524861580492E-013  0.65620491998528341E-013  0.42986704346428916E-007 -0.53944275694193616E-013 -0.37788534059160637E-013 -0.10410399326343769E-013  0.45434177491152913E-014  0.19647268318125276E-010  0.28204787691174831E-010  0.23243995247568971E-010  0.89587290878503425E-011 -0.96033936554606720E-011  </sparseX_slice>
        <sparseX_slice start="151" end="200">  0.12601421113625278E-008  0.18405077193042076E-008  0.15709368120937769E-008  0.63910586575248482E-009 -0.73847035315515858E-009  0.54776432890996628E-008  0.80109423130930229E-008  0.68554360799566859E-008  0.27997072026446287E-008 -0.32511135847887899E-008 -0.10324445749381759E-010 -0.13196168622617196E-010 -0.80154756010267969E-011 -0.12452376392949701E-011 -0.17394728397627016E-011  0.54708564885288452E-012  0.69953388556192751E-012  0.42545226977161624E-012  0.66576507221239105E-013  0.91011243497992218E-013 -0.27786685517298632E-013 -0.35529613811556062E-013 -0.21608945447351356E-013 -0.33814993863527599E-014 -0.46223900502738299E-014  0.97866459078911469E-015  0.12513754108650758E-014  0.76108069291740406E-015  0.11909854469839261E-015  0.16280348657969282E-015  0.43886852953083207E-001 -0.56716629998945615E-007 -0.46696014279163042E-007 -0.25713708962714173E-007 -0.67174297191303900E-008  0.20058685324151066E-004  0.29654314328876290E-004  
0.28723049491308786E-004  0.22128080318480052E-004  0.14198589147621608E-004  0.12865296928944348E-002  0.19350968009607726E-002  0.19412366643900259E-002  0.15785928774832670E-002  0.10918262354253307E-002  0.55923460338063967E-002  0.84226480987583240E-002  0.84713934808472308E-002  0.69152828755995963E-002  0.48067618301181631E-002  </sparseX_slice>
        <sparseX_slice start="201" end="250"> -0.10540641328854131E-004 -0.13874358373361851E-004 -0.99048765039112506E-005 -0.30757396755397794E-005  0.25718054545429826E-005  0.55854171165236713E-006  0.73548498053911437E-006  0.52573950694288992E-006  0.16444411753821044E-006 -0.13455985463090464E-006 -0.28368543248246445E-007 -0.37355584714475157E-007 -0.26702587181271236E-007 -0.83523108338639892E-008  0.68341900330799035E-008  0.14130227762941177E-008  0.18606627639719810E-008  0.13300423552213036E-008  0.41602438569177608E-009 -0.34040753155053675E-009  0.10200805184521977E-002  0.13833042791045911E-002  0.11621715562784704E-002  0.72660959010255452E-003  0.35588085357007187E-003  0.16683969015387881E+000 -0.22199137835702406E-006 -0.18825884581071857E-006 -0.10877591902958361E-006 -0.30516207206712902E-007  0.76254837592322966E-004  0.11606828741803024E-003  0.11579935094826381E-003  0.93607743499522013E-004  0.64501916147758023E-004  0.48908545701769864E-002  0.75740537847106860E-002  
0.78262562560203544E-002  0.66778733192783381E-002  0.49599916972823867E-002  0.21259790044890516E-001  0.32966614216928751E-001  0.34153123852893638E-001  0.29253510305869489E-001  0.21836349040387650E-001 -0.40071165166689058E-004 -0.54304847435032257E-004 -0.39932329285673242E-004 -0.13011207771999226E-004  0.11683300224590670E-004  </sparseX_slice>
        <sparseX_slice start="251" end="300">  0.21233449162946035E-005  0.28787204845175446E-005  0.21195623288630429E-005  0.69564293662051342E-006 -0.61128386560230808E-006 -0.10784548554242682E-006 -0.14621139761394644E-006 -0.10765368994564036E-006 -0.35332525863604730E-007  0.31046630610154983E-007  0.53717290330502501E-008  0.72827156980132455E-008  0.53621758203261438E-008  0.17598952744607962E-008 -0.15464168888791317E-008  0.54842139159446577E-002  0.76569957853042346E-002  0.66261432179752057E-002  0.43469451529900482E-002  0.22863728015203124E-002  0.14742268738490015E-001  0.21191861162360302E-001  0.18889540751502641E-001  0.13002809500791666E-001  0.73444532560425603E-002  0.16440131070803765E+000 -0.22866154704645887E-006 -0.21156118689152352E-006 -0.13818715881720519E-006 -0.45013842971189109E-007  0.75140365199934911E-004  0.11955578797909678E-003  0.13013278617735966E-003  0.11891775526135193E-003  0.95145478110965381E-004  0.48193742213132433E-002  0.78016311653313960E-002  
0.87949761686396573E-002  0.84834616812690077E-002  0.73163839099492341E-002  0.20949075999446370E-001  0.33957161145254877E-001  0.38380536050009059E-001  0.37163183824707707E-001  0.32210358912226178E-001 -0.39485520914873186E-004 -0.55936543655518479E-004 -0.44875081129065203E-004 -0.16529226788733610E-004  0.17233800980984754E-004  </sparseX_slice>
        <sparseX_slice start="301" end="350">  0.20923120092234580E-005  0.29652173177890688E-005  0.23819179388557388E-005  0.88373347539083433E-006 -0.90169252524248136E-006 -0.10626931254048184E-006 -0.15060460735759044E-006 -0.12097886991749006E-006 -0.44885866343258109E-007  0.45796259856388825E-007  0.52932206538346264E-008  0.75015392513533100E-008  0.60258962917993129E-008  0.22357423404294255E-008 -0.22810884240125134E-008  0.54040615584516555E-002  0.78870653218793430E-002  0.74463152988704876E-002  0.55222884401698027E-002  0.33725824957235597E-002  0.20544010228949902E-001  0.30870319728595122E-001  0.30020436333761974E-001  0.23360768417226063E-001  0.15321102053086526E-001  0.14314498120132205E-001  0.22484496119630795E-001  0.23855174922602713E-001  0.20984907185252560E-001  0.15980506644791139E-001 -0.10035027824859044E-001  0.13948622726581090E-007  0.12888548164171091E-007  0.84008875578199703E-008  0.27282736170255790E-008 -0.45865550116599647E-005 -0.72930433771652650E-005 
-0.79278373648218474E-005 -0.72294321638125169E-005 -0.57667348658850630E-005 -0.29417377635859889E-003 -0.47590865706438460E-003 -0.53579995280689555E-003 -0.51573972788375975E-003 -0.44344352483570318E-003 -0.12787280080319527E-002 -0.20714266819188559E-002 -0.23381859154575687E-002 -0.22592817688288124E-002 -0.19522588300536288E-002  </sparseX_slice>
        <sparseX_slice start="351" end="400">  0.24101894282551721E-005  0.34121948100055228E-005  0.27338409894608862E-005  0.10048703284618638E-005 -0.10445347793918465E-005 -0.12771436639049628E-006 -0.18088173635841306E-006 -0.14510915035557185E-006 -0.53725292721739543E-007  0.54651275361287970E-007  0.64866606213756893E-008  0.91870577980874427E-008  0.73701703733494836E-008  0.27287710327980076E-008 -0.27756956366645599E-008 -0.32309728137558045E-009 -0.45760269812443458E-009 -0.36710445677815955E-009 -0.13591870743250533E-009  0.13825598870372110E-009 -0.32986299119367162E-003 -0.48112024087916950E-003 -0.45363799846852526E-003 -0.33571950277292643E-003 -0.20441107083912237E-003 -0.12540028628349729E-002 -0.18831257327915256E-002 -0.18288791308186097E-002 -0.14201839766963471E-002 -0.92860675197064103E-003 -0.12356754804061121E-002 -0.19397079586153307E-002 -0.20552544977681659E-002 -0.18041786315224242E-002 -0.13697691273375963E-002  0.53333825610323745E-004  0.83668029398949122E-004  
0.88535738352393689E-004  0.77557182066777632E-004  0.58704880386842135E-004  0.56630850869274479E-003 -0.78716423883314373E-009 -0.72733926855887523E-009 -0.47408544769533115E-009 -0.15396325535197468E-009  0.25883387410805442E-006  0.41156916000197189E-006  0.44739154144706491E-006  0.40797696200251073E-006  0.32543116905970997E-006  </sparseX_slice>
        <sparseX_slice start="401" end="450">  0.16601161002609495E-004  0.26857008260629296E-004  0.30236791669972470E-004  0.29104627112934415E-004  0.25024619313253797E-004  0.72162684936291242E-004  0.11689706140406745E-003  0.13195081492818763E-003  0.12749755326127175E-003  0.11017081383955491E-003 -0.13601464835015321E-006 -0.19256078417333093E-006 -0.15427881250103826E-006 -0.56707627172220047E-007  0.58945691502472803E-007  0.72073275362598863E-008  0.10207719938403327E-007  0.81889427681406636E-008  0.30318676779383249E-008 -0.30841071845772187E-008 -0.36606287167308559E-009 -0.51845429477180683E-009 -0.41592072747249312E-009 -0.15399213807330158E-009  0.15663939768367480E-009  0.18233406301596898E-010  0.25823945963545537E-010  0.20716800967543429E-010  0.76702706493587967E-011 -0.78021287747295508E-011  0.18615216806181610E-004  0.27151114172524287E-004  0.25600147184446629E-004  0.18945585174985808E-004  0.11535424343063362E-004  0.70767366423169945E-004  0.10627065217379182E-003  
0.10320911186801232E-003  0.80144931326344505E-004  0.52403585030116575E-004  0.69733093993369733E-004  0.10946376346478718E-003  0.11598414996536396E-003  0.10181481758453834E-003  0.77299473414052595E-004 -0.42564961040956242E-005 -0.66774180378120267E-005 -0.70658863521857569E-005 -0.61896839154143130E-005 -0.46850946287903383E-005  </sparseX_slice>
        <sparseX_slice start="451" end="500">  0.16985242364345036E-006  0.26645728345705158E-006  0.28195817232180503E-006  0.24699316009026363E-006  0.18695303981608893E-006 -0.29960902143318766E-004  0.41645411152986473E-010  0.38480333923760338E-010  0.25081783708441512E-010  0.81455211335969940E-011 -0.13693766303156482E-007 -0.21774321089051118E-007 -0.23669526249640916E-007 -0.21584273402017802E-007 -0.17217137030826264E-007 -0.87829469737761507E-006 -0.14208866411551309E-005 -0.15996961673045334E-005 -0.15397982910257817E-005 -0.13239429434661794E-005 -0.38178115083706217E-005 -0.61845113695265554E-005 -0.69809394864783862E-005 -0.67453368792492751E-005 -0.58286549630568384E-005  0.71959391510535179E-008  0.10187547443373776E-007  0.81622160098188207E-008  0.30001520744138454E-008 -0.31185582220265962E-008 -0.38130812395384314E-009 -0.54004573988206086E-009 -0.43324108269992000E-009 -0.16040283392021275E-009  0.16316659577521624E-009  0.19366782783852043E-010  0.27429145284609739E-010  
0.22004543368964730E-010  0.81470492687157208E-011 -0.82871040968146988E-011 -0.96464964512463295E-012 -0.13662318410685874E-011 -0.10960351702757309E-011 -0.40580041076489510E-012  0.41277644251102582E-012 -0.98484956617395674E-006 -0.14364464964167811E-005 -0.13543916226423008E-005 -0.10023278965825339E-005 -0.61028875075826131E-006  </sparseX_slice>
        <sparseX_slice start="501" end="550"> -0.37439913188649224E-005 -0.56223146135729042E-005 -0.54603419069135151E-005 -0.42401171405436234E-005 -0.27724440377883123E-005 -0.36892724958503997E-005 -0.57912481423214491E-005 -0.61362131998919155E-005 -0.53865758702024978E-005 -0.40895763919167389E-005  0.22519256075210794E-006  0.35327293327917019E-006  0.37382508830875767E-006  0.32746905424907884E-006  0.24786782550466515E-006 -0.12708331802758889E-007 -0.19936292283188758E-007 -0.21096066278069843E-007 -0.18479989420347406E-007 -0.13987796925338837E-007  0.47541770009721212E-009  0.74581513562716106E-009  0.78920218687752219E-009  0.69133495205160174E-009  0.52328237887170334E-009  0.15217211836558418E-005 -0.21151801120736703E-011 -0.19544251039303218E-011 -0.12739096242688113E-011 -0.41371291161826295E-012  0.69550957337219632E-009  0.11059228291029715E-008  0.12021807397017343E-008  0.10962702628850762E-008  0.87446239153127250E-009  0.44608791821382304E-007  0.72167162759947113E-007  
0.81248940153053053E-007  0.78206713093942715E-007  0.67243369819356454E-007  0.19390753388205900E-006  0.31411276991986135E-006  0.35456353909047703E-006  0.34259722790444760E-006  0.29603874031318538E-006 -0.36548342203034935E-009 -0.51742790253340781E-009 -0.41456084827376673E-009 -0.15237842117981157E-009  0.15839229693532948E-009  </sparseX_slice>
        <sparseX_slice start="551" end="600">  0.19366728242861816E-010  0.27429048651059587E-010  0.22004415288086787E-010  0.81468972169702043E-011 -0.82872693238223332E-011 -0.98364339900295209E-012 -0.13931326643421858E-011 -0.11176158722020146E-011 -0.41379052596311631E-012  0.42090394322786027E-012  0.48994779688888297E-013  0.69391232760175008E-013  0.55667881048577538E-013  0.20610697182260261E-013 -0.20965011455719350E-013  0.50020738374040456E-007  0.72957451425252498E-007  0.68789865313787375E-007  0.50908466836824663E-007  0.30996707498882605E-007  0.19015818929907682E-006  0.28555866601398070E-006  0.27733203459352099E-006  0.21535653509155094E-006  0.14081307707142274E-006  0.18737900755990201E-006  0.29413883920422005E-006  0.31165969465593006E-006  0.27358544044041148E-006  0.20771053547534674E-006 -0.11437582501987674E-007 -0.17942814392227319E-007 -0.18986663122964119E-007 -0.16632229378395677E-007 -0.12589264468673601E-007  0.64545912605298168E-009  0.10125689188414855E-008  
0.10714741095991120E-008  0.93860295793249907E-009  0.71044345698621457E-009 -0.34148414541441599E-010 -0.53570585229326258E-010 -0.56687000565404173E-010 -0.49657369770386676E-010 -0.37586449960917217E-010  0.12264101814632653E-011  0.19239403068692537E-011  0.20358636142507474E-011  0.17834006259883558E-011  0.13498841903588207E-011  </sparseX_slice>
        <sparseX_slice start="601" end="650"> -0.75796161333212267E-007  0.10535604994232378E-012  0.97348924416815777E-013  0.63452793088569231E-013  0.20606830562293499E-013 -0.34642979540748313E-010 -0.55085455914720943E-010 -0.59880013682401056E-010 -0.54604666480892968E-010 -0.43556528765072798E-010 -0.22219413241327870E-008 -0.35946098209474749E-008 -0.40469685525426685E-008 -0.38954367637620625E-008 -0.33493581887134638E-008 -0.96584360392093333E-008 -0.15645797956541087E-007 -0.17660630278676625E-007 -0.17064594380010083E-007 -0.14745539697193537E-007  0.18204544116468127E-010  0.25772821723166265E-010  0.20649065857584661E-010  0.75898919719953307E-011 -0.78894400770612295E-011 -0.96464692360123150E-012 -0.13662270191820018E-011 -0.10960287792090064E-011 -0.40579282358351116E-012  0.41278468712060563E-012  0.48994779441829077E-013  0.69391232322444346E-013  0.55667880468397005E-013  0.20610696493495887E-013 -0.20965012204165485E-013 -0.24404051581002725E-014 -0.34563421538003675E-014 
-0.27727889565807941E-014 -0.10266083863427608E-014  0.10442566008265710E-014 -0.24915076405104739E-008 -0.36339736990472649E-008 -0.34263883459171776E-008 -0.25357249455646558E-008 -0.15439302992018325E-008 -0.94716830847536537E-008 -0.14223532505010836E-007 -0.13813768161140510E-007 -0.10726799924506963E-007 -0.70138280403571773E-008  </sparseX_slice>
