<GAP_2023_3_22_60_12_47_45_803>
<Potential label="GAP_2023_3_22_60_12_47_45_803" init_args="IP GAP label=GAP_2023_3_22_60_12_47_45_803"/>
<GAP_params label="GAP_2023_3_22_60_12_47_45_803" gap_version="1662319253">
  <GAP_data do_core="F">
    <e0 Z="1" value=".00000000000000000E+000"/>
    <e0 Z="2" value=".00000000000000000E+000"/>
    <e0 Z="3" value=".00000000000000000E+000"/>
    <e0 Z="4" value=".00000000000000000E+000"/>
    <e0 Z="5" value=".00000000000000000E+000"/>
    <e0 Z="6" value="-73.221817869804852"/>
    <e0 Z="7" value=".00000000000000000E+000"/>
    <e0 Z="8" value="-73.221817869804852"/>
    <e0 Z="9" value=".00000000000000000E+000"/>
    <e0 Z="10" value=".00000000000000000E+000"/>
    <e0 Z="11" value=".00000000000000000E+000"/>
    <e0 Z="12" value=".00000000000000000E+000"/>
    <e0 Z="13" value=".00000000000000000E+000"/>
    <e0 Z="14" value=".00000000000000000E+000"/>
    <e0 Z="15" value=".00000000000000000E+000"/>
    <e0 Z="16" value=".00000000000000000E+000"/>
    <e0 Z="17" value=".00000000000000000E+000"/>
    <e0 Z="18" value=".00000000000000000E+000"/>
    <e0 Z="19" value=".00000000000000000E+000"/>
    <e0 Z="20" value=".00000000000000000E+000"/>
    <e0 Z="21" value=".00000000000000000E+000"/>
    <e0 Z="22" value=".00000000000000000E+000"/>
    <e0 Z="23" value=".00000000000000000E+000"/>
    <e0 Z="24" value=".00000000000000000E+000"/>
    <e0 Z="25" value=".00000000000000000E+000"/>
    <e0 Z="26" value=".00000000000000000E+000"/>
    <e0 Z="27" value=".00000000000000000E+000"/>
    <e0 Z="28" value=".00000000000000000E+000"/>
    <e0 Z="29" value=".00000000000000000E+000"/>
    <e0 Z="30" value=".00000000000000000E+000"/>
    <e0 Z="31" value=".00000000000000000E+000"/>
    <e0 Z="32" value=".00000000000000000E+000"/>
    <e0 Z="33" value=".00000000000000000E+000"/>
    <e0 Z="34" value=".00000000000000000E+000"/>
    <e0 Z="35" value=".00000000000000000E+000"/>
    <e0 Z="36" value=".00000000000000000E+000"/>
    <e0 Z="37" value=".00000000000000000E+000"/>
    <e0 Z="38" value=".00000000000000000E+000"/>
    <e0 Z="39" value=".00000000000000000E+000"/>
    <e0 Z="40" value=".00000000000000000E+000"/>
    <e0 Z="41" value=".00000000000000000E+000"/>
    <e0 Z="42" value=".00000000000000000E+000"/>
    <e0 Z="43" value=".00000000000000000E+000"/>
    <e0 Z="44" value=".00000000000000000E+000"/>
    <e0 Z="45" value=".00000000000000000E+000"/>
    <e0 Z="46" value=".00000000000000000E+000"/>
    <e0 Z="47" value=".00000000000000000E+000"/>
    <e0 Z="48" value=".00000000000000000E+000"/>
    <e0 Z="49" value=".00000000000000000E+000"/>
    <e0 Z="50" value=".00000000000000000E+000"/>
    <e0 Z="51" value=".00000000000000000E+000"/>
    <e0 Z="52" value=".00000000000000000E+000"/>
    <e0 Z="53" value=".00000000000000000E+000"/>
    <e0 Z="54" value=".00000000000000000E+000"/>
    <e0 Z="55" value=".00000000000000000E+000"/>
    <e0 Z="56" value=".00000000000000000E+000"/>
    <e0 Z="57" value=".00000000000000000E+000"/>
    <e0 Z="58" value=".00000000000000000E+000"/>
    <e0 Z="59" value=".00000000000000000E+000"/>
    <e0 Z="60" value=".00000000000000000E+000"/>
    <e0 Z="61" value=".00000000000000000E+000"/>
    <e0 Z="62" value=".00000000000000000E+000"/>
    <e0 Z="63" value=".00000000000000000E+000"/>
    <e0 Z="64" value=".00000000000000000E+000"/>
    <e0 Z="65" value=".00000000000000000E+000"/>
    <e0 Z="66" value=".00000000000000000E+000"/>
    <e0 Z="67" value=".00000000000000000E+000"/>
    <e0 Z="68" value=".00000000000000000E+000"/>
    <e0 Z="69" value=".00000000000000000E+000"/>
    <e0 Z="70" value=".00000000000000000E+000"/>
    <e0 Z="71" value=".00000000000000000E+000"/>
    <e0 Z="72" value=".00000000000000000E+000"/>
    <e0 Z="73" value=".00000000000000000E+000"/>
    <e0 Z="74" value=".00000000000000000E+000"/>
    <e0 Z="75" value=".00000000000000000E+000"/>
    <e0 Z="76" value=".00000000000000000E+000"/>
    <e0 Z="77" value=".00000000000000000E+000"/>
    <e0 Z="78" value=".00000000000000000E+000"/>
    <e0 Z="79" value=".00000000000000000E+000"/>
    <e0 Z="80" value=".00000000000000000E+000"/>
    <e0 Z="81" value=".00000000000000000E+000"/>
    <e0 Z="82" value=".00000000000000000E+000"/>
    <e0 Z="83" value=".00000000000000000E+000"/>
    <e0 Z="84" value=".00000000000000000E+000"/>
    <e0 Z="85" value=".00000000000000000E+000"/>
    <e0 Z="86" value=".00000000000000000E+000"/>
    <e0 Z="87" value=".00000000000000000E+000"/>
    <e0 Z="88" value=".00000000000000000E+000"/>
    <e0 Z="89" value=".00000000000000000E+000"/>
    <e0 Z="90" value=".00000000000000000E+000"/>
    <e0 Z="91" value=".00000000000000000E+000"/>
    <e0 Z="92" value=".00000000000000000E+000"/>
    <e0 Z="93" value=".00000000000000000E+000"/>
    <e0 Z="94" value=".00000000000000000E+000"/>
    <e0 Z="95" value=".00000000000000000E+000"/>
    <e0 Z="96" value=".00000000000000000E+000"/>
    <e0 Z="97" value=".00000000000000000E+000"/>
    <e0 Z="98" value=".00000000000000000E+000"/>
    <e0 Z="99" value=".00000000000000000E+000"/>
    <e0 Z="100" value=".00000000000000000E+000"/>
    <e0 Z="101" value=".00000000000000000E+000"/>
    <e0 Z="102" value=".00000000000000000E+000"/>
    <e0 Z="103" value=".00000000000000000E+000"/>
    <e0 Z="104" value=".00000000000000000E+000"/>
    <e0 Z="105" value=".00000000000000000E+000"/>
    <e0 Z="106" value=".00000000000000000E+000"/>
    <e0 Z="107" value=".00000000000000000E+000"/>
    <e0 Z="108" value=".00000000000000000E+000"/>
    <e0 Z="109" value=".00000000000000000E+000"/>
    <e0 Z="110" value=".00000000000000000E+000"/>
    <e0 Z="111" value=".00000000000000000E+000"/>
    <e0 Z="112" value=".00000000000000000E+000"/>
    <e0 Z="113" value=".00000000000000000E+000"/>
    <e0 Z="114" value=".00000000000000000E+000"/>
    <e0 Z="115" value=".00000000000000000E+000"/>
    <e0 Z="116" value=".00000000000000000E+000"/>
    <e0 Z="117" value=".00000000000000000E+000"/>
    <e0 Z="118" value=".00000000000000000E+000"/>
  </GAP_data>
  <gpSparse label="GAP_2023_3_22_60_12_47_45_803" n_coordinate="2" fitted="T">
    <gpCoordinates label="GAP_2023_3_22_60_12_47_45_8031" dimensions="681" signal_variance=".72770126504682189E-001" signal_mean=".00000000000000000E+000" sparsified="T" n_permutations="1" covariance_type="2" zeta="4.0000000000000000" n_sparseX="22">
      <descriptor> soap=T l_max=4 n_max=8 cutoff=4 delta=0.07277012650468219 covariance_type=dot_product zeta=4 n_sparse=1000 sparse_method=cur_points atom_gaussian_width=0.3 cutoff_transition_width=0.5               n_species=2 Z=8 species_Z={8 6 }</descriptor>
      <permutation i="1">1  </permutation>
      <sparseX i="1" alpha="-958.17135853449520" sparseCutoff="1.0000000000000000" sliced="T">
        <sparseX_slice start="1" end="50">  0.96615066222137524E+000  0.00000000000000000E+000  0.00000000000000000E+000  0.00000000000000000E+000  0.00000000000000000E+000  0.00000000000000000E+000  0.00000000000000000E+000  0.00000000000000000E+000  0.00000000000000000E+000  0.00000000000000000E+000  0.00000000000000000E+000  0.00000000000000000E+000  0.00000000000000000E+000  0.00000000000000000E+000  0.00000000000000000E+000  0.00000000000000000E+000  0.00000000000000000E+000  0.00000000000000000E+000  0.00000000000000000E+000  0.00000000000000000E+000  0.00000000000000000E+000  0.00000000000000000E+000  0.00000000000000000E+000  0.00000000000000000E+000  0.00000000000000000E+000  0.00000000000000000E+000  0.00000000000000000E+000  0.00000000000000000E+000  0.00000000000000000E+000  0.00000000000000000E+000  0.00000000000000000E+000  0.00000000000000000E+000  0.00000000000000000E+000  0.00000000000000000E+000  0.00000000000000000E+000  0.00000000000000000E+000  0.00000000000000000E+000  
0.00000000000000000E+000  0.00000000000000000E+000  0.00000000000000000E+000  0.00000000000000000E+000  0.00000000000000000E+000  0.00000000000000000E+000  0.00000000000000000E+000  0.00000000000000000E+000  0.00000000000000000E+000  0.00000000000000000E+000  0.00000000000000000E+000  0.00000000000000000E+000  0.00000000000000000E+000  </sparseX_slice>
        <sparseX_slice start="51" end="100">  0.00000000000000000E+000  0.00000000000000000E+000  0.00000000000000000E+000  0.00000000000000000E+000  0.00000000000000000E+000  0.00000000000000000E+000  0.00000000000000000E+000  0.00000000000000000E+000  0.00000000000000000E+000  0.00000000000000000E+000  0.00000000000000000E+000  0.00000000000000000E+000  0.00000000000000000E+000  0.00000000000000000E+000  0.00000000000000000E+000  0.00000000000000000E+000  0.00000000000000000E+000  0.00000000000000000E+000  0.00000000000000000E+000  0.00000000000000000E+000  0.00000000000000000E+000  0.00000000000000000E+000  0.00000000000000000E+000  0.00000000000000000E+000  0.00000000000000000E+000  0.00000000000000000E+000  0.00000000000000000E+000  0.00000000000000000E+000  0.00000000000000000E+000  0.00000000000000000E+000  0.00000000000000000E+000  0.00000000000000000E+000  0.00000000000000000E+000  0.00000000000000000E+000  0.00000000000000000E+000  0.00000000000000000E+000  0.00000000000000000E+000  
0.00000000000000000E+000  0.00000000000000000E+000  0.00000000000000000E+000  0.00000000000000000E+000  0.00000000000000000E+000  0.00000000000000000E+000  0.00000000000000000E+000  0.00000000000000000E+000  0.00000000000000000E+000  0.00000000000000000E+000  0.00000000000000000E+000  0.00000000000000000E+000  0.00000000000000000E+000  </sparseX_slice>
        <sparseX_slice start="101" end="150">  0.00000000000000000E+000  0.00000000000000000E+000  0.00000000000000000E+000  0.00000000000000000E+000  0.00000000000000000E+000  0.00000000000000000E+000  0.00000000000000000E+000  0.00000000000000000E+000  0.00000000000000000E+000  0.00000000000000000E+000  0.00000000000000000E+000  0.00000000000000000E+000  0.00000000000000000E+000  0.00000000000000000E+000  0.00000000000000000E+000  0.00000000000000000E+000  0.00000000000000000E+000  0.00000000000000000E+000  0.00000000000000000E+000  0.00000000000000000E+000  0.00000000000000000E+000  0.00000000000000000E+000  0.00000000000000000E+000  0.00000000000000000E+000  0.00000000000000000E+000  0.00000000000000000E+000  0.00000000000000000E+000  0.00000000000000000E+000  0.00000000000000000E+000  0.00000000000000000E+000  0.00000000000000000E+000  0.00000000000000000E+000  0.00000000000000000E+000  0.00000000000000000E+000  0.00000000000000000E+000  0.00000000000000000E+000  0.00000000000000000E+000  
0.00000000000000000E+000  0.00000000000000000E+000  0.00000000000000000E+000  0.00000000000000000E+000  0.00000000000000000E+000  0.00000000000000000E+000  0.00000000000000000E+000  0.00000000000000000E+000  0.00000000000000000E+000  0.00000000000000000E+000  0.00000000000000000E+000  0.00000000000000000E+000  0.00000000000000000E+000  </sparseX_slice>
        <sparseX_slice start="151" end="200">  0.00000000000000000E+000  0.00000000000000000E+000  0.00000000000000000E+000  0.00000000000000000E+000  0.00000000000000000E+000  0.00000000000000000E+000  0.00000000000000000E+000  0.00000000000000000E+000  0.00000000000000000E+000  0.00000000000000000E+000  0.00000000000000000E+000  0.00000000000000000E+000  0.00000000000000000E+000  0.00000000000000000E+000  0.00000000000000000E+000  0.00000000000000000E+000  0.00000000000000000E+000  0.00000000000000000E+000  0.00000000000000000E+000  0.00000000000000000E+000  0.00000000000000000E+000  0.00000000000000000E+000  0.00000000000000000E+000  0.00000000000000000E+000  0.00000000000000000E+000  0.00000000000000000E+000  0.00000000000000000E+000  0.00000000000000000E+000  0.00000000000000000E+000  0.00000000000000000E+000  0.44913247533016919E-001  0.00000000000000000E+000  0.00000000000000000E+000  0.00000000000000000E+000  0.00000000000000000E+000  0.00000000000000000E+000  0.00000000000000000E+000  
0.00000000000000000E+000  0.00000000000000000E+000  0.00000000000000000E+000  0.00000000000000000E+000  0.00000000000000000E+000  0.00000000000000000E+000  0.00000000000000000E+000  0.00000000000000000E+000  0.00000000000000000E+000  0.00000000000000000E+000  0.00000000000000000E+000  0.00000000000000000E+000  0.00000000000000000E+000  </sparseX_slice>
        <sparseX_slice start="201" end="250">  0.00000000000000000E+000  0.00000000000000000E+000  0.00000000000000000E+000  0.00000000000000000E+000  0.00000000000000000E+000  0.00000000000000000E+000  0.00000000000000000E+000  0.00000000000000000E+000  0.00000000000000000E+000  0.00000000000000000E+000  0.00000000000000000E+000  0.00000000000000000E+000  0.00000000000000000E+000  0.00000000000000000E+000  0.00000000000000000E+000  0.00000000000000000E+000  0.00000000000000000E+000  0.00000000000000000E+000  0.00000000000000000E+000  0.00000000000000000E+000  0.10439364598292056E-002  0.14156546918337311E-002  0.11893504857993216E-002  0.74360232300148277E-003  0.36420360126144944E-003  0.17074161845743765E+000  0.00000000000000000E+000  0.00000000000000000E+000  0.00000000000000000E+000  0.00000000000000000E+000  0.00000000000000000E+000  0.00000000000000000E+000  0.00000000000000000E+000  0.00000000000000000E+000  0.00000000000000000E+000  0.00000000000000000E+000  0.00000000000000000E+000  
0.00000000000000000E+000  0.00000000000000000E+000  0.00000000000000000E+000  0.00000000000000000E+000  0.00000000000000000E+000  0.00000000000000000E+000  0.00000000000000000E+000  0.00000000000000000E+000  0.00000000000000000E+000  0.00000000000000000E+000  0.00000000000000000E+000  0.00000000000000000E+000  0.00000000000000000E+000  </sparseX_slice>
        <sparseX_slice start="251" end="300">  0.00000000000000000E+000  0.00000000000000000E+000  0.00000000000000000E+000  0.00000000000000000E+000  0.00000000000000000E+000  0.00000000000000000E+000  0.00000000000000000E+000  0.00000000000000000E+000  0.00000000000000000E+000  0.00000000000000000E+000  0.00000000000000000E+000  0.00000000000000000E+000  0.00000000000000000E+000  0.00000000000000000E+000  0.00000000000000000E+000  0.56124695617600119E-002  0.78360648286532643E-002  0.67811044012389800E-002  0.44486042542697677E-002  0.23398426742729213E-002  0.15087036325389085E-001  0.21687461057088270E-001  0.19331297817396034E-001  0.13306897516959211E-001  0.75162130761283101E-002  0.16824621192310354E+000  0.00000000000000000E+000  0.00000000000000000E+000  0.00000000000000000E+000  0.00000000000000000E+000  0.00000000000000000E+000  0.00000000000000000E+000  0.00000000000000000E+000  0.00000000000000000E+000  0.00000000000000000E+000  0.00000000000000000E+000  0.00000000000000000E+000  
0.00000000000000000E+000  0.00000000000000000E+000  0.00000000000000000E+000  0.00000000000000000E+000  0.00000000000000000E+000  0.00000000000000000E+000  0.00000000000000000E+000  0.00000000000000000E+000  0.00000000000000000E+000  0.00000000000000000E+000  0.00000000000000000E+000  0.00000000000000000E+000  0.00000000000000000E+000  </sparseX_slice>
        <sparseX_slice start="301" end="350">  0.00000000000000000E+000  0.00000000000000000E+000  0.00000000000000000E+000  0.00000000000000000E+000  0.00000000000000000E+000  0.00000000000000000E+000  0.00000000000000000E+000  0.00000000000000000E+000  0.00000000000000000E+000  0.00000000000000000E+000  0.00000000000000000E+000  0.00000000000000000E+000  0.00000000000000000E+000  0.00000000000000000E+000  0.00000000000000000E+000  0.55304427346472163E-002  0.80715148477274387E-002  0.76204572984786270E-002  0.56514345094384457E-002  0.34514548286931021E-002  0.21024459266849503E-001  0.31592263265809509E-001  0.30722504215988655E-001  0.23907091096467901E-001  0.15679406427886445E-001  0.14649261721453907E-001  0.23010326004251434E-001  0.24413059956379636E-001  0.21475667185622868E-001  0.16354232074104778E-001 -0.10269719935955058E-001  0.00000000000000000E+000  0.00000000000000000E+000  0.00000000000000000E+000  0.00000000000000000E+000  0.00000000000000000E+000  0.00000000000000000E+000  
0.00000000000000000E+000  0.00000000000000000E+000  0.00000000000000000E+000  0.00000000000000000E+000  0.00000000000000000E+000  0.00000000000000000E+000  0.00000000000000000E+000  0.00000000000000000E+000  0.00000000000000000E+000  0.00000000000000000E+000  0.00000000000000000E+000  0.00000000000000000E+000  0.00000000000000000E+000  </sparseX_slice>
        <sparseX_slice start="351" end="400">  0.00000000000000000E+000  0.00000000000000000E+000  0.00000000000000000E+000  0.00000000000000000E+000  0.00000000000000000E+000  0.00000000000000000E+000  0.00000000000000000E+000  0.00000000000000000E+000  0.00000000000000000E+000  0.00000000000000000E+000  0.00000000000000000E+000  0.00000000000000000E+000  0.00000000000000000E+000  0.00000000000000000E+000  0.00000000000000000E+000  0.00000000000000000E+000  0.00000000000000000E+000  0.00000000000000000E+000  0.00000000000000000E+000  0.00000000000000000E+000 -0.33757727652508938E-003 -0.49237187842550835E-003 -0.46424692717767163E-003 -0.34357075042680915E-003 -0.20919149594727826E-003 -0.12833293897524590E-002 -0.19271651358331349E-002 -0.18716499048322562E-002 -0.14533968702667892E-002 -0.95032345750180704E-003 -0.12645733970787125E-002 -0.19850706123590331E-002 -0.21033193612046176E-002 -0.18463717514660895E-002 -0.14018030025177472E-002  0.54581108147492478E-004  0.85624717688124267E-004  
0.90606264497829352E-004  0.79370960053204003E-004  0.60077772192655414E-004  0.57955293030834717E-003  0.00000000000000000E+000  0.00000000000000000E+000  0.00000000000000000E+000  0.00000000000000000E+000  0.00000000000000000E+000  0.00000000000000000E+000  0.00000000000000000E+000  0.00000000000000000E+000  0.00000000000000000E+000  </sparseX_slice>
        <sparseX_slice start="401" end="450">  0.00000000000000000E+000  0.00000000000000000E+000  0.00000000000000000E+000  0.00000000000000000E+000  0.00000000000000000E+000  0.00000000000000000E+000  0.00000000000000000E+000  0.00000000000000000E+000  0.00000000000000000E+000  0.00000000000000000E+000  0.00000000000000000E+000  0.00000000000000000E+000  0.00000000000000000E+000  0.00000000000000000E+000  0.00000000000000000E+000  0.00000000000000000E+000  0.00000000000000000E+000  0.00000000000000000E+000  0.00000000000000000E+000  0.00000000000000000E+000  0.00000000000000000E+000  0.00000000000000000E+000  0.00000000000000000E+000  0.00000000000000000E+000  0.00000000000000000E+000  0.00000000000000000E+000  0.00000000000000000E+000  0.00000000000000000E+000  0.00000000000000000E+000  0.00000000000000000E+000  0.19050558441293309E-004  0.27786079134900979E-004  0.26198840718366478E-004  0.19388652914357360E-004  0.11805195603183674E-004  0.72422355528694679E-004  0.10875593289673036E-003  
0.10562279439381164E-003  0.82019227275341412E-004  0.53629112652505052E-004  0.71363895260771049E-004  0.11202371934756882E-003  0.11869659376973557E-003  0.10419589268172082E-003  0.79107224540441403E-004 -0.43560399339149042E-005 -0.68335783510209548E-005 -0.72311315142540530E-005 -0.63344379166498079E-005 -0.47946618058792078E-005  </sparseX_slice>
        <sparseX_slice start="451" end="500">  0.17382464876478600E-006  0.27268874187493540E-006  0.28855213966850382E-006  0.25276942406261732E-006  0.19132518561970972E-006 -0.30661606465925388E-004  0.00000000000000000E+000  0.00000000000000000E+000  0.00000000000000000E+000  0.00000000000000000E+000  0.00000000000000000E+000  0.00000000000000000E+000  0.00000000000000000E+000  0.00000000000000000E+000  0.00000000000000000E+000  0.00000000000000000E+000  0.00000000000000000E+000  0.00000000000000000E+000  0.00000000000000000E+000  0.00000000000000000E+000  0.00000000000000000E+000  0.00000000000000000E+000  0.00000000000000000E+000  0.00000000000000000E+000  0.00000000000000000E+000  0.00000000000000000E+000  0.00000000000000000E+000  0.00000000000000000E+000  0.00000000000000000E+000  0.00000000000000000E+000  0.00000000000000000E+000  0.00000000000000000E+000  0.00000000000000000E+000  0.00000000000000000E+000  0.00000000000000000E+000  0.00000000000000000E+000  0.00000000000000000E+000  
0.00000000000000000E+000  0.00000000000000000E+000  0.00000000000000000E+000  0.00000000000000000E+000  0.00000000000000000E+000  0.00000000000000000E+000  0.00000000000000000E+000  0.00000000000000000E+000 -0.10078815848144724E-005 -0.14700397106678710E-005 -0.13860658743967518E-005 -0.10257686692557484E-005 -0.62456116592331850E-006  </sparseX_slice>
        <sparseX_slice start="501" end="550"> -0.38315495417730435E-005 -0.57537999281125889E-005 -0.55880392740070461E-005 -0.43392779264881856E-005 -0.28372813337077255E-005 -0.37755510462126379E-005 -0.59266841924016484E-005 -0.62797167172373502E-005 -0.55125481202924587E-005 -0.41852165819778081E-005  0.23045898867682903E-006  0.36153469128154746E-006  0.38256748582604400E-006  0.33512735417701384E-006  0.25366454469253665E-006 -0.13005533065798587E-007 -0.20402529027621731E-007 -0.21589425881857528E-007 -0.18912168582957497E-007 -0.14314920184148545E-007  0.48653597613322546E-009  0.76325701578442887E-009  0.80765873100731688E-009  0.70750274056406572E-009  0.53552003416280345E-009  0.15573101190653684E-005  0.00000000000000000E+000  0.00000000000000000E+000  0.00000000000000000E+000  0.00000000000000000E+000  0.00000000000000000E+000  0.00000000000000000E+000  0.00000000000000000E+000  0.00000000000000000E+000  0.00000000000000000E+000  0.00000000000000000E+000  0.00000000000000000E+000  
0.00000000000000000E+000  0.00000000000000000E+000  0.00000000000000000E+000  0.00000000000000000E+000  0.00000000000000000E+000  0.00000000000000000E+000  0.00000000000000000E+000  0.00000000000000000E+000  0.00000000000000000E+000  0.00000000000000000E+000  0.00000000000000000E+000  0.00000000000000000E+000  0.00000000000000000E+000  </sparseX_slice>
        <sparseX_slice start="551" end="600">  0.00000000000000000E+000  0.00000000000000000E+000  0.00000000000000000E+000  0.00000000000000000E+000  0.00000000000000000E+000  0.00000000000000000E+000  0.00000000000000000E+000  0.00000000000000000E+000  0.00000000000000000E+000  0.00000000000000000E+000  0.00000000000000000E+000  0.00000000000000000E+000  0.00000000000000000E+000  0.00000000000000000E+000  0.00000000000000000E+000  0.51190539954112186E-007  0.74663658585112403E-007  0.70398607922408131E-007  0.52099029129196852E-007  0.31721606782417215E-007  0.19460529179169185E-006  0.29223683570049004E-006  0.28381781354876281E-006  0.22039293445745100E-006  0.14410617840113841E-006  0.19176111518647802E-006  0.30101766766709878E-006  0.31894827165627251E-006  0.27998360030200015E-006  0.21256812295795590E-006 -0.11705065600357323E-007 -0.18362431001442634E-007 -0.19430691524853121E-007 -0.17021196211741346E-007 -0.12883681183542372E-007  0.66055404728110076E-009  0.10362491914583133E-008  
0.10965319585465295E-008  0.96055343805214597E-009  0.72705812333359109E-009 -0.34947020691331110E-010 -0.54823404705480888E-010 -0.58012701564359266E-010 -0.50818673491759800E-010 -0.38465459147562630E-010  0.12550914167813817E-011  0.19689342130789103E-011  0.20834749960530809E-011  0.18251078246022970E-011  0.13814530298067228E-011  </sparseX_slice>
        <sparseX_slice start="601" end="650"> -0.77568828178459938E-007  0.00000000000000000E+000  0.00000000000000000E+000  0.00000000000000000E+000  0.00000000000000000E+000  0.00000000000000000E+000  0.00000000000000000E+000  0.00000000000000000E+000  0.00000000000000000E+000  0.00000000000000000E+000  0.00000000000000000E+000  0.00000000000000000E+000  0.00000000000000000E+000  0.00000000000000000E+000  0.00000000000000000E+000  0.00000000000000000E+000  0.00000000000000000E+000  0.00000000000000000E+000  0.00000000000000000E+000  0.00000000000000000E+000  0.00000000000000000E+000  0.00000000000000000E+000  0.00000000000000000E+000  0.00000000000000000E+000  0.00000000000000000E+000  0.00000000000000000E+000  0.00000000000000000E+000  0.00000000000000000E+000  0.00000000000000000E+000  0.00000000000000000E+000  0.00000000000000000E+000  0.00000000000000000E+000  0.00000000000000000E+000  0.00000000000000000E+000  0.00000000000000000E+000  0.00000000000000000E+000  0.00000000000000000E+000  
0.00000000000000000E+000  0.00000000000000000E+000  0.00000000000000000E+000 -0.25497748646533013E-008 -0.37189590134042156E-008 -0.35065190003473696E-008 -0.25950262502708710E-008 -0.15800371653184719E-008 -0.96931910072403359E-008 -0.14556168754282966E-007 -0.14136821525543325E-007 -0.10977660425744860E-007 -0.71778557494767083E-008  </sparseX_slice>
        <sparseX_slice start="651" end="681"> -0.95515240112463498E-008 -0.14993537546627663E-007 -0.15886651848618216E-007 -0.13945841305934495E-007 -0.10587910528596616E-007  0.58302338837728177E-009  0.91462338673080520E-009  0.96783290227673321E-009  0.84781716125543553E-009  0.64172963355042361E-009 -0.32901862492799519E-010 -0.51615047316676070E-010 -0.54617701409229726E-010 -0.47844680183038959E-010 -0.36214396833470786E-010  0.17406933982949100E-011  0.27307260176989127E-011  0.28895832787079475E-011  0.25312523845316073E-011  0.19159450355420204E-011 -0.88410222287846885E-013 -0.13869420913964654E-012 -0.14676260634830334E-012 -0.12856289694512147E-012 -0.97311293673437142E-013  0.31138637793536884E-014  0.48848975047245714E-014  0.51690715422433342E-014  0.45280663005550292E-014  0.34273651264577519E-014  0.00000000000000000E+000  </sparseX_slice>
      </sparseX>
      <sparseX i="2" alpha="-68.299775927575070" sparseCutoff="1.0000000000000000" sliced="T">
        <sparseX_slice start="1" end="50">  0.99552095029571497E+000  0.00000000000000000E+000  0.00000000000000000E+000  0.00000000000000000E+000  0.00000000000000000E+000  0.00000000000000000E+000  0.00000000000000000E+000  0.00000000000000000E+000  0.00000000000000000E+000  0.00000000000000000E+000  0.00000000000000000E+000  0.00000000000000000E+000  0.00000000000000000E+000  0.00000000000000000E+000  0.00000000000000000E+000  0.00000000000000000E+000  0.00000000000000000E+000  0.00000000000000000E+000  0.00000000000000000E+000  0.00000000000000000E+000  0.00000000000000000E+000  0.00000000000000000E+000  0.00000000000000000E+000  0.00000000000000000E+000  0.00000000000000000E+000  0.00000000000000000E+000  0.00000000000000000E+000  0.00000000000000000E+000  0.00000000000000000E+000  0.00000000000000000E+000  0.00000000000000000E+000  0.00000000000000000E+000  0.00000000000000000E+000  0.00000000000000000E+000  0.00000000000000000E+000  0.00000000000000000E+000  0.00000000000000000E+000  
0.00000000000000000E+000  0.00000000000000000E+000  0.00000000000000000E+000  0.00000000000000000E+000  0.00000000000000000E+000  0.00000000000000000E+000  0.00000000000000000E+000  0.00000000000000000E+000  0.00000000000000000E+000  0.00000000000000000E+000  0.00000000000000000E+000  0.00000000000000000E+000  0.00000000000000000E+000  </sparseX_slice>
        <sparseX_slice start="51" end="100">  0.00000000000000000E+000  0.00000000000000000E+000  0.00000000000000000E+000  0.00000000000000000E+000  0.00000000000000000E+000  0.00000000000000000E+000  0.00000000000000000E+000  0.00000000000000000E+000  0.00000000000000000E+000  0.00000000000000000E+000  0.00000000000000000E+000  0.00000000000000000E+000  0.00000000000000000E+000  0.00000000000000000E+000  0.00000000000000000E+000  0.00000000000000000E+000  0.00000000000000000E+000  0.00000000000000000E+000  0.00000000000000000E+000  0.00000000000000000E+000  0.00000000000000000E+000  0.00000000000000000E+000  0.00000000000000000E+000  0.00000000000000000E+000  0.00000000000000000E+000  0.00000000000000000E+000  0.00000000000000000E+000  0.00000000000000000E+000  0.00000000000000000E+000  0.00000000000000000E+000  0.00000000000000000E+000  0.00000000000000000E+000  0.00000000000000000E+000  0.00000000000000000E+000  0.00000000000000000E+000  0.00000000000000000E+000  0.00000000000000000E+000  
0.00000000000000000E+000  0.00000000000000000E+000  0.00000000000000000E+000  0.00000000000000000E+000  0.00000000000000000E+000  0.00000000000000000E+000  0.00000000000000000E+000  0.00000000000000000E+000  0.00000000000000000E+000  0.00000000000000000E+000  0.00000000000000000E+000  0.00000000000000000E+000  0.00000000000000000E+000  </sparseX_slice>
        <sparseX_slice start="101" end="150">  0.00000000000000000E+000  0.00000000000000000E+000  0.00000000000000000E+000  0.00000000000000000E+000  0.00000000000000000E+000  0.00000000000000000E+000  0.00000000000000000E+000  0.00000000000000000E+000  0.00000000000000000E+000  0.00000000000000000E+000  0.00000000000000000E+000  0.00000000000000000E+000  0.00000000000000000E+000  0.00000000000000000E+000  0.00000000000000000E+000  0.00000000000000000E+000  0.00000000000000000E+000  0.00000000000000000E+000  0.00000000000000000E+000  0.00000000000000000E+000  0.00000000000000000E+000  0.00000000000000000E+000  0.00000000000000000E+000  0.00000000000000000E+000  0.00000000000000000E+000  0.00000000000000000E+000  0.00000000000000000E+000  0.00000000000000000E+000  0.00000000000000000E+000  0.00000000000000000E+000  0.00000000000000000E+000  0.00000000000000000E+000  0.00000000000000000E+000  0.00000000000000000E+000  0.00000000000000000E+000  0.00000000000000000E+000  0.00000000000000000E+000  
0.00000000000000000E+000  0.00000000000000000E+000  0.00000000000000000E+000  0.00000000000000000E+000  0.00000000000000000E+000  0.00000000000000000E+000  0.00000000000000000E+000  0.00000000000000000E+000  0.00000000000000000E+000  0.00000000000000000E+000  0.00000000000000000E+000  0.00000000000000000E+000  0.00000000000000000E+000  </sparseX_slice>
        <sparseX_slice start="151" end="200">  0.00000000000000000E+000  0.00000000000000000E+000  0.00000000000000000E+000  0.00000000000000000E+000  0.00000000000000000E+000  0.00000000000000000E+000  0.00000000000000000E+000  0.00000000000000000E+000  0.00000000000000000E+000  0.00000000000000000E+000  0.00000000000000000E+000  0.00000000000000000E+000  0.00000000000000000E+000  0.00000000000000000E+000  0.00000000000000000E+000  0.00000000000000000E+000  0.00000000000000000E+000  0.00000000000000000E+000  0.00000000000000000E+000  0.00000000000000000E+000  0.00000000000000000E+000  0.00000000000000000E+000  0.00000000000000000E+000  0.00000000000000000E+000  0.00000000000000000E+000  0.00000000000000000E+000  0.00000000000000000E+000  0.00000000000000000E+000  0.00000000000000000E+000  0.00000000000000000E+000 -0.14050998983212505E-006  0.00000000000000000E+000  0.00000000000000000E+000  0.00000000000000000E+000  0.00000000000000000E+000  0.00000000000000000E+000  0.00000000000000000E+000  
0.00000000000000000E+000  0.00000000000000000E+000  0.00000000000000000E+000  0.00000000000000000E+000  0.00000000000000000E+000  0.00000000000000000E+000  0.00000000000000000E+000  0.00000000000000000E+000  0.00000000000000000E+000  0.00000000000000000E+000  0.00000000000000000E+000  0.00000000000000000E+000  0.00000000000000000E+000  </sparseX_slice>
        <sparseX_slice start="201" end="250">  0.00000000000000000E+000  0.00000000000000000E+000  0.00000000000000000E+000  0.00000000000000000E+000  0.00000000000000000E+000  0.00000000000000000E+000  0.00000000000000000E+000  0.00000000000000000E+000  0.00000000000000000E+000  0.00000000000000000E+000  0.00000000000000000E+000  0.00000000000000000E+000  0.00000000000000000E+000  0.00000000000000000E+000  0.00000000000000000E+000  0.00000000000000000E+000  0.00000000000000000E+000  0.00000000000000000E+000  0.00000000000000000E+000  0.00000000000000000E+000  0.99159426211770312E-014  0.16879420814891507E-013  0.21047689571396436E-013  0.23639813181583035E-013  0.25005488274816834E-013  0.84726782812301910E-005  0.00000000000000000E+000  0.00000000000000000E+000  0.00000000000000000E+000  0.00000000000000000E+000  0.00000000000000000E+000  0.00000000000000000E+000  0.00000000000000000E+000  0.00000000000000000E+000  0.00000000000000000E+000  0.00000000000000000E+000  0.00000000000000000E+000  
0.00000000000000000E+000  0.00000000000000000E+000  0.00000000000000000E+000  0.00000000000000000E+000  0.00000000000000000E+000  0.00000000000000000E+000  0.00000000000000000E+000  0.00000000000000000E+000  0.00000000000000000E+000  0.00000000000000000E+000  0.00000000000000000E+000  0.00000000000000000E+000  0.00000000000000000E+000  </sparseX_slice>
        <sparseX_slice start="251" end="300">  0.00000000000000000E+000  0.00000000000000000E+000  0.00000000000000000E+000  0.00000000000000000E+000  0.00000000000000000E+000  0.00000000000000000E+000  0.00000000000000000E+000  0.00000000000000000E+000  0.00000000000000000E+000  0.00000000000000000E+000  0.00000000000000000E+000  0.00000000000000000E+000  0.00000000000000000E+000  0.00000000000000000E+000  0.00000000000000000E+000 -0.84559521454118783E-012 -0.14394096535779150E-011 -0.17948495036551729E-011 -0.20158713390139703E-011 -0.21322972783272275E-011  0.36054629104443247E-010  0.61373555809018112E-010  0.76528227239468151E-010  0.85951128806379375E-010  0.90913875249952636E-010 -0.26456439983123535E-003  0.00000000000000000E+000  0.00000000000000000E+000  0.00000000000000000E+000  0.00000000000000000E+000  0.00000000000000000E+000  0.00000000000000000E+000  0.00000000000000000E+000  0.00000000000000000E+000  0.00000000000000000E+000  0.00000000000000000E+000  0.00000000000000000E+000  
0.00000000000000000E+000  0.00000000000000000E+000  0.00000000000000000E+000  0.00000000000000000E+000  0.00000000000000000E+000  0.00000000000000000E+000  0.00000000000000000E+000  0.00000000000000000E+000  0.00000000000000000E+000  0.00000000000000000E+000  0.00000000000000000E+000  0.00000000000000000E+000  0.00000000000000000E+000  </sparseX_slice>
        <sparseX_slice start="301" end="350">  0.00000000000000000E+000  0.00000000000000000E+000  0.00000000000000000E+000  0.00000000000000000E+000  0.00000000000000000E+000  0.00000000000000000E+000  0.00000000000000000E+000  0.00000000000000000E+000  0.00000000000000000E+000  0.00000000000000000E+000  0.00000000000000000E+000  0.00000000000000000E+000  0.00000000000000000E+000  0.00000000000000000E+000  0.00000000000000000E+000  0.26404211632920850E-010  0.44958119887808194E-010  0.56088835154825272E-010  0.63044125777559307E-010  0.66752516240028964E-010 -0.15921600357564458E-008 -0.27109406746012993E-008 -0.33820890037174580E-008 -0.38014422662726088E-008 -0.40249923246486626E-008  0.35154620119883092E-007  0.59872686569415512E-007  0.74734032406589694E-007  0.84065000102309647E-007  0.89098408625415438E-007  0.15013657385901881E-001  0.00000000000000000E+000  0.00000000000000000E+000  0.00000000000000000E+000  0.00000000000000000E+000  0.00000000000000000E+000  0.00000000000000000E+000  
0.00000000000000000E+000  0.00000000000000000E+000  0.00000000000000000E+000  0.00000000000000000E+000  0.00000000000000000E+000  0.00000000000000000E+000  0.00000000000000000E+000  0.00000000000000000E+000  0.00000000000000000E+000  0.00000000000000000E+000  0.00000000000000000E+000  0.00000000000000000E+000  0.00000000000000000E+000  </sparseX_slice>
        <sparseX_slice start="351" end="400">  0.00000000000000000E+000  0.00000000000000000E+000  0.00000000000000000E+000  0.00000000000000000E+000  0.00000000000000000E+000  0.00000000000000000E+000  0.00000000000000000E+000  0.00000000000000000E+000  0.00000000000000000E+000  0.00000000000000000E+000  0.00000000000000000E+000  0.00000000000000000E+000  0.00000000000000000E+000  0.00000000000000000E+000  0.00000000000000000E+000  0.00000000000000000E+000  0.00000000000000000E+000  0.00000000000000000E+000  0.00000000000000000E+000  0.00000000000000000E+000 -0.14984018532137951E-008 -0.25494722540727021E-008 -0.31761152650173831E-008 -0.35623768732542776E-008 -0.37613731819854923E-008  0.90352841484420929E-007  0.15373125143089903E-006  0.19151591368768756E-006  0.21480462846232755E-006  0.22680041203528952E-006 -0.28213210140798360E-005 -0.48015990549691210E-005 -0.59848496993640910E-005 -0.67177749652439607E-005 -0.71000879387267027E-005  0.11321203638873152E-003  0.19253648705032061E-003  
0.23963932341499171E-003  0.26841432480066474E-003  0.28289645974256220E-003  0.85143210324247348E-001  0.00000000000000000E+000  0.00000000000000000E+000  0.00000000000000000E+000  0.00000000000000000E+000  0.00000000000000000E+000  0.00000000000000000E+000  0.00000000000000000E+000  0.00000000000000000E+000  0.00000000000000000E+000  </sparseX_slice>
        <sparseX_slice start="401" end="450">  0.00000000000000000E+000  0.00000000000000000E+000  0.00000000000000000E+000  0.00000000000000000E+000  0.00000000000000000E+000  0.00000000000000000E+000  0.00000000000000000E+000  0.00000000000000000E+000  0.00000000000000000E+000  0.00000000000000000E+000  0.00000000000000000E+000  0.00000000000000000E+000  0.00000000000000000E+000  0.00000000000000000E+000  0.00000000000000000E+000  0.00000000000000000E+000  0.00000000000000000E+000  0.00000000000000000E+000  0.00000000000000000E+000  0.00000000000000000E+000  0.00000000000000000E+000  0.00000000000000000E+000  0.00000000000000000E+000  0.00000000000000000E+000  0.00000000000000000E+000  0.00000000000000000E+000  0.00000000000000000E+000  0.00000000000000000E+000  0.00000000000000000E+000  0.00000000000000000E+000 -0.84975126885620240E-008 -0.14461476133020009E-007 -0.18024213952045023E-007 -0.20230044916343235E-007 -0.21379613083934717E-007  0.51239553349107630E-006  0.87201608878691764E-006  
0.10868383277989680E-005  0.12198336775248678E-005  0.12891316075242237E-005 -0.15999854154097465E-004 -0.27236307444743510E-004 -0.33963569471267390E-004 -0.38148936544331488E-004 -0.40356839283827804E-004  0.90796920767590599E-003  0.15445087629787141E-002  0.19232385759911895E-002  0.21556471377567376E-002  0.22740286290640456E-002  </sparseX_slice>
        <sparseX_slice start="451" end="500">  0.36409913132243120E-002  0.61949486963854541E-002  0.77175285079886420E-002  0.86560480443242469E-002  0.91397506538412263E-002  0.32901480350222237E-001  0.00000000000000000E+000  0.00000000000000000E+000  0.00000000000000000E+000  0.00000000000000000E+000  0.00000000000000000E+000  0.00000000000000000E+000  0.00000000000000000E+000  0.00000000000000000E+000  0.00000000000000000E+000  0.00000000000000000E+000  0.00000000000000000E+000  0.00000000000000000E+000  0.00000000000000000E+000  0.00000000000000000E+000  0.00000000000000000E+000  0.00000000000000000E+000  0.00000000000000000E+000  0.00000000000000000E+000  0.00000000000000000E+000  0.00000000000000000E+000  0.00000000000000000E+000  0.00000000000000000E+000  0.00000000000000000E+000  0.00000000000000000E+000  0.00000000000000000E+000  0.00000000000000000E+000  0.00000000000000000E+000  0.00000000000000000E+000  0.00000000000000000E+000  0.00000000000000000E+000  0.00000000000000000E+000  
0.00000000000000000E+000  0.00000000000000000E+000  0.00000000000000000E+000  0.00000000000000000E+000  0.00000000000000000E+000  0.00000000000000000E+000  0.00000000000000000E+000  0.00000000000000000E+000 -0.32836528677245280E-008 -0.55989084097038683E-008 -0.70048141531263688E-008 -0.79069449679135961E-008 -0.84198057556868655E-008  </sparseX_slice>
        <sparseX_slice start="501" end="550">  0.19800253610941478E-006  0.33760994852788680E-006  0.42238183151740851E-006  0.47677391711596074E-006  0.50769102725374003E-006 -0.61827465167535983E-005 -0.10544815024343517E-004 -0.13199382383941985E-004 -0.14910572027290457E-004 -0.15893493785378026E-004  0.35086216424292125E-003  0.59797236619281132E-003  0.74743502450564086E-003  0.84253808426857149E-003  0.89556715850848140E-003  0.19897570776463498E-002  0.33919032019621436E-002  0.42416372432465717E-002  0.47846097970292885E-002  0.50903960902606380E-002  0.54368891428879795E-003  0.92857971028830540E-003  0.11656248813770400E-002  0.13223407952800816E-002  0.14175513828077202E-002 -0.16427879589450951E-002  0.00000000000000000E+000  0.00000000000000000E+000  0.00000000000000000E+000  0.00000000000000000E+000  0.00000000000000000E+000  0.00000000000000000E+000  0.00000000000000000E+000  0.00000000000000000E+000  0.00000000000000000E+000  0.00000000000000000E+000  0.00000000000000000E+000  
0.00000000000000000E+000  0.00000000000000000E+000  0.00000000000000000E+000  0.00000000000000000E+000  0.00000000000000000E+000  0.00000000000000000E+000  0.00000000000000000E+000  0.00000000000000000E+000  0.00000000000000000E+000  0.00000000000000000E+000  0.00000000000000000E+000  0.00000000000000000E+000  0.00000000000000000E+000  </sparseX_slice>
        <sparseX_slice start="551" end="600">  0.00000000000000000E+000  0.00000000000000000E+000  0.00000000000000000E+000  0.00000000000000000E+000  0.00000000000000000E+000  0.00000000000000000E+000  0.00000000000000000E+000  0.00000000000000000E+000  0.00000000000000000E+000  0.00000000000000000E+000  0.00000000000000000E+000  0.00000000000000000E+000  0.00000000000000000E+000  0.00000000000000000E+000  0.00000000000000000E+000  0.16395448882642598E-009  0.27955096842165813E-009  0.34973359556480423E-009  0.39475170309548328E-009  0.42032313033352309E-009 -0.98863692058445904E-008 -0.16856712264873202E-007 -0.21088513329350813E-007 -0.23802785593775604E-007 -0.25344323611432992E-007  0.30870773663726451E-006  0.52649785211228205E-006  0.65901355260231263E-006  0.74440554800698339E-006  0.79341534159436393E-006 -0.17518729629555837E-004 -0.29856490198851498E-004 -0.37317640819172427E-004 -0.42063444862394901E-004 -0.44707396157439661E-004 -0.99349601707545213E-004 -0.16935619508574742E-003 
-0.21177478969947001E-003 -0.23887011654806362E-003 -0.25411645842907392E-003 -0.38391187693475060E-004 -0.65567983252828865E-004 -0.82302787134520025E-004 -0.93362761864102247E-004 -0.10007717215909987E-003  0.13554472546526212E-005  0.23149118918980270E-005  0.29056297949421675E-005  0.32958997158696987E-005  0.35326551505754579E-005  </sparseX_slice>
        <sparseX_slice start="601" end="650">  0.81823956803859577E-004  0.00000000000000000E+000  0.00000000000000000E+000  0.00000000000000000E+000  0.00000000000000000E+000  0.00000000000000000E+000  0.00000000000000000E+000  0.00000000000000000E+000  0.00000000000000000E+000  0.00000000000000000E+000  0.00000000000000000E+000  0.00000000000000000E+000  0.00000000000000000E+000  0.00000000000000000E+000  0.00000000000000000E+000  0.00000000000000000E+000  0.00000000000000000E+000  0.00000000000000000E+000  0.00000000000000000E+000  0.00000000000000000E+000  0.00000000000000000E+000  0.00000000000000000E+000  0.00000000000000000E+000  0.00000000000000000E+000  0.00000000000000000E+000  0.00000000000000000E+000  0.00000000000000000E+000  0.00000000000000000E+000  0.00000000000000000E+000  0.00000000000000000E+000  0.00000000000000000E+000  0.00000000000000000E+000  0.00000000000000000E+000  0.00000000000000000E+000  0.00000000000000000E+000  0.00000000000000000E+000  0.00000000000000000E+000  
0.00000000000000000E+000  0.00000000000000000E+000  0.00000000000000000E+000 -0.81662425990430135E-011 -0.13923869757398559E-010 -0.17419523627166724E-010 -0.19661782551498538E-010 -0.20935440629867478E-010  0.49242012180652436E-009  0.83959883036432057E-009  0.10503762316834044E-008  0.11855685252143316E-008  0.12623492355756899E-008  </sparseX_slice>
        <sparseX_slice start="651" end="681"> -0.15376110087783411E-007 -0.26223795831406412E-007 -0.32824133271039792E-007 -0.37077332156568682E-007 -0.39518405198387567E-007  0.87257260966762446E-006  0.14870915428731785E-005  0.18587162749117217E-005  0.20950949666993843E-005  0.22267845151118840E-005  0.49484033982200166E-005  0.84352904098179329E-005  0.10548074304530524E-004  0.11897636546695567E-004  0.12657024190633179E-004  0.19121876724108358E-005  0.32658089657934009E-005  0.40993355035169641E-005  0.46502100124829649E-005  0.49846404942772689E-005 -0.95476521118252693E-007 -0.16306036681817523E-006 -0.20467000461840539E-006 -0.23216025021402147E-006 -0.24883705835217858E-006  0.33626413914499290E-008  0.57429147346678143E-008  0.72083874661898968E-008  0.81765809681522327E-008  0.87639295331839804E-008  0.00000000000000000E+000  </sparseX_slice>
      </sparseX>
      <sparseX i="3" alpha="842.74483552436334" sparseCutoff="1.0000000000000000" sliced="T">
        <sparseX_slice start="1" end="50">  0.95934339884666553E+000  0.19949589173596946E-013  0.24893705508746549E-013  0.27988719689467391E-013  0.29645764326753751E-013  0.90480598948941968E-005 -0.17026365570431250E-011 -0.21245695966673728E-011 -0.23886619952115415E-011 -0.25300060105797214E-011  0.42668448003089800E-010  0.72657417156650572E-010  0.90661391681873473E-010  0.10192867324179771E-009  0.10795691322070270E-009 -0.26617155247830008E-003  0.50114545070200436E-010  0.62600881814309443E-010  0.70494718094126527E-010  0.74822119491982557E-010 -0.17751212177843163E-008 -0.30243830239592397E-008 -0.37778687679896575E-008 -0.42541543935304525E-008 -0.45151679531300870E-008  0.36924888123419588E-007  0.62945347037949260E-007  0.78712074475055981E-007  0.88776931104863555E-007  0.94420732479147086E-007  0.17674217619887949E-001 -0.33231285797651826E-008 -0.41398179029871767E-008 -0.46430452582046888E-008 -0.49019929737918395E-008  0.11787089346205887E-006  0.20054883565234368E-006  
0.24983176446701003E-006  0.28019448716964132E-006  0.29581254489998015E-006 -0.34674702719977283E-005 -0.59028532081618141E-005 -0.73613445214467457E-005 -0.82691613230121100E-005 -0.87483276676730797E-005  0.16280821281029417E-003  0.27677721735412187E-003  0.34422541601674306E-003  0.38511710269208252E-003  0.40527771269872719E-003  </sparseX_slice>
        <sparseX_slice start="51" end="100">  0.95536619749805304E-001 -0.17966613823786588E-007 -0.22391283994848243E-007 -0.25128600451234960E-007 -0.26551814534338706E-007  0.63714202067892843E-006  0.10842744710258277E-005  0.13512802060878922E-005  0.15164390879633761E-005  0.16022788835291676E-005 -0.18743143034339371E-004 -0.31913987528293905E-004 -0.39815750263966355E-004 -0.44753483844592792E-004 -0.47385619473460973E-004  0.12445747330440511E-002  0.21162375893262583E-002  0.26330292958582110E-002  0.29476314902816751E-002  0.31044826756420540E-002  0.47570274232312309E-002  0.80903724253204266E-002  0.10070208285419541E-001  0.11280375945088862E-001  0.11890380819591409E-001  0.21641623294210752E-001 -0.40787462780300720E-008 -0.51052713425388992E-008 -0.57666443471268870E-008 -0.61460343269206322E-008  0.14432986673127198E-006  0.24614991486067084E-006  0.30809542290954856E-006  0.34800047504979471E-006  0.37088467180782046E-006 -0.42458278507337449E-005 -0.72450523579346841E-005 
-0.90780952468416385E-005 -0.10270266548568251E-004 -0.10968502491972661E-004  0.28192977315472957E-003  0.48042420656162557E-003  0.60033756935524995E-003  0.67643808909423960E-003  0.71860463875832376E-003  0.15239496374495256E-002  0.25974306993266361E-002  0.32470821961784113E-002  0.36609469702689398E-002  0.38923468870391553E-002  </sparseX_slice>
        <sparseX_slice start="101" end="150">  0.24410438398366703E-003  0.41695523290679958E-003  0.52350172359416863E-003  0.59406409787948549E-003  0.63708490581229377E-003 -0.10876710872557303E-002  0.20498848461596060E-009  0.25657339905679844E-009  0.28980170958770706E-009  0.30885356488355710E-009 -0.72537730158657348E-008 -0.12370933271192949E-007 -0.15483817526226295E-007 -0.17488703401140348E-007 -0.18637880453542206E-007  0.21338806853474756E-006  0.36411980608257226E-006  0.45623388027113005E-006  0.51613046072095991E-006  0.55119462662963464E-006 -0.14169309701412083E-004 -0.24145024809794451E-004 -0.30170903839632540E-004 -0.33994278621920180E-004 -0.36111676670958368E-004 -0.76591110405803395E-004 -0.13054094240132487E-003 -0.16318719617280770E-003 -0.18398025382343396E-003 -0.19560014602583323E-003 -0.17349954011650910E-004 -0.29635154858453216E-004 -0.37207107742547975E-004 -0.42220763259488821E-004 -0.45276197989057710E-004  0.61658233927200297E-006  0.10531615077257147E-005  
0.13222199700327732E-005  0.15003371324548769E-005  0.16088390147390581E-005  0.54175330106120704E-004 -0.10210180932556240E-010 -0.12779550640962901E-010 -0.14434603936271559E-010 -0.15383548021671834E-010  0.36129998512776644E-009  0.61617835382361398E-009  0.77122659994863062E-009  0.87108701778719384E-009  0.92832578794207007E-009  </sparseX_slice>
        <sparseX_slice start="151" end="200"> -0.10628552316072930E-007 -0.18136282670684660E-007 -0.22724350998511755E-007 -0.25707711629967710E-007 -0.27454204749883037E-007  0.70575290585928362E-006  0.12026288812804172E-005  0.15027691682755125E-005  0.16932058430737961E-005  0.17986702287869555E-005  0.38148928826432528E-005  0.65020561692573867E-005  0.81281186791522337E-005  0.91637903027354313E-005  0.97425595219173855E-005  0.86417621735145466E-006  0.14760843451084827E-005  0.18532323278548222E-005  0.21029551426899462E-005  0.22551417409282164E-005 -0.43432023241927511E-007 -0.74184632346209286E-007 -0.93137090214521077E-007 -0.10568364526268176E-006 -0.11332650111512881E-006  0.15296745647260410E-008  0.26127804880690416E-008  0.32802853421631604E-008  0.37221743814783126E-008  0.39913551751727983E-008  0.44596804605963915E-001 -0.74890254814811466E-008 -0.76679516288983693E-008 -0.64289722162163278E-008 -0.46305556451433960E-008  0.29741996604945921E-006  0.45195823887979205E-006  
0.46274931173012448E-006  0.38797006554425294E-006  0.27943256080011757E-006 -0.87493600861440336E-005 -0.13302710692130450E-004 -0.13635004011499999E-004 -0.11449857892966468E-004 -0.82639078194704830E-005  0.58097153041881998E-003  0.88211153124191698E-003  0.90168751746252560E-003  0.75413037791103481E-003  0.54141233023275272E-003  </sparseX_slice>
        <sparseX_slice start="201" end="250">  0.31403967847849282E-002  0.47691676234966696E-002  0.48770119244966317E-002  0.40814249917504883E-002  0.29325786176768675E-002  0.71138464380099170E-003  0.10826873045985510E-002  0.11119714805583167E-002  0.93662702793874289E-003  0.67881345085948484E-003 -0.35752979268751903E-004 -0.54413394399660075E-004 -0.55883866552562976E-004 -0.47070028530186414E-004 -0.34112070163770926E-004  0.17808043965284870E-005  0.27102527393961453E-005  0.27834947241089221E-005  0.23444900310245234E-005  0.16990727294368579E-005  0.10365813656786369E-002  0.14056806426997110E-002  0.11809708715816995E-002  0.73836324446872187E-003  0.36163759089555763E-003  0.16953863313613085E+000 -0.29312374328583732E-007 -0.30913981539383320E-007 -0.27196285150797414E-007 -0.21035872567000675E-007  0.11306678798390089E-005  0.17689843774322167E-005  0.18656121442230100E-005  0.16412179392999299E-005  0.12694173638161538E-005 -0.33261453660792355E-004 -0.52067393328652615E-004 
-0.54970647012478090E-004 -0.48435984745395341E-004 -0.37541609499530828E-004  0.22086138239832726E-002  0.34526232374641904E-002  0.36352278441711527E-002  0.31901747446993465E-002  0.24595494920623901E-002  0.11938491627409930E-001  0.18666731333920942E-001  0.19662077161916258E-001  0.17265527702430231E-001  0.13322234915557570E-001  </sparseX_slice>
        <sparseX_slice start="251" end="300">  0.27043906219219285E-002  0.42376856149942558E-002  0.44830050430611753E-002  0.39621847590994193E-002  0.30837407739657775E-002 -0.13591806160385798E-003 -0.21297641316293781E-003 -0.22530043257504106E-003 -0.19911890655463437E-003 -0.15496567063485740E-003  0.67698828635331653E-005  0.10608048139066720E-004  0.11221889323320689E-004  0.99178246961643591E-005  0.77186152499832314E-005  0.55729266933648419E-002  0.77808555349821390E-002  0.67333278715025740E-002  0.44172614432962639E-002  0.23233572234538057E-002  0.14980740035436303E-001  0.21534661222903175E-001  0.19195098421196294E-001  0.13213143262887831E-001  0.74632573101809227E-002  0.16706080835754333E+000 -0.30193122413966856E-007 -0.34740458531177371E-007 -0.34549718438592427E-007 -0.31029592179614458E-007  0.11141430510304115E-005  0.18221370011682194E-005  0.20965342574547341E-005  0.20849765835580255E-005  0.18724920004852815E-005 -0.32775334051780429E-004 -0.53631860828659347E-004 
-0.61774814756102709E-004 -0.61532287441849409E-004 -0.55376872474697408E-004  0.21763347029465792E-002  0.35563641105800397E-002  0.40851898035495970E-002  0.40527461227931423E-002  0.36280319459624628E-002  0.11764009329032522E-001  0.19227610084254044E-001  0.22095813682561562E-001  0.21933845652268861E-001  0.19651360552509413E-001  </sparseX_slice>
        <sparseX_slice start="301" end="350">  0.26648656713544831E-002  0.43650152352434851E-002  0.50379033381745533E-002  0.50334950920513238E-002  0.45487639411693767E-002 -0.13393160497937164E-003 -0.21937570944724149E-003 -0.25318771459309318E-003 -0.25295742117416726E-003 -0.22858674135454164E-003  0.66709403204850073E-005  0.10926787862550131E-004  0.12610914585092338E-004  0.12599443228214211E-004  0.11385573982514464E-004  0.54914777893915303E-002  0.80146466819652606E-002  0.75667670758860859E-002  0.56116171120180192E-002  0.34271374720355654E-002  0.20876330637068938E-001  0.31369678769826291E-001  0.30506047640569484E-001  0.23738652774168558E-001  0.15568936571779487E-001  0.14546049789172852E-001  0.22848205874618024E-001  0.24241056811176689E-001  0.21324359553238442E-001  0.16239007708164947E-001 -0.10197363105508556E-001  0.18418159018417490E-008  0.21164282522864217E-008  0.21003999376012685E-008  0.18806929624935554E-008 -0.68007100854682621E-007 -0.11115249552770380E-006 
-0.12772325185004274E-006 -0.12675312228054723E-006 -0.11349109931105459E-006  0.20006007723549528E-005  0.32716064527958305E-005  0.37633919860972243E-005  0.37407660190642410E-005  0.33563732886082838E-005 -0.13284309721265210E-003 -0.21694238448738914E-003 -0.24887440988798505E-003 -0.24638081258341205E-003 -0.21989377459353323E-003  </sparseX_slice>
        <sparseX_slice start="351" end="400"> -0.71807311292300510E-003 -0.11729067806253138E-002 -0.13461021043536955E-002 -0.13334362802772026E-002 -0.11910622376406341E-002 -0.16266294378300530E-003 -0.26627105212324723E-003 -0.30691480216451085E-003 -0.30600402130778162E-003 -0.27569902571333073E-003  0.81751622101289964E-005  0.13382175735187878E-004  0.15424483583478281E-004  0.15378178916112886E-004  0.13854564162375741E-004 -0.40719305366686654E-006 -0.66654688327255214E-006 -0.76827126190944313E-006 -0.76596484620816493E-006 -0.69007574250145119E-006 -0.33519886294583679E-003 -0.48890285357364659E-003 -0.46097605774270367E-003 -0.34115010959855015E-003 -0.20771762928259422E-003 -0.12742876435820401E-002 -0.19135872203534271E-002 -0.18584631240302939E-002 -0.14431569071748755E-002 -0.94362791733017303E-003 -0.12556637969701578E-002 -0.19710847216355531E-002 -0.20885003444103341E-002 -0.18333630688579493E-002 -0.13919265459892004E-002  0.54196554867944351E-004  0.85021445473343053E-004  
0.89967894604970250E-004  0.78811748926400498E-004  0.59654491956896907E-004  0.57546960443630678E-003 -0.10393940970825868E-009 -0.11943636764725906E-009 -0.11853140967587773E-009 -0.10613217421306107E-009  0.38378568089394782E-008  0.62726816296876846E-008  0.72078045870844363E-008  0.71530311898077704E-008  0.64045845674577709E-008  </sparseX_slice>
        <sparseX_slice start="401" end="450"> -0.11290025893852473E-006 -0.18462694515846678E-006 -0.21237945031525062E-006 -0.21110182949904401E-006 -0.18940847958421592E-006  0.74967581142386171E-005  0.12242734662988455E-004  0.14044726290751348E-004  0.13903954437340118E-004  0.12409151764244146E-004  0.40523147599493166E-004  0.66190783942685224E-004  0.75964562300966294E-004  0.75249517572695704E-004  0.67214599844235505E-004  0.91795868154077027E-005  0.15026505066229604E-004  0.17320118982585503E-004  0.17268657917368610E-004  0.15558380666551092E-004 -0.46135038191630170E-006 -0.75519787028482361E-006 -0.87044967862964857E-006 -0.86783340284061372E-006 -0.78184746083045617E-006  0.22979197965040721E-007  0.37615317318604265E-007  0.43355841990443196E-007  0.43225526414225244E-007  0.38942687819847924E-007  0.18916337005077209E-004  0.27590311254405850E-004  0.26014255786683120E-004  0.19252049420634063E-004  0.11722021647230933E-004  0.71912101060135668E-004  0.10798968882281492E-003  
0.10487862496673774E-003  0.81441357680801395E-004  0.53251266693532440E-004  0.70861098214406576E-004  0.11123445195955839E-003  0.11786031239043490E-003  0.10346177654509120E-003  0.78549871572253737E-004 -0.43253492883914944E-005 -0.67854321140696453E-005 -0.71801843013258019E-005 -0.62898083926694748E-005 -0.47608808332248498E-005  </sparseX_slice>
        <sparseX_slice start="451" end="500">  0.17259996057105845E-006  0.27076750294185090E-006  0.28651913456112675E-006  0.25098852744303783E-006  0.18997719672598122E-006 -0.30445575583476017E-004  0.54989787883601816E-011  0.63188549118402369E-011  0.62709775096442290E-011  0.56149882387895284E-011 -0.20304418974409532E-009 -0.33186010315631448E-009 -0.38133336031446444E-009 -0.37843553737973431E-009 -0.33883850290690378E-009  0.59730580736298686E-008  0.97678027808299025E-008  0.11236066193522157E-007  0.11168472801033979E-007  0.10020772617522585E-007 -0.39662062781171788E-006 -0.64770945315409313E-006 -0.74304493225939554E-006 -0.73559730547456933E-006 -0.65651383971186417E-006 -0.21439022037127871E-005 -0.35018643833690836E-005 -0.40189521590182940E-005 -0.39811222493710602E-005 -0.35560299258797368E-005 -0.48565172175745694E-006 -0.79498654893571012E-006 -0.91633160872738045E-006 -0.91360902327644068E-006 -0.82312574019183580E-006  0.24408027487145792E-007  0.39954210644137040E-007  
0.46051678694407580E-007  0.45913262705750492E-007  0.41364122893378062E-007 -0.12157286902713192E-008 -0.19900616391128781E-008 -0.22937676397476093E-008 -0.22868731986514427E-008 -0.20602869555497032E-008 -0.10007805166611982E-005 -0.14596824898090402E-005 -0.13763002944047029E-005 -0.10185415769667082E-005 -0.62016079640379182E-006  </sparseX_slice>
        <sparseX_slice start="501" end="550"> -0.38045542133151024E-005 -0.57132613112299796E-005 -0.55486685301361765E-005 -0.43087053783275177E-005 -0.28172911598378658E-005 -0.37489502572913318E-005 -0.58849275128400077E-005 -0.62354727335549158E-005 -0.54737092522248321E-005 -0.41557294788968371E-005  0.22883528108083199E-006  0.35898748482272945E-006  0.37987209201092873E-006  0.33276620161912133E-006  0.25187734146641313E-006 -0.12913902086463951E-007 -0.20258782231066296E-007 -0.21437316758239251E-007 -0.18778922177767434E-007 -0.14214063867922635E-007  0.48310806835358507E-009  0.75787945936390209E-009  0.80196834060840346E-009  0.70251800301645147E-009  0.53174700733373029E-009  0.15463378603338204E-005 -0.27929441078456785E-012 -0.32093610965700151E-012 -0.31850440526765201E-012 -0.28518655772563256E-012  0.10312661590556523E-010  0.16855251773318497E-010  0.19368010003273537E-010  0.19220828902656161E-010  0.17209686318017723E-010 -0.30337300787439840E-009 -0.49610897356184915E-009 
-0.57068241355574383E-009 -0.56724932943398243E-009 -0.50895737034680244E-009  0.20144453872880466E-007  0.32897313672346911E-007  0.37739424814587351E-007  0.37361158118705656E-007  0.33344490510816581E-007  0.10888929123263081E-006  0.17786050596717998E-006  0.20412351427725738E-006  0.20220212437114673E-006  0.18061158645447191E-006  </sparseX_slice>
        <sparseX_slice start="551" end="600">  0.24666363827834754E-007  0.40377551598606553E-007  0.46540695389231722E-007  0.46402414640828752E-007  0.41806747661376905E-007 -0.12396893892170889E-008 -0.20292836451446688E-008 -0.23389754646309994E-008 -0.23319452843679815E-008 -0.21008934159131187E-008  0.61747142750058530E-010  0.10107569319916370E-009  0.11650099156072105E-009  0.11615082129362215E-009  0.10464245333965469E-009  0.50829875052109866E-007  0.74137612930370859E-007  0.69902611844808724E-007  0.51731963432055513E-007  0.31498110991753698E-007  0.19323419278480308E-006  0.29017786992666021E-006  0.28181816431666181E-006  0.21884014763044440E-006  0.14309087282402269E-006  0.19041005493435755E-006  0.29889683620668755E-006  0.31670110944146025E-006  0.27801096516559218E-006  0.21107046613886056E-006 -0.11622597114159133E-007 -0.18233057793353869E-007 -0.19293791846495938E-007 -0.16901272724527245E-007 -0.12792908716292432E-007  0.65590008854295440E-009  0.10289482582502964E-008  
0.10888063008033975E-008  0.95378582216230354E-009  0.72193560759069882E-009 -0.34700800123933101E-010 -0.54437144316290615E-010 -0.57603970862488278E-010 -0.50460628589103505E-010 -0.38194449287804048E-010  0.12462486223267192E-011  0.19550620119721104E-011  0.20687957934904713E-011  0.18122489578020266E-011  0.13717199497871980E-011  </sparseX_slice>
        <sparseX_slice start="601" end="650"> -0.77022305529016275E-007  0.13911513125179175E-013  0.15985665052499344E-013  0.15864543088640287E-013  0.14204997979657973E-013 -0.51366844996844504E-012 -0.83955155283643047E-012 -0.96471076743804780E-012 -0.95737975137055544E-012 -0.85720575796976606E-012  0.15110855849260689E-010  0.24710936670151855E-010  0.28425401941227180E-010  0.28254401760143243E-010  0.25350908805680207E-010 -0.10033850432771682E-008 -0.16385985299541034E-008 -0.18797816331877939E-008 -0.18609403606760931E-008 -0.16608721817616781E-008 -0.54237204386544433E-008 -0.88591417073576084E-008 -0.10167288847810449E-007 -0.10071585389862912E-007 -0.89961716328749684E-008 -0.12286190875694045E-008 -0.20111853919622063E-008 -0.23181684622456070E-008 -0.23112807682134307E-008 -0.20823729238923847E-008  0.61748300514834028E-010  0.10107759043526605E-009  0.11650318309013461E-009  0.11615301337235439E-009  0.10464443684345608E-009 -0.30755939024943054E-011 -0.50345290785691687E-011 
-0.58028553763056132E-011 -0.57854135726793154E-011 -0.52121875944317942E-011 -0.25318103285786181E-008 -0.36927569458088663E-008 -0.34818136869679208E-008 -0.25767428938326237E-008 -0.15689049531968487E-008 -0.96248972602345416E-008 -0.14453612712053312E-007 -0.14037220010210513E-007 -0.10900316900452587E-007 -0.71272838929814960E-008  </sparseX_slice>
        <sparseX_slice start="651" end="681"> -0.94842283844649765E-008 -0.14887900005887323E-007 -0.15774721836993742E-007 -0.13847585349024225E-007 -0.10513313001072415E-007  0.57891567485398925E-009  0.90817937276963194E-009  0.96101399864400800E-009  0.84184383310429310E-009  0.63720830293730790E-009 -0.32670051165505521E-010 -0.51251391531857210E-010 -0.54232890310460113E-010 -0.47507588663687605E-010 -0.35959246919116977E-010  0.17284292765553291E-011  0.27114865833727381E-011  0.28692246094894366E-011  0.25134183492971948E-011  0.19024461717069246E-011 -0.87787324694150214E-013 -0.13771703379841199E-012 -0.14572858480675162E-012 -0.12765710215043066E-012 -0.96625683241745846E-013  0.30919249333122927E-014  0.48504807730117950E-014  0.51326526515088872E-014  0.44961636367031998E-014  0.34032174947162595E-014  0.00000000000000000E+000  </sparseX_slice>
      </sparseX>
      <sparseX i="4" alpha="664.24744432779391" sparseCutoff="1.0000000000000000" sliced="T">
        <sparseX_slice start="1" end="50">  0.97646233155122675E+000  0.20305578149970812E-013  0.25337919405338450E-013  0.28488162338915796E-013  0.30174775987328165E-013  0.92095173340486714E-005 -0.17330191298271647E-011 -0.21624813225365772E-011 -0.24312862984580426E-011 -0.25751525167101835E-011  0.43429841984484888E-010  0.73953947091903434E-010  0.92279192216040618E-010  0.10374753195285915E-009  0.10988334241658728E-009 -0.27092123116501701E-003  0.51008810382921459E-010  0.63717958644476537E-010  0.71752655905061786E-010  0.76157277298807271E-010 -0.18067972377644624E-008 -0.30783514043350458E-008 -0.38452826692930165E-008 -0.43300673386397989E-008 -0.45957385355016857E-008  0.37583791573079229E-007  0.64068570652458261E-007  0.80116646297403262E-007  0.90361104520898625E-007  0.96105616293607186E-007  0.17989603895964251E-001 -0.33824279032337092E-008 -0.42136905790024333E-008 -0.47258977377391237E-008 -0.49894662267870238E-008  0.11997423194901707E-006  0.20412751459633599E-006  
0.25428986900863114E-006  0.28519439708283060E-006  0.30109115009536246E-006 -0.35293452901744922E-005 -0.60081862379787799E-005 -0.74927034922065784E-005 -0.84167197639019817E-005 -0.89044365571493524E-005  0.16571343198645150E-003  0.28171614804748687E-003  0.35036792112917161E-003  0.39198929649910433E-003  0.41250966102785401E-003  </sparseX_slice>
        <sparseX_slice start="51" end="100">  0.97241415932574030E-001 -0.18287217742412606E-007 -0.22790843614831403E-007 -0.25577005913347547E-007 -0.27025616435455433E-007  0.64851145459421199E-006  0.11036227270570672E-005  0.13753930263155961E-005  0.15434990737084393E-005  0.16308706311912156E-005 -0.19077603671336054E-004 -0.32483474330921492E-004 -0.40526239490420501E-004 -0.45552084094671446E-004 -0.48231188674130253E-004  0.12667834553080418E-002  0.21540006353034259E-002  0.26800141934236960E-002  0.30002302835611633E-002  0.31598803883596109E-002  0.48419138491241380E-002  0.82347404808784282E-002  0.10249905376332203E-001  0.11481667783775910E-001  0.12102557845385199E-001  0.22027805648971784E-001 -0.41515291659266474E-008 -0.51963719814305804E-008 -0.58695468079436124E-008 -0.62557067843211479E-008  0.14690535042022144E-006  0.25054231890785474E-006  0.31359320901795629E-006  0.35421034392541819E-006  0.37750289604896746E-006 -0.43215922134627153E-005 -0.73743361617380080E-005 
-0.92400886496243248E-005 -0.10453533564439955E-004 -0.11164229127769216E-004  0.28696064825101971E-003  0.48899710097217563E-003  0.61105024894648672E-003  0.68850873881146058E-003  0.73142772636895260E-003  0.15511436446423647E-002  0.26437803603552006E-002  0.33050245155495390E-002  0.37262744691544747E-002  0.39618035847160645E-002  </sparseX_slice>
        <sparseX_slice start="101" end="150">  0.24846028670560017E-003  0.42439555988619745E-003  0.53284331158831588E-003  0.60466483097049433E-003  0.64845332054554151E-003 -0.11070799539554051E-002  0.20864638654927183E-009  0.26115180420089416E-009  0.29497305487455954E-009  0.31436487960064569E-009 -0.73832124348079551E-008 -0.12591685479856468E-007 -0.15760117368972738E-007 -0.17800779282387957E-007 -0.18970462740159725E-007  0.21719585622536417E-006  0.37061731517495695E-006  0.46437511218380269E-006  0.52534051275704890E-006  0.56103037859471029E-006 -0.14422152905983221E-004 -0.24575878928732205E-004 -0.30709286313611505E-004 -0.34600887025926893E-004 -0.36756068828680208E-004 -0.77957834840850163E-004 -0.13287037064448043E-003 -0.16609917808969670E-003 -0.18726327592788361E-003 -0.19909051844184625E-003 -0.17659553989625171E-004 -0.30163977199151051E-004 -0.37871047239439056E-004 -0.42974168563411614E-004 -0.46084125773232677E-004  0.62758489746493786E-006  0.10719545707722372E-005  
0.13458142270160705E-005  0.15271097880394435E-005  0.16375478241798707E-005  0.55142057798674824E-004 -0.10392375755073345E-010 -0.13007594392220465E-010 -0.14692181164299707E-010 -0.15658058612620797E-010  0.36774717613256926E-009  0.62717370312793516E-009  0.78498869627447230E-009  0.88663106599270954E-009  0.94489122917072138E-009  </sparseX_slice>
        <sparseX_slice start="151" end="200"> -0.10818212735964808E-007 -0.18459914232567094E-007 -0.23129854008138996E-007 -0.26166450998905632E-007 -0.27944109286814770E-007  0.71834666166766084E-006  0.12240891038784484E-005  0.15295852221443627E-005  0.17234201301762011E-005  0.18307664673615047E-005  0.38829674580367894E-005  0.66180816322319689E-005  0.82731602949598535E-005  0.93273128846386732E-005  0.99164099085739194E-005  0.87959694628700277E-006  0.15024242236134550E-005  0.18863021957922101E-005  0.21404811710252641E-005  0.22953834518198630E-005 -0.44207042785497989E-007 -0.75508414560559373E-007 -0.94799068169023965E-007 -0.10756950929572727E-006 -0.11534874752717020E-006  0.15569707299624993E-008  0.26594040572735796E-008  0.33388201526301526E-008  0.37885944483988478E-008  0.40625786189635509E-008 -0.56864940430160500E-004  0.10484609899827831E-010  0.12557214417343075E-010  0.13269471330885903E-010  0.12928824652990464E-010 -0.37923723014633026E-009 -0.63273997897128784E-009 
-0.75780894430445561E-009 -0.80077460110898681E-009 -0.78019461545827931E-009  0.11156221718048152E-007  0.18623749186345665E-007  0.22328997004684651E-007  0.23632636126533825E-007  0.23073389747182704E-007 -0.74079099973156735E-006 -0.12349531078617913E-005 -0.14766242723215262E-005 -0.15565336251103040E-005 -0.15116598566065740E-005  </sparseX_slice>
        <sparseX_slice start="201" end="250"> -0.40042885958242234E-005 -0.66768182593180630E-005 -0.79867071958357675E-005 -0.84241073216316377E-005 -0.81879579114482842E-005 -0.90707945894546462E-006 -0.15157585002590775E-005 -0.18209901396244565E-005 -0.19332087738093611E-005 -0.18952930816106979E-005  0.45588267013337904E-007  0.76178564890272050E-007  0.91516708598687107E-007  0.97153070991631277E-007  0.95243207834131204E-007 -0.22706859117170507E-008 -0.37943445075431027E-008 -0.45583151500918532E-008 -0.48390539274312035E-008 -0.47439260155757801E-008  0.16557840203567859E-008  0.27068188834536031E-008  0.31116136925178318E-008  0.30903865841966431E-008  0.27697721265266424E-008  0.66838120111347528E-002 -0.12308877535142849E-008 -0.14710494431916412E-008 -0.15502809684455559E-008 -0.15063458921960034E-008  0.44574923225930520E-007  0.74283344703881992E-007  0.88775614440816807E-007  0.93555017615834697E-007  0.90900989506202587E-007 -0.13112840381773026E-005 -0.21864184759388078E-005 
-0.26157918085242930E-005 -0.27610162535931487E-005 -0.26882958658323821E-005  0.87071361445061063E-004  0.14498285307271624E-003  0.17298321438246543E-003  0.18185083607192754E-003  0.17612448745448939E-003  0.47065752659479785E-003  0.78385499378189755E-003  0.93562479566664620E-003  0.98419393894545542E-003  0.95398437958790251E-003  </sparseX_slice>
        <sparseX_slice start="251" end="300">  0.10661663472943158E-003  0.17794926020897687E-003  0.21332490167981171E-003  0.22585803875191265E-003  0.22082184766357850E-003 -0.53583702774610653E-005 -0.89433239290351564E-005 -0.10720976703312131E-004 -0.11350456489837460E-004 -0.11096848996813412E-004  0.26689270498557089E-006  0.44545407331041361E-006  0.53399637376371483E-006  0.56534981853549655E-006  0.55271795064460427E-006 -0.27523161768209562E-006 -0.44940755579098406E-006 -0.51550707696152091E-006 -0.51060445859509592E-006 -0.45637799954870986E-006  0.22875097971890146E-004  0.37307104741403790E-004  0.42702528761270465E-004  0.42181925470169834E-004  0.37598919506290074E-004  0.63767225396918009E-001 -0.11812695880360451E-007 -0.14285975667971087E-007 -0.15329063279014577E-007 -0.15262941641158555E-007  0.42526916850189089E-006  0.71288917893418523E-006  0.86213707749962450E-006  0.92506507806801950E-006  0.92104775214284496E-006 -0.12510367539142791E-004 -0.20982820285380795E-004 
-0.25403046989351169E-004 -0.27300724015308386E-004 -0.27238964919637822E-004  0.83070845224760860E-003  0.13913846703935901E-002  0.16799122579276807E-002  0.17981275847586339E-002  0.17845687285527204E-002  0.44903304481226716E-002  0.75225711113063986E-002  0.90862432443087025E-002  0.97316367006974099E-002  0.96661782580361108E-002  </sparseX_slice>
        <sparseX_slice start="301" end="350">  0.10171810587321251E-002  0.17077596937512922E-002  0.20716872358539024E-002  0.22332675421886166E-002  0.22374615229099424E-002 -0.51121785692622332E-004 -0.85828106934704830E-004 -0.10411588341184609E-003 -0.11223247225493530E-003 -0.11243802603145668E-003  0.25463025063026305E-005  0.42749742871843747E-005  0.51858618605108302E-005  0.55901370909555757E-005  0.56003749659455136E-005 -0.26258602982630655E-005 -0.43129154285093873E-005 -0.50063045754334801E-005 -0.50488190306556565E-005 -0.46242173258532626E-005  0.30863932096522237E-003  0.50633402993679273E-003  0.58647732796278959E-003  0.58985681201427693E-003  0.53877061220792991E-003  0.20821381959310239E-002  0.34359963289714401E-002  0.40273452906883569E-002  0.41241723179006552E-002  0.38601344984175189E-002  0.15834591998774949E+000 -0.29480637631366273E-007 -0.36009568854892133E-007 -0.39211393662131679E-007 -0.39800028826407743E-007  0.10560227030375361E-005  0.17791389677967101E-005  
0.21731231507121344E-005  0.23662953357935054E-005  0.24017471826617501E-005 -0.31065577105479434E-004 -0.52366278416245604E-004 -0.64031522308830569E-004 -0.69834628322722027E-004 -0.71029007021794713E-004  0.20628041018561330E-002  0.34724425050092623E-002  0.42344266522620650E-002  0.45995692820469166E-002  0.46534861043806448E-002  </sparseX_slice>
        <sparseX_slice start="351" end="400">  0.11150328423907764E-001  0.18773884914562042E-001  0.22903000071027069E-001  0.24893304352803541E-001  0.25205768478705294E-001  0.25258503806069007E-002  0.42620114157547115E-002  0.52219439469251986E-002  0.57126473520075710E-002  0.58344606959418524E-002 -0.12694493349096065E-003 -0.21419897242381053E-003 -0.26243696333687344E-003 -0.28708809998111276E-003 -0.29319621226676424E-003  0.63229442776898614E-005  0.10668942053559857E-004  0.13071606313644589E-004  0.14299442967191778E-004  0.14603678001510358E-004 -0.65205011210644192E-005 -0.10763630772379985E-004 -0.12619009965263111E-004 -0.12914763735819577E-004 -0.12058224895012031E-004  0.76640902781061732E-003  0.12636446589481204E-002  0.14782886527279486E-002  0.15088402493481433E-002  0.14049117398754122E-002  0.73119616681641504E-002  0.12127060338668581E-001  0.14356278655929569E-001  0.14919300520971387E-001  0.14235167372771520E-001  0.12838913272227631E-001  0.21400720253640718E-001  
0.25587914863325716E-001  0.26985478646096055E-001  0.26247788802940944E-001 -0.74980935213826479E-002  0.13947005533681305E-008  0.17004172697019530E-008  0.18463880111309882E-008  0.18669198813183169E-008 -0.50005437391069699E-007 -0.84169349860492750E-007 -0.10261761671045428E-006 -0.11142422981572708E-006 -0.11265995772938689E-006  </sparseX_slice>
        <sparseX_slice start="401" end="450">  0.14710363389889011E-005  0.24773981620825113E-005  0.30236492632832311E-005  0.32883763736606945E-005  0.33317931988858704E-005 -0.97679170219261969E-004 -0.16427790822687801E-003 -0.19995496851983095E-003 -0.21658474197359365E-003 -0.21828340284875319E-003 -0.52799721851412281E-003 -0.88817440133488008E-003 -0.10815085569531500E-002 -0.11721771256204972E-002 -0.11823396033718082E-002 -0.11960562278002315E-003 -0.20163165242022960E-003 -0.24658678099004371E-003 -0.26899741624721816E-003 -0.27367996936717993E-003  0.60111746703329195E-005  0.10133546943792077E-004  0.12392604489779432E-004  0.13518418409479300E-004  0.13753101541596351E-004 -0.29940795145386586E-006 -0.50473736599647765E-006 -0.61725774079760002E-006 -0.67333286564543135E-006 -0.68502203654939944E-006  0.30876278476770292E-006  0.50921699802436984E-006  0.59588557024778927E-006  0.60813102267863097E-006  0.56562119309241949E-006 -0.36291472281701684E-004 -0.59781810934119472E-004 
-0.69806655137486689E-004 -0.71048343017677144E-004 -0.65900898466953386E-004 -0.34624051201888556E-003 -0.57371953675365323E-003 -0.67792158949661217E-003 -0.70252074827386647E-003 -0.66773612396199035E-003 -0.85977980179312763E-003 -0.14318169143074288E-002 -0.17087852256340262E-002 -0.17970320243959961E-002 -0.17412054377811072E-002  </sparseX_slice>
        <sparseX_slice start="451" end="500">  0.28788312994156173E-004  0.47897913056175797E-004  0.57057149106162428E-004  0.59834478740512392E-004  0.57753367327818459E-004  0.39657829400025700E-003 -0.73766372227518981E-010 -0.89935608883991648E-010 -0.97655609713038264E-010 -0.98740939627277740E-010  0.26448151112991499E-008  0.44517567423080774E-008  0.54274783051905979E-008  0.58932364345213368E-008  0.59585578341550389E-008 -0.77803921765572575E-007 -0.13103076107528689E-006 -0.15992176884481671E-006 -0.17392248963915260E-006 -0.17621773403015745E-006  0.51663050846787040E-005  0.86887363009624449E-005  0.10575681724499559E-004  0.11455184340704576E-004  0.11544956223352000E-004  0.27926063546430647E-004  0.46975964362817090E-004  0.57201330706243277E-004  0.61996542007456489E-004  0.62533654798852990E-004  0.63260072309945287E-005  0.10664393506807832E-004  0.13042053080871277E-004  0.14227294878698400E-004  0.14474867187871751E-004 -0.31793433742856214E-006 -0.53596809296131211E-006 
-0.65544878325198165E-006 -0.71499023183378288E-006 -0.72739820417341333E-006  0.15835851374629228E-007  0.26695798124779343E-007  0.32646957747447235E-007  0.35612629164632851E-007  0.36230649333765530E-007 -0.16330633658376222E-007 -0.26932727982456535E-007 -0.31516576866343479E-007 -0.32164098470677357E-007 -0.29915567688747946E-007  </sparseX_slice>
        <sparseX_slice start="501" end="550">  0.19194759472112997E-005  0.31618882685260057E-005  0.36920961376998403E-005  0.37577525496617432E-005  0.34854825330339478E-005  0.18312851283949427E-004  0.30344297777875105E-004  0.35855487951888355E-004  0.37156378613355953E-004  0.35316401610402864E-004  0.45474227020327001E-004  0.75729474120729852E-004  0.90378192728130880E-004  0.95045167623652137E-004  0.92091933205631568E-004 -0.21533236033955084E-005 -0.35826884337835299E-005 -0.42677722784922113E-005 -0.44754914739418156E-005 -0.43198024242775380E-005  0.80532724197514731E-007  0.13398972517354070E-006  0.15961085075576822E-006  0.16737861142060945E-006  0.16155502136241381E-006 -0.20142293458594815E-004  0.37466092707905852E-011  0.45678481137951620E-011  0.49599485074215428E-011  0.50150725822861306E-011 -0.13433070574326255E-009 -0.22610564378295047E-009 -0.27566274189579587E-009 -0.29931869088912932E-009 -0.30263637491031060E-009  0.39516772555148960E-008  0.66550793997196871E-008  
0.81224596045694788E-008  0.88335590287915597E-008  0.89501348658737381E-008 -0.26239770226093506E-006 -0.44130271007818913E-006 -0.53714105477026473E-006 -0.58181116926998693E-006 -0.58637069525548050E-006 -0.14183705351640063E-005 -0.23859189258110301E-005 -0.29052673775759046E-005 -0.31488171227313082E-005 -0.31760971572245041E-005  </sparseX_slice>
        <sparseX_slice start="551" end="600"> -0.32129921378854400E-006 -0.54164674733807201E-006 -0.66240856435763017E-006 -0.72260723378418210E-006 -0.73518147427143477E-006  0.16147950661782448E-007  0.27221930065142648E-007  0.33290378810120248E-007  0.36314500965441996E-007  0.36944704029801295E-007 -0.80430616193600169E-009 -0.13558850967614701E-008 -0.16581457135647566E-008 -0.18087727616419186E-008 -0.18401621130815661E-008  0.82943625631615266E-009  0.13679188131351393E-008  0.16007334356061985E-008  0.16336211782506138E-008  0.15194178206697809E-008 -0.97490579793101821E-007 -0.16059295777113153E-006 -0.18752232389171654E-006 -0.19085702505696213E-006 -0.17702837296706089E-006 -0.93011349891145377E-006 -0.15411931471913291E-005 -0.18211076240280088E-005 -0.18871801137287773E-005 -0.17937272836363446E-005 -0.23096453822699502E-005 -0.38463156211303488E-005 -0.45903270384695400E-005 -0.48273636166712015E-005 -0.46773681819582416E-005  0.10936775054784783E-006  0.18196548501757650E-006  
0.21676103374764520E-006  0.22731113267722300E-006  0.21940365142021194E-006 -0.57845205327491330E-008 -0.96242406070262736E-008 -0.11464559846439874E-007 -0.12022504003672685E-007 -0.11604205898535624E-007  0.20774584572434537E-009  0.34564593345484572E-009  0.41173933930632667E-009  0.43177739763626789E-009  0.41675459357445066E-009  </sparseX_slice>
        <sparseX_slice start="601" end="650">  0.10032774332199888E-005 -0.18661670976973321E-012 -0.22752220050328481E-012 -0.24705252247052216E-012 -0.24979822470907364E-012  0.66909444020250156E-011  0.11262207573152620E-010  0.13730621524714093E-010  0.14908912359893808E-010  0.15074164519972647E-010 -0.19683104220364083E-009 -0.33148613347928625E-009 -0.40457559811358500E-009 -0.43999510018899740E-009 -0.44580168356863179E-009  0.13069896620677046E-007  0.21981064427858057E-007  0.26754723825623784E-007  0.28979719598822441E-007  0.29206827277756687E-007  0.70648317819388965E-007  0.11884141300334646E-006  0.14470989628577645E-006  0.15684098570885148E-006  0.15819979040394089E-006  0.16003751070751156E-007  0.26979150090123943E-007  0.32994235018390604E-007  0.35992700245719719E-007  0.36619016793628933E-007 -0.80432124201840187E-009 -0.13559105460887138E-008 -0.16581769038229763E-008 -0.18088068963511451E-008 -0.18401969916933065E-008  0.40062082469851327E-010  0.67535949786952029E-010  
0.82591397985843956E-010  0.90094054942500224E-010  0.91657542634234763E-010 -0.41313799740187081E-010 -0.68135343103320575E-010 -0.79731721505448801E-010 -0.81369843304661482E-010 -0.75681431916908186E-010  0.48559563914116078E-008  0.79990538712125546E-008  0.93403919553456295E-008  0.95064917309099714E-008  0.88176935756629004E-008  </sparseX_slice>
        <sparseX_slice start="651" end="681">  0.46328482191433937E-007  0.76766049902987580E-007  0.90708448190478047E-007  0.93999485429189456E-007  0.89344647303256801E-007  0.11504226643979453E-006  0.19158303256955608E-006  0.22864186435362519E-006  0.24044853622906449E-006  0.23297733960836500E-006 -0.54475522498093727E-008 -0.90636086261720743E-008 -0.10796757281111863E-007 -0.11322252364013640E-007 -0.10928384728277183E-007  0.28812403733639865E-009  0.47937854905710872E-009  0.57104391807292313E-009  0.59883483388486998E-009  0.57799961716433949E-009 -0.14633879363304516E-010 -0.24347735450184964E-010 -0.29003438309160076E-010 -0.30414944407671137E-010 -0.29356719143595978E-010  0.51541445864554734E-012  0.85754259514474605E-012  0.10215193855054702E-011  0.10712335203115583E-011  0.10339621592221470E-011  0.00000000000000000E+000  </sparseX_slice>
      </sparseX>
      <sparseX i="5" alpha="-10604.274259694874" sparseCutoff="1.0000000000000000" sliced="T">
        <sparseX_slice start="1" end="50">  0.94407050584987995E+000  0.11627145838511781E-011  0.93812214633022702E-012  0.45498630738265204E-012  0.63397428632068082E-013  0.61022142747673422E-003 -0.85973693817805001E-009 -0.81606569123483309E-009 -0.55372271521471853E-009 -0.18950850368045583E-009  0.19721524411808870E-006  0.31785427530268918E-006  0.35494483048701051E-006  0.33694293692985409E-006  0.28324076971348452E-006  0.39138556341177987E-001 -0.56102264927978082E-007 -0.55153497571878609E-007 -0.39501968618970148E-007 -0.14572599714189128E-007  0.17888454807377400E-004  0.29333093287931286E-004  0.33925307434273858E-004  0.33993646564411661E-004  0.30802012794456921E-004  0.81128823693764698E-003  0.13534981730528887E-002  0.16212751752587031E-002  0.17147829500083964E-002  0.16748365589276241E-002  0.17012926443311760E+000 -0.24418914588513613E-006 -0.24068522316064319E-006 -0.17304479897232559E-006 -0.64155827913832563E-007  0.77758352446491544E-004  0.12767439969392172E-003  
0.14804718739677765E-003  0.14891469822215310E-003  0.13560577185941090E-003  0.49872874356582924E-002  0.83314124100895039E-002  0.10005714341766095E-001  0.10623410552687656E-001  0.10427651497755175E-001  0.15329345868345633E-001  0.25641864218564070E-001  0.30875178074890559E-001  0.32907036943189458E-001  0.32461649818612132E-001  </sparseX_slice>
        <sparseX_slice start="51" end="100"> -0.32066534243244837E-003  0.40224495683192262E-009  0.28141266452943344E-009  0.76965868702636189E-010 -0.34325875506392516E-010 -0.14656155010909138E-006 -0.21031394826034019E-006 -0.17309892536945814E-006 -0.66233421514690531E-007  0.72554388185064490E-007 -0.94002065940461525E-005 -0.13724068746371706E-004 -0.11698826776571265E-004 -0.47250193396631358E-005  0.55792011228775214E-005 -0.40861247395623275E-004 -0.59734996965766487E-004 -0.51052695792631585E-004 -0.20698715794627513E-004  0.24562416738001278E-004  0.54458994958619204E-007  0.69578986771109870E-007  0.42208303080438527E-007  0.65098057337464587E-008  0.92926933686736337E-008  0.16991847425784917E-004 -0.21323157171397058E-010 -0.14937062106606439E-010 -0.41149725576647182E-011  0.17959697573778950E-011  0.77662009840206848E-008  0.11148821875636759E-007  0.91878928162452960E-008  0.35411633302835219E-008 -0.37961300337748132E-008  0.49811081860378373E-006  0.72751807061740595E-006  
0.62096033392199511E-006  0.25262269165400734E-006 -0.29191029621810462E-006  0.21652108584822987E-005  0.31665747632137356E-005  0.27098186538241737E-005  0.11066547926961311E-005 -0.12851342312113103E-005 -0.40810620306104540E-008 -0.52161971586284915E-008 -0.31683593938596218E-008 -0.49221154278907387E-009 -0.68759704400995916E-009  </sparseX_slice>
        <sparseX_slice start="101" end="150">  0.15291383278690429E-009  0.19552392223812430E-009  0.11891619084434195E-009  0.18608251364466605E-010  0.25438787021911393E-010 -0.86302231061661391E-006  0.10830119243391267E-011  0.75866127210609000E-012  0.20900431337381159E-012 -0.91215902761282739E-013 -0.39444826392283496E-009 -0.56625324930043783E-009 -0.46665792792440181E-009 -0.17985986541073096E-009  0.19280248267406061E-009 -0.25299235500563156E-007 -0.36950942082242445E-007 -0.31538903266146521E-007 -0.12831004696117326E-007  0.14825896196449837E-007 -0.10997187246537773E-006 -0.16083163484214619E-006 -0.13763312038300997E-006 -0.56208303177738538E-007  0.65270964941254951E-007  0.20727867283474434E-009  0.26493279944849738E-009  0.16092264670786199E-009  0.25000005247587091E-010  0.34922517401923524E-010 -0.10983561730463970E-010 -0.14044187817770542E-010 -0.85415898827943901E-011 -0.13366228078677068E-011 -0.18271867557661437E-011  0.39446604041058424E-012  0.50438639222008126E-012  
0.30676545055734461E-012  0.48004524861580492E-013  0.65620491998528341E-013  0.42986704346428916E-007 -0.53944275694193616E-013 -0.37788534059160637E-013 -0.10410399326343769E-013  0.45434177491152913E-014  0.19647268318125276E-010  0.28204787691174831E-010  0.23243995247568971E-010  0.89587290878503425E-011 -0.96033936554606720E-011  </sparseX_slice>
        <sparseX_slice start="151" end="200">  0.12601421113625278E-008  0.18405077193042076E-008  0.15709368120937769E-008  0.63910586575248482E-009 -0.73847035315515858E-009  0.54776432890996628E-008  0.80109423130930229E-008  0.68554360799566859E-008  0.27997072026446287E-008 -0.32511135847887899E-008 -0.10324445749381759E-010 -0.13196168622617196E-010 -0.80154756010267969E-011 -0.12452376392949701E-011 -0.17394728397627016E-011  0.54708564885288452E-012  0.69953388556192751E-012  0.42545226977161624E-012  0.66576507221239105E-013  0.91011243497992218E-013 -0.27786685517298632E-013 -0.35529613811556062E-013 -0.21608945447351356E-013 -0.33814993863527599E-014 -0.46223900502738299E-014  0.97866459078911469E-015  0.12513754108650758E-014  0.76108069291740406E-015  0.11909854469839261E-015  0.16280348657969282E-015  0.43886852953083207E-001 -0.56716629998945615E-007 -0.46696014279163042E-007 -0.25713708962714173E-007 -0.67174297191303900E-008  0.20058685324151066E-004  0.29654314328876290E-004  
0.28723049491308786E-004  0.22128080318480052E-004  0.14198589147621608E-004  0.12865296928944348E-002  0.19350968009607726E-002  0.19412366643900259E-002  0.15785928774832670E-002  0.10918262354253307E-002  0.55923460338063967E-002  0.84226480987583240E-002  0.84713934808472308E-002  0.69152828755995963E-002  0.48067618301181631E-002  </sparseX_slice>
        <sparseX_slice start="201" end="250"> -0.10540641328854131E-004 -0.13874358373361851E-004 -0.99048765039112506E-005 -0.30757396755397794E-005  0.25718054545429826E-005  0.55854171165236713E-006  0.73548498053911437E-006  0.52573950694288992E-006  0.16444411753821044E-006 -0.13455985463090464E-006 -0.28368543248246445E-007 -0.37355584714475157E-007 -0.26702587181271236E-007 -0.83523108338639892E-008  0.68341900330799035E-008  0.14130227762941177E-008  0.18606627639719810E-008  0.13300423552213036E-008  0.41602438569177608E-009 -0.34040753155053675E-009  0.10200805184521977E-002  0.13833042791045911E-002  0.11621715562784704E-002  0.72660959010255452E-003  0.35588085357007187E-003  0.16683969015387881E+000 -0.22199137835702406E-006 -0.18825884581071857E-006 -0.10877591902958361E-006 -0.30516207206712902E-007  0.76254837592322966E-004  0.11606828741803024E-003  0.11579935094826381E-003  0.93607743499522013E-004  0.64501916147758023E-004  0.48908545701769864E-002  0.75740537847106860E-002  
0.78262562560203544E-002  0.66778733192783381E-002  0.49599916972823867E-002  0.21259790044890516E-001  0.32966614216928751E-001  0.34153123852893638E-001  0.29253510305869489E-001  0.21836349040387650E-001 -0.40071165166689058E-004 -0.54304847435032257E-004 -0.39932329285673242E-004 -0.13011207771999226E-004  0.11683300224590670E-004  </sparseX_slice>
        <sparseX_slice start="251" end="300">  0.21233449162946035E-005  0.28787204845175446E-005  0.21195623288630429E-005  0.69564293662051342E-006 -0.61128386560230808E-006 -0.10784548554242682E-006 -0.14621139761394644E-006 -0.10765368994564036E-006 -0.35332525863604730E-007  0.31046630610154983E-007  0.53717290330502501E-008  0.72827156980132455E-008  0.53621758203261438E-008  0.17598952744607962E-008 -0.15464168888791317E-008  0.54842139159446577E-002  0.76569957853042346E-002  0.66261432179752057E-002  0.43469451529900482E-002  0.22863728015203124E-002  0.14742268738490015E-001  0.21191861162360302E-001  0.18889540751502641E-001  0.13002809500791666E-001  0.73444532560425603E-002  0.16440131070803765E+000 -0.22866154704645887E-006 -0.21156118689152352E-006 -0.13818715881720519E-006 -0.45013842971189109E-007  0.75140365199934911E-004  0.11955578797909678E-003  0.13013278617735966E-003  0.11891775526135193E-003  0.95145478110965381E-004  0.48193742213132433E-002  0.78016311653313960E-002  
0.87949761686396573E-002  0.84834616812690077E-002  0.73163839099492341E-002  0.20949075999446370E-001  0.33957161145254877E-001  0.38380536050009059E-001  0.37163183824707707E-001  0.32210358912226178E-001 -0.39485520914873186E-004 -0.55936543655518479E-004 -0.44875081129065203E-004 -0.16529226788733610E-004  0.17233800980984754E-004  </sparseX_slice>
        <sparseX_slice start="301" end="350">  0.20923120092234580E-005  0.29652173177890688E-005  0.23819179388557388E-005  0.88373347539083433E-006 -0.90169252524248136E-006 -0.10626931254048184E-006 -0.15060460735759044E-006 -0.12097886991749006E-006 -0.44885866343258109E-007  0.45796259856388825E-007  0.52932206538346264E-008  0.75015392513533100E-008  0.60258962917993129E-008  0.22357423404294255E-008 -0.22810884240125134E-008  0.54040615584516555E-002  0.78870653218793430E-002  0.74463152988704876E-002  0.55222884401698027E-002  0.33725824957235597E-002  0.20544010228949902E-001  0.30870319728595122E-001  0.30020436333761974E-001  0.23360768417226063E-001  0.15321102053086526E-001  0.14314498120132205E-001  0.22484496119630795E-001  0.23855174922602713E-001  0.20984907185252560E-001  0.15980506644791139E-001 -0.10035027824859044E-001  0.13948622726581090E-007  0.12888548164171091E-007  0.84008875578199703E-008  0.27282736170255790E-008 -0.45865550116599647E-005 -0.72930433771652650E-005 
-0.79278373648218474E-005 -0.72294321638125169E-005 -0.57667348658850630E-005 -0.29417377635859889E-003 -0.47590865706438460E-003 -0.53579995280689555E-003 -0.51573972788375975E-003 -0.44344352483570318E-003 -0.12787280080319527E-002 -0.20714266819188559E-002 -0.23381859154575687E-002 -0.22592817688288124E-002 -0.19522588300536288E-002  </sparseX_slice>
        <sparseX_slice start="351" end="400">  0.24101894282551721E-005  0.34121948100055228E-005  0.27338409894608862E-005  0.10048703284618638E-005 -0.10445347793918465E-005 -0.12771436639049628E-006 -0.18088173635841306E-006 -0.14510915035557185E-006 -0.53725292721739543E-007  0.54651275361287970E-007  0.64866606213756893E-008  0.91870577980874427E-008  0.73701703733494836E-008  0.27287710327980076E-008 -0.27756956366645599E-008 -0.32309728137558045E-009 -0.45760269812443458E-009 -0.36710445677815955E-009 -0.13591870743250533E-009  0.13825598870372110E-009 -0.32986299119367162E-003 -0.48112024087916950E-003 -0.45363799846852526E-003 -0.33571950277292643E-003 -0.20441107083912237E-003 -0.12540028628349729E-002 -0.18831257327915256E-002 -0.18288791308186097E-002 -0.14201839766963471E-002 -0.92860675197064103E-003 -0.12356754804061121E-002 -0.19397079586153307E-002 -0.20552544977681659E-002 -0.18041786315224242E-002 -0.13697691273375963E-002  0.53333825610323745E-004  0.83668029398949122E-004  
0.88535738352393689E-004  0.77557182066777632E-004  0.58704880386842135E-004  0.56630850869274479E-003 -0.78716423883314373E-009 -0.72733926855887523E-009 -0.47408544769533115E-009 -0.15396325535197468E-009  0.25883387410805442E-006  0.41156916000197189E-006  0.44739154144706491E-006  0.40797696200251073E-006  0.32543116905970997E-006  </sparseX_slice>
        <sparseX_slice start="401" end="450">  0.16601161002609495E-004  0.26857008260629296E-004  0.30236791669972470E-004  0.29104627112934415E-004  0.25024619313253797E-004  0.72162684936291242E-004  0.11689706140406745E-003  0.13195081492818763E-003  0.12749755326127175E-003  0.11017081383955491E-003 -0.13601464835015321E-006 -0.19256078417333093E-006 -0.15427881250103826E-006 -0.56707627172220047E-007  0.58945691502472803E-007  0.72073275362598863E-008  0.10207719938403327E-007  0.81889427681406636E-008  0.30318676779383249E-008 -0.30841071845772187E-008 -0.36606287167308559E-009 -0.51845429477180683E-009 -0.41592072747249312E-009 -0.15399213807330158E-009  0.15663939768367480E-009  0.18233406301596898E-010  0.25823945963545537E-010  0.20716800967543429E-010  0.76702706493587967E-011 -0.78021287747295508E-011  0.18615216806181610E-004  0.27151114172524287E-004  0.25600147184446629E-004  0.18945585174985808E-004  0.11535424343063362E-004  0.70767366423169945E-004  0.10627065217379182E-003  
0.10320911186801232E-003  0.80144931326344505E-004  0.52403585030116575E-004  0.69733093993369733E-004  0.10946376346478718E-003  0.11598414996536396E-003  0.10181481758453834E-003  0.77299473414052595E-004 -0.42564961040956242E-005 -0.66774180378120267E-005 -0.70658863521857569E-005 -0.61896839154143130E-005 -0.46850946287903383E-005  </sparseX_slice>
        <sparseX_slice start="451" end="500">  0.16985242364345036E-006  0.26645728345705158E-006  0.28195817232180503E-006  0.24699316009026363E-006  0.18695303981608893E-006 -0.29960902143318766E-004  0.41645411152986473E-010  0.38480333923760338E-010  0.25081783708441512E-010  0.81455211335969940E-011 -0.13693766303156482E-007 -0.21774321089051118E-007 -0.23669526249640916E-007 -0.21584273402017802E-007 -0.17217137030826264E-007 -0.87829469737761507E-006 -0.14208866411551309E-005 -0.15996961673045334E-005 -0.15397982910257817E-005 -0.13239429434661794E-005 -0.38178115083706217E-005 -0.61845113695265554E-005 -0.69809394864783862E-005 -0.67453368792492751E-005 -0.58286549630568384E-005  0.71959391510535179E-008  0.10187547443373776E-007  0.81622160098188207E-008  0.30001520744138454E-008 -0.31185582220265962E-008 -0.38130812395384314E-009 -0.54004573988206086E-009 -0.43324108269992000E-009 -0.16040283392021275E-009  0.16316659577521624E-009  0.19366782783852043E-010  0.27429145284609739E-010  
0.22004543368964730E-010  0.81470492687157208E-011 -0.82871040968146988E-011 -0.96464964512463295E-012 -0.13662318410685874E-011 -0.10960351702757309E-011 -0.40580041076489510E-012  0.41277644251102582E-012 -0.98484956617395674E-006 -0.14364464964167811E-005 -0.13543916226423008E-005 -0.10023278965825339E-005 -0.61028875075826131E-006  </sparseX_slice>
        <sparseX_slice start="501" end="550"> -0.37439913188649224E-005 -0.56223146135729042E-005 -0.54603419069135151E-005 -0.42401171405436234E-005 -0.27724440377883123E-005 -0.36892724958503997E-005 -0.57912481423214491E-005 -0.61362131998919155E-005 -0.53865758702024978E-005 -0.40895763919167389E-005  0.22519256075210794E-006  0.35327293327917019E-006  0.37382508830875767E-006  0.32746905424907884E-006  0.24786782550466515E-006 -0.12708331802758889E-007 -0.19936292283188758E-007 -0.21096066278069843E-007 -0.18479989420347406E-007 -0.13987796925338837E-007  0.47541770009721212E-009  0.74581513562716106E-009  0.78920218687752219E-009  0.69133495205160174E-009  0.52328237887170334E-009  0.15217211836558418E-005 -0.21151801120736703E-011 -0.19544251039303218E-011 -0.12739096242688113E-011 -0.41371291161826295E-012  0.69550957337219632E-009  0.11059228291029715E-008  0.12021807397017343E-008  0.10962702628850762E-008  0.87446239153127250E-009  0.44608791821382304E-007  0.72167162759947113E-007  
0.81248940153053053E-007  0.78206713093942715E-007  0.67243369819356454E-007  0.19390753388205900E-006  0.31411276991986135E-006  0.35456353909047703E-006  0.34259722790444760E-006  0.29603874031318538E-006 -0.36548342203034935E-009 -0.51742790253340781E-009 -0.41456084827376673E-009 -0.15237842117981157E-009  0.15839229693532948E-009  </sparseX_slice>
        <sparseX_slice start="551" end="600">  0.19366728242861816E-010  0.27429048651059587E-010  0.22004415288086787E-010  0.81468972169702043E-011 -0.82872693238223332E-011 -0.98364339900295209E-012 -0.13931326643421858E-011 -0.11176158722020146E-011 -0.41379052596311631E-012  0.42090394322786027E-012  0.48994779688888297E-013  0.69391232760175008E-013  0.55667881048577538E-013  0.20610697182260261E-013 -0.20965011455719350E-013  0.50020738374040456E-007  0.72957451425252498E-007  0.68789865313787375E-007  0.50908466836824663E-007  0.30996707498882605E-007  0.19015818929907682E-006  0.28555866601398070E-006  0.27733203459352099E-006  0.21535653509155094E-006  0.14081307707142274E-006  0.18737900755990201E-006  0.29413883920422005E-006  0.31165969465593006E-006  0.27358544044041148E-006  0.20771053547534674E-006 -0.11437582501987674E-007 -0.17942814392227319E-007 -0.18986663122964119E-007 -0.16632229378395677E-007 -0.12589264468673601E-007  0.64545912605298168E-009  0.10125689188414855E-008  
0.10714741095991120E-008  0.93860295793249907E-009  0.71044345698621457E-009 -0.34148414541441599E-010 -0.53570585229326258E-010 -0.56687000565404173E-010 -0.49657369770386676E-010 -0.37586449960917217E-010  0.12264101814632653E-011  0.19239403068692537E-011  0.20358636142507474E-011  0.17834006259883558E-011  0.13498841903588207E-011  </sparseX_slice>
        <sparseX_slice start="601" end="650"> -0.75796161333212267E-007  0.10535604994232378E-012  0.97348924416815777E-013  0.63452793088569231E-013  0.20606830562293499E-013 -0.34642979540748313E-010 -0.55085455914720943E-010 -0.59880013682401056E-010 -0.54604666480892968E-010 -0.43556528765072798E-010 -0.22219413241327870E-008 -0.35946098209474749E-008 -0.40469685525426685E-008 -0.38954367637620625E-008 -0.33493581887134638E-008 -0.96584360392093333E-008 -0.15645797956541087E-007 -0.17660630278676625E-007 -0.17064594380010083E-007 -0.14745539697193537E-007  0.18204544116468127E-010  0.25772821723166265E-010  0.20649065857584661E-010  0.75898919719953307E-011 -0.78894400770612295E-011 -0.96464692360123150E-012 -0.13662270191820018E-011 -0.10960287792090064E-011 -0.40579282358351116E-012  0.41278468712060563E-012  0.48994779441829077E-013  0.69391232322444346E-013  0.55667880468397005E-013  0.20610696493495887E-013 -0.20965012204165485E-013 -0.24404051581002725E-014 -0.34563421538003675E-014 
-0.27727889565807941E-014 -0.10266083863427608E-014  0.10442566008265710E-014 -0.24915076405104739E-008 -0.36339736990472649E-008 -0.34263883459171776E-008 -0.25357249455646558E-008 -0.15439302992018325E-008 -0.94716830847536537E-008 -0.14223532505010836E-007 -0.13813768161140510E-007 -0.10726799924506963E-007 -0.70138280403571773E-008  </sparseX_slice>
