<GAP_2023_3_22_60_12_47_43_553>
<Potential label="GAP_2023_3_22_60_12_47_43_553" init_args="IP GAP label=GAP_2023_3_22_60_12_47_43_553"/>
<GAP_params label="GAP_2023_3_22_60_12_47_43_553" gap_version="1662319253">
  <GAP_data do_core="F">
    <e0 Z="1" value=".00000000000000000E+000"/>
    <e0 Z="2" value=".00000000000000000E+000"/>
    <e0 Z="3" value=".00000000000000000E+000"/>
    <e0 Z="4" value=".00000000000000000E+000"/>
    <e0 Z="5" value=".00000000000000000E+000"/>
    <e0 Z="6" value="-73.272740798584991"/>
    <e0 Z="7" value=".00000000000000000E+000"/>
    <e0 Z="8" value="-73.272740798584991"/>
    <e0 Z="9" value=".00000000000000000E+000"/>
    <e0 Z="10" value=".00000000000000000E+000"/>
    <e0 Z="11" value=".00000000000000000E+000"/>
    <e0 Z="12" value=".00000000000000000E+000"/>
    <e0 Z="13" value=".00000000000000000E+000"/>
    <e0 Z="14" value=".00000000000000000E+000"/>
    <e0 Z="15" value=".00000000000000000E+000"/>
    <e0 Z="16" value=".00000000000000000E+000"/>
    <e0 Z="17" value=".00000000000000000E+000"/>
    <e0 Z="18" value=".00000000000000000E+000"/>
    <e0 Z="19" value=".00000000000000000E+000"/>
    <e0 Z="20" value=".00000000000000000E+000"/>
    <e0 Z="21" value=".00000000000000000E+000"/>
    <e0 Z="22" value=".00000000000000000E+000"/>
    <e0 Z="23" value=".00000000000000000E+000"/>
    <e0 Z="24" value=".00000000000000000E+000"/>
    <e0 Z="25" value=".00000000000000000E+000"/>
    <e0 Z="26" value=".00000000000000000E+000"/>
    <e0 Z="27" value=".00000000000000000E+000"/>
    <e0 Z="28" value=".00000000000000000E+000"/>
    <e0 Z="29" value=".00000000000000000E+000"/>
    <e0 Z="30" value=".00000000000000000E+000"/>
    <e0 Z="31" value=".00000000000000000E+000"/>
    <e0 Z="32" value=".00000000000000000E+000"/>
    <e0 Z="33" value=".00000000000000000E+000"/>
    <e0 Z="34" value=".00000000000000000E+000"/>
    <e0 Z="35" value=".00000000000000000E+000"/>
    <e0 Z="36" value=".00000000000000000E+000"/>
    <e0 Z="37" value=".00000000000000000E+000"/>
    <e0 Z="38" value=".00000000000000000E+000"/>
    <e0 Z="39" value=".00000000000000000E+000"/>
    <e0 Z="40" value=".00000000000000000E+000"/>
    <e0 Z="41" value=".00000000000000000E+000"/>
    <e0 Z="42" value=".00000000000000000E+000"/>
    <e0 Z="43" value=".00000000000000000E+000"/>
    <e0 Z="44" value=".00000000000000000E+000"/>
    <e0 Z="45" value=".00000000000000000E+000"/>
    <e0 Z="46" value=".00000000000000000E+000"/>
    <e0 Z="47" value=".00000000000000000E+000"/>
    <e0 Z="48" value=".00000000000000000E+000"/>
    <e0 Z="49" value=".00000000000000000E+000"/>
    <e0 Z="50" value=".00000000000000000E+000"/>
    <e0 Z="51" value=".00000000000000000E+000"/>
    <e0 Z="52" value=".00000000000000000E+000"/>
    <e0 Z="53" value=".00000000000000000E+000"/>
    <e0 Z="54" value=".00000000000000000E+000"/>
    <e0 Z="55" value=".00000000000000000E+000"/>
    <e0 Z="56" value=".00000000000000000E+000"/>
    <e0 Z="57" value=".00000000000000000E+000"/>
    <e0 Z="58" value=".00000000000000000E+000"/>
    <e0 Z="59" value=".00000000000000000E+000"/>
    <e0 Z="60" value=".00000000000000000E+000"/>
    <e0 Z="61" value=".00000000000000000E+000"/>
    <e0 Z="62" value=".00000000000000000E+000"/>
    <e0 Z="63" value=".00000000000000000E+000"/>
    <e0 Z="64" value=".00000000000000000E+000"/>
    <e0 Z="65" value=".00000000000000000E+000"/>
    <e0 Z="66" value=".00000000000000000E+000"/>
    <e0 Z="67" value=".00000000000000000E+000"/>
    <e0 Z="68" value=".00000000000000000E+000"/>
    <e0 Z="69" value=".00000000000000000E+000"/>
    <e0 Z="70" value=".00000000000000000E+000"/>
    <e0 Z="71" value=".00000000000000000E+000"/>
    <e0 Z="72" value=".00000000000000000E+000"/>
    <e0 Z="73" value=".00000000000000000E+000"/>
    <e0 Z="74" value=".00000000000000000E+000"/>
    <e0 Z="75" value=".00000000000000000E+000"/>
    <e0 Z="76" value=".00000000000000000E+000"/>
    <e0 Z="77" value=".00000000000000000E+000"/>
    <e0 Z="78" value=".00000000000000000E+000"/>
    <e0 Z="79" value=".00000000000000000E+000"/>
    <e0 Z="80" value=".00000000000000000E+000"/>
    <e0 Z="81" value=".00000000000000000E+000"/>
    <e0 Z="82" value=".00000000000000000E+000"/>
    <e0 Z="83" value=".00000000000000000E+000"/>
    <e0 Z="84" value=".00000000000000000E+000"/>
    <e0 Z="85" value=".00000000000000000E+000"/>
    <e0 Z="86" value=".00000000000000000E+000"/>
    <e0 Z="87" value=".00000000000000000E+000"/>
    <e0 Z="88" value=".00000000000000000E+000"/>
    <e0 Z="89" value=".00000000000000000E+000"/>
    <e0 Z="90" value=".00000000000000000E+000"/>
    <e0 Z="91" value=".00000000000000000E+000"/>
    <e0 Z="92" value=".00000000000000000E+000"/>
    <e0 Z="93" value=".00000000000000000E+000"/>
    <e0 Z="94" value=".00000000000000000E+000"/>
    <e0 Z="95" value=".00000000000000000E+000"/>
    <e0 Z="96" value=".00000000000000000E+000"/>
    <e0 Z="97" value=".00000000000000000E+000"/>
    <e0 Z="98" value=".00000000000000000E+000"/>
    <e0 Z="99" value=".00000000000000000E+000"/>
    <e0 Z="100" value=".00000000000000000E+000"/>
    <e0 Z="101" value=".00000000000000000E+000"/>
    <e0 Z="102" value=".00000000000000000E+000"/>
    <e0 Z="103" value=".00000000000000000E+000"/>
    <e0 Z="104" value=".00000000000000000E+000"/>
    <e0 Z="105" value=".00000000000000000E+000"/>
    <e0 Z="106" value=".00000000000000000E+000"/>
    <e0 Z="107" value=".00000000000000000E+000"/>
    <e0 Z="108" value=".00000000000000000E+000"/>
    <e0 Z="109" value=".00000000000000000E+000"/>
    <e0 Z="110" value=".00000000000000000E+000"/>
    <e0 Z="111" value=".00000000000000000E+000"/>
    <e0 Z="112" value=".00000000000000000E+000"/>
    <e0 Z="113" value=".00000000000000000E+000"/>
    <e0 Z="114" value=".00000000000000000E+000"/>
    <e0 Z="115" value=".00000000000000000E+000"/>
    <e0 Z="116" value=".00000000000000000E+000"/>
    <e0 Z="117" value=".00000000000000000E+000"/>
    <e0 Z="118" value=".00000000000000000E+000"/>
  </GAP_data>
  <gpSparse label="GAP_2023_3_22_60_12_47_43_553" n_coordinate="2" fitted="T">
    <gpCoordinates label="GAP_2023_3_22_60_12_47_43_5531" dimensions="681" signal_variance=".72770126504682189E-001" signal_mean=".00000000000000000E+000" sparsified="T" n_permutations="1" covariance_type="2" zeta="4.0000000000000000" n_sparseX="18">
      <descriptor> soap=T l_max=4 n_max=8 cutoff=4 delta=0.07277012650468219 covariance_type=dot_product zeta=4 n_sparse=1000 sparse_method=cur_points atom_gaussian_width=0.3 cutoff_transition_width=0.5               n_species=2 Z=8 species_Z={8 6 }</descriptor>
      <permutation i="1">1  </permutation>
      <sparseX i="1" alpha="-10911.922661390108" sparseCutoff="1.0000000000000000" sliced="T">
        <sparseX_slice start="1" end="50">  0.95365320122110053E+000  0.32358325485056935E-010  0.39556792205062132E-010  0.43109951521751950E-010  0.43775291737898122E-010 -0.27710664206324648E-003 -0.21025705998663784E-008 -0.25868591100350624E-008 -0.28453532673243306E-008 -0.29229942104362422E-008  0.40259966084759775E-007  0.68310134426826060E-007  0.84585221426461230E-007  0.93899841336961769E-007  0.97588100673318632E-007  0.25406577838807259E-001  0.19158403241130489E-006  0.23287020549414729E-006  0.25167987661049922E-006  0.25284132829161871E-006 -0.52202059603361730E-005 -0.88025572912098596E-005 -0.10768386594665203E-004 -0.11746058361242031E-004 -0.11938010909537671E-004  0.33843235499700120E-003  0.56715607072940202E-003  0.68545159483314564E-003  0.73466517653952000E-003  0.73019201876528290E-003  0.12948044980589751E+000  0.97685883282632730E-006  0.11885385414033798E-005  0.12864206860879099E-005  0.12948528015982338E-005 -0.26603922028071388E-004 -0.44882946314218747E-004 
-0.54960412257689014E-004 -0.60038063668008240E-004 -0.61137026039890263E-004  0.24391859061591347E-002  0.40896870915652543E-002  0.49475607105319390E-002  0.53105435551441616E-002  0.52884014674179280E-002  0.87899809178381832E-002  0.14745095195230182E-001  0.17855642301304934E-001  0.19193691052515897E-001  0.19150572289107715E-001  </sparseX_slice>
        <sparseX_slice start="51" end="100">  0.23968150973813548E-001  0.18174518479182612E-006  0.22337553750488647E-006  0.24545206994406036E-006  0.25206099934667938E-006 -0.49246571248421442E-005 -0.83504996809805656E-005 -0.10329334053446389E-004 -0.11455402701553616E-004 -0.11901167346340719E-004  0.45151817235467701E-003  0.76088879090825462E-003  0.92985123709004441E-003  0.10132641073288425E-002  0.10294604585003718E-002  0.23010881836561790E-002  0.38796601514344887E-002  0.47458369811972595E-002  0.51791344055508283E-002  0.52720801928645613E-002  0.30119558156358042E-003  0.51039897305979064E-003  0.63069612036452730E-003  0.69875651112046857E-003  0.72569187856082282E-003 -0.12570020039914095E-002 -0.95314083026245619E-008 -0.11714267236501148E-007 -0.12871347895374917E-007 -0.13217003026846899E-007  0.25827206619569354E-006  0.43793194345989369E-006  0.54169127393600861E-006  0.60071391325776165E-006  0.62404642228388830E-006 -0.23679725987559730E-004 -0.39903900328054650E-004 
-0.48763288957841609E-004 -0.53134914846301318E-004 -0.53980512777800576E-004 -0.12067983305749979E-003 -0.20346412490157724E-003 -0.24888133803549744E-003 -0.27159046059763582E-003 -0.27644538444058364E-003 -0.22339067114400962E-004 -0.37854625188528809E-004 -0.46775094556859174E-004 -0.51820093886608220E-004 -0.53813915976289549E-004  </sparseX_slice>
        <sparseX_slice start="101" end="150">  0.82842171347783825E-006  0.14037769703703284E-005  0.17345195254559018E-005  0.19215006140772329E-005  0.19952941725393946E-005  0.63842428367605577E-004  0.48409487951244915E-009  0.59496102426241494E-009  0.65372843876104956E-009  0.67128398384245508E-009 -0.13117493713689208E-007 -0.22242317679906084E-007 -0.27512194204581010E-007 -0.30509917985912578E-007 -0.31694958955706381E-007  0.12026800317938410E-005  0.20266967071452814E-005  0.24766599360445381E-005  0.26986921034630381E-005  0.27416392047225844E-005  0.61292611888633741E-005  0.10333828737796615E-004  0.12640542750809505E-004  0.13793925021068298E-004  0.14040502117249278E-004  0.11345887178553963E-005  0.19226151726795462E-005  0.23756806640713449E-005  0.26319130947518112E-005  0.27331778489684420E-005 -0.59503142049149040E-007 -0.10082924750176898E-006 -0.12458552300925729E-006 -0.13801582150300855E-006 -0.14331618138608588E-006  0.21369695265815393E-008  0.36211368922411402E-008  
0.44743089702061679E-008  0.49566382767715035E-008  0.51469923908385369E-008 -0.31799589289504753E-005 -0.24112520056705559E-010 -0.29634706410019705E-010 -0.32561881470185366E-010 -0.33436314245913514E-010  0.65337569899617801E-009  0.11078785458431191E-008  0.13703684186018186E-008  0.15196835172188232E-008  0.15787098056298137E-008  </sparseX_slice>
        <sparseX_slice start="151" end="200"> -0.59904881495921457E-007 -0.10094873353983282E-006 -0.12336117340312737E-006 -0.13442048285986911E-006 -0.13655965612838902E-006 -0.30529538652833506E-006 -0.51472276045066758E-006 -0.62961901369579650E-006 -0.68706839860889893E-006 -0.69935027836585468E-006 -0.56513287734860877E-007 -0.95764485175410288E-007 -0.11833144715823100E-006 -0.13109425435668130E-006 -0.13613820029635418E-006  0.29638212815195983E-008  0.50222536027184116E-008  0.62055416182853450E-008  0.68744979632649710E-008  0.71385061951279103E-008 -0.15053082434154420E-009 -0.25507744244042794E-009 -0.31517595789635132E-009 -0.34915184154148158E-009 -0.36256062494771927E-009  0.53017904081189118E-011  0.89839881200515843E-011  0.11100695671370391E-010  0.12297347682511517E-010  0.12769613473341970E-010  0.44332081725269985E-001  0.30071669713477379E-006  0.30475533493111102E-006  0.25156197343381128E-006  0.17740771379104858E-006 -0.91087669785608995E-005 -0.13816787973589245E-004 
-0.14092499537934057E-004 -0.11740555745725035E-004 -0.83763807008281711E-005  0.83513912020753743E-003  0.12589712588583120E-002  0.12686130646212114E-002  0.10384867339166680E-002  0.72456360505674387E-003  0.42561493177488852E-002  0.64193094748623385E-002  0.64748322707520491E-002  0.53080557521321620E-002  0.37106402670917353E-002  </sparseX_slice>
        <sparseX_slice start="201" end="250">  0.78785661903263177E-003  0.11943164636892788E-002  0.12168887153002766E-002  0.10127894287065907E-002  0.72232742809431633E-003 -0.41318888138843502E-004 -0.62634494944160767E-004 -0.63816117768930567E-004 -0.53110023006167756E-004 -0.37875767485815466E-004  0.20985632066273548E-005  0.31811708533110929E-005  0.32411846192092051E-005  0.26974278610604036E-005  0.19236884517105480E-005 -0.10452836738064516E-006 -0.15845250435518865E-006 -0.16144175953376662E-006 -0.13435751158797186E-006 -0.95817944611835602E-007  0.10304235688505608E-002  0.13973302168773856E-002  0.11739553309518379E-002  0.73397700813909153E-003  0.35948928794138303E-003  0.16853226607128724E+000  0.11770183470555500E-005  0.12286463522517632E-005  0.10641749462451007E-005  0.80593482633677712E-006 -0.34627770234780950E-004 -0.54079514364320493E-004 -0.56815078086512493E-004 -0.49665715008718750E-004 -0.38052555783475226E-004  0.31748540320209904E-002  0.49276687467331905E-002  
0.51145185518019420E-002  0.43930787676571981E-002  0.32915763961601781E-002  0.16180121964566158E-001  0.25125458943020530E-001  0.26103822112580159E-001  0.22454506408845120E-001  0.16856844357845069E-001  0.29951054896920405E-002  0.46746070415995900E-002  0.49059875571595430E-002  0.42843722409222542E-002  0.32814178024138264E-002  </sparseX_slice>
        <sparseX_slice start="251" end="300"> -0.15707734847055435E-003 -0.24515416140925139E-003 -0.25727995977294131E-003 -0.22466971103061103E-003 -0.17206354469459967E-003  0.79778706287355448E-005  0.12451242299284150E-004  0.13067104010717616E-004  0.11410846837704829E-004  0.87390084970117597E-005 -0.39737368374809535E-006 -0.62019005442644608E-006 -0.65086581338143319E-006 -0.56836848479158168E-006 -0.43528557411906098E-006  0.55398208017756797E-002  0.77346334735796905E-002  0.66933286332542669E-002  0.43910207646530542E-002  0.23095553529834593E-002  0.14891747162781247E-001  0.21406734874849186E-001  0.19081070212619278E-001  0.13134650773665957E-001  0.74189219365060743E-002  0.16606914945215284E+000  0.12123841841593394E-005  0.13807259862501741E-005  0.13519105480144748E-005  0.11888182391734393E-005 -0.34121681766755600E-004 -0.55704440008381273E-004 -0.63847546188625442E-004 -0.63094516772717923E-004 -0.56130559052992958E-004  0.31284532097221370E-002  0.50757302706969923E-002  
0.57475844523441188E-002  0.55808958341012427E-002  0.48553380838177495E-002  0.15943647797099097E-001  0.25880402899807364E-001  0.29334906228497798E-001  0.28525839827077314E-001  0.24865191790508476E-001  0.29513317110578599E-002  0.48150648276409106E-002  0.55132418665270744E-002  0.54427968301268160E-002  0.48403533466710629E-002  </sparseX_slice>
        <sparseX_slice start="301" end="350"> -0.15478164666503933E-003 -0.25252030158829362E-003 -0.28912561010648600E-003 -0.28541674771930897E-003 -0.25380747120648420E-003  0.78612732187023162E-005  0.12825364425755567E-004  0.14684526625229146E-004  0.14496154279991624E-004  0.12890735521085353E-004 -0.39156602597867699E-006 -0.63882488751388705E-006 -0.73142881224576683E-006 -0.72204608129514250E-006 -0.64208098825299246E-006  0.54588557438555035E-002  0.79670357875864621E-002  0.75218168039234250E-002  0.55782813805483151E-002  0.34067786107310647E-002  0.20752315092476693E-001  0.31183327640216574E-001  0.30324826899373492E-001  0.23597633645718499E-001  0.15476449525984046E-001  0.14459639187729941E-001  0.22712476433282912E-001  0.24097053158705712E-001  0.21197682499255594E-001  0.16142540114334553E-001 -0.10136832415908180E-001 -0.73956858085441397E-007 -0.84115397709659046E-007 -0.82187437670122576E-007 -0.72053866617245609E-007  0.20827816060935901E-005  0.33980362151337635E-005  
0.38896651427758104E-005  0.38357394815805038E-005  0.34020539741784128E-005 -0.19096024765936592E-003 -0.30962550337969519E-003 -0.35014938292845312E-003 -0.33928245414039895E-003 -0.29428037957785500E-003 -0.97319752856337674E-003 -0.15787349500787813E-002 -0.17871158569898575E-002 -0.17341869890867324E-002 -0.15070707646033536E-002  </sparseX_slice>
        <sparseX_slice start="351" end="400"> -0.18014878174208199E-003 -0.29372460543681698E-003 -0.33587296602704853E-003 -0.33088692582817158E-003 -0.29337215978774442E-003  0.94478451806238088E-005  0.15404034754220962E-004  0.17613861058850495E-004  0.17351496515536209E-004  0.15383183967203896E-004 -0.47985076973379680E-006 -0.78236228179384753E-006 -0.89459806620560079E-006 -0.88127263900195240E-006 -0.78130306823040350E-006  0.23901123105665083E-007  0.38969067861993251E-007  0.44559475269561987E-007  0.43895742502014552E-007  0.38916308953349381E-007 -0.33320761887820760E-003 -0.48599853314048685E-003 -0.45823763604212772E-003 -0.33912351223500559E-003 -0.20648368566650920E-003 -0.12667177559981854E-002 -0.19022195827459107E-002 -0.18474229503312829E-002 -0.14345838541375969E-002 -0.93802230913711472E-003 -0.12482045440816490E-002 -0.19593755209412009E-002 -0.20760936378824524E-002 -0.18224720016789303E-002 -0.13836578261823421E-002  0.53874601006232797E-004  0.84516376788347500E-004  
0.89433441609411659E-004  0.78343568855233201E-004  0.59300115297702217E-004  0.57205366527240985E-003  0.41736159219775898E-008  0.47468831295333896E-008  0.46380656703948661E-008  0.40661786251419451E-008 -0.11753798453429884E-006 -0.19176177055215556E-006 -0.21950542170064974E-006 -0.21646144610934930E-006 -0.19198635411014221E-006  </sparseX_slice>
        <sparseX_slice start="401" end="450">  0.10776493594136268E-004  0.17473131825893589E-004  0.19759975508607010E-004  0.19146652429194271E-004  0.16606972608347640E-004  0.54920629088732200E-004  0.89092931944446222E-004  0.10085228558685901E-003  0.97864994555640761E-004  0.85047745767189472E-004  0.10166368216583020E-004  0.16575794614090086E-004  0.18954314661904729E-004  0.18672869418631754E-004  0.16555719510202385E-004 -0.53317192617491892E-006 -0.86929767403908286E-006 -0.99400278882116507E-006 -0.97919320275804641E-006 -0.86811127245043139E-006  0.27079503768772975E-007  0.44151141091975342E-007  0.50484840871137269E-007  0.49732665831716621E-007  0.44090872356264526E-007 -0.13488163279946878E-008 -0.21991459116008157E-008 -0.25146242801828332E-008 -0.24771588231311626E-008 -0.21961439554120408E-008  0.18803964774719369E-004  0.27426411403652903E-004  0.25859718470972143E-004  0.19137682895456630E-004  0.11652387144713417E-004  0.71484908248774958E-004  0.10734817761557583E-003  
0.10425559498999266E-003  0.80957556456309271E-004  0.52934928302747475E-004  0.70440148870470621E-004  0.11057366528315416E-003  0.11716016488458164E-003  0.10284716333620010E-003  0.78083247179776123E-004 -0.42996546125944424E-005 -0.67451233513110285E-005 -0.71375305188253233E-005 -0.62524438755635459E-005 -0.47325988884934911E-005  </sparseX_slice>
        <sparseX_slice start="451" end="500">  0.17157463296541055E-006  0.26915901244996383E-006  0.28481707172611862E-006  0.24949753367318515E-006  0.18884863989663852E-006 -0.30264853207869665E-004 -0.22080773298728397E-009 -0.25113678831534664E-009 -0.24537973172539016E-009 -0.21512369200271836E-009  0.62184198165839039E-008  0.10145275133315570E-007  0.11613070117680728E-007  0.11452026631326267E-007  0.10157156661771909E-007 -0.57013706321900930E-006 -0.92442685162926733E-006 -0.10454137274934921E-005 -0.10129654839740535E-005 -0.87860214462935584E-006 -0.29056098725681969E-005 -0.47135166952598121E-005 -0.53356525546133629E-005 -0.51776080409239738E-005 -0.44995035271741606E-005 -0.53785800251016475E-006 -0.87695267116620806E-006 -0.10027897420295562E-005 -0.98789970088910218E-006 -0.87589056781091232E-006  0.28207790736830542E-007  0.45990731366756440E-007  0.52588332417104071E-007  0.51804821767355224E-007  0.45927963135705886E-007 -0.14326579065158111E-008 -0.23358434402132167E-008 
-0.26709317354175186E-008 -0.26311374325012850E-008 -0.23326548386863125E-008  0.71359962621160467E-010  0.11634717528553588E-009  0.13303775305017543E-009  0.13105561901398397E-009  0.11618835260617676E-009 -0.99483539426642897E-006 -0.14510112667836681E-005 -0.13681244021226562E-005 -0.10124909452463482E-005 -0.61647674003211256E-006  </sparseX_slice>
        <sparseX_slice start="501" end="550"> -0.37819533132384765E-005 -0.56793217638436256E-005 -0.55157067438199152E-005 -0.42831095754409690E-005 -0.28005550818586338E-005 -0.37266796717229234E-005 -0.58499681848298048E-005 -0.61984309966574932E-005 -0.54411927604305829E-005 -0.41310424271604405E-005  0.22747588835523644E-006  0.35685492478590765E-006  0.37761546726278068E-006  0.33078940874142994E-006  0.25038106770952313E-006 -0.12837187235185440E-007 -0.20138435223977787E-007 -0.21309968683590115E-007 -0.18667366258232610E-007 -0.14129625424113006E-007  0.48023817175943002E-009  0.75337728723785799E-009  0.79720425911173991E-009  0.69834470483275428E-009  0.52858817181583076E-009  0.15371589288715674E-005  0.11214876080609508E-010  0.12755295849989452E-010  0.12462893607533492E-010  0.10926182317473608E-010 -0.31583498782833437E-009 -0.51528088208022844E-009 -0.58983053049037345E-009 -0.58165109438047064E-009 -0.51588434765362394E-009  0.28957393957550351E-007  0.46951854658130414E-007  
0.53096806203780239E-007  0.51448752372916611E-007  0.44624407136998888E-007  0.14757660077710877E-006  0.23940060851160077E-006  0.27099903340878442E-006  0.26297191582131193E-006  0.22853082995339827E-006  0.27317932961543085E-007  0.44540629998021420E-007  0.50931924075019953E-007  0.50175655424033857E-007  0.44486685520145213E-007  </sparseX_slice>
        <sparseX_slice start="551" end="600"> -0.14326802478455452E-008 -0.23358799357107539E-008 -0.26709736265141320E-008 -0.26311789384721120E-008 -0.23326919225827912E-008  0.72765028063859568E-010  0.11863803124686960E-009  0.13565724364363995E-009  0.13363608174761617E-009  0.11847608142994113E-009 -0.36243890876872118E-011 -0.59093000752441083E-011 -0.67570183992399459E-011 -0.66563453507587352E-011 -0.59012334342325973E-011  0.50527920903857875E-007  0.73697199497465966E-007  0.69487356375489745E-007  0.51424650440640211E-007  0.31310996912360205E-007  0.19208628781679596E-006  0.28845407242636226E-006  0.28014402752838642E-006  0.21754013085264695E-006  0.14224084353353324E-006  0.18927892671699762E-006  0.29712124381147743E-006  0.31481975101486919E-006  0.27635944498960846E-006  0.20981660504321999E-006 -0.11553553241663202E-007 -0.18124744573414269E-007 -0.19179177351032641E-007 -0.16800870954806634E-007 -0.12716912624404866E-007  0.65200372341572638E-009  0.10228358057881013E-008  
0.10823382624925923E-008  0.94811987108037385E-009  0.71764695940379375E-009 -0.34494660515398885E-010 -0.54113761236390358E-010 -0.57261775294628158E-010 -0.50160867944202003E-010 -0.37967555706207997E-010  0.12388453001489820E-011  0.19434479939561368E-011  0.20565061415664735E-011  0.18014833186987889E-011  0.13635712669770665E-011  </sparseX_slice>
        <sparseX_slice start="601" end="650"> -0.76565107602449989E-007 -0.55860729670311641E-012 -0.63533482511950805E-012 -0.62077041753850870E-012 -0.54422760659850479E-012  0.15731580758176341E-010  0.25665879721962130E-010  0.29379159946302445E-010  0.28971746376943867E-010  0.25695938036487092E-010 -0.14423531247181943E-008 -0.23386480971576128E-008 -0.26447250209340316E-008 -0.25626362944368855E-008 -0.22227191150935875E-008 -0.73507157300890963E-008 -0.11924423042084862E-007 -0.13498324580097300E-007 -0.13098497919184672E-007 -0.11383004878163676E-007 -0.13606924029726135E-008 -0.22185462182383965E-008 -0.25368933387170014E-008 -0.24992239802976373E-008 -0.22158592711207029E-008  0.71361077424001338E-010  0.11634899636265244E-009  0.13303984336055819E-009  0.13105769010709847E-009  0.11619020304362257E-009 -0.36243891888879570E-011 -0.59093002405597613E-011 -0.67570185889963287E-011 -0.66563455387705820E-011 -0.59012336022135191E-011  0.18052898453098252E-012  0.29433924340430444E-012  
0.33656366371258708E-012  0.33154919016345354E-012  0.29393744810164241E-012 -0.25167701454084290E-008 -0.36708201758063778E-008 -0.34611300223879328E-008 -0.25614357893989816E-008 -0.15595848956845053E-008 -0.95677206952469709E-008 -0.14367751231749493E-007 -0.13953832104817008E-007 -0.10835563723271279E-007 -0.70849443646027792E-008  </sparseX_slice>
        <sparseX_slice start="651" end="681"> -0.94278874609289135E-008 -0.14799458648104524E-007 -0.15681012326763421E-007 -0.13765323965632571E-007 -0.10450858815039280E-007  0.57547663453899618E-009  0.90278434615027568E-009  0.95530510868271448E-009  0.83684287181281630E-009  0.63342297609605007E-009 -0.32475975192213908E-010 -0.50946933370965285E-010 -0.53910720598570193E-010 -0.47225370510372381E-010 -0.35745631525333034E-010  0.17181615670738277E-011  0.26953790359719296E-011  0.28521800215927741E-011  0.24984874234177799E-011  0.18911447173400957E-011 -0.87265825343066461E-013 -0.13689892772205908E-012 -0.14486288622582495E-012 -0.12689875695464505E-012 -0.96051679747686164E-013  0.30735573973161823E-014  0.48216665611152292E-014  0.51021622015899985E-014  0.44694542407046754E-014  0.33830007296960848E-014  0.00000000000000000E+000  </sparseX_slice>
      </sparseX>
      <sparseX i="2" alpha="-10916.419103968065" sparseCutoff="1.0000000000000000" sliced="T">
        <sparseX_slice start="1" end="50">  0.94559655364105499E+000  0.32084956062734753E-010  0.39222608736915421E-010  0.42745750273165066E-010  0.43405469565860806E-010 -0.27476559129727124E-003 -0.20848076748181551E-008 -0.25650048215346972E-008 -0.28213151699465729E-008 -0.28983001872820764E-008  0.39919842067020237E-007  0.67733037135569877E-007  0.83870629037277696E-007  0.93106557228540165E-007  0.96763657433234911E-007  0.25191938131626318E-001  0.18996549327241719E-006  0.23090287274136376E-006  0.24955363610059079E-006  0.25070527561218778E-006 -0.51761046458710930E-005 -0.87281915764955055E-005 -0.10677413171949465E-004 -0.11646825377438274E-004 -0.11837156273301215E-004  0.33557321268991888E-003  0.56236462602088605E-003  0.67966076654705631E-003  0.72845858235084427E-003  0.72402321468281229E-003  0.12838657380227672E+000  0.96860613956062132E-006  0.11784975368210773E-005  0.12755527541245717E-005  0.12839136334843388E-005 -0.26379166924483695E-004 -0.44503766461055408E-004 
-0.54496096013747044E-004 -0.59530850438144258E-004 -0.60620528562332621E-004  0.24185791895844138E-002  0.40551366202123424E-002  0.49057627561239882E-002  0.52656790511216361E-002  0.52437240240556801E-002  0.87157214507702068E-002  0.14620525765410116E-001  0.17704794365018695E-001  0.19031539020338589E-001  0.18988784532623527E-001  </sparseX_slice>
        <sparseX_slice start="51" end="100">  0.23765663376336725E-001  0.18020976614974208E-006  0.22148841755250152E-006  0.24337844315520266E-006  0.24993153903782705E-006 -0.48830526643772601E-005 -0.82799530368118064E-005 -0.10242069831925796E-004 -0.11358625233249894E-004 -0.11800623971686452E-004  0.44770365908508380E-003  0.75446065452900758E-003  0.92199567312873070E-003  0.10047038552290172E-002  0.10207633764781970E-002  0.22816481434795332E-002  0.38468840284891339E-002  0.47057432280583882E-002  0.51353800715625572E-002  0.52275406348016714E-002  0.29865102275518189E-003  0.50608702334275038E-003  0.62536787696810950E-003  0.69285328031586221E-003  0.71956109253737161E-003 -0.12463826067717469E-002 -0.94508851129184514E-008 -0.11615302830297595E-007 -0.12762608246894301E-007 -0.13105343216639842E-007  0.25609013358702138E-006  0.43423220929239647E-006  0.53711496077971645E-006  0.59563896537382344E-006  0.61877435682918019E-006 -0.23479675060420249E-004 -0.39566784423026751E-004 
-0.48351327215906272E-004 -0.52686020759263974E-004 -0.53524474915101627E-004 -0.11966030637451055E-003 -0.20174522043251510E-003 -0.24677874012334793E-003 -0.26929601160471505E-003 -0.27410992010751565E-003 -0.22150342333970026E-004 -0.37534821958142565E-004 -0.46379929467615637E-004 -0.51382307662565038E-004 -0.53359285555746734E-004  </sparseX_slice>
        <sparseX_slice start="101" end="150">  0.82142304584415085E-006  0.13919175897099622E-005  0.17198659674125664E-005  0.19052674034586989E-005  0.19784375395976871E-005  0.63303075125406533E-004  0.48000515188972170E-009  0.58993467790274509E-009  0.64820561386264071E-009  0.66561284628739557E-009 -0.13006674577498678E-007 -0.22054410257500364E-007 -0.27279765841129533E-007 -0.30252164269368817E-007 -0.31427193782745005E-007  0.11925195571524157E-005  0.20095747794883504E-005  0.24557366315825182E-005  0.26758930281001983E-005  0.27184773039018214E-005  0.60774799991588846E-005  0.10246526544309119E-004  0.12533752989045616E-004  0.13677391261733122E-004  0.13921885226684953E-004  0.11250034918672151E-005  0.19063725460533326E-005  0.23556104521236018E-005  0.26096781814326180E-005  0.27100874313254982E-005 -0.59000447941079623E-007 -0.99977422423383282E-007 -0.12353300029851085E-006 -0.13684983702049812E-006 -0.14210541843319366E-006  0.21189159927152250E-008  0.35905448240317195E-008  
0.44365091384738041E-008  0.49147636333197967E-008  0.51035095988371410E-008 -0.31530940179149245E-005 -0.23908812801159298E-010 -0.29384346650960615E-010 -0.32286792367341070E-010 -0.33153837765039698E-010  0.64785585411185547E-009  0.10985189725790410E-008  0.13587912798795215E-008  0.15068449355250176E-008  0.15653725583801473E-008  </sparseX_slice>
        <sparseX_slice start="151" end="200"> -0.59398793414930324E-007 -0.10009589902017623E-006 -0.12231899423579770E-006 -0.13328487249694595E-006 -0.13540597361395936E-006 -0.30271619177082455E-006 -0.51037428253744993E-006 -0.62429986990584462E-006 -0.68126391125029697E-006 -0.69344203130016466E-006 -0.56035852497096782E-007 -0.94955448193460396E-007 -0.11733176009571191E-006 -0.12998674461858338E-006 -0.13498807832270069E-006  0.29387823433344516E-008  0.49798246282412052E-008  0.61531159966885068E-008  0.68164208684585476E-008  0.70781987074704727E-008 -0.14925911068284659E-009 -0.25292249863409404E-009 -0.31251329015170075E-009 -0.34620213892881090E-009 -0.35949764232692522E-009  0.52569998523835708E-011  0.89080896424353061E-011  0.11006914836992598E-010  0.12193457299382278E-010  0.12661733297030094E-010  0.18396609810966597E-001  0.12729879214450122E-006  0.13176270221368277E-006  0.11211287394314293E-006  0.82128475956214259E-007 -0.37798908926057531E-005 -0.58488951132843282E-005 
-0.60929723198545690E-005 -0.52323784408903839E-005 -0.38777309412730543E-005  0.34656005164707679E-003  0.53294520099586703E-003  0.54849207314404272E-003  0.46281928346320213E-003  0.33542681625861338E-003  0.17661863654646836E-002  0.27174092770295773E-002  0.27994305548990493E-002  0.23656253657850469E-002  0.17177901876179907E-002  </sparseX_slice>
        <sparseX_slice start="201" end="250">  0.32693909790094375E-003  0.50557566212493645E-003  0.52612875655661895E-003  0.45136684214081024E-003  0.33439160870214323E-003 -0.17146216314042272E-004 -0.26514309411289861E-004 -0.27591261442303035E-004 -0.23669385452545573E-004 -0.17534068800107113E-004  0.87084673161125285E-006  0.13466468975292773E-005  0.14013446028663240E-005  0.12021546246827952E-005  0.89054527211616876E-006 -0.43376433364801268E-007 -0.67075797948282107E-007 -0.69800262860399604E-007 -0.59878711215230424E-007 -0.44357607637600216E-007  0.17895330267109940E-003  0.25253240879874992E-003  0.22131890577578380E-003  0.14702393130857985E-003  0.77698578432101534E-004  0.10897275445498232E+000  0.77824332653352208E-006  0.85011746360591438E-006  0.78712837377379886E-006  0.64970368210133300E-006 -0.22390273335090551E-004 -0.35757319553677156E-004 -0.39311141069160046E-004 -0.36735776974514288E-004 -0.30676035825704893E-004  0.20528566839271680E-002  0.32581695324515772E-002  
0.35388063708118346E-002  0.32493876673636581E-002  0.26535015420830876E-002  0.10462046817495014E-001  0.16612927740178106E-001  0.18061596816770088E-001  0.16608715677672796E-001  0.13589130894964593E-001  0.19366314991392990E-002  0.30908453919960810E-002  0.33945208814000786E-002  0.31689817229187249E-002  0.26453122002823666E-002  </sparseX_slice>
        <sparseX_slice start="251" end="300"> -0.10156601892530803E-003 -0.16209568063739569E-003 -0.17801557497644101E-003 -0.16617935321982629E-003 -0.13870888177349309E-003  0.51584812651310334E-005  0.82327486659071331E-005  0.90413106244177064E-005  0.84401548320945066E-005  0.70449443464685318E-005 -0.25694133162391794E-006 -0.41006902929531321E-006 -0.45034308969831591E-006 -0.42039982496941394E-006 -0.35090509930708694E-006  0.14991146459125116E-002  0.21833494017164377E-002  0.20193888646480823E-002  0.14597991663671968E-002  0.86925987922112163E-003  0.62791373169564209E-002  0.94384214538073257E-002  0.92127949313015028E-002  0.72471657748482592E-002  0.48624617906222450E-002  0.23262771058431983E+000  0.17035747968030969E-005  0.19528650431761620E-005  0.19328644242379623E-005  0.17267500221295411E-005 -0.47797250343442323E-004 -0.78272779625634340E-004 -0.90304406729511787E-004 -0.90208000088158282E-004 -0.81529237097075464E-004  0.43823004468238605E-002  0.71321337555435536E-002  
0.81292427834786241E-002  0.79791632878040385E-002  0.70523439727067901E-002  0.22333674241346673E-001  0.36365702132441474E-001  0.41490573429465487E-001  0.40784193195508495E-001  0.36116513912478561E-001  0.41341907355050478E-002  0.67658611787565484E-002  0.77977943653804839E-002  0.77817192688954687E-002  0.70305787487667231E-002  </sparseX_slice>
        <sparseX_slice start="301" end="350"> -0.21681630948879681E-003 -0.35482747720370791E-003 -0.40893218689782283E-003 -0.40806832860249795E-003 -0.36865354356201163E-003  0.11011979029081729E-004  0.18021488469582903E-004  0.20769435070807476E-004  0.20725558312428139E-004  0.18723701498537295E-004 -0.54850108202826764E-006 -0.89764118681063393E-006 -0.10345150111108355E-005 -0.10323295318950863E-005 -0.93261806064287678E-006  0.32002091690369891E-002  0.47793522752668663E-002  0.46388812031022521E-002  0.35846679769344007E-002  0.23102755256469167E-002  0.18956514899509495E-001  0.29218651259134594E-001  0.29929516138451809E-001  0.25167438635408938E-001  0.18276176419998708E-001  0.28614556347169261E-001  0.45226290518026464E-001  0.48615862122272362E-001  0.43699839850864786E-001  0.34346658021982390E-001 -0.12962770752904669E-001 -0.94725436214285680E-007 -0.10810947891998291E-006 -0.10626419664287921E-006 -0.94003697815725113E-007  0.26634178587965680E-005  0.43522733534545484E-005  
0.49991997090733167E-005  0.49594169875148811E-005  0.44384245947588168E-005 -0.24419599848977941E-003 -0.39657459267436061E-003 -0.45003017715271136E-003 -0.43867503898786819E-003 -0.38392726405486906E-003 -0.12445047863534411E-002 -0.20220755814177797E-002 -0.22968941398303151E-002 -0.22422159936837500E-002 -0.19661710244538023E-002  </sparseX_slice>
        <sparseX_slice start="351" end="400"> -0.23037052042735670E-003 -0.37620840172425472E-003 -0.43168138449309990E-003 -0.42782004585531421E-003 -0.38274237249098743E-003  0.12081708186589298E-004  0.19729798551851079E-004  0.22638249270533281E-004  0.22434606675242069E-004  0.20069376495481974E-004 -0.61362319790375802E-006 -0.10020653978419182E-005 -0.11497839089359268E-005 -0.11394409128894907E-005 -0.10193120921403965E-005  0.30564259804617820E-007  0.49912368476048956E-007  0.57270152475151832E-007  0.56754973086537276E-007  0.50771417533871369E-007 -0.17832603740702520E-003 -0.26575072015973234E-003 -0.25680577948357922E-003 -0.19707634846172350E-003 -0.12577063246024716E-003 -0.10563185112346910E-002 -0.16246715385250647E-002 -0.16568806970873535E-002 -0.13836447164187840E-002 -0.99494897547107268E-003 -0.22549577474237042E-002 -0.35564063214558054E-002 -0.38061380133642187E-002 -0.33976638846451327E-002 -0.26443257330108255E-002  0.88850485413330711E-004  0.13983045899209346E-003  
0.14899135739217248E-003  0.13208423546194533E-003  0.10179241569569819E-003  0.73142323469310895E-003  0.53448559164928941E-008  0.61000027174545599E-008  0.59958158807239633E-008  0.53039478301740753E-008 -0.15028312563375828E-006 -0.24557579160451194E-006 -0.28207639251518543E-006 -0.27982850360038485E-006 -0.25042815384677627E-006  </sparseX_slice>
        <sparseX_slice start="401" end="450">  0.13778738397767722E-004  0.22376609099918303E-004  0.25392642079053412E-004  0.24751655292515831E-004  0.21662234852934165E-004  0.70221076479480386E-004  0.11409504212245267E-003  0.12960066623797755E-003  0.12651405353510638E-003  0.11093679058610812E-003  0.12998636976678417E-004  0.21227452542329594E-004  0.24357324119853146E-004  0.24139176750678777E-004  0.21595380003760456E-004 -0.68170935449685547E-006 -0.11132482967143167E-005 -0.12773475873551871E-005 -0.12658428260016027E-005 -0.11323695598105667E-005  0.34623636632077766E-007  0.56541256334277528E-007  0.64875763337883155E-007  0.64291437158361333E-007  0.57512398820484116E-007 -0.17245857539588736E-008 -0.28162912583679506E-008 -0.32314288184298127E-008 -0.32023238277134652E-008 -0.28646633709189251E-008  0.10062031458901164E-004  0.14994909136599791E-004  0.14490088828078836E-004  0.11119770695608728E-004  0.70963258748057314E-005  0.59602681948252523E-004  0.91671631528825976E-004  
0.93488349548068086E-004  0.78070311789624531E-004  0.56137764600797886E-004  0.12723579866961345E-003  0.20066921967701735E-003  0.21475870993433612E-003  0.19170866312932011E-003  0.14920014914062291E-003 -0.70899914957427446E-005 -0.11157995178348974E-004 -0.11888917928894720E-004 -0.10539677186592741E-004 -0.81224065754342587E-005  </sparseX_slice>
        <sparseX_slice start="451" end="500">  0.28287959922705425E-006  0.44518503800055002E-006  0.47434419013964958E-006  0.42050739366844438E-006  0.32405895923465019E-006 -0.38696388774121176E-004 -0.28277283435634089E-009 -0.32272432833995217E-009 -0.31721225436830646E-009 -0.28060854987503020E-009  0.79508196894429254E-008  0.12992335757270600E-007  0.14923421928081797E-007  0.14804495706574287E-007  0.13249052092678396E-007 -0.72897249166639659E-006 -0.11838480358175247E-005 -0.13434130670615333E-005 -0.13095012473495329E-005 -0.11460535630748645E-005 -0.37150885379343960E-005 -0.60362671980392447E-005 -0.68566015297636939E-005 -0.66933022843753510E-005 -0.58691776259677175E-005 -0.68770075398857732E-006 -0.11230512132304426E-005 -0.12886389450689097E-005 -0.12770977007975191E-005 -0.11425165670712417E-005  0.36066245863291337E-007  0.58897074331394585E-007  0.67578845662855565E-007  0.66970177954068931E-007  0.59908692595613430E-007 -0.18317844448172925E-008 -0.29913493574964412E-008 
-0.34322914461744253E-008 -0.34013772476148202E-008 -0.30427280489146105E-008  0.91240252762142945E-010  0.14899759206684879E-009  0.17096069351282143E-009  0.16942087295777303E-009  0.15155673851477025E-009 -0.53233786229726048E-006 -0.79331473546144785E-006 -0.76660690187025704E-006 -0.58829817335664575E-006 -0.37543538830481627E-006  </sparseX_slice>
        <sparseX_slice start="501" end="550"> -0.31533159506719775E-005 -0.48499431008956916E-005 -0.49460576024301912E-005 -0.41303569180034831E-005 -0.29700021987845796E-005 -0.67314869117755115E-005 -0.10616526413939088E-004 -0.11361939269370422E-004 -0.10142462414279992E-004 -0.78935236227831390E-005  0.37510028983368170E-006  0.59032048227530917E-006  0.62899038426861912E-006  0.55760797649270138E-006  0.42972080488076997E-006 -0.21165001877626882E-007 -0.33308666060703645E-007 -0.35490348224980329E-007 -0.31462288016999091E-007 -0.24246032694330302E-007  0.79178085960238310E-009  0.12460742613076089E-008  0.13276907816237205E-008  0.11770013823408389E-008  0.90704188954217264E-009  0.19653985790969877E-005  0.14362097974801470E-010  0.16391243638780316E-010  0.16111284120147109E-010  0.14252173461419508E-010 -0.40382397984222161E-009 -0.65988375259659217E-009 -0.75796406798880668E-009 -0.75192377753218172E-009 -0.67292243485927484E-009  0.37024682269061803E-007  0.60127916871468399E-007  
0.68232261890498118E-007  0.66509872683667969E-007  0.58208326810765847E-007  0.18869021024925323E-006  0.30658341384756846E-006  0.34824838519766861E-006  0.33995437856065155E-006  0.29809689561642845E-006  0.34928481120620355E-007  0.57040032122780156E-007  0.65450271504772884E-007  0.64864089023640262E-007  0.58028681961746021E-007  </sparseX_slice>
        <sparseX_slice start="551" end="600"> -0.18318130093958681E-008 -0.29913960932707453E-008 -0.34323452768040621E-008 -0.34014309022943597E-008 -0.30427764196771484E-008  0.93036757669324235E-010  0.15193132907202807E-009  0.17432688022913424E-009  0.17275674089342998E-009  0.15454086473263382E-009 -0.46341136425394594E-011 -0.75676223288724098E-011 -0.86831333554489734E-011 -0.86049255112848822E-011 -0.76976019708646488E-011  0.27037563744404592E-007  0.40292639784460734E-007  0.38936142708427954E-007  0.29879800946490394E-007  0.19068450622971428E-007  0.16015764998307186E-006  0.24632973724590183E-006  0.25121141511053058E-006  0.20978178776884608E-006  0.15084710190308347E-006  0.34189378468466723E-006  0.53921584389862651E-006  0.57707553605037827E-006  0.51513802315042153E-006  0.40091389925153720E-006 -0.19051430896079246E-007 -0.29982514488241294E-007 -0.31946567796824678E-007 -0.28321038715305750E-007 -0.21825619546763930E-007  0.10749753642306810E-008  0.16917548903263064E-008  
0.18025630344422681E-008  0.15979769202838770E-008  0.12314616353091862E-008 -0.56872222051199284E-010 -0.89503315495858648E-010 -0.95365686135883396E-010 -0.84541932473511312E-010 -0.65151218446185741E-010  0.20425156795689624E-011  0.32144326118833271E-011  0.34249744812739511E-011  0.30362489176270164E-011  0.23398485306809294E-011  </sparseX_slice>
        <sparseX_slice start="601" end="650"> -0.97895507656196123E-007 -0.71536882503353347E-012 -0.81643954269670387E-012 -0.80249490088645302E-012 -0.70989354070387361E-012  0.20114267879731161E-010  0.32868475454072264E-010  0.37753806281373924E-010  0.37452942473423772E-010  0.33517925612851991E-010 -0.18441806690449971E-008 -0.29949410816946398E-008 -0.33986144018529916E-008 -0.33128230679332962E-008 -0.28993272731348844E-008 -0.93985637918757664E-008 -0.15270764544546721E-007 -0.17346075662188550E-007 -0.16932955392909728E-007 -0.14848055370279116E-007 -0.17397699516675265E-008 -0.28411351065241762E-008 -0.32600448699515589E-008 -0.32308474174956689E-008 -0.28903792542039385E-008  0.91241678096880090E-010  0.14899992412024857E-009  0.17096337959012982E-009  0.16942355025540371E-009  0.15155915215192221E-009 -0.46341137719299960E-011 -0.75676225405740025E-011 -0.86831335992885104E-011 -0.86049257543273919E-011 -0.76976021899722917E-011  0.23082285313411615E-012  0.37693943483753607E-012  
0.43250247401146988E-012  0.42860698090965204E-012  0.38341365496417164E-012 -0.13467273542862549E-008 -0.20069559775097907E-008 -0.19393895452833344E-008 -0.14882977495925275E-008 -0.94978986644539059E-009 -0.79773714181272365E-008 -0.12269559434394238E-007 -0.12512713336026950E-007 -0.10449124584229969E-007 -0.75136177345004287E-008  </sparseX_slice>
        <sparseX_slice start="651" end="681"> -0.17029556229546890E-007 -0.26858068045908709E-007 -0.28743840134236724E-007 -0.25658763991008711E-007 -0.19969318239600157E-007  0.94894212247040671E-009  0.14934138590779630E-008  0.15912423594912535E-008  0.14106565924450453E-008  0.10871230539011937E-008 -0.53543978365761171E-010 -0.84265454132176867E-010 -0.89784751660950689E-010 -0.79594420947393749E-010 -0.61338480260367951E-010  0.28327765718626384E-011  0.44581148071274807E-011  0.47501165191350689E-011  0.42109908319623252E-011  0.32451491885875354E-011 -0.14387738043818298E-012 -0.22642868714252883E-012 -0.24125952195249840E-012 -0.21387720299830320E-012 -0.16482188145917893E-012  0.50674520662975180E-014  0.79749611442391203E-014  0.84973124983835999E-014  0.75328899578708211E-014  0.58051305995943776E-014  0.00000000000000000E+000  </sparseX_slice>
      </sparseX>
      <sparseX i="3" alpha="613.50981473546938" sparseCutoff="1.0000000000000000" sliced="T">
        <sparseX_slice start="1" end="50">  0.96285945345574420E+000  0.30123752649967690E-016  0.37456429718846952E-016  0.41889571697730479E-016  0.44054171550284781E-016  0.35189894315748238E-006 -0.25662379158973991E-014 -0.31909068952835180E-014 -0.35685643966800329E-014 -0.37529646882994605E-014  0.64304746529159317E-013  0.10930870926860582E-012  0.13591640862189112E-012  0.15200265050623895E-012  0.15985709702367128E-012 -0.11730349026122819E-004  0.85543512314427581E-013  0.10636495775915448E-012  0.11895128769882614E-012  0.12509439341678474E-012 -0.30314541243770501E-011 -0.51529974140256386E-011 -0.64072449547248723E-011 -0.71654219260001711E-011 -0.75354689947639457E-011  0.71454399591136750E-010  0.12146050633396883E-009  0.15102219197114371E-009  0.16888939504214968E-009  0.17760641857095775E-009  0.67511757972416910E-003 -0.49261542579405203E-011 -0.61323554926774008E-011 -0.68701627285403547E-011 -0.72422786019222079E-011  0.17446948653758294E-009  0.29674325340950014E-009  
0.36940271137046494E-009  0.41384684102716115E-009  0.43626228454859446E-009 -0.58158400622942259E-008 -0.98917017767552084E-008 -0.12313585159477213E-007 -0.13794795099135799E-007 -0.14541561242601424E-007  0.23668238641516796E-006  0.40278839185481650E-006  0.50199370536440348E-006  0.56337572817893298E-006  0.59529662574623103E-006  </sparseX_slice>
        <sparseX_slice start="51" end="100">  0.17637200106555340E-001 -0.12893511811943763E-009 -0.16110880545304574E-009 -0.18151353553702171E-009 -0.19279552620841654E-009  0.45579515909044134E-008  0.77668348220779746E-008  0.97049216456999369E-008  0.10934064629008817E-007  0.11613667650414378E-007 -0.15193669672816604E-006 -0.25890129910819842E-006 -0.32350162971742223E-006 -0.36446618943259151E-006 -0.38710854770419265E-006  0.87444230975545193E-005  0.14909228093187374E-004  0.18651133208549444E-004  0.21050146483430027E-004  0.22411459659255089E-004  0.16153490859036022E-003  0.27593283077384387E-003  0.34648319913746376E-003  0.39326212047346710E-003  0.42186827737247437E-003  0.67441505794883047E-001 -0.49326262698235335E-009 -0.61694190057966204E-009 -0.69607998357822333E-009 -0.74075934075034783E-009  0.17428793503143659E-007  0.29713311652821484E-007  0.37163535464359266E-007  0.41930666519640035E-007  0.44622056131710346E-007 -0.58097881471784649E-006 -0.99046975556306236E-006 
-0.12388007577689573E-005 -0.13976787924078058E-005 -0.14873492048056873E-005  0.33437113455861993E-004  0.57037718837099562E-004  0.71421704960753990E-004  0.80724479169855671E-004  0.86109353307795141E-004  0.87353237231295238E-003  0.14928815929120473E-002  0.18763859308852796E-002  0.21327858156306402E-002  0.22923031541532430E-002  </sparseX_slice>
        <sparseX_slice start="101" end="150">  0.23619006323077549E-002  0.40384745885535143E-002  0.50808007002777723E-002  0.57833886084410653E-002  0.62278370197310275E-002 -0.18255427336027847E-002  0.13339331648042856E-010  0.16652518230520821E-010  0.18735201187196837E-010  0.19861691969831225E-010 -0.47177190010993747E-009 -0.80353891987203417E-009 -0.10031195016084651E-008 -0.11285764447936228E-008 -0.11964338283615943E-008  0.15726245152518433E-007  0.26785334696123865E-007  0.33437755132773403E-007  0.37618943208551389E-007  0.39879715492349133E-007 -0.90509366276089426E-006 -0.15424745488433531E-005 -0.19278172592854412E-005 -0.21727235284147041E-005 -0.23088165845986887E-005 -0.23645241250881209E-004 -0.40372089004474159E-004 -0.50647477326797681E-004 -0.57404568853759285E-004 -0.61462632524006915E-004 -0.90415182977371245E-004 -0.15445010614303814E-003 -0.19394688473850388E-003 -0.22013879695979930E-003 -0.23615184462343961E-003  0.17305777391752554E-005  0.29534462535939822E-005  
0.37017191107017873E-005  0.41896795467087438E-005  0.44772923201402038E-005  0.90854878924379059E-004 -0.66388041083981007E-012 -0.82877141951449202E-012 -0.93242046901761842E-012 -0.98847977249601616E-012  0.23479471652696473E-010  0.39991040205428245E-010  0.49923787008201692E-010  0.56167412746857876E-010  0.59544304697796393E-010  </sparseX_slice>
        <sparseX_slice start="151" end="200"> -0.78267469337590198E-009 -0.13330697123160244E-008 -0.16641480527536928E-008 -0.18722335735810062E-008 -0.19847398780003378E-008  0.45045330153994908E-007  0.76766862404708243E-007  0.95944638788277872E-007  0.10813291360834155E-006  0.11490554257641798E-006  0.11767927923258277E-005  0.20092640127651451E-005  0.25206506966631528E-005  0.28569319581662228E-005  0.30588818468547050E-005  0.44998456355621251E-005  0.76867719182569811E-005  0.96524521246607982E-005  0.10955949619078614E-004  0.11752841701626475E-004 -0.12180422731542731E-006 -0.20787384713855630E-006 -0.26053933899467466E-006 -0.29488266456833648E-006 -0.31512437144760033E-006  0.42865077528903262E-008  0.73154431491009427E-008  0.91688138853562093E-008  0.10377379092302093E-007  0.11089667859472655E-007  0.44760249978672902E-001 -0.29154609169033024E-009 -0.29798344563345613E-009 -0.24917091670556533E-009 -0.17882970425731958E-009  0.11567315184213600E-007  0.17562246579582782E-007  
0.17950018209471550E-007  0.15009629440953409E-007  0.10772390792000321E-007 -0.38558980367631322E-006 -0.58542360676803994E-006 -0.59834178535530556E-006 -0.50031736895224800E-006 -0.35906697869423471E-006  0.22191876340981476E-004  0.33712515597666035E-004  0.34496742265722475E-004  0.28896381091055881E-004  0.20788006763740313E-004  </sparseX_slice>
        <sparseX_slice start="201" end="250">  0.57975466129283097E-003  0.88237739889730792E-003  0.90629594861038035E-003  0.76345852395508999E-003  0.55339416268461374E-003  0.22168783657820225E-002  0.33756807308832539E-002  0.34705238081247630E-002  0.29277607052556297E-002  0.21262521137663704E-002 -0.60007648765185843E-004 -0.91288742231773368E-004 -0.93676504918783192E-004 -0.78801556049584937E-004 -0.57010370589525848E-004  0.29865023495439621E-005  0.45433166591049683E-005  0.46621423187757757E-005  0.39218251844172308E-005  0.28373009830102074E-005  0.10403802813394574E-002  0.14108322520035963E-002  0.11852989531849101E-002  0.74106923532063159E-003  0.36296293857503777E-003  0.17015998494208065E+000 -0.11411241949696750E-008 -0.12013449201528070E-008 -0.10540601318694709E-008 -0.81239470124862249E-009  0.43974155160079063E-007  0.68739403686713946E-007  0.72366983832802258E-007  0.63494777789569675E-007  0.48937245831419608E-007 -0.14658531893509015E-005 -0.22913736833728247E-005 
-0.24122644223530396E-005 -0.21164773115056502E-005 -0.16311837683565862E-005  0.84364348854556686E-004  0.13195226524473835E-003  0.13907647115982396E-003  0.12223947989636519E-003  0.94436584875646695E-004  0.22039877901194444E-002  0.34536638551327988E-002  0.36538071157061207E-002  0.32296353165000014E-002  0.25139810376244988E-002  </sparseX_slice>
        <sparseX_slice start="251" end="300">  0.84276560010194488E-002  0.13212562494562020E-001  0.13991703929380803E-001  0.12385216845795216E-001  0.96592227668003926E-002 -0.22812429812520970E-003 -0.35730814254808838E-003 -0.37766458160994710E-003 -0.33335181994492295E-003 -0.25898898158724333E-003  0.11353448541284404E-004  0.17782740749686491E-004  0.18795812565306726E-004  0.16590377503569649E-004  0.12889403882971841E-004  0.55933506361376967E-002  0.78093712067133919E-002  0.67580045110288344E-002  0.44334500457837217E-002  0.23318719801666866E-002  0.15035642206954735E-001  0.21613582535285242E-001  0.19265445585845097E-001  0.13261567456619296E-001  0.74906090319223394E-002  0.16767307904214326E+000 -0.11754115214972924E-008 -0.13500452320268069E-008 -0.13390608523005590E-008 -0.11983470706211226E-008  0.43331468303062780E-007  0.70804814612106432E-007  0.81324438835774763E-007  0.80662733266212367E-007  0.72186346238120357E-007 -0.14444295923384804E-005 -0.23602225238626899E-005 
-0.27108501706332461E-005 -0.26887383621966931E-005 -0.24061263416052502E-005  0.83131355110568122E-004  0.13591703123992909E-003  0.15629110643140825E-003  0.15529104762219945E-003  0.13930150537818528E-003  0.21717762790494140E-002  0.35574359956584102E-002  0.41060687838736856E-002  0.41028761915719823E-002  0.37083228231351976E-002  </sparseX_slice>
        <sparseX_slice start="301" end="350">  0.83044849309308368E-002  0.13609559987485776E-001  0.15723571857604906E-001  0.15733978094820425E-001  0.14248125066893684E-001 -0.22479023775185124E-003 -0.36804417023773742E-003 -0.42441122375000754E-003 -0.42348473169144405E-003 -0.38202943339144170E-003  0.11187516708535557E-004  0.18317058259847316E-004  0.21122324413403475E-004  0.21076145817712271E-004  0.19012900209063261E-004  0.55116032341138649E-002  0.80440191632814070E-002  0.75944981454365654E-002  0.56321828493882033E-002  0.34396974182639805E-002  0.20952839266322278E-001  0.31484643950466587E-001  0.30617847742296787E-001  0.23825651385928792E-001  0.15625994395625408E-001  0.14599358885956572E-001  0.22931941131678055E-001  0.24329896658586574E-001  0.21402510141456599E-001  0.16298521242501293E-001 -0.10234736003144496E-001  0.71701482272011505E-010  0.82246291261869444E-010  0.81406259087620540E-010  0.72631405830159215E-010 -0.26449453975793244E-008 -0.43191767877312784E-008 
-0.49543773234572684E-008 -0.49037736796677238E-008 -0.43751897405647077E-008  0.88167734720242677E-007  0.14397634390818991E-006  0.16514807608813757E-006  0.16345794244956370E-006  0.14583449409626053E-006 -0.50743236660339075E-005 -0.82910984175993171E-005 -0.95214319907632540E-005 -0.94406936286740928E-005 -0.84430165666703991E-005  </sparseX_slice>
        <sparseX_slice start="351" end="400"> -0.13256485179934883E-003 -0.21700777073513196E-003 -0.25014638111994721E-003 -0.24942839728434583E-003 -0.22476017718036449E-003 -0.50690433667533569E-003 -0.83019913138977720E-003 -0.95789788371463151E-003 -0.95652433947669875E-003 -0.86357398405124345E-003  0.13721157580078961E-004  0.22451126320424707E-004  0.25855614534444317E-004  0.25745139011790944E-004  0.23154673212776072E-004 -0.68288410218703323E-006 -0.11173620507146521E-005 -0.12867960306962387E-005 -0.12812936649275223E-005 -0.11523653747299043E-005 -0.33642731664189617E-003 -0.49069460940541856E-003 -0.46266546604484461E-003 -0.34240037372344697E-003 -0.20847888332500462E-003 -0.12789577171969798E-002 -0.19206002312953973E-002 -0.18652741134043060E-002 -0.14484458613826319E-002 -0.94708617250610530E-003 -0.12602656169728860E-002 -0.19783084523196590E-002 -0.20961543857897246E-002 -0.18400820702840406E-002 -0.13970277485858807E-002  0.54395177135204152E-004  0.85333036354106009E-004  
0.90297613481946321E-004  0.79100582198120712E-004  0.59873116747228713E-004  0.57757867581060890E-003 -0.40463380379698705E-011 -0.46414038700173207E-011 -0.45939815905322885E-011 -0.40987705971343065E-011  0.14926267368849331E-009  0.24374460297225448E-009  0.27959031015033201E-009  0.27673358610279288E-009  0.24690282200298404E-009  </sparseX_slice>
        <sparseX_slice start="401" end="450"> -0.49755854428773847E-008 -0.81250336598822010E-008 -0.93197991997089058E-008 -0.92243862677848434E-008 -0.82298026537922946E-008  0.28636020926791286E-006  0.46789251547704097E-006  0.53732284595455933E-006  0.53276459596679325E-006  0.47646039146631531E-006  0.74810558413791392E-005  0.12246424612666179E-004  0.14116507426508370E-004  0.14075938117324826E-004  0.12683774946994659E-004  0.28606222520018437E-004  0.46850723555310414E-004  0.54057038637749692E-004  0.53979328563941414E-004  0.48733624440043539E-004 -0.77432852427808925E-006 -0.12669870070602720E-005 -0.14591095540071192E-005 -0.14528697914807881E-005 -0.13066757095781231E-005  0.38537319902743246E-007  0.63056221778494045E-007  0.72617743428455393E-007  0.72306964780277012E-007  0.65030839773960560E-007  0.18985662550831061E-004  0.27691425618392757E-004  0.26109594143115874E-004  0.19322605302177483E-004  0.11764981103272273E-004  0.72175648154425767E-004  0.10838545488002892E-003  
0.10526298944024978E-003  0.81739828075288499E-004  0.53446424621022435E-004  0.71120793540468521E-004  0.11164210958834019E-003  0.11829225280664728E-003  0.10384094848105992E-003  0.78837745102640724E-004 -0.43412010465787859E-005 -0.68102997078515363E-005 -0.72064986028297909E-005 -0.63128595996442683E-005 -0.47783287493802768E-005  </sparseX_slice>
        <sparseX_slice start="451" end="500">  0.17323251361028960E-006  0.27175982534067543E-006  0.28756918433382011E-006  0.25190836285505628E-006  0.19067343473655808E-006 -0.30557157309847405E-004  0.21407401777425440E-012  0.24555634284283498E-012  0.24304743622576239E-012  0.21684799041432616E-012 -0.78968341308419440E-011 -0.12895459049496626E-010 -0.14791898308679892E-010 -0.14640761460267841E-010 -0.13062546319719971E-010  0.26323642726804136E-009  0.42985993354986954E-009  0.49306974174207330E-009  0.48802185837263366E-009  0.43540279327393406E-009 -0.15150064100963661E-007 -0.24754143063372623E-007 -0.28427397544703040E-007 -0.28186240325482021E-007 -0.25207431338980134E-007 -0.39578988934787860E-006 -0.64790467222513530E-006 -0.74684255764930453E-006 -0.74469620839118147E-006 -0.67104294884089678E-006 -0.15134299069436782E-005 -0.24786665209385754E-005 -0.28599210679656076E-005 -0.28558097498022210E-005 -0.25782825056904868E-005  0.40966329812401568E-007  0.67030731620547246E-007  
0.77195093537010210E-007  0.76864974539079302E-007  0.69130485600569226E-007 -0.20388407603783777E-008 -0.33360284324043352E-008 -0.38418866362784939E-008 -0.38254446746872101E-008 -0.34404967503667537E-008 -0.10044482275652037E-005 -0.14650320078053730E-005 -0.13813442291265883E-005 -0.10222743795001614E-005 -0.62243359296341639E-006  </sparseX_slice>
        <sparseX_slice start="501" end="550"> -0.38184973354490233E-005 -0.57341995593870668E-005 -0.55690035703691611E-005 -0.43244961390739006E-005 -0.28276161105485051E-005 -0.37626895992432654E-005 -0.59064948919493989E-005 -0.62583248084661926E-005 -0.54937695779161406E-005 -0.41709596058528422E-005  0.22967392815845633E-006  0.36030312025983647E-006  0.38126426640961108E-006  0.33398573997527828E-006  0.25280043424888483E-006 -0.12961229606042169E-007 -0.20333027637780091E-007 -0.21515881317718410E-007 -0.18847744118732720E-007 -0.14266156285961043E-007  0.48487858716426771E-009  0.76065697422430746E-009  0.80490743462407197E-009  0.70509262641991229E-009  0.53369578058071227E-009  0.15520051221511053E-005 -0.10872869119827067E-013 -0.12471863727383664E-013 -0.12344435777015853E-013 -0.11013759834573484E-013  0.40108204096245401E-012  0.65496336240636854E-012  0.75128395316283076E-012  0.74360767749471985E-012  0.66344976367317478E-012 -0.13369839324847760E-010 -0.21832685937038485E-010 
-0.25043126786748476E-010 -0.24786743616850945E-010 -0.22114209069952921E-010  0.76947527700935205E-009  0.12572686797766766E-008  0.14438341286448360E-008  0.14315856974119616E-008  0.12802912966063012E-008  0.20102260473213972E-007  0.32907228894339782E-007  0.37932307090818807E-007  0.37823293512683173E-007  0.34082427340444234E-007  </sparseX_slice>
        <sparseX_slice start="551" end="600">  0.76867456739384386E-007  0.12589204871317828E-006  0.14525605577034423E-006  0.14504724096354192E-006  0.13095156772770044E-006 -0.20806894129543052E-008 -0.34045064389131808E-008 -0.39207567431171271E-008 -0.39039899224374022E-008 -0.35111534314768028E-008  0.10355319610630032E-009  0.16943765947254751E-009  0.19513031522215425E-009  0.19429522416907548E-009  0.17474362961708385E-009  0.51016158941408414E-007  0.74409316192789288E-007  0.70158794461689595E-007  0.51921553340338659E-007  0.31613546857277383E-007  0.19394236719877742E-006  0.29124132841722085E-006  0.28285098573654655E-006  0.21964216403897332E-006  0.14361527947041826E-006  0.19110787930552426E-006  0.29999224840454418E-006  0.31786177163768715E-006  0.27902983377004174E-006  0.21184400782685593E-006 -0.11665192194157971E-007 -0.18299879222996752E-007 -0.19364500707786608E-007 -0.16963213361091717E-007 -0.12839792813266289E-007  0.65830386426264246E-009  0.10327191997140975E-008  
0.10927966130400198E-008  0.95728130454009911E-009  0.72458139361057842E-009 -0.34827973366091001E-010 -0.54636648307892963E-010 -0.57815080799711286E-010 -0.50645559245344364E-010 -0.38334426231592594E-010  0.12508159371226334E-011  0.19622270218218615E-011  0.20763776206380059E-011  0.18188905791691949E-011  0.13767470982311553E-011  </sparseX_slice>
        <sparseX_slice start="601" end="650"> -0.77304588969395569E-007  0.54157210322945431E-015  0.62121721466446292E-015  0.61487009300499192E-015  0.54858979836304109E-015 -0.19977693293070238E-013 -0.32623393311138655E-013 -0.37421073145723570E-013 -0.37038721743095603E-013 -0.33046096659467312E-013  0.66594492430649973E-012  0.10874750272224488E-011  0.12473854597043836E-011  0.12346151438821210E-011  0.11014975518678917E-011 -0.38327173771742446E-010 -0.62623916072853788E-010 -0.71916646576637620E-010 -0.71306558421343910E-010 -0.63770660955074855E-010 -0.10012834114127585E-008 -0.16390924021390331E-008 -0.18893890016627694E-008 -0.18839590905563940E-008 -0.16976284414450704E-008 -0.38287290831391760E-008 -0.62706191760492085E-008 -0.72351305587692388E-008 -0.72247295990169695E-008 -0.65226312552733532E-008  0.10363808569038040E-009  0.16957674117664323E-009  0.19529090732352643E-009  0.19445576047866324E-009  0.17488877385441474E-009 -0.51579322433997564E-011 -0.84396039900352552E-011 
-0.97193421583619572E-011 -0.96777466960215332E-011 -0.87038916752059612E-011 -0.25410890347428638E-008 -0.37062903476792084E-008 -0.34945740133459875E-008 -0.25861862711278350E-008 -0.15746547551847865E-008 -0.96601710690703356E-008 -0.14506583040775463E-007 -0.14088664321961439E-007 -0.10940264931501676E-007 -0.71534043224013656E-008  </sparseX_slice>
        <sparseX_slice start="651" end="681"> -0.95189866629113139E-008 -0.14942461932583805E-007 -0.15832533833056791E-007 -0.13898334678106093E-007 -0.10551842720715538E-007  0.58103731421228265E-009  0.91150771433188833E-009  0.96453597120747038E-009  0.84492906483566937E-009  0.63954357605853429E-009 -0.32789782016475616E-010 -0.51439220216006618E-010 -0.54431645741681944E-010 -0.47681696870296304E-010 -0.36091032180549794E-010  0.17347637113278739E-011  0.27214237761361214E-011  0.28797398885252168E-011  0.25226296516083141E-011  0.19094183523720034E-011 -0.88109052108557102E-013 -0.13822174612855892E-012 -0.14626265827303389E-012 -0.12812494633578001E-012 -0.96979801918251510E-013  0.31032563757249700E-014  0.48682570595448254E-014  0.51514630557713669E-014  0.45126414039278698E-014  0.34156897778055776E-014  0.00000000000000000E+000  </sparseX_slice>
      </sparseX>
      <sparseX i="4" alpha="613.35064320955212" sparseCutoff="1.0000000000000000" sliced="T">
        <sparseX_slice start="1" end="50">  0.98875774181207898E+000  0.30933999285345014E-016  0.38463905331384079E-016  0.43016286716269837E-016  0.45239108390250236E-016  0.36136406319080907E-006 -0.26352627037813819E-014 -0.32767335718516033E-014 -0.36645490281147362E-014 -0.38539091837186861E-014  0.66034368502871116E-013  0.11224881487003795E-012  0.13957218863237313E-012  0.15609110646895406E-012  0.16415681613601618E-012 -0.12045863362621925E-004  0.87844399054420047E-013  0.10922588448856376E-012  0.12215075231240500E-012  0.12845909078859861E-012 -0.31129919571005523E-011 -0.52915989642819211E-011 -0.65795823366881294E-011 -0.73581521968287226E-011 -0.77381525206162331E-011  0.73376327696322128E-010  0.12472746207258030E-009  0.15508427627829456E-009  0.17343205829111115E-009  0.18238354593422768E-009  0.69327639791032822E-003 -0.50586543471301140E-011 -0.62972990992265281E-011 -0.70549513337309660E-011 -0.74370761073279295E-011  0.17916223900058783E-009  0.30472483609741358E-009  
0.37933863494098002E-009  0.42497819024517273E-009  0.44799654794880543E-009 -0.59722702686208470E-008 -0.10157761526212765E-007 -0.12644786954314328E-007 -0.14165837394054072E-007 -0.14932689506296146E-007  0.24304849589277224E-006  0.41362229900647937E-006  0.51549596437835612E-006  0.57852899588479832E-006  0.61130847837518554E-006  </sparseX_slice>
        <sparseX_slice start="51" end="100">  0.18111592597088170E-001 -0.13240312049125915E-009 -0.16544219210194091E-009 -0.18639575367077314E-009 -0.19798119906403063E-009  0.46805480344370548E-008  0.79757414564951471E-008  0.99659575199948805E-008  0.11228161091013265E-007  0.11926043576730079E-007 -0.15602337871446476E-006 -0.26586503662572386E-006 -0.33220293961275172E-006 -0.37426933405165572E-006 -0.39752070989220813E-006  0.89796241853949786E-005  0.15310245590540618E-004  0.19152797729029354E-004  0.21616337905879426E-004  0.23014266686447485E-004  0.16587975624935412E-003  0.28335466995578549E-003  0.35580265045476845E-003  0.40383979695479753E-003  0.43321538131019851E-003  0.69255498021882120E-001 -0.50653004384484910E-009 -0.63353595195753710E-009 -0.71480263314985185E-009 -0.76068374294689619E-009  0.17897580425500209E-007  0.30512518546874979E-007  0.38163133021762369E-007  0.43058486876600224E-007  0.45822267515213899E-007 -0.59660555735248786E-006 -0.10171106856029933E-005 
-0.12721211132222893E-005 -0.14352725328705461E-005 -0.15273548343442181E-005  0.34336480443406661E-004  0.58571877622505985E-004  0.73342753669717703E-004  0.82895747085907716E-004  0.88425459624390896E-004  0.89702800626613130E-003  0.15330360285738015E-002  0.19268555853415206E-002  0.21901519263929749E-002  0.23539598454526082E-002  </sparseX_slice>
        <sparseX_slice start="101" end="150">  0.24254293055995598E-002  0.41470985201550710E-002  0.52174603562063718E-002  0.59389459593302135E-002  0.63953488184617484E-002 -0.18746448449773702E-002  0.13698123220646629E-010  0.17100425469158087E-010  0.19239126906592884E-010  0.20395917213228111E-010 -0.48446127514137322E-009 -0.82515192120643937E-009 -0.10301006752525300E-008 -0.11589320674076306E-008 -0.12286146291783424E-008  0.16149238176329516E-007  0.27505787010520794E-007  0.34337139379673651E-007  0.38630789989905574E-007  0.40952370870745873E-007 -0.92943820918825122E-006 -0.15839628995106071E-005 -0.19796702759433789E-005 -0.22311638545241091E-005 -0.23709174420553193E-005 -0.24281233631672192E-004 -0.41457987884973172E-004 -0.52009756076435180E-004 -0.58948594902223551E-004 -0.63115809396844600E-004 -0.92847104346720257E-004 -0.15860439197489321E-003 -0.19916352599257605E-003 -0.22605992908517815E-003 -0.24250368397651223E-003  0.17771255516845031E-005  0.30328858877441070E-005  
0.38012852401083535E-005  0.43023704785284092E-005  0.45977192496847278E-005  0.93298626913266213E-004 -0.68173697988770558E-012 -0.85106310614335649E-012 -0.95750003186482191E-012 -0.10150671774289238E-011  0.24111005284249347E-010  0.41066689914420342E-010  0.51266600465698759E-010  0.57678162676483259E-010  0.61145883793796687E-010  </sparseX_slice>
        <sparseX_slice start="151" end="200"> -0.80372650402750362E-009 -0.13689256450637871E-008 -0.17089090882123629E-008 -0.19225915409717692E-008 -0.20381239575648972E-008  0.46256926452133228E-007  0.78831681243670383E-007  0.98525287410114784E-007  0.11104139351928650E-006  0.11799618770090078E-006  0.12084453029408793E-005  0.20633077245445086E-005  0.25884493129134101E-005  0.29337756214874532E-005  0.31411574103686507E-005  0.46208791876662474E-005  0.78935250793272816E-005  0.99120767122088416E-005  0.11250634727516836E-004  0.12068961029637070E-004 -0.12508042820924808E-006 -0.21346508562680409E-006 -0.26754713530932454E-006 -0.30281420250034283E-006 -0.32360035598570487E-006  0.44018030988804255E-008  0.75122085809091049E-008  0.94154299257723671E-008  0.10656502234470829E-007  0.11387949623202363E-007  0.58743540991028235E-005 -0.42622171855146842E-013 -0.52460724960397106E-013 -0.57777434202609346E-013 -0.59527342290779518E-013  0.15180993269782044E-011  0.25674880000535745E-011  
0.31601452433687823E-011  0.34804137212168631E-011  0.35858237121655245E-011 -0.50604968579877485E-010 -0.85585182881581719E-010 -0.10533955591764387E-009 -0.11601295306554321E-009 -0.11952322481779694E-009  0.29124712174874381E-008  0.49285539214130995E-008  0.60732370692091425E-008  0.67004559731778491E-008  0.69197385261434273E-008  </sparseX_slice>
        <sparseX_slice start="201" end="250">  0.76087246444383822E-007  0.12899792591575974E-006  0.15955565045467490E-006  0.17702978829732428E-006  0.18420923906716132E-006  0.29094405240026560E-006  0.49350290859888012E-006  0.61099432748522337E-006  0.67888541626541312E-006  0.70776909182012263E-006 -0.78754291512950006E-008 -0.13345829598620196E-007 -0.16491981121127803E-007 -0.18272404259354857E-007 -0.18977137261960161E-007  0.39194982886339877E-009  0.66420380501072671E-009  0.82078172292959015E-009  0.90938781918340038E-009  0.94445711633334973E-009  0.17450197668441957E-010  0.29363315051706055E-010  0.35775458051640847E-010  0.38801953374723171E-010  0.39164172397430695E-010 -0.30591047257665202E-003  0.22226476154390974E-011  0.27431419812804996E-011  0.30330940082188086E-011  0.31407366451249261E-011 -0.79055922523486790E-010 -0.13388855688494138E-009 -0.16524222817303531E-009 -0.18270839038865879E-009 -0.18919252065282619E-009  0.26352837421498409E-008  0.44630692048062772E-008  
0.55081464914042302E-008  0.60902357066416326E-008  0.63061940560868286E-008 -0.15166866543566937E-006 -0.25701268011918625E-006 -0.31756617125274350E-006 -0.35174827586341366E-006 -0.36509401440399522E-006 -0.39622884702187963E-005 -0.67269432774958464E-005 -0.83430757665500380E-005 -0.92933858619946971E-005 -0.97191086523348214E-005  </sparseX_slice>
        <sparseX_slice start="251" end="300"> -0.15151084027557113E-004 -0.25735034496537639E-004 -0.31948551822610480E-004 -0.35638884224608958E-004 -0.37342777913848954E-004  0.41011764234378430E-006  0.69595412533741474E-006  0.86235647338085647E-006  0.95923124035677736E-006  0.10012573739149793E-005 -0.20411019722534684E-007 -0.34636691166041491E-007 -0.42918217453830156E-007 -0.47739377554217740E-007 -0.49830732582136971E-007 -0.12851374274286486E-008 -0.21654847058697606E-008 -0.26455391913753609E-008 -0.28806878890023344E-008 -0.29222608522625297E-008  0.47322621747853986E-007  0.79850044232035442E-007  0.97816743576005634E-007  0.10693228036362909E-006  0.10902322155575992E-006  0.21691896129573542E-001 -0.15714109266109140E-009 -0.19281541211006067E-009 -0.21139451998996796E-009 -0.21652578855934418E-009  0.56057997797947005E-008  0.94659153243956404E-008  0.11614873944036842E-007  0.12734043976115323E-007  0.13043137439577898E-007 -0.18686611388351388E-006 -0.31553880452919853E-006 
-0.38716754107161565E-006 -0.42446506779634061E-006 -0.43475585351032745E-006  0.10754718231874881E-004  0.18170785643726860E-004  0.22321721806659411E-004  0.24515447833782060E-004  0.25169977078411563E-004  0.28096308441959790E-003  0.47559460597898176E-003  0.58643468080419095E-003  0.64771182101659361E-003  0.67004588503377541E-003  </sparseX_slice>
        <sparseX_slice start="301" end="350">  0.10743526960943070E-002  0.18194658534109926E-002  0.22456632679000812E-002  0.24838876748378563E-002  0.25744515852175152E-002 -0.29081153135082131E-004 -0.49203927306268125E-004 -0.60615024645239423E-004 -0.66854580525739561E-004 -0.69027768620560565E-004  0.14473310311694491E-005  0.24488126044763355E-005  0.30167209141418735E-005  0.33272436579109424E-005  0.34353847157432857E-005  0.91128189738664258E-007  0.15309967736564963E-006  0.18595491335094571E-006  0.20077242310540072E-006  0.20146383059349995E-006 -0.47455545099447094E-005 -0.79837938333535419E-005 -0.97234784655270166E-005 -0.10539783255191014E-004 -0.10629482369990749E-004  0.23794420908091203E-003  0.39912917135192697E-003  0.48328144044226627E-003  0.51942701814946483E-003  0.51817353148089415E-003  0.11560582744442270E+000 -0.83789019453133986E-009 -0.10291269509182321E-008 -0.11299646487678106E-008 -0.11596794798048865E-008  0.29875817132804509E-007  0.50473097127311056E-007  
0.61992864971308841E-007  0.68067135938754992E-007  0.69857077725444812E-007 -0.99589319383542758E-006 -0.16824807937371532E-005 -0.20664559263037837E-005 -0.22688881493685772E-005 -0.23284868070243919E-005  0.57316709092685365E-004  0.96888235024850138E-004  0.11913925993125416E-003  0.13104213582357650E-003  0.13480660257239173E-003  </sparseX_slice>
        <sparseX_slice start="351" end="400">  0.14973780835775819E-002  0.25359124731379294E-002  0.31300181264775242E-002  0.34622064014360790E-002  0.35886647432225244E-002  0.57257065798779717E-002  0.97015527386309242E-002  0.11985932900238824E-001  0.13277095660805444E-001  0.13788374562643164E-001 -0.15498648671084301E-003 -0.26235968914427023E-003 -0.32352473700277337E-003 -0.35735700530870740E-003 -0.36970232201253048E-003  0.77134751358236015E-005  0.13057285238309371E-004  0.16101351868957254E-004  0.17785076507445344E-004  0.18399402614303070E-004  0.48566292754315093E-006  0.81634101098720581E-006  0.99250993938122791E-006  0.10731864788515934E-005  0.10790099037008558E-005 -0.25291184898162040E-004 -0.42570294344039913E-004 -0.51897789891582950E-004 -0.56338179838370231E-004 -0.56929905058619029E-004  0.17933801062247183E-002  0.30097180145243815E-002  0.36478949372047375E-002  0.39265457818878141E-002  0.39248093610649640E-002  0.67583325894452007E-002  0.11347707931582702E-001  
0.13767482422567447E-001  0.14841124198919250E-001  0.14863870484352547E-001  0.37536931201486372E-001 -0.27324220778859023E-009 -0.33852176809144851E-009 -0.37653234151081941E-009 -0.39313293966173186E-009  0.97006052124959199E-008  0.16459651375570049E-007  0.20391978113504193E-007  0.22681663628063730E-007  0.23681645489668237E-007  </sparseX_slice>
        <sparseX_slice start="401" end="450"> -0.32336409960821995E-006 -0.54866946724418809E-006 -0.67974151607947738E-006 -0.75604999540427806E-006 -0.78936023215921145E-006  0.18610596139213361E-004  0.31595972144939152E-004  0.39189754854879206E-004  0.43666500798972324E-004  0.45699623799510321E-004  0.48619502449291863E-003  0.82697986853325620E-003  0.10295904401182493E-002  0.11536933341658459E-002  0.12165622868491671E-002  0.18591230106639938E-002  0.31637483128247844E-002  0.39426614899104838E-002  0.44242586908163350E-002  0.46742779529745284E-002 -0.50323735554090942E-004 -0.85557440777315669E-004 -0.10642046240629597E-003 -0.11908024743155575E-003 -0.12532959596474685E-003  0.25045466296842366E-005  0.42580775733228523E-005  0.52963904001140408E-005  0.59264300954901044E-005  0.62374228084105826E-005  0.15769357221255915E-006  0.26621485918602754E-006  0.32647694167166459E-006  0.35761244230108263E-006  0.36578584234103135E-006 -0.82119862684498305E-005 -0.13882488766062920E-004 
-0.17071296770978309E-004 -0.18773283566111044E-004 -0.19299316164604160E-004  0.58230616183976185E-003  0.98149137020241660E-003  0.11999412150780493E-002  0.13084227713812764E-002  0.13305157749164921E-002  0.31033702753948708E-002  0.52333987322041716E-002  0.64045287170794449E-002  0.69938968965411819E-002  0.71260419001058792E-002  </sparseX_slice>
        <sparseX_slice start="451" end="500">  0.71252094645693118E-003  0.12067838921906533E-002  0.14896691649541971E-002  0.16479409896391272E-002  0.17081847293920545E-002 -0.19580674020383444E-002  0.14252915437717607E-010  0.17656983325847595E-010  0.19637801981123829E-010  0.20501095156394559E-010 -0.50602002451067095E-009 -0.85857167195714744E-009 -0.10636267781572189E-008 -0.11829475713643983E-008 -0.12349503658010320E-008  0.16867886696269503E-007  0.28619807983470442E-007  0.35454690795716901E-007  0.39431301008580613E-007  0.41163554613597159E-007 -0.97079863660381973E-006 -0.16481155045516483E-005 -0.20441014825071069E-005 -0.22773982507267934E-005 -0.23831438213529918E-005 -0.25361759686287872E-004 -0.43137091558047016E-004 -0.53702488132783816E-004 -0.60170133466849621E-004 -0.63441285860797915E-004 -0.96978843156374071E-004 -0.16502808088786179E-003 -0.20564558840424358E-003 -0.23074436510527683E-003 -0.24375423027086539E-003  0.26250751721909985E-005  0.44628645710918340E-005  
0.55507932055032461E-005  0.62105536792433184E-005  0.65356873300837482E-005 -0.13064656474303138E-006 -0.22211070562996173E-006 -0.27625484029945683E-006 -0.30908914810140763E-006 -0.32526910270077945E-006 -0.82258893675401174E-008 -0.13886353455239470E-007 -0.17028736284436061E-007 -0.18651046812383679E-007 -0.19074998821385683E-007  </sparseX_slice>
        <sparseX_slice start="501" end="550">  0.42836806589030388E-006  0.72414119344567000E-006  0.89042310081026137E-006  0.97910852419082729E-006  0.10064206715528181E-005 -0.30375277813316636E-004 -0.51196751832601664E-004 -0.62587827500968398E-004 -0.68239947699792579E-004 -0.69383731956211445E-004 -0.16188345659074114E-003 -0.27298560564873066E-003 -0.33405431327191652E-003 -0.36476219221855523E-003 -0.37160880797276557E-003 -0.52563164911619833E-004 -0.89022630970978187E-004 -0.10988406888623872E-003 -0.12154783999697880E-003 -0.12597589732906623E-003  0.19388105846325085E-005  0.32835327336897085E-005  0.40527483816740301E-005  0.44825262253979120E-005  0.46452606778400261E-005  0.99448202900113866E-004 -0.72389068425871918E-012 -0.89677964069865122E-012 -0.99738318008769709E-012 -0.10412287018738138E-011  0.25700229735029492E-010  0.43605958220554622E-010  0.54020487098551837E-010  0.60080655245354589E-010  0.62721808588870499E-010 -0.85670238773215184E-009 -0.14535701467562479E-008 
-0.18007065128911832E-008 -0.20026740483856687E-008 -0.20906529240443435E-008  0.49305851109940483E-007  0.83706064597149350E-007  0.10381776769029759E-006  0.11566664700150211E-006  0.12103732647238579E-006  0.12880973456584273E-005  0.21908878124857623E-005  0.27274929767783340E-005  0.30559774011955517E-005  0.32221150732740316E-005  </sparseX_slice>
        <sparseX_slice start="551" end="600">  0.49254543848662396E-005  0.83816038141700808E-005  0.10444523477034410E-004  0.11719262108724415E-004  0.12380016717400537E-004 -0.13332483247529677E-006 -0.22666422895995234E-006 -0.28191895776085317E-006 -0.31542744878796073E-006 -0.33194057110815457E-006  0.66354028800247692E-008  0.11280770687390475E-007  0.14030693230725917E-007  0.15698310725421475E-007  0.16520069927052369E-007  0.41778434899913598E-009  0.70527338413658905E-009  0.86487163321685914E-009  0.94726692934272989E-009  0.96879879389472035E-009 -0.21756367675720108E-007 -0.36778374664043768E-007 -0.45223654215354134E-007 -0.49727885760692120E-007 -0.51115029776985087E-007  0.15427287068777244E-005  0.26002295374496796E-005  0.31787700323794298E-005  0.34658347258648892E-005  0.35239255564058361E-005  0.82218920658444922E-005  0.13864653707472295E-004  0.16966267765076652E-004  0.18525885717780453E-004  0.18873614008355526E-004  0.26696283711997316E-005  0.45213664200629246E-005  
0.55808964643498450E-005  0.61732861603098620E-005  0.63981811236273840E-005 -0.13925784878748761E-006 -0.23584443183079782E-006 -0.29109441431159856E-006 -0.32196376731557299E-006 -0.33365232675795742E-006  0.50011972811141221E-008  0.84699317072269087E-008  0.10454135078626754E-007  0.11562750807423828E-007  0.11982521850933304E-007  </sparseX_slice>
        <sparseX_slice start="601" end="650"> -0.49534643886094572E-005  0.36056626674129715E-013  0.44668137621633313E-013  0.49679148717245006E-013  0.51863071828114701E-013 -0.12801153671868380E-011 -0.21719905926628828E-011 -0.26907329767498924E-011 -0.29925868678686313E-011 -0.31241413708436893E-011  0.42671910054827616E-010  0.72401589447058379E-010  0.89692275207464786E-010  0.99752175360698116E-010  0.10413435835205213E-009 -0.24558993576634110E-008 -0.41693564887226905E-008 -0.51711101861636473E-008 -0.57612968342893584E-008 -0.60288076437226980E-008 -0.64159473421455663E-007 -0.10912700723672604E-006 -0.13585503742464273E-006 -0.15221667942824617E-006 -0.16049191227914688E-006 -0.24533437690835615E-006 -0.41748342150232905E-006 -0.52023640021654537E-006 -0.58373048270625824E-006 -0.61664233332440016E-006  0.66408420717972355E-008  0.11290029919859437E-007  0.14042239845675570E-007  0.15711280730100589E-007  0.16533790944358704E-007 -0.33050604145448758E-009 -0.56188944838849784E-009 
-0.69886169100440725E-009 -0.78192486970670875E-009 -0.82285627709869591E-009 -0.20809625860853391E-010 -0.35129308427354256E-010 -0.43078816003762486E-010 -0.47182883767508161E-010 -0.48255374966451818E-010  0.10836736045941164E-008  0.18319121295236146E-008  0.22525672066672227E-008  0.24769206874757750E-008  0.25460136241435181E-008  </sparseX_slice>
        <sparseX_slice start="651" end="681"> -0.76842531970937947E-007 -0.12951611028794476E-006 -0.15833291795432453E-006 -0.17263146422871758E-006 -0.17552493887260682E-006 -0.40952826061681106E-006 -0.69059134696330405E-006 -0.84508116493981528E-006 -0.92276494136523972E-006 -0.94008511022593767E-006 -0.13297283090013683E-006 -0.22520696095446619E-006 -0.27798161332861377E-006 -0.30748824258814769E-006 -0.31869014615790802E-006  0.69363625956723116E-008  0.11747291154055050E-007  0.14499264667995029E-007  0.16036851430187969E-007  0.16619052622276475E-007 -0.35229062803716104E-009 -0.59663264465821180E-009 -0.73640242613385721E-009 -0.81449471246371448E-009 -0.84406391250118751E-009  0.12407897512010312E-010  0.21013777027748798E-010  0.25936556641808076E-010  0.28687016077757808E-010  0.29728461890153815E-010  0.00000000000000000E+000  </sparseX_slice>
      </sparseX>
      <sparseX i="5" alpha="216.80043399163671" sparseCutoff="1.0000000000000000" sliced="T">
        <sparseX_slice start="1" end="50">  0.95405909866185934E+000  0.79790264536588772E-015  0.10930404155993020E-014  0.14000762011816495E-014  0.17373820791204081E-014  0.18811738999551368E-005 -0.72604305480165108E-013 -0.99104963571351530E-013 -0.12634299919164909E-012 -0.15593990930869261E-012  0.18546100796249812E-011  0.33032759102082405E-011  0.44928776943228252E-011  0.57006016641339991E-011  0.69982462716302680E-011  0.18089316691593195E-003 -0.67300676527516172E-011 -0.85491024955313775E-011 -0.98157986308608108E-011 -0.10588766289275118E-010  0.25220914573929796E-009  0.43302892069300949E-009  0.54810619637465516E-009  0.62634000474476231E-009  0.67203563885060070E-009  0.17149009889833237E-007  0.28383043265788183E-007  0.33432960225458789E-007  0.34408806706481652E-007  0.32267505483207705E-007  0.27591533464883591E-001 -0.10394750841759744E-008 -0.13544491782899861E-008 -0.16172325508409408E-008 -0.18417608648800386E-008  0.38469319783922975E-007  0.66882354979591132E-007  
0.86837418042811513E-007  0.10319460307411255E-006  0.11689076004003708E-006  0.36991992526483067E-005  0.61996705403506288E-005  0.74908658511419225E-005  0.80173610730150469E-005  0.79372172584090141E-005  0.39897566094781865E-003  0.67709291158394951E-003  0.83918789753284853E-003  0.93403527654140918E-003  0.97620527003507217E-003  </sparseX_slice>
        <sparseX_slice start="51" end="100">  0.12784432766688281E+000 -0.48185559412002325E-008 -0.62843204606332660E-008 -0.75136900850284767E-008 -0.85720940391267059E-008  0.17824613952092626E-006  0.31003760826441615E-006  0.40290486472440233E-006  0.47944389045547258E-006  0.54404380420660984E-006  0.17140099949955913E-004  0.28738985446074682E-004  0.34755827158921647E-004  0.37248796637862874E-004  0.36942131872529037E-004  0.26143698483671479E-002  0.44388052033142167E-002  0.55064261495047419E-002  0.61370417902637409E-002  0.64255429659425666E-002  0.85655973196635538E-002  0.14549695688644410E-001  0.18065518478692526E-001  0.20161595006831540E-001  0.21146988074388626E-001  0.13428029623943607E-002 -0.51203768487622020E-010 -0.68329113653006551E-010 -0.84487894428159797E-010 -0.10066349426826339E-009  0.18721944770808954E-008  0.32945749950291037E-008  0.43807651862376122E-008  0.53911199879991680E-008  0.63887948634795393E-008  0.18002970807204855E-006  0.30539115355448302E-006  
0.37789843451218579E-006  0.41884511635454606E-006  0.43381746199165679E-006  0.27459830570889639E-004  0.47168395835940041E-004  0.59871106279243201E-004  0.69008134885702136E-004  0.75456195950521235E-004  0.12723408728441664E-003  0.21865223847315993E-003  0.27778762335432735E-003  0.32061297468158882E-003  0.35119521749897196E-003  </sparseX_slice>
        <sparseX_slice start="101" end="150">  0.94497280008339300E-006  0.16429484991441058E-005  0.21357251323802143E-005  0.25492199277722544E-005  0.29162091632218401E-005 -0.68016373764713834E-004  0.25936232633357342E-011  0.34611308019314537E-011  0.42797348952127948E-011  0.50992543738229380E-011 -0.94831395878295186E-010 -0.16688002860526433E-009 -0.22190250263035303E-009 -0.27308722146624046E-009 -0.32363361105105798E-009 -0.91189610508057654E-008 -0.15468970813492317E-007 -0.19142000265566902E-007 -0.21216602358059938E-007 -0.21975648735245176E-007 -0.13909100232360263E-005 -0.23892196287055742E-005 -0.30327003968049019E-005 -0.34956075651171068E-005 -0.38223423499222224E-005 -0.64447290322610697E-005 -0.11075386617715671E-004 -0.14071004996048125E-004 -0.16240652520575046E-004 -0.17790299869035389E-004 -0.67691710647486677E-007 -0.11769117951615262E-006 -0.15299335952229746E-006 -0.18261846310867259E-006 -0.20891438436433373E-006  0.24244971336628355E-008  0.42153523811364305E-008  
0.54798643568501886E-008  0.65411192468822227E-008  0.74832115173297692E-008  0.33878446751332272E-005 -0.12918643574543117E-012 -0.17239634284641672E-012 -0.21317041088048815E-012 -0.25399007922855391E-012  0.47234808587870787E-011  0.83121694647674101E-011  0.11052798091476999E-010  0.13602271316217790E-010  0.16119950189944271E-010  </sparseX_slice>
        <sparseX_slice start="151" end="200">  0.45420862549345284E-009  0.77049787156635789E-009  0.95344875111548249E-009  0.10567831776717313E-008  0.10945907684105666E-008  0.69280187328278841E-007  0.11900524351733554E-006  0.15105654402494220E-006  0.17411361198247911E-006  0.19038803815695126E-006  0.32100712999123893E-006  0.55165672743278586E-006  0.70086626028079157E-006  0.80893481852129561E-006  0.88612164484911583E-006  0.33716734482354944E-008  0.58621096653848696E-008  0.76204850873340240E-008  0.90960897738745125E-008  0.10405870573760118E-007 -0.17078380662701910E-009 -0.29693330099410338E-009 -0.38600669979963279E-009 -0.46076249241055800E-009 -0.52712437038270820E-009  0.60150841593181288E-011  0.10458127490575878E-010  0.13595333988873518E-010  0.16228268160191530E-010  0.18565565145919803E-010  0.44351150458804250E-001 -0.14935983903649301E-008 -0.16023347651704445E-008 -0.14339249575869749E-008 -0.11178924029905481E-008  0.61836309024146548E-007  0.96101752954014740E-007  
0.10273003673958877E-006  0.91497859574559794E-007  0.70949109148901226E-007  0.59461625371460114E-005  0.89081672863771760E-005  0.88618125854427541E-005  0.71086215341168071E-005  0.48176476345309000E-005  0.90696484244508831E-003  0.13758877945416581E-002  0.14039923817484598E-002  0.11712031357732100E-002  0.83795927038713802E-003  </sparseX_slice>
        <sparseX_slice start="201" end="250">  0.42023873246285993E-002  0.63780194520672347E-002  0.65141890833692482E-002  0.54414297957566518E-002  0.39001076652719589E-002  0.44139448746943269E-004  0.67775208053692229E-004  0.70828464115252747E-004  0.61186306717412163E-004  0.45799598536451711E-004 -0.22357749631317998E-005 -0.34330159962341326E-005 -0.35877324568809363E-005 -0.30993928034313000E-005 -0.23200446681689090E-005  0.11136227770454594E-006  0.17099596023831965E-006  0.17870227682019638E-006  0.15437844949847703E-006  0.11555970459269867E-006  0.10308714364646772E-002  0.13979375583331557E-002  0.11744655838119690E-002  0.73429602697890539E-003  0.35964553787059443E-003  0.16860475752101331E+000 -0.58460096341250752E-008 -0.64599452041024034E-008 -0.60658890285781643E-008 -0.50784061212159565E-008  0.23507610921378043E-006  0.37614647769418852E-006  0.41416464435418922E-006  0.38706060564403223E-006  0.32231043813582971E-006  0.22604854268374853E-004  0.34866957620270869E-004  
0.35727130781497928E-004  0.30071384938216441E-004  0.21885801506131330E-004  0.34479057647574941E-002  0.53852851973149101E-002  0.56603114718711761E-002  0.49545049159883513E-002  0.38067147398797392E-002  0.15975741069817737E-001  0.24963847982128667E-001  0.26262492359548285E-001  0.23018714559096123E-001  0.17717564398624736E-001  </sparseX_slice>
        <sparseX_slice start="251" end="300">  0.16779995504292969E-003  0.26527513807771933E-003  0.28555081436218834E-003  0.25883456777329761E-003  0.20806023990728952E-003 -0.84994930600623877E-005 -0.13436975238830215E-004 -0.14464240296231222E-004 -0.13111266877749208E-004 -0.10539591299488465E-004  0.42335338847191969E-006  0.66928569111904484E-006  0.72045301718458972E-006  0.65306244800814114E-006  0.52496922744937091E-006  0.55422286526829439E-002  0.77379952870558133E-002  0.66962378496348823E-002  0.43929292963024169E-002  0.23105591877916674E-002  0.14898219774116464E-001  0.21416039187720361E-001  0.19089363688864630E-001  0.13140359673270045E-001  0.74221465277979097E-002  0.16614058143179206E+000 -0.60216645208520816E-008 -0.72595455939860943E-008 -0.77060067893492276E-008 -0.74910546430571496E-008  0.23164044739741940E-006  0.38744854030907914E-006  0.46542919856299925E-006  0.49171549972810432E-006  0.47543363930986364E-006  0.22274481969233065E-004  0.35914604113282614E-004  
0.40149370723126159E-004  0.38202198458837835E-004  0.32283305248985691E-004  0.33975142629498142E-002  0.55470967098730064E-002  0.63609346376678573E-002  0.62941224840408240E-002  0.56152082851031130E-002  0.15742253950411109E-001  0.25713936018928026E-001  0.29513216393039554E-001  0.29242600687019959E-001  0.26134822596701471E-001  </sparseX_slice>
        <sparseX_slice start="301" end="350">  0.16534754122573563E-003  0.27324585267567879E-003  0.32089578019109540E-003  0.32881922619788383E-003  0.30690547171518872E-003 -0.83752720838749433E-005 -0.13840715655156704E-004 -0.16254597925409421E-004 -0.16656340249697518E-004 -0.15546738967984233E-004  0.41716603461250507E-006  0.68939569941859773E-006  0.80962939488324917E-006  0.82963991502485091E-006  0.77437153998332271E-006  0.54612284037710108E-002  0.79704986133773605E-002  0.75250861178712321E-002  0.55807059481225623E-002  0.34082593472498464E-002  0.20761334965593750E-001  0.31196881292299677E-001  0.30338007409100247E-001  0.23607890220004243E-001  0.15483176274802423E-001  0.14465923985845744E-001  0.22722348279131888E-001  0.24107526802779541E-001  0.21206895948726986E-001  0.16149556375555024E-001 -0.10141192611700886E-001  0.36732860278575274E-009  0.44225977558946391E-009  0.46847548723941156E-009  0.45403025819037036E-009 -0.14139293202619548E-007 -0.23634815667707546E-007 
-0.28354476219527732E-007 -0.29893129426862082E-007 -0.28815870167000999E-007 -0.13596305612340029E-005 -0.21908330002198098E-005 -0.24459453358592649E-005 -0.23224471539989562E-005 -0.19566800825595968E-005 -0.20738368822743197E-003 -0.33837940936416863E-003 -0.38751537392708369E-003 -0.38264203212628794E-003 -0.34033585242112391E-003  </sparseX_slice>
        <sparseX_slice start="351" end="400"> -0.96090448268335645E-003 -0.15685802749799342E-002 -0.17979787150482023E-002 -0.17777614242351508E-002 -0.15840226532505045E-002 -0.10092785573461749E-004 -0.16668317694017927E-004 -0.19549335960158112E-004 -0.19990087138211421E-004 -0.18601435605870470E-004  0.51122517235710328E-006  0.84429989840154577E-006  0.99024859582723742E-006  0.10125980066468945E-005  0.94228252816101186E-006 -0.25463743244462662E-007 -0.42053946737987133E-007 -0.49323543719916339E-007 -0.50436753308045535E-007 -0.46934394018839676E-007 -0.33335244563274195E-003 -0.48620976957769728E-003 -0.45843680636679468E-003 -0.33927091029819703E-003 -0.20657343260014791E-003 -0.12672683275071139E-002 -0.19030463714295198E-002 -0.18482259219771582E-002 -0.14352073876702383E-002 -0.93843001508084594E-003 -0.12487470689306395E-002 -0.19602271521210863E-002 -0.20769959999133573E-002 -0.18232641285400191E-002 -0.13842592250129773E-002  0.53898017288374946E-004  0.84553111340205801E-004  
0.89472313334910427E-004  0.78377620432007296E-004  0.59325889748091419E-004  0.57229972497648549E-003 -0.20729497505332659E-010 -0.24958040082782348E-010 -0.26437374571862390E-010 -0.25622054966575449E-010  0.79792524617712389E-009  0.13337862848336396E-008  0.16001277825234153E-008  0.16869524261346015E-008  0.16261511121997295E-008  </sparseX_slice>
        <sparseX_slice start="401" end="450">  0.76728273099364636E-007  0.12363553196848543E-006  0.13803200087845477E-006  0.13106215160890242E-006  0.11042031609779766E-006  0.11703320534532528E-004  0.19095804326355979E-004  0.21868649985804761E-004  0.21593553997610818E-004  0.19205997310809386E-004  0.54226893445831436E-004  0.88519871990681075E-004  0.10146530911239305E-003  0.10032402111125510E-003  0.89390331938775399E-004  0.56956796198450560E-006  0.94064509933566916E-006  0.11032274183992697E-005  0.11280962094970503E-005  0.10497252043298626E-005 -0.28850061007958311E-007 -0.47646473770177900E-007 -0.55882685947719992E-007 -0.57143721542818496E-007 -0.53175343041701210E-007  0.14369999480005583E-008  0.23732352378313321E-008  0.27834748922073726E-008  0.28462862534192434E-008  0.26486244070310415E-008  0.18812137808697016E-004  0.27438332133933587E-004  0.25870958247277173E-004  0.19146000978075476E-004  0.11657451787047913E-004  0.71515978748587394E-004  0.10739483587693727E-003  
0.10430090907829376E-003  0.80992744187598467E-004  0.52957936161611584E-004  0.70470765271692703E-004  0.11062172548397983E-003  0.11721108786917026E-003  0.10289186525787041E-003  0.78117185609247289E-004 -0.43015234324769445E-005 -0.67480550799647519E-005 -0.71406328049732560E-005 -0.62551614639471932E-005 -0.47346558850887095E-005  </sparseX_slice>
        <sparseX_slice start="451" end="500">  0.17164920688222694E-006  0.26927600085004313E-006  0.28494086581063845E-006  0.24960597632581078E-006  0.18893072186014984E-006 -0.30277871148801264E-004  0.10967068929402652E-011  0.13204205492313796E-011  0.13986856463407835E-011  0.13555506457648260E-011 -0.42214728988589216E-010 -0.70564788746564777E-010 -0.84655750148327168E-010 -0.89249261044456688E-010 -0.86032529128874809E-010 -0.40593567758014389E-008 -0.65410143245051397E-008 -0.73026683909034281E-008 -0.69339241586044445E-008 -0.58418550341565974E-008 -0.61917141611811060E-006 -0.10102753443765669E-005 -0.11569744551025665E-005 -0.11424203242211460E-005 -0.10161051520335916E-005 -0.28689073590243652E-005 -0.46831986037961572E-005 -0.53680849434384696E-005 -0.53077043611149043E-005 -0.47292507311693861E-005 -0.30133345537009938E-007 -0.49765411051885206E-007 -0.58366929009574830E-007 -0.59682627396530390E-007 -0.55536360391906015E-007  0.15263303330608940E-008  0.25207661784666637E-008  
0.29565080682163521E-008  0.30232239167009104E-008  0.28132743721366869E-008 -0.76025371614817246E-010 -0.12555747881630012E-009 -0.14726146098610161E-009 -0.15058453392235365E-009 -0.14012711041417614E-009 -0.99526779368734435E-006 -0.14516419403957199E-005 -0.13687190494408229E-005 -0.10129310185498613E-005 -0.61674468806344919E-006  </sparseX_slice>
        <sparseX_slice start="501" end="550"> -0.37835971172607279E-005 -0.56817902480331018E-005 -0.55181041136920688E-005 -0.42849712041192527E-005 -0.28017723268447055E-005 -0.37282994513782084E-005 -0.58525108394941568E-005 -0.62011251086573135E-005 -0.54435577432330234E-005 -0.41328379607367240E-005  0.22757475942774142E-006  0.35701002970448767E-006  0.37777959563046261E-006  0.33093318443498596E-006  0.25048989438508145E-006 -0.12842766843991749E-007 -0.20147188277778621E-007 -0.21319230937598783E-007 -0.18675479920459144E-007 -0.14135766783664897E-007  0.48044690448905250E-009  0.75370473829620389E-009  0.79755075930863466E-009  0.69864823629907460E-009  0.52881791959190825E-009  0.15378201131172363E-005 -0.55701997999244264E-013 -0.67064466599386699E-013 -0.71039569071815487E-013 -0.68848732365603032E-013  0.21440958972776381E-011  0.35840020217620124E-011  0.42996852264782912E-011  0.45329907125045334E-011  0.43696121507786638E-011  0.20617567415710926E-009  0.33221963786495364E-009  
0.37090422492532749E-009  0.35217561965592295E-009  0.29670917499240126E-009  0.31447860138324490E-007  0.51312119558470267E-007  0.58763001488984807E-007  0.58023793798038584E-007  0.51608216842536192E-007  0.14571247158347173E-006  0.23786074559934917E-006  0.27264628197543685E-006  0.26957953816187962E-006  0.24019974384387713E-006  </sparseX_slice>
        <sparseX_slice start="551" end="600">  0.15304796237023436E-008  0.25275967942645762E-008  0.29644698905587000E-008  0.30312945174031141E-008  0.28207046524806640E-008 -0.77522672380317017E-010 -0.12803030010422353E-009 -0.15016173196269187E-009 -0.15355024541212132E-009 -0.14288685924306804E-009  0.38613462948535910E-011  0.63770935323159665E-011  0.74794438313067393E-011  0.76482234780278836E-011  0.71170885073258062E-011  0.50549882570948535E-007  0.73729231556809101E-007  0.69517558650992676E-007  0.51447001866011145E-007  0.31324606055150273E-007  0.19216977700515461E-006  0.28857944731209380E-006  0.28026579050141119E-006  0.21763468340591218E-006  0.14230266768929700E-006  0.18936119570217408E-006  0.29725038583286729E-006  0.31495658558952959E-006  0.27647956301583338E-006  0.20990780061089079E-006 -0.11558574926416279E-007 -0.18132622388279876E-007 -0.19187513468975385E-007 -0.16808173355699889E-007 -0.12722439956550783E-007  0.65228711304386426E-009  0.10232803754251118E-008  
0.10828086945265082E-008  0.94853196587070437E-009  0.71795888048285505E-009 -0.34509653419066661E-010 -0.54137281468136257E-010 -0.57286663792384358E-010 -0.50182670073857514E-010 -0.37984058083581739E-010  0.12393837570570046E-011  0.19442927023290085E-011  0.20573999900059712E-011  0.18022663229508325E-011  0.13641639353015108E-011  </sparseX_slice>
        <sparseX_slice start="601" end="650"> -0.76598040854805264E-007  0.27744883046116696E-014  0.33404471099499943E-014  0.35384449505217462E-014  0.34293204839489586E-014 -0.10679633055610351E-012 -0.17851732523523110E-012 -0.21416514313431432E-012 -0.22578597121287023E-012 -0.21764816781236739E-012 -0.10269505891908772E-010 -0.16547691876890011E-010 -0.18474551562770251E-010 -0.17541689221236719E-010 -0.14778933708957996E-010 -0.15664019836421149E-008 -0.25558306831604673E-008 -0.29269553378906860E-008 -0.28901357772487058E-008 -0.25705791388921656E-008 -0.72578643992247814E-008 -0.11847723250439951E-007 -0.13580373196791935E-007 -0.13427620240891043E-007 -0.11964227568184448E-007 -0.76232414795359015E-010 -0.12589831597344425E-009 -0.14765874360269865E-009 -0.15098724441594058E-009 -0.14049786991800547E-009  0.38613650423159183E-011  0.63771243947103980E-011  0.74794798049500473E-011  0.76482599434215598E-011  0.71171220798567989E-011 -0.19233170298976185E-012 -0.31763979854125556E-012 
-0.37254730854074067E-012 -0.38095413724893541E-012 -0.35449857340356458E-012 -0.25178640449215783E-008 -0.36724156764564867E-008 -0.34626343824318342E-008 -0.25625491025746399E-008 -0.15602627601931957E-008 -0.95718792494278408E-008 -0.14373996091299394E-007 -0.13959897056824594E-007 -0.10840273338054023E-007 -0.70880237944844743E-008  </sparseX_slice>
